svm_type c_svc
kernel_type rbf
gamma 0.125
nr_class 2
total_sv 1740
rho 0.675717
label -1 1
probA -1.50735
probB 0.166791
nr_sv 931 809
SV
0.1619572132459041 1:0.0566377 2:-0.535528 3:0.686071 4:0.552334 5:-0.83373 6:-0.00926668 7:-0.145886 8:-0.1063 9:0.695276 10:0.575047 11:-0.818127 12:-0.0115334 13:0.171024 14:-0.0577024 15:0.00875599 16:0.0186544 17:-0.0026247 18:-0.0117536 19:-0.313987 20:0.54784 21:-0.734068 22:1 23:0.551848 
2 1:0.957058 2:-0.835586 3:0.907042 4:0.957677 5:-0.287861 6:0.0113064 7:0.597673 8:-0.690302 9:0.897547 10:0.948229 11:-0.317593 12:0.0121633 13:0.156223 14:-0.0570022 15:-0.00993319 16:0.00197489 17:-0.026449 18:-0.0101687 19:0.96854 20:0.816844 21:-0.762568 22:1 23:-1 
0.1748438623289938 1:0.046904 2:-0.717772 3:0.335061 4:-0.185258 5:-0.326066 6:0.85 7:0.0703346 8:-0.542869 9:-0.567576 10:-0.208409 11:-0.978058 12:-0.280906 13:0.0422278 14:-0.0352203 15:-0.902349 16:-0.00512081 17:-0.354093 18:-0.584406 19:-0.0797865 20:0.530188 21:-0.975565 22:0.876288 23:1 
1.433021125519512 1:-0.00797881 2:-0.452327 3:0.340085 4:-0.480247 5:-0.87725 6:-0.475 7:0.112473 8:-0.34523 9:0.273136 10:-0.408584 11:-0.472982 12:0.7 13:0.0444354 14:-0.0954644 15:-0.0673303 16:0.044045 17:0.202016 18:0.585571 19:-0.430149 20:0.496009 21:-0.960096 22:0.176707 23:1 
2 1:-0.96638 2:-0.0893834 3:-0.980624 4:-9.91555e-07 5:3.37224e-05 7:-0.845119 8:0.0497956 9:0.309098 10:-1.70105e-05 11:-5.4073e-06 12:2.88658e-15 13:-0.060724 14:-0.109173 15:-0.711724 16:0.00687367 17:-0.0107897 18:-0.0106035 19:0.655641 20:0.0212751 21:-0.969923 22:-0.64257 23:-0.241379 
2 1:-0.882919 2:0.650487 3:-0.746925 4:-9.91555e-07 5:3.37224e-05 7:-0.830659 8:0.516171 9:0.574514 10:-1.70105e-05 11:-5.4073e-06 12:2.88658e-15 13:0.0134142 14:-0.0136128 15:-0.680036 16:0.00687367 17:-0.0107897 18:-0.0106035 19:0.732227 20:-0.162922 21:-0.99905 22:0.159677 23:-0.655172 
2 1:-0.476249 2:-0.409018 3:0.565127 4:0.204038 5:-0.978991 6:-0.00265567 7:-0.556646 8:0.265076 9:0.569128 10:0.214977 11:-0.976629 12:-0.000579269 13:0.237064 14:-0.0575077 15:0.003558 16:0.0125519 17:-0.0096094 18:-0.00954993 19:-0.0403944 20:0.182539 21:-0.606903 22:1 23:0.237611 
0.09375985855204724 1:-0.137934 2:0.234477 3:-0.235559 4:0.740381 5:-0.672267 6:-3.93257e-07 7:0.429539 8:-0.455963 9:0.765669 10:-0.740411 11:0.672186 12:-1.53802e-05 13:0.367389 14:-0.0573743 15:1 16:-0.760956 17:0.697072 18:-0.0106111 19:-0.622652 20:-0.296098 21:-0.355956 22:1 23:0.241379 
2 1:-0.322989 2:0.914289 3:0.905613 4:-9.91555e-07 5:3.37224e-05 7:-0.217368 8:0.775549 9:0.660439 10:-1.70105e-05 11:-5.4073e-06 12:2.88658e-15 13:-0.074663 14:-0.0199139 15:-0.245424 16:0.00687367 17:-0.0107897 18:-0.0106035 19:0.308579 20:-0.362417 21:-0.964497 22:-0.0763052 23:-0.241379 
2 1:-0.607955 2:0.761164 3:-0.571785 4:0.220006 5:0.975698 6:0.00669173 7:-0.659688 8:0.283512 9:-0.577865 10:0.239849 11:0.970808 12:0.00131733 13:0.164665 14:-0.057131 15:-0.00649436 16:0.0171695 17:-0.0132599 18:-0.0133303 19:0.434134 20:-0.242765 21:-0.746312 22:1 23:-0.50412 
2 1:-0.619949 2:0.133848 3:-0.108932 4:0.942868 5:-0.333189 6:0.4 7:0.272811 8:0.216708 9:-0.986104 10:-0.998926 11:-0.0470682 12:-0.0126415 13:0.388502 14:0.134526 15:-0.876897 16:-1 17:0.139854 18:-0.219971 19:0.0686269 20:-0.0534443 21:-0.245816 22:1 23:0.241379 
2 1:-0.78535 2:-0.151114 3:-0.359775 4:-0.429292 5:0.903354 6:-0.0321664 7:-0.648282 8:-0.443656 9:0.641283 10:-0.42884 11:0.903393 12:-0.4 13:0.106787 14:-0.0573681 15:0.999833 16:0.00711964 17:-0.010671 18:-0.197236 19:0.352397 20:0.0448294 21:-0.857758 22:-0.550201 23:1 
2 1:-0.213536 2:-0.666041 3:0.417338 4:-9.91555e-07 5:3.37224e-05 6:1 7:-0.275711 8:-0.523351 9:-0.29394 10:-1.70105e-05 11:-5.4073e-06 12:2.88658e-15 13:0.0216203 14:-0.0041084 15:-0.711145 16:0.00687367 17:-0.0107897 18:-0.517986 19:-0.0776109 20:0.373461 21:-0.976219 22:0.248996 23:-0.655172 
1.411988804874765 1:0.23764 2:0.446896 3:0.922703 4:0.970665 5:-0.240442 6:0.000181746 7:-0.107171 8:0.56058 9:0.922311 10:0.970028 11:-0.242999 12:-0.0119524 13:0.160849 14:-0.0573429 15:-0.000838836 16:0.00654337 17:-0.0121361 18:-0.0167601 19:-0.290924 20:-0.695401 21:-0.75366 22:1 23:1 
2 1:0.947389 2:0.675599 3:-0.843502 4:-9.91555e-07 5:3.37224e-05 7:0.814292 8:0.566356 9:-0.784311 10:-1.70105e-05 11:-5.4073e-06 12:2.88658e-15 13:0.047047 14:-0.0455337 15:0.0587288 16:0.00687367 17:-0.0107897 18:-0.0106035 19:0.854705 20:-0.842273 21:-0.971038 22:-0.504593 23:-0.241379 
2 1:0.884725 2:0.420508 3:0.177705 4:-0.635391 5:-0.398507 7:0.847342 8:0.566604 9:0.553773 10:0.0628662 11:-0.369698 12:-0.85 13:0.0100203 14:-0.00477431 15:0.375334 16:0.368953 17:0.00436568 18:-0.441879 19:0.618919 20:-0.889525 21:-0.989528 22:0.550245 23:1 
2 1:0.499411 2:-0.56376 3:0.354584 4:-0.439841 5:-0.898195 6:-0.0502053 7:0.562807 8:-0.332677 9:0.359188 10:-0.428077 11:-0.903766 12:-0.4 13:0.0755043 14:-0.0575304 15:0.0041645 16:0.0129857 17:-0.0137791 18:-0.188083 19:0.120281 20:0.778727 21:-0.917996 22:-0.12847 23:1 
2 1:0.0874448 2:-0.88024 3:0.72164 4:0.0802217 5:-0.0958436 6:0.854377 7:-0.0031773 8:-0.715249 9:-0.244654 10:0.719961 11:-0.69402 12:-0.4 13:0.0564298 14:-0.0586473 15:-0.965962 16:0.338604 17:-0.325737 18:-0.647053 19:0.138913 20:0.544067 21:-0.954707 22:0.959668 23:1 
2 1:0.0909393 2:-0.885965 3:0.716254 4:-9.91555e-07 5:3.37224e-05 7:0.012049 8:-0.740617 9:-0.284105 10:-1.70105e-05 11:-5.4073e-06 12:2.88658e-15 13:0.0469412 14:-0.0573743 15:-1 16:0.00687367 17:-0.0107897 18:-0.0106035 19:0.147146 20:0.545431 21:-0.972996 22:-0.0563959 23:-0.655172 
0.4234497697511158 1:0.521231 2:0.448116 3:-0.466441 4:-0.108652 5:0.994283 6:-0.4 7:0.271851 8:0.135434 9:-0.602256 10:0.313406 11:0.949617 12:-0.4 13:0.086533 14:-0.200037 15:-0.136127 16:0.225732 17:-0.0342019 18:-0.0106035 19:0.0692338 20:-0.815911 21:-0.77578 22:1 23:1 
2 1:0.249266 2:-0.797981 3:0.372268 4:0.340666 5:0.806131 6:0.55 7:0.143816 8:-0.830353 9:-0.853862 10:0.559414 11:0.278695 12:0.7 13:-0.0511917 14:-0.0137919 15:0.774417 16:0.120306 17:-0.288412 18:0.065504 19:0.109076 20:0.627814 21:-0.992934 22:-0.481928 23:1 
2 1:0.237751 2:0.691368 3:0.857138 4:0.22526 5:-0.108418 6:0.925 7:0.121076 8:0.551029 9:0.229428 10:-1.70105e-05 11:-5.4073e-06 12:-0.4 13:0.0120685 14:0.019957 15:-0.627652 16:-0.109932 17:0.0463043 18:-0.682886 19:-0.0129773 20:-0.63661 21:-0.94859 22:0.666667 23:-0.655172 
2 1:0.0804628 2:-0.834447 3:0.84917 4:0.889911 5:-0.456177 6:-0.0140911 7:-0.305559 8:-0.550327 9:0.866281 10:0.912545 11:-0.408982 12:-0.00056356 13:0.204185 14:-0.057998 15:0.0166527 16:0.0186106 17:0.0140415 18:-0.00373982 19:0.0780706 20:0.542944 21:-0.670213 22:1 23:-0.262804 
2 1:0.70574 2:0.0103082 3:-0.281558 4:-9.91555e-07 5:3.37224e-05 7:0.765206 8:0.134719 9:0.0567983 10:-1.70105e-05 11:-5.4073e-06 12:2.88658e-15 13:-0.0238371 14:0.01001 15:0.33766 16:0.00687367 17:-0.0107897 18:-0.0106035 19:0.212046 20:-0.994871 21:-0.975699 22:-0.232932 23:-0.655172 
1.336142374223757 1:-0.737166 2:0.932285 3:-0.857945 4:0.900151 5:0.435687 6:-0.4 7:-0.77375 8:0.742422 9:0.262608 10:0.67834 11:0.734743 12:-0.4 13:0.0446161 14:-0.00595847 15:-0.880759 16:-0.108141 17:0.146731 18:-0.0106035 19:0.749927 20:-0.244018 21:-0.946835 22:0.811245 23:1 
2 1:-0.0822252 2:-0.621583 3:0.0689667 4:-0.122021 5:-0.0271016 6:1 7:-0.0623768 8:-0.471343 9:0.685352 10:-1.70105e-05 11:-5.4073e-06 12:-0.4 13:0.00187713 14:-0.00327791 15:0.61546 16:0.0701456 17:0.00349565 18:-0.720939 19:-0.197734 20:0.446968 21:-0.993654 22:0.261044 23:-0.655172 
0.4634533323068186 1:0.276822 2:-0.321623 3:0.862575 4:0.908313 5:-0.418329 6:0.4 7:0.137038 8:-0.232823 9:0.92153 10:0.96943 11:-0.245375 12:-0.102619 13:0.0572922 14:-0.0567894 15:0.0584623 16:0.0385653 17:0.080261 18:-0.265623 19:-0.377578 20:0.776143 21:-0.95306 22:0.546185 23:1 
1.159889999653977 1:0.758002 2:0.321358 3:-0.334845 4:-0.498586 5:0.867022 6:-0.475 7:0.696547 8:0.135834 9:0.290501 10:0.229298 11:0.296715 12:0.85 13:0.0349982 14:-0.112409 15:0.624422 16:0.384314 17:-0.31098 18:0.661679 19:0.369683 20:-0.900358 21:-0.956684 22:-0.141288 23:1 
2 1:0.133275 2:-0.251685 3:-0.556101 4:-0.118065 5:-0.677368 7:0.0407009 8:-0.159583 9:-0.149146 10:-1.70105e-05 11:-5.4073e-06 12:2.88658e-15 13:-0.0397089 14:-0.113007 15:0.406208 16:0.0680944 17:0.345826 18:-0.0106035 19:-0.614948 20:0.702271 21:-0.987254 22:0.618474 23:-0.655172 
2 1:0.128994 2:-0.269161 3:0.77135 4:-9.91555e-07 5:3.37224e-05 7:0.0407009 8:-0.159583 9:-0.149146 10:-1.70105e-05 11:-5.4073e-06 12:2.88658e-15 13:0.0418516 14:-0.0573743 15:-0.920202 16:0.00687367 17:-0.0107897 18:-0.0106035 19:-0.600474 20:0.687253 21:-0.982796 22:0.0803213 23:-0.655172 
2 1:0.0135084 2:-0.622731 3:-0.0498941 4:-0.988116 5:0.153781 6:0.4 7:0.160644 8:-0.49944 9:-0.906011 10:-0.955813 11:-0.294091 12:0.4 13:0.0499442 14:0.000593282 15:-0.85586 16:0.0236404 17:-0.246575 18:-0.0106035 19:-0.207312 20:0.511991 21:-0.931678 22:0.678715 23:1 
0.3604907269293041 1:0.805529 2:0.826425 3:-0.569044 4:0.211603 5:0.977555 6:0.0845424 7:0.744469 8:0.606654 9:-0.586623 10:0.266443 11:0.963848 12:0.4 13:0.065665 14:-0.0567008 15:-0.0179841 16:0.0353165 17:-0.0179024 18:0.149454 19:0.756613 20:-0.789878 21:-0.936937 22:0.345382 23:1 
1.627868952755947 1:-0.411105 2:0.380281 3:-0.667264 4:-0.373661 5:-0.650361 6:2.2911e-09 7:-0.636531 8:-0.198531 9:-0.666846 10:0.498208 11:0.867053 12:3.81058e-08 13:0.232538 14:-0.0573743 15:-1.14994e-09 16:0.458974 17:0.788144 18:-0.0106034 19:-0.146488 20:-0.197082 21:-0.615619 22:1 23:1 
2 1:-0.990153 2:0.130544 3:-0.0337781 4:-9.91555e-07 5:3.37224e-05 7:-0.852396 8:0.132945 9:-0.00375144 10:-1.70105e-05 11:-5.4073e-06 12:2.88658e-15 13:0.0326669 14:-0.0519335 15:0.0295736 16:0.00687367 17:-0.0107897 18:-0.0106035 19:0.702372 20:-0.0326561 21:-1 22:-0.313253 23:-0.241379 
0.9663525217796931 1:0.263084 2:0.27579 3:0.33509 4:-0.493939 5:-0.869612 6:0.475 7:0.252957 8:0.449257 9:-0.59778 10:-0.225054 11:-0.715454 12:-0.625 13:0.0388027 14:-0.0211639 15:-0.932559 16:0.146311 17:0.0703251 18:-0.568725 19:-0.424691 20:-0.785657 21:-0.971123 22:-0.670683 23:1 
2 1:0.903681 2:-0.385902 3:-0.902031 4:0.951633 5:0.307323 6:-0.010632 7:0.530856 8:-0.526715 9:0.109921 10:0.940739 11:0.339126 12:0.00437876 13:0.16557 14:-0.0577762 15:-0.989272 16:0.00122517 17:0.00600262 18:-0.00298728 19:0.630748 20:0.90335 21:-0.744569 22:1 23:-1 
2 1:0.208 2:0.77742 3:0.953863 4:-9.91555e-07 5:3.37224e-05 6:1 7:0.105044 8:0.720297 9:0.120695 10:-1.70105e-05 11:-5.4073e-06 12:2.88658e-15 13:0.0300286 14:-0.0279709 15:-0.832947 16:0.00687367 17:-0.0107897 18:-0.517986 19:0.0717868 20:-0.609132 21:-0.991735 22:0.104418 23:-0.655172 
2 1:0.795592 2:-0.0497774 3:0.675139 4:0.523409 5:-0.852193 6:-0.103276 7:0.681839 8:0.150788 9:-0.296604 10:0.59773 11:-0.801703 12:-0.4 13:0.0687957 14:-0.0584443 15:-0.971407 16:0.0454155 17:0.0157422 18:-0.161156 19:0.368393 20:0.98774 21:-0.930903 22:-0.586345 23:1 
2 1:0.639092 2:-0.92985 3:0.358267 4:-0.32207 5:-0.677408 6:-0.4 7:0.518582 8:-0.650198 9:-0.393646 10:0.329753 11:-0.944075 12:0.261252 13:0.0516124 14:0.0391221 15:-0.751747 16:0.344873 17:-0.151236 18:0.324905 19:0.625943 20:0.737635 21:-0.880949 22:1 23:-0.778883 
2 1:0.614373 2:0.470987 3:0.735405 4:0.674309 5:-0.738541 6:0.4 7:0.48533 8:0.504361 9:-0.086774 10:0.722533 11:-0.201102 12:-0.625 13:0.0302148 14:-0.0221893 15:-0.821963 16:0.0318821 17:0.272147 18:-0.530671 19:0.221956 20:-0.832185 21:-0.986013 22:0.963855 23:1 
0.7804884199025196 1:0.110159 2:-0.2539 3:0.6274 4:0.390326 5:-0.920799 6:-0.4 7:0.0679936 8:-0.0202135 9:0.527094 10:0.0740373 11:-0.871872 12:-0.15937 13:0.0696474 14:-0.0726714 15:-0.100666 16:-0.157126 17:0.0149137 18:0.111488 19:-0.634725 20:0.67368 21:-0.927115 22:-0.277108 23:1 
2 1:-0.569113 2:0.642698 3:-0.682434 4:-9.91555e-07 5:3.37224e-05 7:-0.609319 8:0.501776 9:-0.682016 10:-1.70105e-05 11:-5.4073e-06 12:2.88658e-15 13:0.044924 14:-0.0573744 15:-8.1613e-08 16:0.00687367 17:-0.0107897 18:-0.0106035 19:0.28038 20:-0.226684 21:-0.97688 22:-0.0870307 23:-0.655172 
2 1:0.0325647 2:-0.843235 3:-0.0803312 4:-0.968944 5:0.247362 6:0.4 7:0.18243 8:-0.791175 9:-0.969289 10:-0.995052 11:-0.0997029 12:0.4 13:0.0530879 14:-0.0214212 15:-0.888674 16:-0.00664742 17:-0.193489 18:-0.0106035 19:0.0816882 20:0.518605 21:-0.947037 22:-0.26506 23:1 
2 1:-0.228642 2:-0.215342 3:-0.21355 4:-0.588766 5:0.464716 7:-0.103798 8:-0.134858 9:-0.817939 10:-0.10492 11:-0.0679812 12:2.88658e-15 13:0.0117636 14:0.00555197 15:-0.604331 16:0.257774 17:-0.291212 18:-0.0106035 19:-0.536723 20:0.195306 21:-0.971911 22:0.51004 23:1 
2 1:0.965643 2:0.123614 3:0.0312429 4:-9.91555e-07 5:3.37224e-05 7:0.858824 8:0.25663 9:-0.344317 10:-1.70105e-05 11:-5.4073e-06 12:2.88658e-15 13:-0.0480756 14:-0.000307664 15:-0.375689 16:0.00687367 17:-0.0107897 18:-0.0106035 19:0.669608 20:-0.968296 21:-0.977419 22:-0.401606 23:-0.241379 
1.97311872812888 1:-0.230635 2:-0.798899 3:-0.108198 4:-0.943635 5:0.331084 6:0.4 7:-0.077769 8:-0.834118 9:-0.0372113 10:-0.993329 11:0.115604 12:0.161184 13:0.0572607 14:-0.0497477 15:0.0705024 16:-0.018878 17:-0.124198 18:-0.131774 19:0.0943539 20:0.385028 21:-0.952495 22:-0.383953 23:1 
2 1:0.560629 2:0.0224528 3:0.91491 4:-9.91555e-07 5:3.37224e-05 6:-1 7:0.44259 8:-0.0673513 9:0.191892 10:-1.70105e-05 11:-5.4073e-06 12:2.88658e-15 13:0.0231739 14:-0.00573734 15:-0.722885 16:0.00687367 17:-0.0107897 18:0.496779 19:-0.0382825 20:-0.988306 21:-0.976555 22:-0.658635 23:-0.655172 
2 1:-0.374525 2:0.936927 3:-0.456549 4:-0.0697324 5:0.495232 6:-0.55 7:-0.252192 8:0.460281 9:-0.410516 10:-0.279353 11:0.960196 12:-0.308766 13:0.164947 14:-0.0262075 15:0.0455751 16:-0.101811 17:0.234093 18:0.111794 19:0.374384 20:-0.346677 21:-0.741517 22:1 23:-1 
2 1:0.324952 2:0.929956 3:0.51582 4:0.0253495 5:-0.499408 6:-0.775 7:0.18035 8:-0.0402769 9:0.477547 10:0.070723 11:0.997496 12:0.183059 13:-0.371757 14:0.0378489 15:-0.0386812 16:0.0304092 17:0.777358 18:0.475499 19:0.33291 20:-0.63839 21:-0.39014 22:1 23:0.241379 
2 1:-0.153539 2:-0.890452 3:0.482643 4:-9.91555e-07 5:3.37224e-05 7:-0.173447 8:-0.742398 9:0.590112 10:-1.70105e-05 11:-5.4073e-06 12:2.88658e-15 13:0.0330275 14:-0.0384632 15:0.106944 16:0.00687367 17:-0.0107897 18:-0.0106035 19:0.170542 20:0.430119 21:-0.994166 22:0.00803213 23:-0.241379 
2 1:0.935162 2:0.89613 3:-0.801538 4:-0.303508 5:-0.220251 7:-0.16332 8:-0.904907 9:-0.0996707 10:-1.70105e-05 11:-5.4073e-06 12:2.88658e-15 13:0.814638 14:0.188441 15:0.700889 16:0.164253 17:0.105179 18:-0.0106035 19:0.990455 20:-0.800314 21:0.562248 22:0.678715 23:1 
1.08660945958167 1:-0.151515 2:0.905423 3:0.766228 4:-0.371248 5:0.335017 6:-0.55 7:-0.0832778 8:-0.0379685 9:-0.985507 10:-1.70105e-05 11:-5.4073e-06 12:2.88658e-15 13:-0.272853 14:0.205459 15:0.249225 16:0.199379 17:-0.187141 18:0.268457 19:0.203108 20:-0.432202 21:-0.419172 22:1 23:1 
2 1:0.213452 2:-0.543495 3:0.823073 4:-0.844739 5:0.524526 7:-0.257899 8:-0.139349 9:0.645915 10:-1.70105e-05 11:-5.4073e-06 12:2.88658e-15 13:0.262291 14:-0.0573743 15:-0.177461 16:0.444901 17:-0.286907 18:-0.0106035 19:-0.217748 20:0.656682 21:-0.558327 22:1 23:1 
2 1:-0.582741 2:0.428703 3:-0.342025 4:0.478922 5:-0.877973 6:2.88658e-15 7:-0.154087 8:-0.579483 9:0.767255 10:-1.70105e-05 11:-5.4073e-06 12:2.88658e-15 13:0.411505 14:-0.0573743 15:-0.892033 16:-0.241465 17:0.451434 18:-0.0106035 19:0.138074 20:-0.163561 21:-0.271007 22:0.678715 23:1 
1.651782554916283 1:-0.944093 2:0.0976331 3:-0.972069 4:0.124466 5:0.0115732 6:1 7:-0.582963 8:-0.454245 9:0.375105 10:-1.70105e-05 11:-5.4073e-06 12:2.88658e-15 13:-0.160008 14:0.18541 15:-0.654318 16:-0.0576667 17:-0.0168646 18:-0.517986 19:0.619097 20:-0.0259285 21:-0.58706 22:0.35743 23:1 
2 1:-0.437737 2:-0.732011 3:0.0981921 4:0.952172 5:0.305648 7:0.961285 8:-0.116866 9:0.952937 10:-1.70105e-05 11:-5.4073e-06 12:2.88658e-15 13:0.719429 14:-0.0573743 15:0.853629 16:-0.486862 17:-0.17168 18:-0.0106035 19:0.196521 20:0.287226 21:0.321915 22:1 23:1 
2 1:-0.606472 2:0.929972 3:0.724889 4:-9.91555e-07 5:3.37224e-05 6:0.621719 7:0.961285 8:-0.116866 9:0.952937 10:-1.70105e-05 11:-5.4073e-06 12:2.88658e-15 13:-0.819796 14:-0.434433 15:0.227422 16:0.00687367 17:-0.0107897 18:-0.326053 19:0.592685 20:-0.27474 21:0.587777 22:0.678715 23:1 
2 1:0.933172 2:0.402981 3:0.174231 4:0.0266531 5:0.0163498 6:-0.8875 7:0.451764 8:-0.751492 9:-0.303358 10:-1.70105e-05 11:-5.4073e-06 12:2.88658e-15 13:-0.43504 14:-0.329806 15:-0.477639 16:-0.00694742 17:-0.0193792 18:0.439699 19:0.690595 20:-0.89888 21:-0.157552 22:-0.285141 23:1 
2 1:0.0555079 2:0.186183 3:-0.336532 4:0.493988 5:-0.869583 7:0.508056 8:-0.895558 9:-0.176993 10:-1.70105e-05 11:-5.4073e-06 12:2.88658e-15 13:0.448243 14:-0.0573743 15:0.158987 16:-0.249277 17:0.447017 18:-0.0106035 19:-0.743313 20:-0.622252 21:-0.200268 22:1 23:1 
0.01980948233884773 1:0.417803 2:-0.896518 3:-0.0744906 4:0.486656 5:-0.114726 6:-0.55 7:-0.324679 8:0.894411 9:0.581611 10:-1.70105e-05 11:-5.4073e-06 12:2.88658e-15 13:-0.528731 14:0.557362 15:0.655147 16:-0.245476 17:0.0496254 18:0.268457 19:0.35828 20:0.67877 21:0.366382 22:0.35743 23:1 
1.552586104655903 1:0.319334 2:0.677655 3:-0.187359 4:0.62493 5:-0.414721 6:-0.125558 7:0.991808 8:0.0284491 9:0.493669 10:-0.0202074 11:-0.999809 12:2.88658e-15 13:0.405424 14:-0.0674434 15:0.680056 16:-0.327645 17:-0.318873 18:0.0531025 19:0.0382124 20:-0.677828 21:-0.282525 22:0.678715 23:1 
2 1:0.842858 2:-0.585615 3:0.818187 4:-9.91555e-07 5:3.37224e-05 6:0.85 7:-0.981556 8:0.30512 9:-0.499115 10:0.00496175 11:-1 12:2.88658e-15 13:0.927996 14:0.180527 15:0.683309 16:0.00945529 17:-0.53732 18:-0.441879 19:0.633231 20:0.848874 21:0.770729 22:-0.285141 23:1 
0.2272669983144458 1:0.0875817 2:-0.893015 3:-0.330436 4:-0.0108025 5:0.0182291 6:-0.875389 7:0.496227 8:-0.116906 9:-0.719522 10:-1.70105e-05 11:-5.4073e-06 12:2.88658e-15 13:-0.15451 14:0.298268 15:-0.389198 16:0.0124747 17:-0.0203686 18:0.433554 19:0.155465 20:0.543514 21:-0.416875 22:0.0361446 23:1 
1.541385353699079 1:-0.671685 2:0.222358 3:-0.0696101 4:0.976715 5:-0.214546 7:0.496227 8:-0.116906 9:-0.719522 10:-1.70105e-05 11:-5.4073e-06 12:2.88658e-15 13:0.576098 14:-0.0573743 15:-0.64982 16:-0.499589 17:0.102175 18:-0.0106035 19:0.180312 20:-0.0798473 21:0.0459254 22:-0.606426 23:1 
1.127444633594883 1:-0.397168 2:0.531652 3:0.0715224 4:0.974389 5:0.224942 7:0.711861 8:0.873382 9:0.973167 10:-1.70105e-05 11:-5.4073e-06 12:2.88658e-15 13:0.552321 14:-0.0573743 15:0.900491 16:-0.498383 17:-0.129192 18:-0.0106035 19:-0.0355664 20:-0.254333 21:0.000139771 22:1 23:1 
2 1:-0.245601 2:0.885039 3:0.457223 4:0.0332056 5:0.247861 6:-0.925 7:0.711861 8:0.873382 9:0.973167 10:-1.70105e-05 11:-5.4073e-06 12:2.88658e-15 13:0.0450769 14:-0.58037 15:0.515092 16:-0.0103452 17:-0.141257 18:0.458726 19:0.222441 20:-0.38965 21:-0.170411 22:-0.285141 23:1 
2 1:-0.94647 2:0.102821 3:0.951241 4:0.185302 5:-0.0285893 6:0.9625 7:0.615151 8:0.488836 9:0.591826 10:-1.70105e-05 11:-5.4073e-06 12:2.88658e-15 13:-0.758588 14:-0.34192 15:-0.359574 16:-0.0892128 17:0.00427882 18:-0.498959 19:0.623762 20:-0.0271754 21:0.419188 22:0.678715 23:1 
2 1:-0.179058 2:0.0655274 3:-0.873712 4:0.920598 5:0.390611 6:0.4 7:-0.533267 8:-0.398529 9:-0.890352 10:-1.70105e-05 11:-5.4073e-06 12:2.88658e-15 13:0.221916 14:0.0395025 15:-0.0170406 16:-0.47049 17:-0.216408 18:-0.213557 19:-0.695076 20:-0.0938937 21:-0.605646 22:1 23:1 
2 1:-0.898427 2:-0.311555 3:-0.354511 4:0.444153 5:-0.896069 6:0.4 7:0.450823 8:-0.794274 9:-0.74851 10:-1.70105e-05 11:-5.4073e-06 12:2.88658e-15 13:0.443267 14:0.509261 15:-0.394106 16:-0.223436 17:0.460961 18:-0.213557 19:0.585269 20:0.0808067 21:0.235497 22:0.35743 23:1 
2 1:-0.944242 2:-0.0825552 3:-0.981871 4:0.311905 5:0.0192937 7:0.373998 8:0.835171 9:-0.14046 10:-0.904796 11:0.425913 12:2.88658e-15 13:-0.685588 14:-0.386282 15:0.840325 16:-0.624014 17:0.203331 18:-0.0106035 19:0.616884 20:0.0200276 21:0.317173 22:0.678715 23:1 
0.7704227811647526 1:0.310178 2:-0.68941 3:-0.485373 4:0.0494166 5:-0.998914 6:0.4 7:0.88462 8:-0.326753 9:0.282344 10:-1.70105e-05 11:-5.4073e-06 12:2.88658e-15 13:-0.132354 14:0.274875 15:0.766681 16:-0.0187511 17:0.515104 18:-0.213557 19:0.0305594 20:0.674385 21:-0.47091 22:1 23:1 
2 1:-0.406585 2:-0.830676 3:0.376016 4:0.378467 5:0.925806 6:0.475 7:-0.827217 8:0.210432 9:-0.886912 10:-1.70105e-05 11:-5.4073e-06 12:2.88658e-15 13:0.253962 14:0.328678 15:0.737648 16:-0.189376 17:-0.49816 18:-0.25161 19:0.269813 20:0.317605 21:-0.241096 22:1 23:1 
2 1:0.401892 2:-0.912268 3:-0.367468 4:-0.0763805 5:0.171301 6:0.9625 7:-0.827217 8:0.210432 9:-0.886912 10:-1.70105e-05 11:-5.4073e-06 12:2.88658e-15 13:-0.645316 14:-0.492299 15:-0.519451 16:0.0464792 17:-0.100953 18:-0.498959 19:0.361544 20:0.670841 21:0.336494 22:0.0361446 23:1 
0.9190025379306517 1:-0.174636 2:0.904855 3:0.577612 4:0.0908468 5:-0.363857 7:-0.884096 8:-0.812187 9:-0.779979 10:-1.70105e-05 11:-5.4073e-06 12:2.88658e-15 13:-0.54659 14:0.501562 15:0.643057 16:-0.0402342 17:0.18078 18:-0.0106035 19:0.211447 20:-0.421999 21:0.320432 22:1 23:1 
1.231848862052108 1:0.537967 2:0.436636 3:0.939793 4:0.736621 5:-0.141022 6:0.625 7:0.0957341 8:-0.0264213 9:0.839009 10:-1.70105e-05 11:-5.4073e-06 12:2.88658e-15 13:0.163015 14:0.173137 15:-0.10115 16:-0.375091 17:0.0634685 18:-0.327718 19:0.085622 20:-0.824135 21:-0.563268 22:0.35743 23:1 
2 1:0.320892 2:-0.891356 3:-0.462193 4:0.0102366 5:-0.0833385 6:-0.950781 7:-0.728018 8:-0.447045 9:-0.701447 10:-1.70105e-05 11:-5.4073e-06 12:2.88658e-15 13:-0.239945 14:-0.611459 15:-0.239484 16:0.00156513 17:0.0331014 18:0.471807 19:0.271206 20:0.644371 21:-0.0322782 22:0.678715 23:1 
2 1:-0.9493 2:0.383754 3:-0.991175 4:-0.24987 5:-0.00808017 6:0.925 7:-0.0912806 8:-0.317352 9:0.0647767 10:-1.70105e-05 11:-5.4073e-06 12:2.88658e-15 13:-0.423343 14:0.244325 15:-0.945306 16:0.13644 17:-0.00651814 18:-0.479933 19:0.699633 20:-0.0955446 21:-0.149156 22:0.678715 23:1 
2 1:0.566132 2:0.819467 3:0.314452 4:-0.549194 5:-0.835804 6:0.4 7:0.187418 8:0.574719 9:0.0518661 10:-1.70105e-05 11:-5.4073e-06 12:2.88658e-15 13:-0.191453 14:0.0563637 15:-0.262811 16:0.29165 17:0.429235 18:-0.213557 19:0.445276 20:-0.735738 21:-0.702872 22:-0.285141 23:1 
2 1:-0.0495268 2:0.799326 3:0.908926 4:0.959363 5:-0.282191 6:0.4 7:0.093384 8:0.197075 9:-0.730435 10:-1.70105e-05 11:-5.4073e-06 12:2.88658e-15 13:-0.146454 14:0.155713 15:0.361506 16:-0.490591 17:0.137786 18:-0.213557 19:0.0403144 20:-0.475598 21:-0.644879 22:-0.606426 23:1 
2 1:0.036366 2:0.821143 3:-0.36374 4:0.156755 5:-0.340689 6:0.85 7:0.71524 8:0.701762 9:0.882395 10:-1.70105e-05 11:-5.4073e-06 12:2.88658e-15 13:0.166443 14:0.266291 15:-0.755286 16:-0.0744098 17:0.168583 18:-0.441879 19:0.0678556 20:-0.519998 21:-0.427147 22:0.678715 23:1 
2 1:0.141036 2:-0.0132063 3:-0.471805 4:0.0918974 5:-0.995904 7:0.199521 8:-0.910531 9:-0.611249 10:-1.70105e-05 11:-5.4073e-06 12:2.88658e-15 13:0.321101 14:-0.0573743 15:-0.139752 16:-0.040779 17:0.513519 18:-0.0106035 19:-0.764079 20:0.988325 21:-0.445085 22:1 23:1 
2 1:0.284349 2:-0.88472 3:-0.321676 4:0.016686 5:-0.0263925 6:0.8875 7:0.737618 8:0.188403 9:-0.478152 10:-1.70105e-05 11:-5.4073e-06 12:2.88658e-15 13:-0.225001 14:0.391862 15:-0.156774 16:-0.00177912 17:0.00312234 18:-0.460906 19:0.237005 20:0.630845 21:-0.21063 22:-0.285141 23:1 
2 1:-0.469602 2:0.930678 3:-0.659544 4:-0.119267 5:-0.219721 6:-0.925 7:0.577118 8:0.256145 9:-0.895818 10:-1.70105e-05 11:-5.4073e-06 12:2.88658e-15 13:-0.0457486 14:0.576232 15:-0.236501 16:0.0687173 17:0.1049 18:0.458726 19:0.450868 20:-0.314104 21:0.0173417 22:1 23:1 
2 1:-0.0783749 2:0.812622 3:-0.979143 4:0.997535 5:0.0702135 6:0.4 7:-0.349799 8:0.251229 9:0.523828 10:-1.70105e-05 11:-5.4073e-06 12:2.88658e-15 13:0.138774 14:0.159211 15:-0.498646 16:-0.510385 17:-0.0477356 18:-0.213557 19:0.0625119 20:-0.461264 21:-0.611748 22:0.678715 23:1 
2 1:0.201423 2:0.73269 3:0.993227 4:0.99977 5:-0.0213997 6:0.4 7:-0.349799 8:0.251229 9:0.523828 10:-1.70105e-05 11:-5.4073e-06 12:2.88658e-15 13:0.257314 14:0.144741 15:-0.469471 16:-0.511544 17:0.000493889 18:-0.213557 19:0.0130242 20:-0.611899 21:-0.459867 22:-0.285141 23:1 
2 1:0.894764 2:0.0757984 3:0.678321 4:-0.531894 5:0.846989 6:0.41875 7:-0.349799 8:0.251229 9:0.523828 10:-1.70105e-05 11:-5.4073e-06 12:2.88658e-15 13:0.365698 14:0.478248 15:-0.154811 16:0.28268 17:-0.456667 18:-0.22307 19:0.542248 20:-0.978498 21:0.0979334 22:-0.606426 23:1 
2 1:-0.849873 2:0.346654 3:-0.715511 4:0.623331 5:0.782125 6:0.4 7:-0.299444 8:-0.349918 9:0.502474 10:-1.70105e-05 11:-5.4073e-06 12:2.88658e-15 13:0.0238332 14:0.345115 15:-0.783408 16:-0.316346 17:-0.422519 18:-0.213557 19:0.521143 20:-0.0965297 21:-0.385002 22:-0.606426 23:1 
2 1:0.315239 2:0.13916 3:0.913844 4:-0.963606 5:0.267412 6:0.4 7:-0.956393 8:0.079221 9:-0.283556 10:-1.70105e-05 11:-5.4073e-06 12:2.88658e-15 13:0.595267 14:0.155607 15:0.803113 16:0.506538 17:-0.15155 18:-0.213557 19:-0.431618 20:-0.894902 21:0.140595 22:1 23:1 
2 1:0.834494 2:-0.310627 3:0.703692 4:-0.522884 5:0.701736 7:0.265585 8:0.683784 9:-0.775467 10:-1.70105e-05 11:-5.4073e-06 12:2.88658e-15 13:0.442396 14:-0.0573743 15:0.521583 16:0.278007 17:-0.380199 18:-0.0106035 19:0.488175 20:0.915561 21:-0.211527 22:-0.285141 23:1 
2 1:-0.81539 2:0.885264 3:0.897024 4:0.711114 5:-0.238369 6:-0.625 7:-0.587541 8:-0.16952 9:-0.553873 10:-1.70105e-05 11:-5.4073e-06 12:2.88658e-15 13:-0.233817 14:0.315658 15:0.54982 16:-0.361865 17:0.114717 18:0.306511 19:0.809884 20:-0.219878 21:-0.318169 22:0.678715 23:1 
0.6414855083359204 1:0.9436 2:0.0878319 3:0.0444058 4:-0.185622 5:-0.0264483 6:-0.9625 7:-0.178938 8:0.151119 9:-0.298616 10:-1.70105e-05 11:-5.4073e-06 12:2.88658e-15 13:-0.560689 14:0.0527683 15:-0.343177 16:0.103125 17:0.00315172 18:0.477752 19:0.627571 20:-0.976575 21:-0.0287665 22:1 23:1 
2 1:0.83034 2:0.562956 3:0.804159 4:-0.74625 5:0.527195 6:0.4 7:0.106512 8:0.148304 9:0.506697 10:-1.70105e-05 11:-5.4073e-06 12:2.88658e-15 13:0.183184 14:0.304293 15:-0.297669 16:0.393831 17:-0.288312 18:-0.213557 19:0.607127 20:-0.84876 21:-0.353508 22:-0.285141 23:1 
2 1:0.27687 2:-0.893782 3:-0.269503 4:0.00519192 5:-0.00580412 6:-0.845312 7:0.922121 8:-0.131542 9:-0.762332 10:-1.70105e-05 11:-5.4073e-06 12:2.88658e-15 13:-0.00425264 14:0.418532 15:-0.492859 16:0.00418096 17:-0.00771636 18:0.418294 19:0.242831 20:0.626645 21:-0.260209 22:-0.285141 23:1 
2 1:-0.197226 2:0.836659 3:0.828597 4:0.107327 5:-0.0640538 6:0.775 7:0.168632 8:-0.297438 9:-0.0832848 10:-1.70105e-05 11:-5.4073e-06 12:2.88658e-15 13:-0.386983 14:0.237935 15:-0.911596 16:-0.0487795 17:0.022949 18:-0.403825 19:0.136095 20:-0.405516 21:-0.212953 22:0.678715 23:1 
0.1558603331067451 1:0.273357 2:-0.94781 3:0.51708 4:-9.91555e-07 5:3.37224e-05 6:-0.85 7:0.84695 8:0.518986 9:0.975424 10:-1.70105e-05 11:-5.4073e-06 12:2.88658e-15 13:0.508076 14:-0.413664 15:0.457538 16:0.00687367 17:-0.0107897 18:0.420672 19:0.305972 20:0.618734 21:0.0924797 22:1 23:1 
0.4266814780704755 1:0.0287212 2:0.717031 3:-0.305576 4:0.576013 5:-0.817545 6:-0.4 7:-0.129839 8:-0.27003 9:0.909267 10:-1.70105e-05 11:-5.4073e-06 12:2.88658e-15 13:0.236449 14:-0.362416 15:-0.786554 16:-0.29181 17:0.419622 18:0.19235 19:-0.0685711 20:-0.518435 21:-0.371738 22:1 23:1 
2 1:0.160082 2:0.870384 3:0.459704 4:-0.0327433 5:-0.259673 6:-0.917969 7:-0.815383 8:0.260628 9:-0.674469 10:-1.70105e-05 11:-5.4073e-06 12:2.88658e-15 13:-0.301609 14:0.449773 15:0.866298 16:0.0238517 17:0.125932 18:0.455158 19:0.16422 20:-0.576942 21:-0.0496737 22:1 23:1 
2 1:0.500244 2:-0.866639 3:-0.28065 4:-9.91555e-07 5:3.37224e-05 7:0.779396 8:0.143304 9:-0.29173 10:-1.70105e-05 11:-5.4073e-06 12:2.88658e-15 13:-0.206423 14:0.329911 15:-0.0114953 16:0.00687367 17:-0.0107897 18:-0.0106035 19:0.407862 20:0.710536 21:-0.323412 22:-0.606426 23:1 
2 1:0.535316 2:0.905165 3:0.288074 4:-0.231163 5:-0.295295 7:-0.560277 8:0.765312 9:0.286564 10:-1.70105e-05 11:-5.4073e-06 12:2.88658e-15 13:-0.393174 14:0.382194 15:-0.0019436 16:0.12674 17:0.144685 18:-0.0106035 19:0.496285 20:-0.711498 21:-0.0362349 22:-0.606426 23:1 
2 1:-0.93966 2:-0.580988 3:0.137612 4:0.566984 5:0.263049 6:-1.44329e-15 7:-0.721255 8:0.0678483 9:-0.218114 10:-0.775249 11:0.631691 12:2.88658e-15 13:0.166516 14:0.137634 15:-0.355873 16:-0.689108 17:0.183356 18:-0.0106035 19:0.771539 20:0.138712 21:-0.604082 22:1 23:1 
0.2350161382338256 1:0.57561 2:0.752844 3:-0.871829 4:-0.918276 5:-0.39598 6:0.0686034 7:-0.962993 8:-0.173492 9:-0.486457 10:0.0446828 11:-0.999013 12:2.88658e-15 13:0.82839 14:-0.0462221 15:0.38465 16:0.50621 17:-0.32832 18:-0.0454116 19:0.393914 20:-0.751758 21:0.531845 22:0.0361446 23:1 
0.2134810282850433 1:-0.0214547 2:0.0834138 3:0.85139 4:-0.893071 5:0.450031 6:-0.116739 7:-0.907358 8:0.729418 9:-0.717821 10:0.629996 11:0.776594 12:-0.322747 13:0.494953 14:-0.0690269 15:0.431602 16:0.796641 17:0.161216 18:-0.115128 19:-0.892795 20:-0.414549 21:-0.110112 22:0.0361446 23:1 
2 1:0.0816872 2:0.848669 3:0.489175 4:-0.0164587 5:-0.49978 6:0.55 7:-0.627605 8:-0.862092 9:-0.104505 10:0.946975 11:-0.321312 12:0.417013 13:-0.663441 14:0.314986 15:-0.593642 16:0.506449 17:0.0831572 18:-0.0780789 19:0.111206 20:-0.541521 21:0.312035 22:0.35743 23:1 
1.116180697338576 1:-0.560326 2:-0.443623 3:-0.236234 4:0.625645 5:-0.570507 6:0.11094 7:-0.113668 8:-0.940212 9:0.928721 10:0.974721 11:-0.223433 12:2.88658e-15 13:0.269075 14:-0.0515108 15:-0.836404 16:0.187882 17:0.171928 18:-0.0668927 19:0.106997 20:0.17097 21:-0.54517 22:1 23:1 
2 1:-0.0805875 2:-0.89215 3:-0.300871 4:0.294011 5:-0.404457 6:0.775 7:0.979408 8:-0.296682 9:-0.602606 10:0.314449 11:0.949272 12:0.4 13:0.12311 14:0.558345 15:-0.301918 16:0.0174771 17:0.701979 18:-0.200872 19:0.151549 20:0.463955 21:0.0174081 22:0.35743 23:1 
0.7811106516385665 1:-0.0759926 2:-0.888865 3:-0.480967 4:-0.00523375 5:0.0826458 6:-0.949316 7:0.698203 8:0.816874 9:-0.0659203 10:-0.978893 11:0.20453 12:9.99201e-15 13:-0.620879 14:0.414267 15:0.414294 16:-0.497987 17:0.0534138 18:0.471063 19:0.146399 20:0.465987 21:0.333167 22:0.0361446 23:1 
0.1079401228461939 1:-0.928415 2:0.200655 3:-0.0942659 4:0.35895 5:-0.108517 6:0.0610398 7:0.93398 8:-0.519825 9:0.500667 10:-0.00179419 11:1 12:1.42109e-14 13:0.948267 14:-0.0459641 15:0.594028 16:-0.180177 17:0.572893 18:-0.041574 19:0.608914 20:-0.0527095 21:0.762663 22:0.678715 23:1 
2 1:-0.97182 2:0.432675 3:-0.625791 4:-0.381441 5:-0.924517 6:-0.4 7:0.209068 8:-0.28353 9:-0.192047 10:0.824253 11:-0.566226 12:2.88658e-15 13:0.00931279 14:0.642664 15:0.432978 16:0.632071 17:0.177803 18:0.19235 19:0.756439 20:-0.104442 21:0.133323 22:1 23:1 
2 1:0.730798 2:0.0513373 3:0.903098 4:-0.954042 5:0.299764 6:-0.0695342 7:-0.94795 8:0.793389 9:0.419897 10:0.249101 11:0.968476 12:3.10862e-15 13:0.867345 14:-0.0692847 15:-0.48326 16:0.630753 17:0.341355 18:0.024677 19:0.25736 20:-0.98163 21:0.606865 22:0.678715 23:1 
0.02511741511759705 1:0.667219 2:-0.88379 3:-0.425272 4:0.0737055 5:-0.303701 6:-0.8875 7:-0.787704 8:-0.0621528 9:0.572994 10:-0.226845 11:0.973937 12:2.88658e-15 13:-0.480466 14:-0.7558 15:0.997043 16:-0.148962 17:0.661924 18:0.439699 19:0.616424 20:0.752589 21:0.421093 22:-0.285141 23:1 
0.08602010007744437 1:-0.947096 2:-0.122139 3:0.686092 4:0.0803763 5:-0.12128 6:0.987695 7:0.964587 8:0.200984 9:-0.151295 10:0.627424 11:-0.321873 12:2.88658e-15 13:-0.442877 14:-1 15:-0.837159 16:0.290541 17:-0.116398 18:-0.511743 19:0.625794 20:0.0299903 21:0.750486 22:0.0361446 23:1 
1.318626689744455 1:0.941507 2:-0.626784 3:-0.151462 4:-0.0738888 5:0.0378674 6:0.949609 7:-0.642901 8:0.315207 9:-0.664733 10:0.492447 11:0.870338 12:2.88658e-15 13:-0.875577 14:-0.112415 15:-0.513287 16:0.300543 17:0.427558 18:-0.492419 19:0.809625 20:0.854236 21:0.562749 22:1 23:1 
1.808934693587384 1:-0.414656 2:-0.504028 3:0.0745835 4:0.972183 5:0.234296 6:0.4 7:0.65673 8:0.676581 9:-0.766166 10:0.740159 11:0.672426 12:2.88658e-15 13:0.605641 14:0.271131 15:-0.840506 16:-0.113437 17:0.219941 18:-0.213557 19:-0.0491269 20:0.236277 21:0.234054 22:1 23:1 
2 1:0.163837 2:-0.158731 3:0.297704 4:0.59235 5:0.805851 6:0.120349 7:0.658989 8:0.815317 9:0.947536 10:-0.986244 11:0.165494 12:2.88658e-15 13:0.424386 14:-0.0467284 15:0.648877 16:-0.811668 17:-0.347869 18:-0.0716665 19:-0.662375 20:0.808003 21:-0.246 22:1 23:1 
0.7616264487084493 1:-0.888177 2:-0.756932 3:0.231789 4:0.745235 5:0.666949 6:-0.00239145 7:-0.390419 8:-0.183466 9:0.227125 10:0.652433 11:0.565231 12:2.88658e-15 13:0.297598 14:-0.0575391 15:-0.00509474 16:-0.0412446 17:-0.0642694 18:-0.00939008 19:0.804113 20:0.181916 21:-0.490343 22:1 23:1 
1.257655036588851 1:0.310065 2:0.436572 3:-0.795675 4:-0.698606 5:-0.526911 6:0.0286932 7:-0.947088 8:-0.852833 9:0.57604 10:0.0425749 11:-0.175279 12:0.741776 13:0.778989 14:-0.0553994 15:-0.629799 16:0.391211 17:0.174332 18:0.351203 19:-0.222145 20:-0.739878 21:0.436605 22:0.678715 23:1 
2 1:-0.180093 2:0.892024 3:0.942001 4:-0.245862 5:0.0453482 6:-0.7 7:-0.896803 8:-0.463091 9:0.541291 10:0.105742 11:-0.813367 12:0.582878 13:0.255422 14:0.559478 15:-0.400836 16:0.1892 17:-0.462907 18:0.640307 19:0.197558 20:-0.418524 21:0.106438 22:1 23:1 
1.102448387647371 1:0.656878 2:-0.784084 3:0.77644 4:-0.763585 5:0.645853 6:-0.00624568 7:-0.844882 8:0.936977 9:-0.314137 10:-0.185315 11:0.279366 12:-0.64886 13:0.96852 14:-0.0584916 15:0.909853 16:0.306737 17:-0.203681 18:-0.336655 19:0.514292 20:0.769264 21:0.801555 22:0.678715 23:1 
1.612057692416055 1:-0.826867 2:-0.881561 3:0.107023 4:0.235834 5:0.0830068 6:-0.925 7:0.940196 8:-0.253519 9:-0.448332 10:0.163635 11:-0.986531 12:-5.66214e-15 13:0.889704 14:-0.140767 15:-0.555341 16:-0.0305567 17:-0.573909 18:0.458726 19:0.812993 20:0.215838 21:0.655904 22:0.678715 23:1 
0.7344316782383725 1:0.925139 2:-0.869838 3:0.0908642 4:0.0599333 5:0.0177605 6:0.925 7:-0.853903 8:0.431441 9:0.387928 10:-0.344497 11:-0.93753 12:2.88658e-15 13:-0.730659 14:0.724485 15:0.296394 16:-0.202827 17:-0.51376 18:-0.479933 19:0.947935 20:0.805865 21:0.847052 22:1 23:1 
1.062794366657192 1:0.901616 2:-0.00280865 3:-0.960623 4:-0.495888 5:-0.0639822 6:0.0684535 7:-0.855899 8:-0.331147 9:-0.403126 10:0.301515 11:-0.95347 12:2.88658e-15 13:0.868803 14:-0.0456358 15:0.556637 16:0.420362 17:-0.479119 18:-0.0453356 19:0.550466 20:-0.999526 21:0.609668 22:1 23:1 
2 1:-0.0331956 2:0.867386 3:0.191893 4:0.82269 5:0.56862 6:-0.4 7:0.630852 8:-0.596135 9:-0.213641 10:0.784009 11:-0.620754 12:2.88658e-15 13:-0.0495063 14:-0.757843 15:-0.405642 16:-0.013182 17:-0.636965 18:0.19235 19:0.12726 20:-0.485354 21:0.134756 22:1 23:1 
2 1:0.937213 2:-0.849974 3:0.240624 4:0.317825 5:0.300739 6:0.8125 7:-0.850785 8:0.4564 9:0.165472 10:-0.867667 11:-0.49721 12:2.88658e-15 13:-0.332531 14:1 15:-0.0755259 16:-0.607831 17:-0.43089 18:-0.422852 19:0.950381 20:0.811252 21:0.856167 22:0.678715 23:1 
2 1:-0.0960599 2:0.911036 3:-0.99276 4:-0.624766 5:-0.0171423 6:-0.7 7:0.422755 8:-0.965582 9:0.000844908 10:0.999994 11:0.00358853 12:2.88658e-15 13:-0.257171 14:0.716117 15:0.992397 16:0.84937 17:0.000144897 18:0.344564 19:0.193801 20:-0.457361 21:0.338244 22:0.678715 23:1 
2 1:-0.946032 2:0.154388 3:0.959219 4:0.100728 5:-0.0129519 6:0.971875 7:0.935162 8:0.271098 9:0.581536 10:-0.252878 11:0.967505 12:2.88658e-15 13:-0.938618 14:-0.235098 15:-0.377827 16:-0.176474 17:0.505473 18:-0.503716 19:0.630197 20:-0.0401865 21:0.70844 22:0.0361446 23:1 
0.6504761764534667 1:-0.696436 2:-0.888666 3:-0.65576 4:-0.0555908 5:-0.105361 6:0.992969 7:0.936796 8:0.0819599 9:-0.544225 10:0.136187 11:0.990683 12:1.42109e-14 13:-0.711702 14:0.551127 15:0.111028 16:0.106324 17:0.566325 18:-0.514419 19:0.649608 20:0.244296 21:0.61725 22:1 23:1 
2 1:0.521401 2:-0.383875 3:0.960932 4:-0.992471 5:0.122553 6:0.4 7:-0.373734 8:-0.690218 9:-0.0140853 10:-0.999098 11:0.0432544 12:2.88658e-15 13:0.411894 14:0.130394 15:-0.974683 16:0.00345381 17:-0.0525121 18:-0.213557 19:0.0189482 20:0.842189 21:-0.206992 22:1 23:1 
2 1:-0.253178 2:-0.886445 3:-0.491302 4:-0.00409419 5:0.132806 6:-0.995312 7:0.662641 8:0.974168 9:0.891247 10:0.291587 11:-0.104127 12:-0.889222 13:-0.690066 14:0.469606 15:-0.618979 16:0.160201 17:-0.135511 18:0.0432252 19:0.215008 20:0.386108 21:0.497951 22:0.678715 23:1 
1.707880699440437 1:0.566866 2:0.846108 3:0.21312 4:-0.0978776 5:-0.0777303 6:-0.775 7:0.157152 8:-0.95555 9:-0.890049 10:-0.939884 11:-0.341593 12:5.77316e-15 13:-0.588128 14:-0.497687 15:0.897281 16:-0.429721 17:-0.149708 18:0.382618 19:0.471972 20:-0.730909 21:0.24998 22:1 23:1 
0.06938445923145958 1:0.548094 2:0.81939 3:-0.776896 4:-0.380774 5:-0.324078 6:-0.533987 7:-0.755454 8:-0.639234 9:0.63603 10:-0.413885 11:0.910341 12:-0.4 13:0.832014 14:-0.068842 15:-0.588621 16:-0.010284 17:0.639165 18:0.0573793 19:0.424352 20:-0.730653 21:0.538829 22:0.678715 23:1 
2 1:0.0857553 2:0.865904 3:0.87605 4:-0.301618 5:0.123777 6:0.879397 7:-0.369488 8:-0.0283981 9:0.293033 10:-0.605215 11:-0.796094 13:0.0716649 14:0.375727 15:-0.582995 16:-0.150539 17:-0.495101 18:-0.456794 19:0.13443 20:-0.542644 21:-0.316905 22:1 23:1 
2 1:0.103469 2:-0.901032 3:-0.728146 4:-0.653849 5:-0.756721 6:-0.4 7:-0.960288 8:-0.144518 9:-0.524218 10:0.0703074 11:0.95089 12:2.88658e-15 13:0.127147 14:-0.704772 15:0.203348 16:0.382383 17:0.888279 18:0.19235 19:0.169795 20:0.550464 21:0.0731839 22:0.0361446 23:1 
1.162404014856962 1:-0.451273 2:0.638772 3:-0.000884364 4:1 5:-0.000451124 6:-0.00566182 7:0.384925 8:0.63462 9:0.988644 10:0.999307 11:-0.0372219 12:-2.88658e-15 13:0.398143 14:-0.0578124 15:0.988305 16:0.00651451 17:-0.0301301 18:-0.00773075 19:0.130276 20:-0.26279 21:-0.296737 22:1 23:1 
1.230694920356052 1:-0.59616 2:0.12799 3:0.877 4:-0.926318 5:0.376845 6:-0.4 7:-0.896179 8:0.934982 9:-0.991383 10:0.16406 11:0.00500171 12:2.88658e-15 13:0.249883 14:-0.293812 15:0.132668 16:0.572281 17:-0.206524 18:0.19235 19:0.026806 20:-0.0532543 21:-0.435619 22:1 23:1 
1.73114642118419 1:-0.599722 2:0.272778 3:0.336558 4:0.0672791 5:0.11977 6:-0.189182 7:-0.270544 8:0.957393 9:0.996587 10:0.999925 11:-0.0122943 12:2.88658e-15 13:0.281148 14:-0.0678428 15:0.659065 16:0.490484 17:-0.0802952 18:0.0853843 19:0.0803548 20:-0.107473 21:-0.521723 22:0.35743 23:1 
2 1:0.240919 2:0.890453 3:0.862387 4:-0.737805 5:0.340389 6:-0.5875 7:0.220532 8:-0.962067 9:0.0387199 10:-0.992542 11:-0.122187 12:2.88658e-15 13:-0.298107 14:0.63253 15:-0.823452 16:-0.1252 17:-0.254301 18:0.287484 19:0.229857 20:-0.610158 21:0.230764 22:0.0361446 23:1 
1.534063912556409 1:0.0786764 2:0.886123 3:0.616352 4:-0.134314 5:0.350215 6:0.85 7:-0.998796 8:-0.586144 9:0.213641 10:0.195697 11:0.155551 12:-0.925 13:-0.330696 14:0.718875 15:-0.402829 16:0.178003 17:-0.113236 18:-0.911208 19:0.15905 20:-0.53839 21:0.394545 22:0.35743 23:1 
2 1:0.166426 2:0.380513 3:0.784542 4:-0.597084 5:0.479524 6:0.16374 7:-0.279644 8:0.837893 9:0.0424292 10:-0.991052 11:-0.133735 12:2.88658e-15 13:0.265636 14:-0.0487305 15:-0.741962 16:-0.197396 17:-0.333629 18:-0.0936824 19:-0.430429 20:-0.667631 21:-0.551675 22:1 23:1 
1.599029166575502 1:0.155764 2:-0.0133479 3:-0.929144 4:-0.730731 5:-0.168918 6:0.103098 7:-0.967018 8:-0.391076 9:0.504493 10:0.013768 11:-0.999917 12:-8.54872e-15 13:0.569805 14:-0.045718 15:-0.567926 16:0.392931 17:-0.448332 18:-0.0629136 19:-0.738633 20:0.989289 21:0.0339927 22:0.678715 23:1 
0.8161408270389218 1:-0.131698 2:0.922043 3:-0.761733 4:-0.273693 5:-0.256365 6:-0.85 7:-0.955913 8:0.217435 9:0.502657 10:0.00800708 11:-0.99998 12:2.88658e-15 13:0.470239 14:-0.165895 15:-0.737039 16:0.152953 17:-0.402329 18:0.420672 19:0.217668 20:-0.442052 21:-0.138795 22:-0.606426 23:1 
0.576698801374794 1:0.00978057 2:0.350719 3:-0.787959 4:0.391793 5:0.310727 6:0.55 7:0.409655 8:-0.94933 9:0.0468515 10:0.989066 11:0.147468 12:2.88658e-15 13:0.126647 14:0.497495 15:0.833726 16:0.316581 17:-0.0967038 18:-0.289664 19:-0.547714 20:-0.515055 21:-0.0839371 22:1 23:1 
1.122197740425502 1:-0.948982 2:0.320622 3:0.811158 4:-0.0691673 5:0.0466501 6:-0.950085 7:0.669622 8:-0.281239 9:-0.588802 10:-0.273064 11:-0.962014 12:-2.88658e-15 13:-0.806879 14:-0.345181 15:0.600717 16:-0.0988436 17:-0.54186 18:0.471454 19:0.676492 20:-0.0807379 21:0.509064 22:1 23:1 
0.003076236229874473 1:0.362457 2:-0.093391 3:-0.569399 4:-0.212696 5:-0.977251 6:-0.4 7:-0.479248 8:-0.546554 9:-0.736444 10:-0.674327 11:-0.738469 12:2.88658e-15 13:0.240308 14:-0.470286 15:-0.16733 16:-0.232485 17:0.114873 18:0.19235 19:-0.371221 20:0.943883 21:-0.2184 22:1 23:1 
2 1:-0.0757293 2:-0.890861 3:-0.58867 4:0.0127199 5:0.0451573 6:0.90625 7:-0.540194 8:0.913461 9:-0.968085 10:0.994634 11:0.103454 12:-0.37316 13:-0.593689 14:-0.508802 15:-0.37953 16:0.516031 17:0.0199297 18:-0.659754 19:0.14894 20:0.466189 21:0.269966 22:1 23:1 
2 1:-0.289758 2:-0.101537 3:0.555619 4:-0.174755 5:0.984813 6:0.0198455 7:-0.390949 8:0.75419 9:-0.269567 10:-0.259306 11:0.292336 12:0.840546 13:0.305982 14:-0.0549388 15:-0.824964 16:-0.0369586 17:-0.375296 18:0.405806 19:-0.501983 20:0.0792037 21:-0.474185 22:1 23:1 
2 1:-0.506166 2:-0.895113 3:-0.479769 4:0.0175287 5:-0.261142 6:0.917969 7:0.667463 8:-0.072638 9:-0.78047 10:0.769597 11:0.638525 12:2.88658e-15 13:-0.277844 14:0.605687 15:-0.300881 16:0.39685 17:0.462913 18:-0.476365 19:0.437351 20:0.295907 21:0.171969 22:1 23:1 
2 1:-0.400333 2:0.85269 3:-0.775333 4:-0.663562 5:-0.570425 6:0.55 7:0.218639 8:-0.965813 9:-0.59006 10:0.0691946 11:0.240225 12:-0.925 13:0.19288 14:0.724086 15:0.184709 16:0.386842 17:0.416016 18:-0.758993 19:0.300693 20:-0.324738 21:0.333029 22:0.678715 23:1 
2 1:0.991017 2:-0.77137 3:0.163451 4:-0.0543825 5:-0.0307759 6:-0.925 7:-0.869183 8:0.135686 9:-0.577642 10:0.23917 11:0.970976 12:2.88658e-15 13:-0.658372 14:0.763139 15:-0.740931 16:0.159097 17:0.516684 18:0.458726 19:0.97452 20:0.833239 21:0.801911 22:0.35743 23:1 
1.119195860658362 1:-0.83399 2:-0.842505 3:-0.683702 4:0.135568 5:0.210119 6:0.7 7:0.945065 8:0.430997 9:-0.393141 10:-0.331284 11:0.94354 12:0.4 13:-0.891226 14:0.480405 15:0.289911 16:-0.235195 17:0.375419 18:-0.162818 19:0.791309 20:0.207461 21:0.835844 22:0.678715 23:1 
2 1:-0.169223 2:0.902442 3:0.878759 4:0.058023 5:-0.0231969 6:-0.925 7:0.964202 8:-0.166986 9:0.529781 10:0.0930184 11:-0.995675 12:8.43769e-15 13:-0.693597 14:0.113943 15:-0.349144 16:0.0250276 17:-0.522813 18:0.458726 19:0.206153 20:-0.42417 21:0.243649 22:1 23:1 
0.7983345382348442 1:0.307424 2:-0.884008 3:-0.361667 4:-0.0794859 5:0.169881 7:-0.966341 8:-0.787154 9:0.501638 10:-0.00484326 11:0.99999 12:2.88658e-15 13:-0.316729 14:-0.681995 15:0.86219 16:0.0455869 17:0.426325 18:-0.0106035 19:0.252538 20:0.64015 21:0.143605 22:0.678715 23:1 
0.2805177691960223 1:-0.398608 2:0.906993 3:0.665701 4:0.124484 5:-0.216806 6:-5.66214e-15 7:0.694627 8:0.801248 9:-0.109251 10:0.749192 11:-0.266718 12:-0.597848 13:-0.32057 14:-0.55705 15:-0.774773 16:0.330809 17:-0.0370678 18:-0.313941 19:0.360122 20:-0.333921 21:-0.0409344 22:1 23:1 
2 1:0.930137 2:-0.145116 3:0.161642 4:0.10911 5:0.0610344 6:1 7:-0.676213 8:0.454114 9:0.259811 10:-0.684799 11:-0.72877 12:-2.88658e-15 13:-0.605877 14:0.583018 15:0.0976575 16:-0.404783 17:-0.426622 18:-0.517986 19:0.610009 20:0.965232 21:0.501835 22:1 23:1 
0.6403994371638064 1:0.939203 2:0.419267 3:0.0544912 4:0.0307807 5:0.00542462 6:-0.8875 7:0.110803 8:-0.834838 9:0.853021 10:-0.894769 11:0.446592 12:2.88658e-15 13:-0.494626 14:-0.486396 15:0.797459 16:-0.473041 17:0.22152 18:0.439699 19:0.707232 20:-0.895747 21:0.0943822 22:0.678715 23:1 
1.328940803051959 1:0.83038 2:0.34562 3:-0.855184 4:-0.896344 5:-0.443406 6:-0.0129402 7:-0.851872 8:-0.762171 9:-0.916466 10:-0.964948 11:-0.26257 12:5.77316e-15 13:0.919383 14:-0.0596698 15:-0.0616475 16:-0.0286841 17:0.0844089 18:-0.0040378 19:0.498486 20:-0.902145 21:0.706943 22:0.0361446 23:1 
1.349270034757076 1:0.487294 2:-0.0393521 3:0.860719 4:-0.905862 5:0.423684 6:0.0375681 7:-0.428631 8:0.529266 9:0.957519 10:-0.990945 11:0.134513 12:2.88658e-15 13:0.486823 14:-0.0538216 15:0.0962777 16:-0.0372287 17:-0.162991 18:-0.0296648 19:-0.164592 20:0.984493 21:-0.125959 22:1 23:1 
0.1208138517119438 1:0.439483 2:0.880197 3:0.408795 4:-0.0119546 5:-0.0407372 6:-0.900977 7:-0.5959 8:-0.982265 9:-0.998786 10:0.999974 11:0.00726606 12:2.88658e-15 13:-0.826328 14:0.275485 15:0.593111 16:0.531595 17:0.0145027 18:0.446537 19:0.37291 20:-0.686114 21:0.570653 22:0.678715 23:1 
2 1:-0.320461 2:-0.498513 3:-0.569283 4:-9.91555e-07 5:3.37224e-05 6:0.85 7:0.309598 8:-0.456742 9:0.516898 10:-1.70105e-05 11:-5.4073e-06 12:0.0520474 13:-0.0943729 14:0.275034 15:-0.915108 16:0.00687367 17:-0.0107897 18:-0.415471 19:-0.167673 20:0.27576 21:-0.492957 22:0.35743 23:1 
2 1:0.262242 2:0.879708 3:0.48394 4:0.00411816 5:0.0834423 6:0.950195 7:-0.635184 8:-0.340726 9:-0.362488 10:-1.70105e-05 11:-5.4073e-06 12:-0.00165706 13:-0.490868 14:0.414128 15:-0.846188 16:0.00473774 17:-0.0546999 18:-0.493557 19:0.229792 20:-0.620264 21:0.13744 22:-0.285141 23:1 
1.478361544386962 1:-0.8883 2:0.404859 3:-0.0425426 4:0.743549 5:-0.0981422 7:0.141063 8:0.226203 9:0.387493 10:-1.70105e-05 11:-5.4073e-06 12:0.0401489 13:0.492086 14:-0.0573743 15:0.429262 16:-0.378684 17:0.0408948 18:0.00976741 19:0.608129 20:-0.106859 21:-0.115844 22:-0.285141 23:1 
2 1:-0.906266 2:0.266008 3:-0.654775 4:0.405869 5:0.775339 6:0.55 7:-0.375453 8:0.092237 9:0.418135 10:-1.70105e-05 11:-5.4073e-06 12:-0.182633 13:-0.074624 14:0.219607 15:-0.928367 16:-0.203585 17:-0.418947 18:-0.382329 19:0.587869 20:-0.0707154 21:-0.596374 22:0.678715 23:1 
2 1:0.078484 2:-0.899084 3:-0.46283 4:-0.00749554 5:0.0620933 6:-0.0643241 7:0.393445 8:0.662422 9:0.816095 10:-1.70105e-05 11:-5.4073e-06 12:-0.00312373 13:-0.569681 14:0.193141 15:-0.722521 16:0.0107599 17:-0.0434608 18:0.0204486 19:0.161326 20:0.539 21:0.0578437 22:0.35743 23:1 
2 1:-0.8148 2:0.875481 3:0.781068 4:-9.91555e-07 5:3.37224e-05 7:0.903558 8:0.449064 9:0.638228 10:-1.70105e-05 11:-5.4073e-06 12:2.88658e-15 13:-0.776967 14:-0.520297 15:-0.14317 16:0.00687367 17:-0.0107897 18:-0.0106035 19:0.800979 20:-0.218266 21:0.579791 22:1 23:1 
2 1:-0.242771 2:0.87951 3:0.716985 4:-0.0532616 5:0.0656112 6:0.951367 7:0.0301737 8:-0.344794 9:0.144402 10:0.224636 11:0.109688 12:0.00732287 13:-0.452378 14:0.144368 15:-0.572566 16:0.15098 17:0.0124446 18:-0.489595 19:0.213996 20:-0.390209 21:-0.183538 22:0.678715 23:1 
1.472881525897516 1:-0.149832 2:-0.88692 3:-0.570309 4:-9.91555e-07 5:3.37224e-05 7:-0.454689 8:0.118936 9:-0.838042 10:-1.70105e-05 11:-5.4073e-06 12:2.43327e-08 13:-0.343052 14:-0.315687 15:-0.267937 16:0.00687367 17:-0.0107897 18:-0.0106034 19:0.164648 20:0.431535 21:-0.319498 22:0.35743 23:1 
2 1:0.570694 2:-0.392308 3:-0.836481 4:-0.54299 5:-0.309516 6:0.0165859 7:-0.223598 8:-0.994585 9:-0.282822 10:0.157948 11:-0.193779 12:-0.0167743 13:0.438421 14:-0.0544335 15:0.552801 16:0.370342 17:0.0501438 18:-0.0275299 19:0.0994762 20:0.851089 21:-0.219165 22:0.0361446 23:1 
2 1:-0.115493 2:0.360514 3:0.697894 4:-0.582888 5:0.812726 6:0.4 7:-0.397174 8:-0.584135 9:-0.158865 10:-1.70105e-05 11:-5.4073e-06 12:0.103951 13:-0.216837 14:0.299096 15:-0.856515 16:0.309121 17:-0.438629 18:-0.160814 19:-0.497397 20:-0.376824 21:-0.360155 22:1 23:1 
1.974534902248698 1:-0.0166925 2:-0.58601 3:0.171668 4:-0.857103 5:-0.515202 7:0.734625 8:-0.935311 9:0.353911 10:-1.70105e-05 11:-5.4073e-06 12:0.0866705 13:0.240226 14:-0.398454 15:0.181664 16:0.451312 17:0.260455 18:0.0333716 19:-0.255373 20:0.490762 21:-0.319236 22:1 23:1 
1.082669713094736 1:0.471367 2:-0.606837 3:0.850135 4:-0.891292 5:0.453544 6:-0.167025 7:-0.870577 8:0.32361 9:-0.808174 10:-1.70105e-05 11:-5.4073e-06 12:0.0689772 13:0.739679 14:-0.0573743 15:0.342575 16:0.46904 17:-0.249539 18:0.10914 19:0.1217 20:0.757881 21:0.360908 22:1 23:1 
0.7149743862031978 1:0.0222832 2:0.876604 3:0.482989 4:-0.00435947 5:-0.0831793 6:0.949976 7:0.170991 8:-0.957374 9:0.160939 10:0.437302 11:0.242399 12:0.0229767 13:-0.692904 14:-0.178275 15:-0.322231 16:0.235896 17:0.160651 18:-0.480947 19:0.138924 20:-0.512021 21:0.225313 22:0.35743 23:1 
2 1:-0.944158 2:0.493842 3:0.927333 4:-0.020928 5:0.00489652 6:0.875781 7:0.244535 8:-0.793546 9:0.433971 10:-1.70105e-05 11:-5.4073e-06 12:-0.0176358 13:-0.693398 14:0.310362 15:-0.493414 16:0.0177251 17:-0.0133497 18:-0.463908 19:0.739354 20:-0.120987 21:0.359769 22:-0.285141 23:1 
1.427728806006314 1:-0.338026 2:-0.879667 3:0.350013 4:0.339508 5:0.668903 6:-2.44249e-15 7:-0.418573 8:-0.24862 9:-0.959408 10:-1.70105e-05 11:-5.4073e-06 12:0.0648666 13:0.16679 14:0.10503 15:0.691192 16:-0.169174 17:-0.362914 18:0.0223087 19:0.266096 20:0.351085 21:-0.641627 22:1 23:1 
2 1:0.587193 2:-0.892037 3:-0.039275 4:-0.310217 5:0.0377599 6:-0.8875 7:0.321433 8:-0.491397 9:-0.736001 10:-1.70105e-05 11:-5.4073e-06 12:-0.0383954 13:-0.157724 14:0.0833651 15:-0.696597 16:0.167732 17:-0.0306505 18:0.420218 19:0.529227 20:0.730902 21:-0.727219 22:1 23:1 
2 1:0.520056 2:-0.86906 3:-0.000739129 4:-0.750002 5:5.53653e-05 6:0.625 7:0.281439 8:-0.544288 9:-0.718144 10:-0.473118 11:-0.581975 12:0.181168 13:-0.128755 14:0.0701335 15:-0.71726 16:0.15046 17:-0.317227 18:-0.235796 19:0.431542 20:0.71608 21:-0.783473 22:0.678715 23:1 
0.3630401257036215 1:0.558296 2:-0.799787 3:0.78465 4:0.664192 5:-0.53298 6:-0.358694 7:0.268826 8:-0.463022 9:-0.707322 10:0.453044 11:0.597697 12:-0.4 13:0.166634 14:-0.0663161 15:0.508779 16:-0.10261 17:0.584524 18:-0.0315613 19:0.406515 20:0.740363 21:-0.742172 22:-0.285141 23:1 
0.10442242167419 1:0.61049 2:0.742975 3:-0.474732 4:0.0827469 5:-0.996706 6:-0.0929086 7:0.658781 8:-0.730994 9:-0.0599143 10:-0.982575 11:0.18604 12:-0.020038 13:0.532597 14:-0.0688692 15:0.414064 16:-0.545518 17:0.6119 18:0.0263698 19:0.428632 20:-0.763152 21:-0.0376465 22:0.35743 23:1 
0.04115011144527473 1:-0.940624 2:0.192634 3:0.893607 4:0.118085 5:-0.0409692 6:-1 7:-0.803474 8:0.862939 9:0.952033 10:0.123541 11:-0.0189506 12:0.00017851 13:0.0182978 14:-0.333701 15:0.0579341 16:0.00971001 17:0.000820972 18:0.49687 19:0.628049 20:-0.0500266 21:-0.605804 22:0.35743 23:1 
1.473663342014353 1:0.237711 2:0.87744 3:0.44233 4:-0.0083917 5:-0.046092 6:-0.90625 7:-0.632909 8:0.060529 9:-0.231952 10:-1.70105e-05 11:-5.4073e-06 12:0.0202149 13:-0.39246 14:0.357573 15:-0.674179 16:0.0112246 17:0.0134931 18:0.459469 19:0.211999 20:-0.610299 21:-0.0681936 22:0.35743 23:1 
2 1:0.320676 2:0.871817 3:0.306488 4:0.178097 5:0.256861 6:-0.8875 7:0.0612256 8:-0.758888 9:-0.169336 10:-1.70105e-05 11:-5.4073e-06 12:-0.0160738 13:-0.586367 14:-0.322015 15:-0.475878 16:-0.0854763 17:-0.145995 18:0.431543 19:0.261226 20:-0.644701 21:0.0970309 22:1 23:1 
1.395540151148959 1:0.840601 2:-0.623703 3:0.775026 4:-0.665621 5:0.568088 7:-0.281803 8:0.658109 9:-0.578386 10:-1.70105e-05 11:-5.4073e-06 12:-0.0519374 13:0.713403 14:-0.0573743 15:0.64723 16:0.352022 17:-0.30984 18:-0.0369556 19:0.653254 20:0.840093 21:0.310312 22:0.35743 23:1 
0.8203073667218062 1:0.877444 2:-0.47794 3:-0.927901 4:-0.608389 5:-0.143134 7:0.279305 8:-0.650706 9:-0.425741 10:-1.70105e-05 11:-5.4073e-06 12:-0.0314266 13:0.279694 14:-0.0573743 15:0.501345 16:0.322345 17:0.0645805 18:-0.0265488 19:0.62879 20:0.878455 21:-0.524818 22:1 23:1 
0.3743587160022377 1:0.622473 2:0.628909 3:-0.337194 4:0.492178 5:-0.870609 6:-0.4 7:0.736038 8:-0.440633 9:0.044839 10:-1.70105e-05 11:-5.4073e-06 12:-1 13:0.363496 14:-0.206967 15:0.381304 16:-0.248339 17:0.447558 18:-0.315033 19:0.348615 20:-0.792081 21:-0.317862 22:1 23:1 
2 1:0.938602 2:0.0164778 3:0.00490548 4:-0.249962 5:-0.00438938 6:-0.061218 7:-0.109143 8:0.592888 9:-0.539876 10:-1.70105e-05 11:-5.4073e-06 12:-0.0125732 13:-0.527651 14:0.18691 15:-0.544775 16:0.136488 17:-0.00846115 18:0.0140781 19:0.61465 20:-0.994629 21:-0.0209432 22:0.678715 23:1 
2 1:0.761242 2:0.102281 3:0.871998 4:-0.920288 5:0.391346 6:-0.0316824 7:-0.117912 8:0.599496 9:-0.569451 10:-1.70105e-05 11:-5.4073e-06 12:-0.0887437 13:0.454323 14:-0.0573743 15:0.559261 16:0.484076 17:-0.216795 18:-0.0395554 19:0.31529 20:-0.966449 21:-0.18856 22:-0.285141 23:1 
2 1:-0.941276 2:0.581435 3:0.859477 4:-9.91555e-07 5:3.37224e-05 7:-0.0187676 8:-0.639182 9:0.136336 10:-1.70105e-05 11:-5.4073e-06 12:2.88658e-15 13:-0.615906 14:0.183147 15:-0.723007 16:0.00687367 17:-0.0107897 18:-0.0106035 19:0.780498 20:-0.140171 21:0.134488 22:0.0361446 23:1 
2 1:0.393007 2:-0.68319 3:0.987451 4:-0.810234 5:0.0321105 7:-0.160779 8:-0.642668 9:-0.508629 10:-1.70105e-05 11:-5.4073e-06 12:0.0628621 13:0.258972 14:-0.0573743 15:0.504672 16:0.427009 17:-0.0276764 18:0.0212917 19:0.105068 20:0.710528 21:-0.564718 22:1 23:1 
2 1:-0.507471 2:-0.425793 3:-0.0234776 4:0.997452 5:-0.0713257 7:0.199122 8:-0.483895 9:0.457801 10:-1.70105e-05 11:-5.4073e-06 12:0.0630533 13:0.332113 14:-0.0573743 15:0.480464 16:-0.510341 17:0.0267773 18:0.0213887 19:0.0168937 20:0.1792 21:-0.423881 22:1 23:1 
2 1:-0.516553 2:0.87949 3:0.654676 4:0.0196359 5:-0.0370905 6:0.900391 7:0.3285 8:-0.0246868 9:0.361754 10:-1.70105e-05 11:-5.4073e-06 12:-0.00120583 13:-0.50769 14:-0.29081 15:-0.293129 16:-0.00330874 17:0.00875426 18:-0.468058 19:0.44358 20:-0.291229 21:-0.0637722 22:-0.606426 23:1 
2 1:-0.940673 2:-0.0342942 3:-0.592113 4:-0.176104 5:-0.599745 6:0.7 7:0.0966816 8:-0.110907 9:0.409489 10:-1.70105e-05 11:-5.4073e-06 12:0.0473596 13:-0.130127 14:0.486396 15:-0.99962 16:0.0981895 17:0.304962 18:-0.341742 19:0.608049 20:0.00774876 21:-0.116685 22:1 23:1 
2 1:-0.949742 2:0.251177 3:0.939133 4:0.12272 5:-0.0237296 6:-1 7:0.0984185 8:-0.852333 9:0.306306 10:0.285739 11:0.410298 12:-0.775 13:-0.597517 14:0.279712 15:-0.632766 16:0.0914108 17:0.217758 18:0.103558 19:0.65725 20:-0.0639434 21:0.170904 22:0.0361446 23:1 
2 1:0.680786 2:-0.738746 3:0.922205 4:-0.97029 5:0.242027 6:0.0590146 7:-0.504832 8:-0.353113 9:-0.473108 10:0.0648644 11:-0.747199 12:-0.0223376 13:0.590176 14:-0.0489147 15:0.605358 16:0.543646 17:-0.531608 18:-0.0518802 19:0.507487 20:0.784282 21:0.0731275 22:0.35743 23:1 
2 1:-0.963788 2:-0.530766 3:-0.650287 4:0.169246 5:0.334726 6:-0.85 7:0.379662 8:-0.891633 9:0.559949 10:-0.0934011 11:0.4912 12:-0.00233214 13:-0.19184 14:0.66006 15:-0.791152 16:-0.129309 17:0.0716487 18:0.419489 19:0.783447 20:0.125056 21:0.207478 22:-0.285141 23:1 
2 1:-0.883497 2:-0.0815457 3:0.815583 4:-0.836969 5:0.547381 6:-0.4 7:0.875546 8:0.408685 9:0.366878 10:-1.70105e-05 11:-5.4073e-06 12:-0.104098 13:-0.649378 14:-0.749431 15:-0.44879 16:0.440872 17:-0.298939 18:0.139532 19:0.512007 20:0.0211042 21:0.625081 22:0.0361446 23:1 
2 1:0.940908 2:0.656102 3:0.257558 4:0.0914961 5:0.0963178 6:0.995312 7:-0.460807 8:0.481004 9:-0.602539 10:0.117832 11:0.355998 12:-0.0123308 13:-0.541592 14:0.447392 15:-0.859842 16:0.0205373 17:0.12597 18:-0.521864 19:0.83282 20:-0.845214 21:0.249175 22:0.0361446 23:1 
2 1:0.0941042 2:0.0906852 3:-0.368493 4:0.404416 5:-0.914697 7:0.357042 8:-0.718934 9:0.146323 10:-1.70105e-05 11:-5.4073e-06 12:-0.0629769 13:0.314877 14:-0.0573743 15:0.51398 16:-0.202831 17:0.470767 18:-0.0425569 19:-0.803587 20:-0.795591 21:-0.45707 22:1 23:1 
2 1:0.943228 2:-0.675586 3:-0.101215 4:0.118832 5:-0.0387517 6:1 7:0.20736 8:0.215885 9:-0.678843 10:-0.0663317 11:-0.105966 12:2.74091e-09 13:-0.457174 14:0.163566 15:-0.577593 16:-0.0891314 17:-0.046163 18:-0.517986 19:0.841454 20:0.844666 21:-0.161564 22:-0.606426 23:1 
2 1:0.579563 2:0.63804 3:0.464521 4:-0.110088 5:-0.994057 6:0.4 7:0.193327 8:0.919972 9:-0.678807 10:-1.70105e-05 11:-5.4073e-06 12:-0.271061 13:0.0685723 14:0.15885 15:0.85715 16:0.0639579 17:0.512547 18:-0.351088 19:0.298109 20:-0.778825 21:-0.681996 22:0.35743 23:1 
2 1:0.603417 2:0.573236 3:0.804157 4:0.408402 5:-0.288472 6:-0.100303 7:0.206816 8:0.951408 9:-0.675127 10:0.26028 11:0.426902 12:-0.125715 13:0.221506 14:-0.0633242 15:0.521457 16:-0.0699266 17:0.365874 18:-0.023497 19:0.278833 20:-0.801365 21:-0.636742 22:0.0361446 23:1 
2 1:-0.119783 2:-0.146231 3:-0.125554 4:0.924208 5:-0.381921 6:0.4 7:-0.214581 8:0.796301 9:-0.946854 10:-1.70105e-05 11:-5.4073e-06 12:0.185971 13:-0.197572 14:0.275246 15:-0.821069 16:-0.472362 17:0.190289 18:-0.119198 19:-0.740402 20:0.23542 21:-0.415152 22:1 23:1 
2 1:0.84683 2:-0.911064 3:0.00431982 4:-0.499939 5:-0.00789322 6:-0.775 7:0.297794 8:0.639039 9:-0.755267 10:0.627132 11:0.610182 12:0.55 13:-0.270915 14:0.576022 15:-0.759407 16:0.591303 17:0.314667 18:0.661679 19:0.872085 20:0.785261 21:0.118983 22:0.0361446 23:1 
2 1:0.646464 2:0.838838 3:-0.0374705 4:0.869187 5:-0.100677 6:-0.55 7:0.320418 8:0.191948 9:-0.0192609 10:0.499106 11:-0.029748 12:0.428211 13:-0.142121 14:-0.338035 15:0.0177661 16:-0.185022 17:0.0265686 18:0.485724 19:0.559927 20:-0.75305 21:-0.54631 22:1 23:0.310345 
2 1:0.398707 2:0.674733 3:0.118928 4:-0.930281 5:-0.366881 6:-0.4 7:0.275134 8:0.300036 9:-0.165848 10:-0.217017 11:0.124143 12:-0.353938 13:-0.119579 14:-0.1762 15:-0.28498 16:0.376737 17:0.24774 18:0.0127677 19:0.113917 20:-0.711341 21:-0.806691 22:0.196787 23:0.310345 
2 1:0.292578 2:0.88433 3:-0.57438 4:-9.91555e-07 5:3.37224e-05 6:-0.85 7:0.763227 8:0.631808 9:0.414919 10:0.0330107 11:0.120553 12:0.0316481 13:0.0180346 14:0.22593 15:0.988087 16:0.0239995 17:0.0526885 18:0.43673 19:0.255594 20:-0.631943 21:-0.593752 22:-0.606426 23:0.310345 
0.6406068504225139 1:-0.955407 2:-0.600616 3:0.139675 4:0.452216 5:0.213379 7:-0.657372 8:0.454362 9:-0.985036 10:-0.374547 11:-0.0189094 12:0.85 13:0.268487 14:0.267799 15:0.875758 16:-0.421821 17:-0.133058 18:0.420672 19:0.807048 20:0.140774 21:-0.303816 22:0.799197 23:0.310345 
2 1:-0.944712 2:-0.592468 3:-0.062538 4:0.183981 5:-0.0361241 6:-0.9625 7:-0.414763 8:-0.445707 9:0.523077 10:-0.0444196 11:0.614566 12:0.121683 13:0.218505 14:0.0502052 15:0.584717 16:-0.111552 17:0.331838 18:0.539492 19:0.785792 20:0.140468 21:-0.604889 22:-0.606426 23:0.310345 
1.437922215099536 1:0.0793558 2:-0.323632 3:0.828619 4:0.321995 5:-0.192206 6:-0.0269964 7:-0.1579 8:-0.126449 9:0.308406 10:-0.0540554 11:-0.0786975 12:-0.964551 13:0.123328 14:-0.0562381 15:-0.520241 16:-0.188113 17:0.0489805 18:-0.486302 19:-0.574441 20:0.605947 21:-0.825902 22:0.39759 23:0.310345 
0.8313002742581158 1:-0.100343 2:-0.871541 3:0.230117 4:-0.187183 5:-0.165715 6:-0.925 7:0.364227 8:-0.344771 9:-0.348152 10:0.129577 11:-0.249622 12:-0.90625 13:0.284658 14:-0.0693319 15:-0.578239 16:0.171132 17:-0.0549633 18:-0.00109003 19:0.129363 20:0.453634 21:-0.51488 22:-0.00401606 23:0.310345 
2 1:-0.947834 2:-0.794268 3:0.174739 4:0.0698976 5:0.042975 6:-0.0329673 7:-0.429703 8:-0.349395 9:0.840565 10:-0.438322 11:0.240611 12:0.121781 13:0.275275 14:-0.0463831 15:0.66486 16:-0.256645 17:0.0932962 18:0.0679133 19:0.917284 20:0.179504 21:-0.532996 22:-0.405622 23:0.310345 
2 1:-0.622937 2:-0.326498 3:0.129062 4:-0.918142 5:-0.396289 7:0.379131 8:0.500248 9:0.83088 10:-0.861594 11:0.507649 12:0.0821932 13:0.559434 14:0.0348769 15:0.700823 16:0.0362112 17:0.46515 18:0.0310999 19:0.137313 20:0.119058 21:0.0255676 22:1 23:0.310345 
0.4321047180820436 1:0.941389 2:-0.380167 3:0.554094 4:-0.0318833 5:0.184835 6:-0.9625 7:0.410673 8:-0.22704 9:-0.525009 10:0.0762162 11:0.997092 12:-0.226692 13:0.0799241 14:0.205991 15:0.921322 16:0.0629348 17:0.416927 18:0.362733 19:0.690841 20:0.908362 21:-0.597302 22:-0.204819 23:0.310345 
2 1:0.945463 2:-0.385325 3:0.774507 4:0.189912 5:-0.162577 6:-0.925 7:0.538439 8:0.161299 9:-0.738581 10:0.594326 11:0.642178 12:-0.55 13:0.258315 14:-0.0892654 15:0.487681 16:0.21658 17:0.412947 18:0.179665 19:0.699523 20:0.907538 21:-0.563036 22:-0.606426 23:0.310345 
1.646643857109021 1:0.221738 2:0.896543 3:0.670463 4:0.093787 5:-0.157824 6:-0.964844 7:-0.031275 8:0.310495 9:-0.151203 10:-0.375445 11:0.192446 12:-0.596875 13:-0.138138 14:0.182703 15:-0.821449 16:-0.236429 17:0.173646 18:0.176098 19:0.226551 20:-0.601451 21:-0.612886 22:-0.405622 23:0.310345 
2 1:0.325718 2:-0.50206 3:0.80021 4:0.809595 5:-0.587055 6:-0.091028 7:-0.0485996 8:-0.129721 9:0.29229 10:0.0432593 11:0.0566461 12:-0.807227 13:0.213042 14:-0.0582243 15:-0.507958 16:-0.390491 17:0.32811 18:-0.37399 19:-0.151449 20:0.730025 21:-0.653157 22:0.196787 23:0.310345 
2 1:-0.368205 2:0.59447 3:0.195098 4:0.570961 5:0.40319 6:-0.430654 7:0.163321 8:0.537454 9:0.684283 10:-0.546511 11:0.837469 12:0.4 13:0.185392 14:-0.241298 15:0.48836 16:-0.572563 17:0.217928 18:0.410856 19:-0.00734982 20:-0.283836 21:-0.590015 22:1 23:0.310345 
1.276684421945939 1:0.453996 2:-0.715538 3:0.378385 4:0.371575 5:0.928594 6:0.4 7:-0.220831 8:-0.307533 9:-0.795368 10:0.59895 11:0.451385 12:0.075741 13:-0.00374849 14:0.344886 15:0.826752 16:0.124779 17:-0.261956 18:-0.175127 19:0.204343 20:0.725582 21:-0.389206 22:0.598394 23:0.310345 
0.2173096487768438 1:0.596574 2:-0.900954 3:0.730792 4:-9.91555e-07 5:3.37224e-05 6:-5.66214e-15 7:0.119269 8:-0.18625 9:-0.926731 10:0.243205 11:0.05783 12:-0.0183664 13:0.333256 14:-0.0569551 15:0.343362 16:0.132991 17:0.0196626 18:-0.0199223 19:0.548687 20:0.731813 21:-0.421681 22:-0.00401606 23:0.310345 
1.121948274488837 1:0.115504 2:-0.274739 3:0.850574 4:-0.891916 5:0.452315 6:0.100864 7:-0.816929 8:0.346882 9:-0.4909 10:0.0307447 11:-0.999539 12:0.100865 13:0.50893 14:-0.0469075 15:0.659156 16:0.485315 17:-0.775179 18:-0.010603 19:-0.606619 20:0.668868 21:-0.083244 22:1 23:0.310345 
2 1:-0.169173 2:0.177363 3:-0.958197 4:0.629551 5:0.0861836 6:-0.15975 7:-0.832411 8:0.0800328 9:-0.616669 10:0.356034 11:0.93447 12:-0.15975 13:0.327195 14:-0.0678411 15:0.340843 16:-0.13495 17:0.435889 18:-0.0106032 19:-0.639723 20:-0.2205 21:-0.433098 22:-0.00401606 23:0.310345 
2 1:-0.303799 2:-0.312493 3:-0.885794 4:-9.91555e-07 5:3.37224e-05 6:-0.85 7:-0.0371476 8:0.584118 9:0.913033 10:0.0601428 11:-0.0169515 12:-0.925 13:-0.253677 14:-0.347606 15:-0.203028 16:0.0380682 17:-0.0197123 18:-0.0486572 19:-0.356897 20:0.209456 21:-0.410763 22:-0.204819 23:0.310345 
1.020007462818723 1:-0.0932461 2:-0.540832 3:0.701802 4:0.148202 5:-0.201336 6:0.7 7:-0.586379 8:0.0398731 9:0.128407 10:0.919487 11:0.393115 12:-0.202289 13:0.305444 14:0.02856 15:-0.573378 16:0.406813 17:0.302212 18:-0.46841 19:-0.297496 20:0.430728 21:-0.457184 22:0.799197 23:0.310345 
1.813197628643398 1:0.0915466 2:-0.296398 3:0.411704 4:0.0681529 5:0.240605 6:0.555437 7:0.121927 8:-0.066707 9:-0.120076 10:-0.639504 11:0.252438 12:0.414429 13:0.0677714 14:-0.0492155 15:-0.531791 16:-0.360058 17:-0.00451795 18:-0.0821484 19:-0.600025 20:0.630223 21:-0.932255 22:-0.00401606 23:0.310345 
0.5639992336426133 1:0.133455 2:-0.856747 3:0.498714 4:-0.00177158 5:-0.595039 6:-0.196914 7:0.15434 8:0.0171808 9:-0.032206 10:0.994989 11:-0.0999941 12:-0.4 13:0.304503 14:-0.069245 15:-0.530933 16:0.52373 17:0.249837 18:-0.113646 19:0.122362 20:0.567356 21:-0.476696 22:0.39759 23:0.310345 
0.9613733780914266 1:0.27573 2:0.403537 3:-0.284472 4:-0.393042 5:0.486063 6:-0.13654 7:0.548933 8:-0.0987991 9:0.248228 10:-0.44428 11:-0.439625 12:0.319699 13:0.218963 14:-0.0647914 15:0.531849 16:-0.0196832 17:-0.498132 18:0.220884 19:-0.29406 20:-0.733765 21:-0.641571 22:0.598394 23:0.310345 
2 1:0.212527 2:0.823758 3:0.128403 4:-0.57435 5:-0.24648 6:-0.7 7:0.662079 8:0.32663 9:0.381033 10:0.228188 11:0.581849 12:0.7 13:0.123629 14:-0.342758 15:0.251996 16:0.423025 17:0.425352 18:0.699732 19:0.131447 20:-0.605526 21:-0.526561 22:-0.204819 23:0.310345 
1.264295541418522 1:-0.560044 2:0.245031 3:-0.0148578 4:-0.0624396 5:0.00280512 6:0.229818 7:-0.00323874 8:0.243572 9:0.482815 10:0.0542193 11:0.99853 12:-0.4 13:0.253913 14:-0.045448 15:0.496845 16:0.0673734 17:0.513513 18:-0.330162 19:0.00369671 20:-0.103911 21:-0.574041 22:1 23:0.310345 
0.105440032488253 1:-0.583244 2:0.658586 3:0.183776 4:-0.523069 5:-0.342115 6:-0.7 7:-0.0510386 8:0.467451 9:0.454118 10:-0.143864 11:-0.989613 12:-0.112225 13:0.160775 14:-0.276708 15:0.269692 16:0.203514 17:-0.351727 18:0.287623 19:0.312419 20:-0.226614 21:-0.580879 22:0.799197 23:0.310345 
2 1:-0.654828 2:0.0763962 3:-0.149456 4:-0.195341 5:0.0985084 6:0.219213 7:-0.255341 8:-0.148058 9:0.319517 10:0.453078 11:0.711776 12:0.0978625 13:0.190397 14:-0.0473613 15:0.46817 16:0.343107 17:0.312145 18:-0.0721747 19:0.118573 20:-0.0297681 21:-0.696376 22:-0.405622 23:0.310345 
1.270634645820043 1:0.52352 2:0.52717 3:-0.447893 4:-0.0847492 5:0.502584 6:0.769263 7:0.82708 8:-0.0337142 9:0.379614 10:-0.138494 11:-0.348504 12:-0.85 13:0.216401 14:0.0810323 15:0.826422 16:-0.0209855 17:-0.458852 18:-0.83219 19:0.132083 20:-0.792472 21:-0.585223 22:1 23:0.310345 
0.9965603635338492 1:0.949949 2:0.492854 3:0.828603 4:0.536643 5:-0.320394 6:0.7 7:0.413933 8:0.14271 9:-0.195437 10:0.818181 11:-0.574965 12:0.385721 13:0.136112 14:0.208995 15:0.976336 16:0.152863 17:-0.144837 18:-0.170063 19:0.757805 20:-0.880467 21:-0.543268 22:0.39759 23:0.310345 
2 1:0.668873 2:0.836483 3:0.496649 4:-0.00472943 5:-0.500029 6:0.775 7:0.328312 8:0.398435 9:-0.279778 10:0.11984 11:-0.144197 12:-0.0405688 13:-0.179285 14:0.118193 15:-0.776244 16:0.0714748 17:0.176545 18:-0.424409 19:0.585687 20:-0.758893 21:-0.655124 22:-0.606426 23:0.310345 
2 1:0.265922 2:-0.138813 3:-0.690647 4:0.280231 5:0.414193 6:-0.55 7:-0.487462 8:-0.298677 9:-0.328052 10:0.322373 11:-0.535447 12:0.7 13:0.247137 14:-0.36411 15:0.361888 16:0.0287312 17:-0.51075 18:0.623625 19:-0.516947 20:0.887033 21:-0.355572 22:1 23:0.310345 
0.5984885541060829 1:0.414552 2:0.222566 3:-0.618191 4:0.26946 5:0.700075 6:0.625 7:0.790927 8:-0.19555 9:0.327697 10:0.515148 11:0.857097 12:0.209413 13:0.0586918 14:0.20715 15:0.944712 16:0.134276 17:0.0719682 18:-0.221465 19:-0.232471 20:-0.875637 21:-0.609098 22:-0.00401606 23:0.310345 
2 1:0.495604 2:-0.19844 3:-0.102192 4:-0.474854 5:0.156633 6:0.775 7:0.526215 8:0.722003 9:0.901876 10:-1.70105e-05 11:-5.4073e-06 12:-0.85 13:-0.100365 14:0.306188 15:-0.997164 16:0.253102 17:-0.0932308 18:-0.8351 19:-0.115372 20:0.91054 21:-0.437196 22:-0.405622 23:0.310345 
0.6358327173524261 1:-0.877031 2:-0.452227 3:0.481413 4:0.0572525 5:0.998563 6:-0.4 7:-0.693561 8:0.377124 9:-0.127198 10:0.216011 11:-0.0909178 12:-0.934375 13:0.293209 14:-0.119973 15:-0.608562 16:0.0892024 17:-0.584331 18:-0.281736 19:0.606153 20:0.117671 21:-0.488776 22:1 23:0.310345 
0.1616274502634473 1:0.267194 2:0.528177 3:-0.731721 4:0.310675 5:0.351554 6:-0.137616 7:-0.271499 8:-0.253802 9:0.610615 10:-0.340018 11:0.940428 12:-0.137616 13:0.380347 14:-0.0678411 15:-0.659156 16:-0.330523 17:0.299323 18:-0.0106035 19:-0.174557 20:-0.688062 21:-0.330784 22:-0.606426 23:0.310345 
2 1:-0.763765 2:-0.000946202 3:-0.0173143 4:-9.91555e-07 5:3.37224e-05 6:-0.85 7:-0.264182 8:-0.57367 9:-0.674028 10:0.226453 11:0.374322 12:0.8125 13:0.231955 14:-0.279615 15:-0.656617 16:0.124305 17:0.186306 18:0.83292 19:0.301827 20:-0.0010793 21:-0.478105 22:1 23:0.310345 
2 1:-0.931724 2:0.144883 3:-0.932779 4:0.79366 5:0.174018 6:-0.5875 7:-0.622639 8:-0.52996 9:-0.908394 10:-0.479002 11:-0.14347 12:0.55 13:-0.0963742 14:0.2458 15:0.0239523 16:-0.653035 17:-0.177922 18:0.566544 19:0.604114 20:-0.038382 21:-0.541364 22:0.196787 23:0.310345 
2 1:0.213709 2:-0.414655 3:-0.455087 4:-0.0877552 5:0.60316 6:-0.182579 7:0.253011 8:-0.874776 9:-0.986931 10:-0.249774 11:-0.0111226 12:-0.245516 13:0.159784 14:-0.0603412 15:-0.531839 16:-0.0771285 17:-0.334157 18:-0.0425364 19:-0.361068 20:0.695594 21:-0.75567 22:0.39759 23:0.310345 
2 1:-0.017239 2:0.816821 3:-0.962248 4:0.992413 5:0.123004 6:0.4 7:-0.26438 8:0.141787 9:-0.133993 10:0.228293 11:-0.101871 12:-0.7 13:0.140788 14:0.197849 15:0.827179 16:-0.389344 17:-0.129163 18:-0.568725 19:0.0603544 20:-0.492633 21:-0.554717 22:0.196787 23:0.310345 
1.957545216335949 1:-0.00640557 2:0.876445 3:-0.923863 4:-0.202393 5:-0.05031 6:-0.949866 7:0.0710347 8:0.145714 9:0.0362646 10:0.99342 11:0.114523 12:0.4 13:0.0123555 14:0.240897 15:0.958945 16:0.626946 17:0.0760164 18:0.674295 19:0.137903 20:-0.498308 21:-0.568995 22:-0.405622 23:0.310345 
2 1:0.149706 2:0.676829 3:-0.49691 4:-0.0123945 5:0.937611 6:0.174462 7:0.151416 8:0.345331 9:0.00737865 10:0.0663711 11:0.00159509 12:0.810156 13:0.106173 14:-0.0565824 15:0.503464 16:0.0477242 17:-0.503532 18:0.311937 19:-0.0843381 20:-0.591713 21:-0.858937 22:-0.606426 23:0.310345 
0.8166576220663789 1:0.689551 2:0.685324 3:-0.841497 4:0.369761 5:0.203181 6:0.821875 7:0.397973 8:0.28615 9:-0.185838 10:-0.835166 11:0.550044 12:-0.370649 13:0.17406 14:0.0127761 15:0.654719 16:-0.617909 17:0.171883 18:-0.61567 19:0.485487 20:-0.794643 21:-0.708143 22:-0.00401606 23:0.310345 
2 1:0.94188 2:0.80954 3:0.307852 4:-0.424793 5:-0.618175 6:-0.625 7:0.546272 8:0.253619 9:-0.293606 10:-0.226992 11:0.298508 12:0.625 13:-0.289851 14:-0.0186844 15:-0.601411 16:0.109451 17:0.471842 18:0.623625 19:0.935961 20:-0.816382 21:-0.563561 22:-0.204819 23:0.310345 
1.157798141539619 1:0.248196 2:-0.888065 3:0.0221979 4:-0.249354 5:-0.0179472 6:0.925 7:0.187688 8:-0.152703 9:-0.98928 10:-0.124933 11:-0.00464318 12:-1 13:-0.0241902 14:0.239513 15:0.988903 16:0.0713998 17:-0.00376561 18:-0.987315 19:0.217602 20:0.615549 21:-0.574094 22:0.39759 23:0.310345 
2 1:0.195538 2:-0.889916 3:-0.40905 4:-0.0133613 5:0.0449721 6:-0.542004 7:0.479551 8:-0.268789 9:0.782266 10:-0.229915 11:0.187835 12:0.0693883 13:-0.191506 14:0.167888 15:-0.810061 16:-0.105407 17:0.0644566 18:0.299607 19:0.190829 20:0.592774 21:-0.575322 22:-0.204819 23:0.310345 
2 1:-0.430613 2:0.889942 3:0.843574 4:0.881762 5:-0.471741 6:-0.4375 7:-0.275902 8:0.533264 9:0.215966 10:-0.644541 11:-0.520003 12:-0.458567 13:-0.138637 14:0.0338843 15:-0.62755 16:-0.784556 17:-0.036221 18:-0.0212925 19:0.369633 20:-0.320314 21:-0.809913 22:-0.405622 23:0.310345 
2 1:0.639175 2:0.313014 3:-0.955085 4:0.989398 5:0.145289 6:0.162996 7:-0.0433919 8:0.155819 9:0.705816 10:0.601794 11:-0.798657 12:0.162993 13:0.32435 14:-0.0469076 15:-0.340843 16:-0.19411 17:-0.507775 18:-0.0106047 19:0.172126 20:-0.886107 21:-0.438574 22:-0.405622 23:0.310345 
0.4807322046241013 1:-0.659302 2:0.538099 3:-0.217626 4:0.194256 5:-0.157359 6:-0.925 7:-0.188021 8:0.000603744 9:-0.694428 10:0.142817 11:0.205176 12:-0.7 13:0.284298 14:-0.0722489 15:-0.476845 16:-0.0197921 17:0.180105 18:0.103558 19:0.324863 20:-0.177638 21:-0.515366 22:1 23:0.310345 
0.5384790437549538 1:0.725746 2:0.00443458 3:0.666437 4:-0.0178631 5:0.030982 6:0.199846 7:0.414742 8:0.625492 9:-0.827237 10:-0.854756 11:-0.519091 12:0.475 13:0.255428 14:-0.0454504 15:0.507081 16:-0.42707 17:-0.300398 18:0.129005 19:0.246521 20:-0.996957 21:-0.571126 22:1 23:0.310345 
2 1:0.0959582 2:-0.891114 3:-0.302174 4:0.142751 5:-0.198057 6:0.928516 7:0.226649 8:0.116461 9:-0.907368 10:-0.837427 11:-0.253767 12:0.120485 13:-0.277696 14:0.240072 15:-0.605133 16:-0.501369 17:-0.0401193 18:-0.420584 19:0.155039 20:0.547517 21:-0.369979 22:0.799197 23:0.310345 
1.9080435155622 1:0.533333 2:0.862934 3:0.607807 4:-0.0104072 5:0.0295052 6:0.8875 7:0.31144 8:0.173196 9:0.728984 10:-0.658271 11:0.752806 12:-0.214771 13:-0.222337 14:0.143422 15:0.12064 16:-0.329053 17:0.370075 18:-0.569877 19:0.451107 20:-0.718302 21:-0.564308 22:1 23:0.310345 
2 1:-0.266466 2:-0.372558 3:0.314567 4:0.137222 5:0.209043 6:0.7 7:-0.294776 8:0.166923 9:0.0658248 10:0.183461 11:0.0386355 12:0.52292 13:0.137706 14:0.0813337 15:-0.248978 16:0.0308572 17:-0.100476 18:-0.100451 19:-0.352345 20:0.25856 21:-0.711281 22:0.39759 23:0.310345 
2 1:-0.0125719 2:-0.827021 3:0.314303 4:-0.206095 5:-0.313309 6:0.85 7:-0.65367 8:-0.50793 9:0.361177 10:-1.70105e-05 11:-5.4073e-06 12:-0.85 13:-0.100797 14:0.311894 15:0.0464007 16:0.113741 17:0.154169 18:-0.873154 19:0.0589289 20:0.495796 21:-0.427294 22:-0.405622 23:0.310345 
2 1:-0.447583 2:-0.768656 3:0.317964 4:0.404959 5:0.631416 6:0.187601 7:-0.129848 8:-0.0746289 9:-0.0491724 10:-0.988289 11:0.152809 12:0.4 13:0.279194 14:-0.0464693 15:-0.367278 16:-0.715559 17:-0.262717 18:0.097164 19:0.24468 20:0.291371 21:-0.52546 22:0.39759 23:0.310345 
1.292619173649325 1:-0.0460977 2:-0.842654 3:-0.611365 4:0.190799 5:0.529275 6:-0.7375 7:-0.378993 8:-0.391449 9:0.25248 10:0.350668 11:0.356402 12:-0.55 13:-0.111729 14:-0.295361 15:0.862734 16:0.0897766 17:-0.101747 18:0.0845308 19:0.0817408 20:0.479024 21:-0.638856 22:-0.405622 23:0.310345 
2 1:-0.373982 2:-0.889952 3:0.474454 4:0.00617466 5:0.0779275 6:-0.94375 7:-0.56467 8:-0.657822 9:0.105054 10:-0.236474 11:-0.0811858 12:-0.7 13:0.0566034 14:0.065336 15:-0.369542 16:-0.118938 17:-0.0945408 18:0.113071 19:0.307123 20:0.339179 21:-0.837896 22:0.598394 23:0.310345 
2 1:0.729639 2:-0.89303 3:0.339575 4:-9.91555e-07 5:3.37224e-05 6:-0.85 7:0.322608 8:-0.440356 9:0.242316 10:-0.141375 11:-0.134786 12:-0.0404997 13:0.0337335 14:0.215903 15:-0.097617 16:-0.0664243 17:-0.0817562 18:0.400123 19:0.702931 20:0.765085 21:-0.606121 22:-0.00401606 23:0.310345 
1.3895469456518 1:0.537783 2:0.289708 3:-0.967558 4:0.24858 5:0.0266358 6:-0.922266 7:-0.0268569 8:0.204643 9:-0.307462 10:0.142503 11:-0.205406 12:0.0291554 13:0.263284 14:-0.0547576 15:0.659155 16:-0.0481241 17:-0.132944 18:0.472132 19:-0.00213355 20:-0.875711 21:-0.556397 22:0.799197 23:0.310345 
1.170425537173084 1:-0.0546043 2:0.780819 3:-0.283744 4:-0.630642 5:0.776241 6:-0.4 7:0.0107087 8:-0.184453 9:0.101674 10:0.0593092 11:0.0196614 12:-0.8125 13:0.281022 14:-0.279369 15:0.384685 16:0.364646 17:-0.409067 18:-0.219899 19:0.0169556 20:-0.472322 21:-0.402531 22:-0.606426 23:0.310345 
0.8108606757208535 1:0.14434 2:-0.10735 3:-0.963742 4:-0.992981 5:-0.118279 6:-0.4 7:-0.425431 8:-0.138741 9:0.665159 10:0.495247 11:-0.868759 12:0.139922 13:0.271323 14:-0.0798978 15:-0.372817 16:0.778578 17:-0.405931 18:0.263344 19:-0.726018 20:0.847936 21:-0.539531 22:1 23:0.310345 
2 1:0.452277 2:-0.58843 3:0.835214 4:-9.91555e-07 5:3.37224e-05 6:0.85 7:-0.159021 8:-0.655033 9:0.502883 10:-0.00192755 11:0.218738 12:0.71875 13:0.232953 14:0.134683 15:-0.33251 16:0.005883 17:0.104386 18:-0.0771975 19:0.0812623 20:0.756292 21:-0.508516 22:0.799197 23:0.310345 
2 1:-0.106535 2:0.175692 3:-0.337758 4:0.367978 5:-0.6536 6:0.4 7:0.14934 8:0.220968 9:0.556793 10:0.0387076 11:-0.215302 12:0.94375 13:0.0318067 14:0.072266 15:0.893411 16:-0.163857 17:0.219953 18:0.265286 19:-0.716594 20:-0.293652 21:-0.84934 22:-0.204819 23:0.310345 
0.5437359659580082 1:-0.470152 2:-0.882186 3:0.419019 4:-0.0965527 5:-0.37325 6:0.232937 7:-0.338519 8:-0.169437 9:-0.059442 10:-0.98285 11:0.184583 12:-0.4 13:0.250091 14:-0.0454746 15:-0.478515 16:-0.452687 17:0.282916 18:-0.331745 19:0.387086 20:0.30494 21:-0.581396 22:0.799197 23:0.310345 
0.5613110877674127 1:0.0130134 2:-0.29579 3:0.579282 4:-0.18551 5:0.726853 7:-0.154281 8:0.631784 9:-0.976488 10:0.124612 11:0.00964335 12:-1 13:0.337303 14:-0.058843 15:0.445037 16:0.16769 17:-0.388341 18:-0.517986 19:-0.633499 20:0.523946 21:-0.413883 22:0.598394 23:0.310345 
2 1:-0.133871 2:-0.225164 3:-0.0764536 4:0.971881 5:-0.235481 6:0.032791 7:0.748295 8:-0.50734 9:-0.57226 10:-1.70105e-05 11:-5.4073e-06 12:-0.85 13:0.440528 14:-0.0573743 15:-0.495837 16:-0.497082 17:0.113196 18:-0.458516 19:-0.648146 20:0.287858 21:-0.215122 22:1 23:0.310345 
2 1:0.292975 2:-0.579319 3:-0.319177 4:0.540599 5:-0.84139 6:0.4 7:0.706432 8:0.27349 9:-0.353772 10:0.278138 11:-0.559703 12:0.0759737 13:-0.164568 14:0.327074 15:-0.0349916 16:-0.129216 17:0.137476 18:-0.175009 19:-0.106379 20:0.691635 21:-0.36283 22:0.39759 23:0.310345 
2 1:0.730755 2:0.111169 3:-0.594336 4:0.288454 5:0.95769 6:-0.0608305 7:0.565725 8:-0.483813 9:-0.0616599 10:-0.337416 11:0.0657972 12:-0.0608326 13:0.217545 14:-0.0614537 15:0.531831 16:-0.317652 17:-0.480298 18:-0.0106045 19:0.264232 20:-0.962181 21:-0.644433 22:0.598394 23:0.310345 
0.8043706833540413 1:-0.174847 2:-0.306184 3:-0.888604 4:-0.351692 5:-0.130137 6:-0.85 7:-0.694342 8:-0.546324 9:0.727378 10:0.654433 11:-0.756126 12:0.475 13:0.267729 14:-0.0648097 15:-0.385726 16:0.528589 17:-0.340384 18:0.661679 19:-0.521163 20:0.294282 21:-0.547702 22:1 23:0.310345 
2 1:0.945422 2:-0.4958 3:0.685209 4:0.0515689 5:-0.0782714 6:-0.79375 7:0.720402 8:0.118445 9:-0.905151 10:-0.119392 11:-0.0370886 12:0.0481363 13:0.225466 14:-0.10433 15:0.410472 16:-0.0817663 17:0.0109083 18:0.416555 19:0.746596 20:0.88253 21:-0.622016 22:0.196787 23:0.310345 
0.2264951614794408 1:-0.781309 2:0.742734 3:-0.727108 4:0.488534 5:0.569195 6:0.625 7:-0.512869 8:0.03607 9:0.180397 10:0.843394 11:0.53729 12:0.4 13:0.104564 14:0.229783 15:0.906362 16:0.190883 17:-0.0275194 18:-0.124765 19:0.649244 20:-0.199611 21:-0.540198 22:-0.00401606 23:0.310345 
2 1:-0.251395 2:0.556831 3:-0.0401175 4:-0.732647 5:0.0911 6:-0.0966115 7:0.105465 8:0.485492 9:-0.508233 10:-0.00918316 11:-0.387595 12:-0.0966192 13:0.160474 14:-0.0619752 15:-0.46817 16:0.382024 17:-0.26281 18:-0.0106074 19:-0.162874 20:-0.331346 21:-0.754286 22:-0.405622 23:0.310345 
2 1:0.0436768 2:0.0810675 3:0.910732 4:0.499241 5:-0.143762 6:0.0867293 7:-0.303793 8:0.221217 9:-0.575707 10:-1.70105e-05 11:-5.4073e-06 12:0.85 13:0.167992 14:-0.0573743 15:0.514306 16:-0.252001 17:0.0649114 18:0.376667 19:-0.874332 20:-0.69731 21:-0.739906 22:-0.405622 23:0.310345 
0.1997347661730741 1:-0.715151 2:0.2064 3:-0.398303 4:0.317185 5:-0.948491 6:0.027421 7:-0.451224 8:-0.74713 9:-0.905319 10:-0.0373278 11:-0.0115742 12:-0.896875 13:0.359002 14:-0.0578401 15:-0.507032 16:-0.176946 17:0.482467 18:-0.479575 19:0.248486 20:-0.0700264 21:-0.372106 22:1 23:0.310345 
2 1:-0.105162 2:0.883295 3:-0.394313 4:-9.91555e-07 5:3.37224e-05 6:-0.85 7:0.238086 8:0.335897 9:0.213714 10:0.2935 11:0.233396 12:0.625 13:0.230746 14:0.0467899 15:0.607117 16:0.15907 17:0.112104 18:0.737786 19:0.160193 20:-0.451818 21:-0.58523 22:-0.405622 23:0.310345 
2 1:-0.107398 2:0.882372 3:-0.345967 4:-0.117006 5:0.221001 6:0.925 7:0.220893 8:0.302343 9:0.16889 10:0.458061 11:0.269065 12:0.0861727 13:0.249414 14:-0.00910075 15:0.514021 16:0.305072 17:0.0145574 18:-0.43621 19:0.15959 20:-0.450732 21:-0.576173 22:-0.606426 23:0.310345 
0.5319242382428305 1:0.25009 2:0.0190861 3:-0.39775 4:0.10768 5:-0.32013 6:0.220611 7:0.421972 8:-0.613119 9:0.194398 10:0.818972 11:0.573827 12:-0.4 13:0.237318 14:-0.0459342 15:0.591252 16:0.375706 17:0.459901 18:-0.325491 19:-0.574583 20:-0.976862 21:-0.606002 22:1 23:0.310345 
2 1:-0.722866 2:-0.34328 3:0.0229933 4:0.872575 5:0.065146 6:-0.0867462 7:-0.0359645 8:-0.276023 9:-0.5246 10:-0.0187548 11:-0.249304 12:0.7 13:0.317747 14:-0.0603228 15:-0.547584 16:-0.455304 17:-0.176332 18:0.388578 19:0.306857 20:0.108807 21:-0.451524 22:0.598394 23:0.310345 
1.520684758673037 1:-0.949335 2:-0.483149 3:0.215713 4:0.0607744 5:0.0491326 6:-0.94375 7:-0.701001 8:0.199507 9:-0.0957308 10:0.194065 11:-0.0599489 12:-0.953125 13:0.223972 14:0.0837987 15:-0.311627 16:0.0759964 17:-0.0681998 18:-0.0153602 19:0.737303 20:0.116336 21:-0.570087 22:-0.606426 23:0.310345 
2 1:-0.279365 2:0.477597 3:-0.147814 4:0.447644 5:-0.222747 6:0.176104 7:0.221296 8:0.174966 9:0.5123 10:-0.038301 11:0.999268 12:0.176127 13:0.255283 14:-0.0469076 15:0.659158 16:-0.245098 17:0.632643 18:-0.0105916 19:-0.222122 20:-0.293433 21:-0.571499 22:1 23:0.310345 
2 1:-0.616692 2:-0.42646 3:-0.0626069 4:-0.536305 5:0.105553 6:0.568489 7:0.158043 8:-0.636827 9:0.30287 10:-0.580349 11:-0.814398 12:-0.4 13:0.372304 14:-0.0647534 15:0.364755 16:-0.0159515 17:-0.495145 18:-0.501998 19:0.181352 20:0.152566 21:-0.346381 22:-0.606426 23:0.310345 
2 1:-0.315196 2:-0.877899 3:0.140041 4:-0.225987 5:-0.106898 6:0.0826043 7:0.180442 8:-0.539066 9:0.609018 10:-0.162419 11:0.456337 12:0.082609 13:0.25626 14:-0.0516261 15:0.468169 16:0.0398453 17:0.285784 18:-0.0106011 19:0.246637 20:0.359718 21:-0.569845 22:-0.606426 23:0.310345 
2 1:0.465745 2:0.396328 3:0.498528 4:-0.00311546 5:-0.875109 6:0.357798 7:0.430719 8:0.889408 9:0.967537 10:-0.994685 11:0.103289 12:0.357735 13:0.167418 14:-0.0455069 15:0.468195 16:-0.507274 17:0.504315 18:-0.0106351 19:-0.0480192 20:-0.817269 21:-0.740399 22:-0.00401606 23:0.310345 
2 1:0.475452 2:0.334167 3:0.556903 4:0.120079 5:-0.661136 6:-0.0663981 7:0.385372 8:0.892528 9:-0.975716 10:-0.0155927 11:-0.00124922 12:-0.0677373 13:0.194968 14:-0.0571889 15:0.468169 16:-0.0634684 17:0.336626 18:-0.0112829 19:-0.0748394 20:-0.843509 21:-0.687962 22:-0.204819 23:0.310345 
2 1:0.497458 2:0.414942 3:0.371832 4:-0.012207 5:-0.0287388 6:-0.0153868 7:0.630341 8:0.881158 9:0.827665 10:0.147179 11:-0.0887485 12:-0.899964 13:0.173299 14:-0.0594039 15:0.455031 16:0.0895279 17:-0.0423686 18:-0.459423 19:0.0112428 20:-0.820191 21:-0.72967 22:-0.606426 23:0.310345 
0.9897016477214088 1:-0.900812 2:-0.0496765 3:0.27667 4:-0.290945 5:-0.345446 6:-0.180805 7:-0.466305 8:0.557779 9:0.61822 10:0.362337 11:-0.932055 12:-0.180826 13:0.285412 14:-0.0678411 15:0.340842 16:0.345629 17:-0.319668 18:-0.010614 19:0.539779 20:0.0121917 21:-0.513518 22:0.196787 23:0.310345 
0.9177839770322496 1:-0.252991 2:-0.454546 3:0.937213 4:-0.980608 5:0.196055 6:-0.4 7:0.543832 8:-0.0495687 9:-0.456508 10:0.120979 11:-0.866606 12:-0.55 13:-0.377905 14:-0.3021 15:0.606948 16:0.578094 17:-0.570278 18:-0.0867109 19:-0.285196 20:0.298306 21:-0.276838 22:1 23:0.310345 
0.848534572568676 1:0.20242 2:0.756919 3:-0.896763 4:0.709816 5:0.242274 7:-0.385009 8:0.478403 9:-0.431061 10:0.0270921 11:-0.122031 12:1 13:0.29677 14:-0.0558925 15:0.464916 16:-0.347135 17:-0.202567 18:0.496779 19:0.0433464 20:-0.609105 21:-0.49193 22:0.196787 23:0.310345 
2 1:0.487525 2:0.655333 3:0.688573 4:0.558865 5:-0.829366 6:0.4 7:0.0218287 8:0.252631 9:-0.15085 10:0.500838 11:-0.256052 12:-0.137953 13:-0.0121882 14:0.242231 15:-0.839192 16:-0.0232109 17:0.291028 18:-0.283551 19:0.196285 20:-0.747373 21:-0.569495 22:-0.606426 23:0.310345 
2 1:-0.286564 2:-0.788482 3:0.451521 4:0.0766552 5:0.503504 6:0.0604847 7:-0.198751 8:-0.114246 9:-0.0165859 10:-1.70105e-05 11:-5.4073e-06 12:-0.108043 13:0.233173 14:-0.0573743 15:-0.46817 16:-0.0328753 17:-0.27584 18:-0.0961116 19:0.119999 20:0.358239 21:-0.614396 22:1 23:0.310345 
2 1:-0.341794 2:-0.502426 3:0.950448 4:-0.493952 5:0.0775917 6:-0.55 7:-0.0394443 8:-0.0495401 9:-0.136601 10:0.796121 11:-0.363066 12:-0.55 13:-0.13431 14:-0.261478 15:0.913375 16:0.675824 17:-0.242783 18:-0.0106035 19:-0.139504 20:0.26674 21:-0.670851 22:-0.204819 23:0.310345 
2 1:-0.272993 2:-0.644609 3:0.650886 4:0.399948 5:-0.778344 6:0.258655 7:-0.503535 8:-0.0502855 9:-0.881722 10:-0.930634 11:-0.366042 12:0.258632 13:0.233694 14:-0.045507 15:0.468179 16:-0.683065 17:0.206255 18:-0.0106149 19:-0.0575537 20:0.338206 21:-0.612943 22:0.598394 23:0.310345 
2 1:0.274168 2:0.755414 3:-0.490748 4:0.0193671 5:-0.594613 6:0.493083 7:0.300271 8:-0.00580723 9:-0.867088 10:0.456396 11:0.204187 12:0.775 13:0.26637 14:-0.0486314 15:-0.376459 16:0.233494 17:0.409774 18:0.132436 19:0.0894502 20:-0.643101 21:-0.550257 22:0.799197 23:0.310345 
0.2976505010120033 1:0.613934 2:-0.785093 3:0.459302 4:0.0315879 5:0.248072 6:-0.158012 7:0.691488 8:0.0887514 9:-0.231832 10:0.747303 11:-0.664489 12:-0.387191 13:0.308453 14:-0.0672173 15:-0.691019 16:0.378 17:-0.491241 18:-0.126885 19:0.460597 20:0.758379 21:-0.469203 22:-0.00401606 23:0.310345 
2 1:-0.34371 2:0.554232 3:0.12165 4:-0.927113 5:-0.374817 6:-0.4 7:0.284745 8:0.316155 9:0.456029 10:0.0624713 11:0.448793 12:0.803125 13:0.239054 14:-0.27514 15:0.33368 16:0.520016 17:0.422857 18:0.599841 19:-0.0748088 20:-0.283839 21:-0.47229 22:-0.405622 23:0.310345 
2 1:0.64913 2:0.636807 3:-0.687874 4:-0.414925 5:-0.624843 6:0.0939319 7:0.372569 8:0.121645 9:-0.155199 10:-0.162334 11:0.0857893 12:-0.00751624 13:0.214346 14:-0.0595531 15:0.531831 16:0.137861 17:0.363349 18:-0.0620765 19:0.391605 20:-0.796579 21:-0.650633 22:-0.606426 23:0.310345 
2 1:0.265765 2:-0.438587 3:-0.651926 4:0.286279 5:0.559002 6:-0.330999 7:0.0687741 8:-0.887734 9:-0.07863 10:-0.727471 11:0.182556 12:0.4 13:0.179487 14:-0.066089 15:0.572419 16:-0.518778 17:-0.208932 18:0.360293 19:-0.28169 20:0.719878 21:-0.717462 22:-0.606426 23:0.310345 
2 1:-0.879451 2:0.510526 3:0.949764 4:0.987565 5:-0.157204 6:0.4 7:-0.491012 8:0.17861 9:0.274869 10:0.324774 11:0.380148 12:-0.299436 13:-0.212075 14:0.0454564 15:-0.674801 16:-0.336802 17:0.272151 18:-0.365485 19:0.644776 20:-0.132864 21:-0.676803 22:0.196787 23:0.310345 
2 1:-0.852221 2:0.56347 3:-0.398514 4:-0.19785 5:0.592993 6:0.7 7:-0.384094 8:0.514429 9:0.499202 10:0.00280518 11:0.999998 12:0.4 13:0.0699796 14:0.165392 15:0.896574 16:0.110929 17:0.203583 18:-0.162818 19:0.631893 20:-0.148797 21:-0.670387 22:-0.00401606 23:0.310345 
2 1:-0.935668 2:0.565494 3:-0.95589 4:0.587671 5:0.0847941 6:-0.71875 7:-0.494826 8:0.165117 9:0.268087 10:0.267791 11:0.300266 12:-0.0216276 13:-0.197151 14:0.136124 15:-0.777416 16:-0.158989 17:0.102691 18:0.343104 19:0.762907 20:-0.13754 21:-0.608552 22:-0.405622 23:0.310345 
1.601940182016394 1:-0.110685 2:-0.148032 3:-0.780488 4:0.0261035 5:0.0217509 6:-0.890746 7:-0.58212 8:-0.438054 9:-0.325598 10:-0.312236 11:0.509621 12:0.427235 13:0.241039 14:-0.135047 15:0.45411 16:-0.168557 17:0.246112 18:0.658117 19:-0.75017 20:0.250341 21:-0.580884 22:1 23:0.310345 
2 1:0.269325 2:0.892261 3:0.377974 4:-0.180562 5:-0.449506 7:-0.245289 8:0.471861 9:-0.206451 10:0.299171 11:-0.226093 12:0.85 13:-0.255827 14:0.141806 15:-0.584394 16:0.255638 17:0.106827 18:0.420672 19:0.249547 20:-0.62161 21:-0.516199 22:0.598394 23:0.310345 
2 1:0.104751 2:0.794103 3:0.836979 4:-0.108977 5:0.0612751 6:0.775 7:-0.246492 8:0.371249 9:-0.30847 10:0.141853 11:-0.205856 12:0.128344 13:0.062312 14:0.187704 15:0.855025 16:0.136945 17:-0.151417 18:-0.338706 19:0.0469113 20:-0.556188 21:-0.639261 22:-0.204819 23:0.310345 
0.4403515463971409 1:-0.020331 2:0.604965 3:-0.674267 4:-0.0646457 5:-0.106971 6:-0.0161941 7:-0.246902 8:0.0937709 9:-0.141592 10:-0.16585 11:0.0787802 12:-0.0175098 13:0.20652 14:-0.0595531 15:0.531831 16:-0.0455946 17:0.0870257 18:-0.011271 19:-0.215858 20:-0.487966 21:-0.665702 22:-0.606426 23:0.310345 
2 1:-0.0549413 2:-0.779112 3:-0.895223 4:0.94485 5:0.327594 6:-0.475 7:-0.625829 8:-0.541048 9:0.249352 10:0.309879 11:0.308823 12:0.0623016 13:0.232508 14:-0.249903 15:-0.856755 16:-0.322376 17:-0.0206244 18:0.262014 19:0.00026066 20:0.472457 21:-0.508743 22:-0.204819 23:0.310345 
2 1:-0.546459 2:-0.85509 3:-0.741969 4:0.600297 5:0.636749 6:-0.55 7:-0.707152 8:-0.130877 9:0.106847 10:-0.826004 11:-0.288788 12:0.55 13:-0.144739 14:-0.331974 15:0.847719 16:-0.732699 17:-0.49804 18:0.547518 19:0.439922 20:0.276813 21:-0.553534 22:0.196787 23:0.310345 
2 1:-0.515564 2:-0.890179 3:0.346554 4:-0.0577929 5:-0.110823 6:1 7:-0.657017 8:-0.165299 9:0.208481 10:-0.0991208 11:-0.0761885 12:-0.775 13:0.180236 14:0.158446 15:-0.138398 16:-0.0145472 17:0.00745778 18:-0.911208 19:0.442038 20:0.292217 21:-0.559659 22:-0.606426 23:0.310345 
0.8465565980837764 1:0.75843 2:0.502694 3:-0.698937 4:0.181819 5:0.254238 6:0.0811667 7:0.502459 8:0.0444994 9:-0.229975 10:0.293413 11:-0.257864 12:0.0811713 13:0.190112 14:-0.0527387 15:0.468169 16:0.0647448 17:-0.280385 18:-0.0106011 19:0.460664 20:-0.851568 21:-0.697229 22:0.598394 23:0.310345 
2 1:0.307638 2:0.884308 3:-0.546757 4:0.0356906 5:0.247515 6:0.169368 7:0.241147 8:0.157967 9:-0.0134467 10:0.874253 11:-0.0361053 12:-0.55 13:0.25388 14:-0.0469925 15:0.532464 16:0.441699 17:-0.160083 18:-0.375598 19:0.266272 20:-0.637878 21:-0.574206 22:-0.606426 23:0.310345 
2 1:0.975567 2:-0.263835 3:-0.972772 4:-9.91555e-07 5:3.37224e-05 6:-0.85 7:0.40475 8:-0.100145 9:-0.508702 10:-0.0164982 11:-0.656053 12:0.68125 13:0.249665 14:-0.148238 15:0.463286 16:-0.00167227 17:-0.35622 18:0.766326 19:0.711544 20:0.938396 21:-0.558443 22:-0.204819 23:0.310345 
2 1:0.941705 2:-0.252984 3:0.937871 4:-0.0613141 5:0.0121586 6:-0.708709 7:0.445906 8:-0.611492 9:-0.300592 10:0.587647 11:-0.809123 12:0.4 13:0.187737 14:0.139358 15:0.762083 16:0.343387 17:-0.4432 18:0.551936 19:0.651373 20:0.938864 21:-0.572003 22:-0.606426 23:0.310345 
2 1:-0.00629052 2:-0.864457 3:-0.670627 4:-0.126837 5:-0.215439 6:-0.925 7:-0.459661 8:-0.47742 9:-0.644573 10:0.218201 11:0.449867 12:0.775 13:-0.0186877 14:-0.354464 15:0.0256163 16:0.185795 17:0.339518 18:0.851947 19:0.107673 20:0.499095 21:-0.573942 22:1 23:0.310345 
1.507976562288163 1:0.779993 2:-0.810711 3:0.854635 4:-0.897607 5:0.440909 6:0.0256149 7:0.111058 8:-0.377107 9:-0.540945 10:-0.0354531 11:-0.279016 12:0.90625 13:0.345448 14:-0.0542011 15:0.605094 16:0.45394 17:-0.389796 18:0.436216 19:0.700227 20:0.79077 21:-0.398182 22:1 23:0.310345 
1.613032760851848 1:-0.0841926 2:0.867628 3:0.647489 4:0.111892 5:-0.223566 6:0.925 7:-0.546892 8:0.536776 9:-0.387114 10:0.218143 11:-0.585699 12:0.0872218 13:-0.0183031 14:0.236215 15:0.965784 16:0.0619751 17:-0.201463 18:-0.435678 19:0.134991 20:-0.460907 21:-0.580083 22:-0.204819 23:0.310345 
2 1:-0.147615 2:-0.0652148 3:-0.0548876 4:-0.492793 5:0.0846433 6:0.775 7:0.0887262 8:0.687515 9:-0.105585 10:-1.70105e-05 11:-5.4073e-06 12:0.85 13:0.0506119 14:0.265845 15:-0.0510854 16:0.262404 17:-0.0553321 18:0.0274503 19:-0.751432 20:0.0965124 21:-0.51371 22:0.196787 23:0.310345 
2 1:-0.118681 2:0.865197 3:-0.214583 4:0.195751 5:-0.155496 6:0.20086 7:0.309197 8:0.428251 9:-0.731169 10:0.413727 11:0.468449 12:0.475 13:0.251059 14:-0.0499302 15:-0.516598 16:0.119907 17:0.317745 18:0.128491 19:0.140668 20:-0.444459 21:-0.579789 22:1 23:0.310345 
2 1:0.00926041 2:0.88994 3:-0.833953 4:0.270257 5:0.156958 6:-0.6625 7:-0.412374 8:0.526701 9:0.722503 10:-0.64282 11:0.766041 12:-0.248985 13:0.237 14:-0.0494273 15:-0.445205 16:-0.466576 17:0.309946 18:0.199207 19:0.155691 20:-0.505712 21:-0.606827 22:-0.606426 23:0.310345 
2 1:0.943009 2:-0.596707 3:0.858343 4:0.075369 5:-0.0359026 6:-0.0231863 7:0.443982 8:-0.286759 9:0.326531 10:-0.0486075 11:-0.0801815 12:-0.0115128 13:0.245226 14:-0.0562618 15:-0.531831 16:-0.0574039 17:-0.0340864 18:-0.00468053 19:0.794858 20:0.860634 21:-0.591183 22:-0.606426 23:0.310345 
0.9740248635247659 1:-0.379749 2:0.00324925 3:0.668803 4:0.189884 5:-0.323392 6:-0.85 7:0.129189 8:0.606909 9:0.839746 10:-0.222279 11:0.122754 12:-0.697656 13:0.049978 14:-0.418089 15:0.170364 16:-0.206838 17:0.224114 18:0.0666931 19:-0.361896 20:-0.00525192 21:-0.4497 22:-0.00401606 23:0.310345 
2 1:-0.116978 2:-0.136677 3:-0.295805 4:-0.600814 5:0.79956 6:0.4 7:0.325437 8:0.141525 9:-0.321112 10:-0.133608 11:0.211311 12:0.00220997 13:0.0352799 14:0.203701 15:-0.0257114 16:0.249146 17:-0.320433 18:-0.212435 19:-0.752311 20:0.228139 21:-0.626449 22:0.799197 23:0.310345 
2 1:-0.678555 2:0.822944 3:-0.885029 4:-0.93389 5:-0.357593 6:0.4 7:-0.155033 8:0.155896 9:-0.876987 10:-0.318011 11:-0.130571 12:-0.86875 13:-0.162567 14:0.294565 15:0.00762262 16:0.32624 17:0.108735 18:-0.654345 19:0.578267 20:-0.237537 21:-0.416543 22:0.39759 23:0.310345 
0.8604780319694429 1:-0.764686 2:0.882494 3:-0.490512 4:-9.91555e-07 5:3.37224e-05 6:-0.85 7:-0.426939 8:0.28138 9:-0.765455 10:-0.554023 11:-0.505566 12:-0.170339 13:0.210853 14:0.104848 15:-0.275144 16:-0.280394 17:-0.276984 18:0.334245 19:0.74087 20:-0.229523 21:-0.573064 22:-0.606426 23:0.310345 
1.623585218379397 1:-0.489888 2:-0.653617 3:0.431266 4:0.159793 5:0.732938 6:-0.13992 7:-0.291776 8:0.340105 9:0.772821 10:0.75528 11:-0.655408 12:-0.139923 13:0.36058 14:-0.0678411 15:0.340844 16:0.315657 17:-0.741716 18:-0.0106051 19:0.179912 20:0.251325 21:-0.368835 22:-0.405622 23:0.310345 
2 1:-0.45501 2:-0.949224 3:0.321851 4:-0.13241 5:-0.212059 6:-0.7 7:-0.760625 8:-0.35346 9:-0.63662 10:-0.206937 11:-0.455185 12:0.291191 13:0.0798936 14:0.22298 15:-0.958139 16:-0.0317611 17:-0.138801 18:0.49231 19:0.445242 20:0.320634 21:-0.569569 22:0.598394 23:0.310345 
2 1:-0.514427 2:-0.552533 3:0.328391 4:-0.183541 5:-0.307854 6:0.0869616 7:-0.314882 8:-0.116924 9:0.797372 10:-0.301336 11:0.223234 12:0.0869674 13:0.165975 14:-0.0529241 15:0.468169 16:-0.0541964 17:0.26884 18:-0.0106005 19:0.123013 20:0.216743 21:-0.743703 22:-0.606426 23:0.310345 
2 1:-0.948332 2:-0.187862 3:0.0453212 4:0.0618472 5:0.00903885 6:-0.363597 7:-0.366221 8:-0.0974125 9:0.662947 10:0.122288 11:-0.218048 12:0.7 13:0.261053 14:-0.0668408 15:0.6167 16:0.0382216 17:-0.130337 18:0.529047 19:0.63808 20:0.0464327 21:-0.560454 22:0.196787 23:0.310345 
2 1:-0.203443 2:0.863887 3:0.702321 4:0.148529 5:-0.201094 6:0.925 7:-0.628547 8:0.435822 9:0.679321 10:-0.533401 11:0.84588 12:-0.4 13:-0.0116075 14:0.241096 15:-0.0234235 16:-0.346719 17:0.54048 18:-0.682886 19:0.173219 20:-0.405544 21:-0.571466 22:-0.00401606 23:0.310345 
0.5680235972009209 1:-0.59593 2:-0.384969 3:-0.31605 4:0.350323 5:-0.533641 6:0.467015 7:-0.0839206 8:-0.151762 9:0.0424643 10:-0.991037 11:-0.133844 12:-0.4 13:0.0491744 14:0.21995 15:0.357803 16:-0.688653 17:0.199691 18:-0.450512 19:0.125022 20:0.143727 21:-0.59254 22:1 23:0.310345 
2 1:0.48089 2:0.0025124 3:-0.861841 4:0.565881 5:0.265415 6:0.7 7:0.607144 8:-0.790699 9:-0.920685 10:-0.0605372 11:-0.0156158 12:-0.925 13:0.044618 14:0.271723 15:-0.0592103 16:-0.317938 17:-0.158718 18:-0.8351 19:-0.17674 20:-0.996239 21:-0.506065 22:-0.606426 23:0.310345 
2 1:0.939383 2:0.443204 3:0.0594026 4:0.0383677 5:0.00736485 6:-0.896875 7:0.235538 8:-0.150803 9:0.839235 10:0.43728 11:-0.242449 12:0.168276 13:-0.392284 14:-0.225791 15:0.778777 16:0.213729 17:-0.142303 18:0.529836 19:0.717844 20:-0.890324 21:-0.3128 22:1 23:0.310345 
0.2803241330336543 1:-0.355703 2:-0.0135282 3:-0.104899 4:-0.0430644 5:0.0146424 6:0.0859582 7:0.171694 8:-0.230109 9:-0.636972 10:0.207406 11:0.454945 12:-0.757845 13:0.255867 14:-0.0514411 15:-0.532074 16:0.136758 17:0.221066 18:-0.438735 19:-0.403475 20:0.00580164 21:-0.570594 22:1 23:0.310345 
2 1:-0.945197 2:0.50556 3:0.876215 4:0.173509 5:-0.0710464 6:-0.0668399 7:-0.136066 8:-0.00886906 9:0.202078 10:-0.704322 11:-0.519236 12:-0.0907319 13:-0.450605 14:-0.02577 15:-0.674042 16:-0.448299 17:-0.246762 18:-0.0227258 19:0.746762 20:-0.123435 21:-0.256536 22:0.598394 23:0.310345 
2 1:0.918749 2:0.132235 3:0.618084 4:-0.249729 5:0.640683 6:0.6625 7:0.254705 8:0.744165 9:-0.656483 10:-0.0587373 11:-0.110356 12:1 13:0.311718 14:0.180354 15:0.726013 16:0.105918 17:-0.406161 18:0.160638 19:0.590199 20:-0.964458 21:-0.338073 22:-0.405622 23:0.310345 
2 1:0.470653 2:-0.875267 3:-0.197284 4:-0.815615 5:0.57873 6:-0.4 7:0.243736 8:-0.362711 9:-0.857777 10:0.112546 11:0.0543553 12:-0.531321 13:-0.211581 14:0.0409623 15:-0.66039 16:0.488166 17:-0.28682 18:-0.0772335 19:0.386256 20:0.699759 21:-0.681004 22:-0.00401606 23:0.310345 
0.3509877551482183 1:0.196263 2:0.850842 3:-0.94213 4:0.403222 5:0.0760956 6:0.685807 7:-0.252548 8:0.397437 9:0.855956 10:0.730282 11:-0.356151 12:0.489351 13:0.236358 14:0.0771592 15:-0.203767 16:0.176468 17:-0.238355 18:-0.110282 19:0.156341 20:-0.595152 21:-0.554118 22:0.598394 23:0.310345 
0.03762794525659467 1:0.105227 2:0.552771 3:-0.376527 4:-0.166787 5:0.404564 6:0.325058 7:0.253218 8:0.134096 9:-0.908342 10:0.957905 11:0.287081 12:0.325168 13:0.156267 14:-0.045507 15:-0.531812 16:0.590067 17:-0.0725931 18:-0.0105478 19:-0.260911 20:-0.57998 21:-0.761833 22:-0.00401606 23:0.310345 
1.460804661416905 1:0.873277 2:-0.561386 3:0.86421 4:0.910448 5:-0.413661 7:-0.440889 8:0.80698 9:-0.784042 10:0.0667329 11:0.0541231 12:0.798438 13:0.78652 14:-0.267402 15:0.352623 16:-0.430615 17:0.235499 18:0.39451 19:0.666202 20:0.858787 21:0.494335 22:0.799197 23:0.310345 
1.526611685730234 1:0.190306 2:-0.876664 3:-0.301556 4:-0.146572 5:0.202595 6:0.925 7:0.474454 8:-0.255186 9:-0.213672 10:-0.0980127 11:0.0775978 12:-0.0222322 13:-0.113904 14:0.219005 15:0.0873902 16:0.0320624 17:-0.0765667 18:-0.491213 19:0.171679 20:0.591768 21:-0.575062 22:0.598394 23:0.310345 
2 1:-0.932228 2:0.702419 3:0.833757 4:0.758459 5:-0.436349 6:5.77316e-15 7:-0.499133 8:0.407456 9:-0.67837 10:0.0330616 11:0.0530241 12:-0.925 13:-0.2441 14:-0.0635816 15:0.48864 16:-0.369263 17:0.246865 18:-0.479933 19:0.839831 20:-0.165887 21:-0.65587 22:0.39759 23:0.310345 
2 1:-0.936311 2:0.812646 3:-0.402519 4:-0.30461 5:0.952673 6:0.475 7:-0.379354 8:0.516458 9:-0.734689 10:-0.335133 11:-0.371089 12:-0.775 13:0.16745 14:0.181563 15:-0.332326 16:-0.00894245 17:-0.707692 18:-0.644832 19:0.92148 20:-0.18585 21:-0.546483 22:-0.00401606 23:0.310345 
2 1:-0.950689 2:0.524456 3:-0.653942 4:-0.218148 5:-0.419342 6:0.791406 7:-0.448956 8:-0.154184 9:0.384504 10:0.354946 11:0.934884 12:0.214457 13:0.0992382 14:0.299402 15:-0.962804 16:0.304049 17:0.702239 18:-0.303337 19:0.764998 20:-0.126878 21:-0.430969 22:0.598394 23:0.310345 
2 1:0.524114 2:-0.848133 3:-0.0980868 4:-0.953664 5:0.300966 6:0.4 7:0.384548 8:-0.589687 9:0.164945 10:-0.329086 11:-0.187856 12:-0.142266 13:-0.103004 14:0.017897 15:0.262393 16:0.330751 17:-0.268124 18:-0.28574 19:0.414807 20:0.721113 21:-0.881866 22:0.799197 23:0.310345 
2 1:-0.0657849 2:-0.779007 3:-0.108136 4:-9.91555e-07 5:3.37224e-05 6:0.4 7:-0.102695 8:-0.630793 9:0.134783 10:-0.113948 11:-0.051436 12:-1 13:-0.0532904 14:-0.0126839 15:0.242296 16:-0.0522029 17:-0.0378696 18:-0.720939 19:0.00195587 20:0.466595 21:-0.988791 22:-0.0160643 23:-0.655172 
2 1:-0.0786618 2:-0.389833 3:0.481803 4:-0.0210129 5:-0.374441 6:0.0584988 7:-0.0431337 8:0.338473 9:-0.987104 10:-1.70105e-05 11:-5.4073e-06 12:0.0877365 13:0.252455 14:-0.0573743 15:0.531831 16:0.0177691 17:0.186351 18:0.00423128 19:-0.494997 20:0.419449 21:-0.577268 22:0.799197 23:0.310345 
2 1:-0.101561 2:-0.741136 3:0.596364 4:-0.298922 5:0.954474 6:0.4 7:-0.666053 8:-0.490816 9:0.366074 10:-1.70105e-05 11:-5.4073e-06 12:-0.85 13:0.155223 14:0.217588 15:-0.230546 16:0.161875 17:-0.513252 18:-0.644832 19:-0.0382853 20:0.444764 21:-0.510475 22:0.799197 23:0.310345 
2 1:-0.413719 2:-0.971039 3:-0.192823 4:0.823635 5:-0.567183 6:-0.475 7:0.120388 8:-0.524188 9:0.699168 10:-0.109707 11:0.152064 12:0.9625 13:0.107899 14:0.251501 15:0.89085 16:-0.477089 17:0.367889 18:0.718759 19:0.433017 20:0.337275 21:-0.502861 22:0.598394 23:0.310345 
2 1:0.723612 2:-0.500792 3:0.616375 4:0.0142023 5:-0.0369888 6:0.0271668 7:0.502477 8:0.185413 9:-0.833439 10:-0.216188 11:-0.125592 12:-0.925 13:0.254868 14:-0.0544307 15:0.550906 16:-0.112582 17:-0.0574247 18:-0.493717 19:0.399288 20:0.849672 21:-0.572596 22:1 23:0.310345 
1.192867059327449 1:0.381431 2:-0.873165 3:0.954594 4:0.989835 5:-0.14221 6:-0.4 7:0.00599863 8:-0.0828258 9:-0.978845 10:0.935212 11:0.0654425 12:0.0162454 13:0.207704 14:-0.343348 15:0.0676634 16:-0.02145 17:0.0985546 18:0.200592 19:0.299621 20:0.669758 21:-0.433454 22:-0.606426 23:0.310345 
0.3248530054562077 1:0.604684 2:-0.190883 3:0.687961 4:-9.91555e-07 5:3.37224e-05 6:-0.85 7:0.450613 8:0.363142 9:-0.859844 10:0.677462 11:0.321769 12:-0.4 13:0.191072 14:-0.120415 15:0.452993 16:0.358166 17:0.158635 18:0.217719 19:0.0646626 20:0.928967 21:-0.680455 22:-0.405622 23:0.310345 
0.09880348124804746 1:-0.197113 2:0.0689253 3:0.942183 4:0.245885 5:-0.0451404 6:0.107574 7:-0.490261 8:0.136844 9:0.410374 10:-0.108594 11:-0.37524 12:0.107584 13:0.139712 14:-0.0527387 15:-0.53183 16:-0.176927 17:-0.184582 18:-0.0105981 19:-0.663895 20:-0.0894606 21:-0.794249 22:0.39759 23:0.310345 
0.6582965527515388 1:-0.513699 2:0.305522 3:-0.747071 4:0.0872014 5:0.0896076 6:1 7:-0.29306 8:-0.341703 9:-0.909024 10:0.239617 11:0.0712529 12:0.0296643 13:0.0866029 14:0.206871 15:-0.162239 16:0.0859128 17:-0.0204258 18:-0.502935 19:-0.0415543 20:-0.13692 21:-0.590953 22:0.196787 23:0.310345 
2 1:-0.00199043 2:-0.252919 3:0.0694226 4:0.97585 5:0.218513 6:0.4 7:-0.698267 8:0.461238 9:0.293119 10:-0.226886 11:-0.2986 12:-0.625 13:-0.305218 14:0.310382 15:0.223086 16:-0.616778 17:-0.283027 18:-0.530671 19:-0.690455 20:0.502429 21:-0.243184 22:0.196787 23:0.310345 
2 1:0.34612 2:-0.613726 3:-0.42627 4:-0.232816 5:0.97272 6:-0.4 7:0.0426568 8:-0.350124 9:0.275251 10:-1.70105e-05 11:-5.4073e-06 12:0.117665 13:-0.1426 14:-0.192246 15:0.700536 16:0.127597 17:-0.522858 18:0.252051 19:-0.0161955 20:0.707781 21:-0.755498 22:-0.606426 23:0.310345 
2 1:-0.471097 2:0.0332117 3:-0.0476688 4:0.989164 5:-0.146806 6:0.0785252 7:0.875433 8:-0.205301 9:-0.388358 10:-0.345412 11:0.938461 12:0.0785256 13:0.662893 14:-0.0469075 15:-0.340845 16:-0.685141 17:0.560647 18:-0.0106033 19:-0.202511 20:-0.0195188 21:0.213182 22:1 23:0.310345 
