svm_type c_svc
kernel_type rbf
gamma 0.03125
nr_class 2
total_sv 1379
rho 1.43506
label 1 -1
probA -1.3589
probB -0.110704
nr_sv 721 658
SV
32 1:0.947025 2:-0.796511 3:0.817755 4:8.04567e-06 5:-1.2011e-05 7:0.811342 8:-0.772164 9:0.928915 10:5.35676e-06 11:-3.01253e-07 13:0.0136913 14:-0.0835669 15:0.110505 16:0.00114976 17:0.022405 18:0.0227727 19:0.888352 20:0.817996 21:-0.99616 22:2.66454e-15 23:-0.241379 
32 1:-0.938268 2:-0.757189 3:0.174444 4:8.04567e-06 5:-1.2011e-05 7:-0.816918 8:-0.706105 9:-0.862181 10:5.35676e-06 11:-3.01253e-07 13:0.0189276 14:-0.111968 15:0.96359 16:0.00114976 17:0.022405 18:0.0227727 19:0.865575 20:0.174617 21:-0.990867 22:-0.795181 23:-0.241379 
32 1:-0.981591 2:-0.222734 3:0.0532266 4:8.04567e-06 5:-1.2011e-05 7:-0.859577 8:-0.20241 9:-0.95426 10:5.35676e-06 11:-3.01253e-07 13:0.0154662 14:-0.10437 15:0.992768 16:0.00114976 17:0.022405 18:0.0227727 19:0.685573 20:0.053387 21:-0.998984 22:-0.598394 23:-0.241379 
12.53567667584926 1:-0.848286 2:0.471346 3:0.190912 4:-0.825425 5:-0.564533 6:-0.4 7:-0.696304 8:0.558068 9:-0.87538 10:5.35676e-06 11:-3.01253e-07 12:-0.0996147 13:0.0372679 14:-0.117994 15:0.933932 16:0.41598 17:0.313062 18:0.176386 19:0.561006 20:-0.128505 21:-0.952815 22:0.610442 23:-0.655172 
32 1:0.677856 2:-0.506313 3:0.765983 4:0.741682 5:-0.670792 6:0.0313224 7:0.52332 8:-0.353694 9:-0.23665 10:0.735971 11:-0.677025 12:0.230717 13:0.0519566 14:-0.103026 15:0.997305 16:-0.00171799 17:0.019184 18:0.124741 19:0.294388 20:0.83492 21:-0.925937 22:0.321285 23:1 
29.41116176773916 1:-0.371979 2:-0.502413 3:0.408364 4:-0.283894 5:-0.958884 6:0.00429775 7:-0.240643 8:0.0761838 9:-0.595583 10:-0.295476 11:-0.955351 12:0.0242351 13:0.191717 14:-0.102983 15:0.996149 16:-0.00467039 17:0.0242098 18:0.0329683 19:-0.113027 20:0.251505 21:-0.646065 22:1 23:0.107193 
32 1:-0.381488 2:-0.890334 3:0.334824 4:8.04567e-06 5:-1.2011e-05 6:-0.803389 7:-0.397146 8:-0.764815 9:0.557793 10:5.35676e-06 11:-3.01253e-07 13:0.00311141 14:-0.0658638 15:0.222469 16:0.00114976 17:0.022405 18:0.433615 19:0.30722 20:0.335014 21:-0.997517 22:-0.726249 23:-0.241379 
25.29580842871744 1:-0.20799 2:-0.00319242 3:-0.352283 4:8.04567e-06 5:-1.2011e-05 6:-1 7:-0.111155 8:-0.031029 9:0.926216 10:5.35676e-06 11:-3.01253e-07 13:-0.00156578 14:-0.0604954 15:-0.72224 16:0.00114976 17:0.022405 18:0.534159 19:-0.667732 20:-0.00208469 21:-0.996961 22:-0.39759 23:-0.655172 
16.82642193810472 1:-0.31206 2:0.895468 3:-0.983366 4:8.04567e-06 5:-1.2011e-05 7:-0.218139 8:0.775384 9:0.660749 10:5.35676e-06 11:-3.01253e-07 13:-0.0773191 14:-0.0457834 15:-0.356535 16:0.00114976 17:0.022405 18:0.0227727 19:0.270606 20:-0.362516 21:-0.962593 22:0.751004 23:-0.241379 
32 1:-0.337397 2:-0.358048 3:0.688734 4:0.349233 5:-0.518355 6:0.7 7:-0.635498 8:-0.0341126 9:0.841298 10:0.877323 11:-0.47992 12:0.263496 13:0.152227 14:-0.0370128 15:0.151946 16:0.26655 17:0.042184 18:-0.200449 19:-0.284273 20:0.212546 21:-0.706243 22:1 23:1 
5.957278948405161 1:-0.360303 2:-0.94296 3:-0.373894 4:8.04567e-06 5:-1.2011e-05 7:-0.434034 8:-0.818256 9:0.723218 10:5.35676e-06 11:-3.01253e-07 13:-0.0947212 14:-0.123084 15:-0.903525 16:0.00114976 17:0.022405 18:0.0227727 19:0.350933 20:0.350172 21:-0.971385 22:0.449799 23:-0.241379 
3.749133157901532 1:0.799467 2:0.13915 3:-0.526138 4:-0.0306607 5:-0.373763 6:0.625 7:0.869231 8:0.193837 9:0.01907 10:5.35676e-06 11:-3.01253e-07 12:0.7 13:-0.0567685 14:-0.0474298 15:0.54492 16:0.0165627 17:0.21484 18:0.0611266 19:0.341115 20:-0.955972 21:-0.987136 22:0.951807 23:-0.655172 
32 1:-0.625198 2:0.861401 3:-0.646552 4:8.04567e-06 5:-1.2011e-05 7:-0.581607 8:0.739881 9:0.593516 10:5.35676e-06 11:-3.01253e-07 13:0.00415908 14:-0.0637215 15:-0.760523 16:0.00114976 17:0.022405 18:0.0227727 19:0.539033 20:-0.25804 21:-0.993333 22:0.413655 23:-0.241379 
32 1:-0.264125 2:-0.172515 3:0.314209 4:-0.275524 5:-0.417253 6:-0.775 7:0.0601096 8:0.154373 9:-0.839295 10:-0.87489 11:-0.484322 12:0.0201799 13:0.157478 14:-0.180118 15:0.846709 16:-0.300068 17:-0.0121375 18:0.429417 19:-0.521582 20:0.141294 21:-0.689869 22:1 23:1 
28.80498350687618 1:0.610105 2:-0.85469 3:-0.251233 4:8.04567e-06 5:-1.2011e-05 6:-0.934375 7:0.679883 8:-0.771518 9:0.313412 10:-0.207796 11:-0.312161 12:-0.85 13:-0.0229618 14:-0.0390634 15:0.564226 16:-0.103283 17:-0.138321 18:0.0659209 19:0.490857 20:0.738303 21:-0.979564 22:-0.210679 23:-0.655172 
31.86830717427164 1:-0.201636 2:-0.6623 3:0.580246 4:0.0623641 5:-0.242115 6:0.925 7:-0.27485 8:-0.52648 9:-0.304476 10:5.35676e-06 11:-3.01253e-07 12:-0.20011 13:0.0255707 14:-0.077717 15:-0.884762 16:-0.0301879 17:0.147058 18:-0.552593 19:-0.0992072 20:0.375731 21:-0.970143 22:-0.0963855 23:-0.655172 
32 1:0.464603 2:0.190492 3:-0.596991 4:8.04567e-06 5:-1.2011e-05 6:-0.028146 7:0.312038 8:-0.366665 9:0.416146 10:0.261664 11:0.965162 12:-0.4 13:0.186154 14:-0.103603 15:-0.98736 16:0.132649 17:0.51935 18:-0.167388 19:-0.206408 20:-0.899452 21:-0.657205 22:1 23:1 
15.07171898194072 1:0.961157 2:-0.679259 3:0.496401 4:8.04567e-06 5:-1.2011e-05 6:-0.775 7:0.826414 8:-0.630172 9:0.945575 10:5.35676e-06 11:-3.01253e-07 12:0.85 13:-0.0149132 14:-0.0488882 15:0.448487 16:0.00114976 17:0.022405 18:0.853775 19:0.830568 20:0.84241 21:-0.992345 22:-0.402892 23:-0.241379 
32 1:0.0883334 2:-0.943305 3:0.147702 4:8.04567e-06 5:-1.2011e-05 6:-0.9625 7:0.0787079 8:-0.80461 9:0.513813 10:5.35676e-06 11:-3.01253e-07 12:0.583226 13:-0.00981784 14:-0.0497666 15:0.36562 16:0.00114976 17:0.022405 18:0.813236 19:0.208334 20:0.536492 21:-0.989669 22:-0.369478 23:-0.241379 
16.78656374116758 1:0.847703 2:0.922708 3:-0.776776 4:8.04567e-06 5:-1.2011e-05 7:0.715915 8:0.833054 9:0.210369 10:5.35676e-06 11:-3.01253e-07 13:0.0285505 14:-0.105889 15:0.98674 16:0.00114976 17:0.022405 18:0.0227727 19:0.85801 20:-0.776702 21:-0.972708 22:-0.448645 23:-0.241379 
32 1:0.704191 2:0.795938 3:-0.769504 4:0.18723 5:0.165667 6:0.925 7:0.608734 8:0.666929 9:0.318648 10:5.35676e-06 11:-3.01253e-07 12:-0.165304 13:0.02583 14:-0.0840468 15:-0.912307 16:-0.0929408 17:-0.0628987 18:-0.534794 19:0.562197 20:-0.770401 21:-0.973336 22:-0.0120482 23:-0.655172 
24.68765856411077 1:0.672696 2:0.810211 3:0.480416 4:8.04567e-06 5:-1.2011e-05 6:0.7 7:0.534438 8:0.801769 9:-0.00673898 10:5.35676e-06 11:-3.01253e-07 12:-0.4 13:-0.0452057 14:-0.0424817 15:-0.487356 16:0.00114976 17:0.022405 18:-0.539752 19:0.534767 20:-0.760291 21:-0.985642 22:0.465863 23:-0.241379 
32 1:-0.939404 2:-0.718467 3:0.0615948 4:8.04567e-06 5:-1.2011e-05 6:-0.8875 7:-0.813386 8:-0.65837 9:-0.86815 10:5.35676e-06 11:-3.01253e-07 12:-0.126153 13:0.0213491 14:-0.0882022 15:-0.929535 16:0.00114976 17:0.022405 18:0.412115 19:0.841195 20:0.167059 21:-0.983957 22:0.634538 23:-0.241379 
32 1:-0.472307 2:0.753584 3:-0.385577 4:-0.350533 5:0.932194 6:-0.477449 7:-0.473967 8:0.240988 9:-0.565059 10:0.202703 11:0.979243 12:0.4 13:0.147132 14:-0.184451 15:-0.17946 16:0.279186 17:0.0466317 18:0.471488 19:0.258437 20:-0.280847 21:-0.706359 22:1 23:0.0360696 
3.02886330314188 1:-0.231913 2:0.729062 3:-0.642137 4:0.053959 5:0.112748 6:-1 7:-0.328317 8:0.691865 9:-0.913729 10:5.35676e-06 11:-3.01253e-07 13:0.00368757 14:-0.143694 15:-0.27141 16:-0.0259639 17:-0.0356522 18:0.534159 19:0.0144381 20:-0.372633 21:-0.992557 22:0.248996 23:-0.655172 
16.52891200313235 1:0.905876 2:0.161918 3:-0.981928 4:0.124805 5:0.00712433 6:1 7:0.78883 8:0.0309657 9:0.302059 10:5.35676e-06 11:-3.01253e-07 12:-0.925 13:0.00974636 14:-0.0498123 15:-0.716479 16:-0.0615684 17:0.0187307 18:-0.961646 19:0.526353 20:-0.955062 21:-0.967426 22:0.64257 23:-0.655172 
28.17355692270403 1:0.966112 2:0.120163 3:0.630691 4:-0.0498816 5:0.114603 6:-1 7:0.826552 8:0.0560671 9:0.131048 10:5.35676e-06 11:-3.01253e-07 12:0.625 13:-0.0371335 14:-0.0399186 15:-0.499902 16:0.0262223 17:-0.0366072 18:0.853775 19:0.622513 20:-0.968321 21:-0.983053 22:0.606426 23:-0.655172 
32 1:0.965973 2:0.139966 3:0.397033 4:8.04567e-06 5:-1.2011e-05 6:-0.94375 7:0.831443 8:0.0589984 9:0.184538 10:5.35676e-06 11:-3.01253e-07 13:-0.0800251 14:-0.0633647 15:-0.2128 16:0.00114976 17:0.022405 18:0.505394 19:0.625075 20:-0.963341 21:-0.981112 22:0.2249 23:-0.241379 
32 1:0.956426 2:0.856459 3:-0.893341 4:0.118044 5:0.0411328 6:-0.775 7:0.808914 8:0.781721 9:0.158235 10:5.35676e-06 11:-3.01253e-07 12:-0.256539 13:0.0292116 14:-0.0893258 15:-0.94881 16:-0.0581703 17:0.00122062 18:0.287906 19:0.95322 20:-0.80672 21:-0.969022 22:-0.0199285 23:-0.655172 
13.03458419379477 1:0.978744 2:-0.0910134 3:0.222091 4:8.04567e-06 5:-1.2011e-05 6:-0.8875 7:0.867707 8:-0.220999 9:-0.702833 10:5.35676e-06 11:-3.01253e-07 13:-0.0939518 14:-0.118908 15:-0.924786 16:0.00114976 17:0.022405 18:0.476628 19:0.639812 20:0.97878 21:-0.974846 22:-0.0843373 23:-0.241379 
16.62734112180753 1:0.149103 2:-0.182072 3:-0.411353 4:-0.0343812 5:0.120167 6:-1 7:0.0245061 8:-0.153575 9:-0.0988897 10:5.35676e-06 11:-3.01253e-07 12:0.4 13:-0.0595025 14:-0.160942 15:0.312245 16:0.0184324 17:-0.0394719 18:0.738714 19:-0.696675 20:0.758762 21:-0.981332 22:0.654618 23:-0.655172 
32 1:-0.565735 2:-0.885548 3:0.276257 4:8.04567e-06 5:-1.2011e-05 7:-0.513366 8:-0.757094 9:0.366362 10:5.35676e-06 11:-3.01253e-07 13:0.0174853 14:-0.0847174 15:0.089699 16:0.00114976 17:0.022405 18:0.0227727 19:0.484395 20:0.276441 21:-0.989671 22:-0.337349 23:-0.241379 
24.32292804326853 1:-0.970927 2:-0.481721 3:-0.559186 4:8.04567e-06 5:-1.2011e-05 7:-0.849879 8:-0.4139 9:0.0799447 10:5.35676e-06 11:-3.01253e-07 13:-0.0684948 14:-0.0556861 15:0.638809 16:0.00114976 17:0.022405 18:0.0227727 19:0.75675 20:0.114046 21:-0.987718 22:-0.0401606 23:-0.241379 
32 1:0.462184 2:-0.320085 3:0.485036 4:-0.0469795 5:-0.998926 6:0.4 7:0.378228 8:-0.132577 9:0.559584 10:0.184598 11:-0.982817 12:0.4 13:0.0342773 14:-0.064794 15:0.0740581 16:0.117533 17:0.0306844 18:0.0227727 19:-0.148606 20:0.845322 21:-0.944603 22:-0.240964 23:1 
32 1:0.379797 2:-0.889245 3:0.660446 4:8.04567e-06 5:-1.2011e-05 7:0.261981 8:-0.887313 9:0.982056 10:5.35676e-06 11:-3.01253e-07 13:-0.00724312 14:-0.0563261 15:0.320916 16:0.00114976 17:0.022405 18:0.0227727 19:0.294436 20:0.66067 21:-0.997539 22:-0.478686 23:-0.241379 
32 1:-0.166958 2:0.859972 3:-0.415241 4:0.0205823 5:-0.0753806 6:-0.94375 7:-0.121523 8:0.735027 9:0.639803 10:5.35676e-06 11:-3.01253e-07 12:-0.00807966 13:0.0217794 14:-0.0928473 15:-0.945553 16:-0.00919006 17:0.0612104 18:0.501262 19:0.142123 20:-0.41874 21:-0.984815 22:0.406588 23:-0.655172 
32 1:0.512525 2:-0.915007 3:-0.0621923 4:8.04567e-06 5:-1.2011e-05 7:0.424334 8:-0.789581 9:0.689199 10:5.35676e-06 11:-3.01253e-07 13:-0.0758376 14:-0.057092 15:0.750794 16:0.00114976 17:0.022405 18:0.0227727 19:0.445682 20:0.700175 21:-0.97981 22:0.164659 23:-0.241379 
16.80486711614139 1:0.512525 2:-0.915007 3:-0.0621923 4:8.04567e-06 5:-1.2011e-05 7:0.424334 8:-0.789581 9:0.689199 10:5.35676e-06 11:-3.01253e-07 13:-0.0758376 14:-0.057092 15:0.750794 16:0.00114976 17:0.022405 18:0.0227727 19:0.445682 20:0.700175 21:-0.97981 22:-0.00401606 23:-0.241379 
32 1:0.636212 2:-0.926808 3:0.081601 4:8.04567e-06 5:-1.2011e-05 6:-0.9625 7:0.548479 8:-0.789519 9:-0.348564 10:5.35676e-06 11:-3.01253e-07 12:0.4 13:-0.0500325 14:-0.0375075 15:-0.430219 16:0.00114976 17:0.022405 18:0.719537 19:0.591316 20:0.732096 21:-0.974618 22:0.620834 23:-0.241379 
32 1:0.533575 2:0.852049 3:0.28608 4:8.04567e-06 5:-1.2011e-05 7:0.279994 8:0.616465 9:0.213964 10:0.78308 11:0.621934 12:-9.99201e-15 13:-0.179179 14:-0.0661196 15:-0.0724442 16:0.394693 17:0.342628 18:0.0227727 19:0.412455 20:-0.715353 21:-0.799872 22:1 23:1 
32 1:-0.644568 2:-0.265719 3:0.352752 4:-0.446235 5:-0.894943 6:0.00924001 7:-0.507419 8:0.070566 9:0.351675 10:-0.450363 11:-0.892846 12:0.101664 13:0.105794 14:-0.103072 15:-0.00146988 16:-0.000924693 17:0.0234709 18:0.0700369 19:0.13394 20:0.094961 21:-0.818126 22:1 23:1 
32 1:-0.944991 2:-0.532269 3:-0.56051 4:8.04567e-06 5:-1.2011e-05 6:-0.9625 7:-0.874454 8:-0.394384 9:0.361769 10:5.35676e-06 11:-3.01253e-07 12:-0.229302 13:-0.089774 14:-0.0886284 15:0.921814 16:0.00114976 17:0.022405 18:0.39772 19:0.74004 20:0.128032 21:-0.983524 22:0.762037 23:-0.241379 
32 1:0.253866 2:0.913678 3:0.481609 4:8.04567e-06 5:-1.2011e-05 6:-0.925 7:0.291063 8:0.774568 9:-0.387071 10:5.35676e-06 11:-3.01253e-07 12:0.475 13:-0.0893304 14:-0.135951 15:-0.868685 16:0.00114976 17:0.022405 18:0.738714 19:0.247489 20:-0.607702 21:-0.972415 22:0.698244 23:-0.241379 
27.00491310149375 1:0.471633 2:-0.462098 3:0.339177 4:8.04567e-06 5:-1.2011e-05 6:0.85 7:0.476606 8:0.140202 9:0.501945 10:0.00467532 11:-0.999991 12:-0.4 13:0.169704 14:0.00355944 15:0.162297 16:0.00349671 17:-0.492473 18:-0.61646 19:-0.0342547 20:0.794957 21:-0.646361 22:1 23:1 
32 1:-0.481953 2:-0.654664 3:0.137086 4:-0.908651 5:-0.417576 6:0.000894388 7:-0.336228 8:-0.572547 9:0.137197 10:-0.908897 11:-0.417021 12:0.00379732 13:0.0423767 14:-0.103121 15:-0.000188089 16:0.00102584 17:0.0226815 18:0.0242572 19:0.162448 20:0.25337 21:-0.945121 22:-0.0361446 23:1 
32 1:0.244425 2:0.689213 3:-0.641104 4:0.428687 5:0.903463 6:0.0116491 7:0.0807284 8:0.26975 9:-0.652337 10:0.460157 11:0.887843 12:0.000634764 13:0.143512 14:-0.102707 15:-0.0111848 16:0.0169679 17:0.0143639 18:0.0171401 19:-0.0333537 20:-0.63405 21:-0.742595 22:1 23:0.0326811 
0.3642974788659687 1:-0.526308 2:0.639429 3:-0.715341 4:-0.625854 5:-0.779964 6:0.4 7:-0.282193 8:-0.12161 9:-0.269881 10:-0.661442 11:0.749996 12:-0.000928441 13:0.1161 14:0.197185 15:0.445306 16:-0.0167348 17:0.810142 18:-0.182257 19:0.212497 20:-0.238071 21:-0.474698 22:1 23:0.241379 
32 1:-0.426332 2:0.872191 3:-0.781252 4:8.04567e-06 5:-1.2011e-05 6:-0.8875 7:-0.354656 8:0.74678 9:-0.348906 10:5.35676e-06 11:-3.01253e-07 12:0.567649 13:-0.0265729 14:-0.0363372 15:0.432228 16:0.00114976 17:0.022405 18:0.766916 19:0.338292 20:-0.318069 21:-0.975784 22:0.62249 23:-0.241379 
32 1:0.257712 2:0.821132 3:0.497312 4:8.04567e-06 5:-1.2011e-05 6:0.85 7:-0.452346 8:-0.255401 9:0.703432 10:5.35676e-06 11:-3.01253e-07 13:-0.44326 14:0.282264 15:0.205557 16:0.00114976 17:0.022405 18:-0.411906 19:0.13563 20:-0.6204 21:-0.0198636 22:0.0361446 23:1 
32 1:0.676126 2:-0.441234 3:-0.868098 4:-0.0222045 5:-0.00979079 7:0.158348 8:-0.735814 9:0.955453 10:5.35676e-06 11:-3.01253e-07 13:0.237619 14:-0.103128 15:-0.177241 16:0.0123129 17:0.0274399 18:0.0227727 19:0.251325 20:0.852975 21:-0.554145 22:1 23:1 
32 1:-0.505799 2:-0.83173 3:0.942948 4:-0.76872 5:0.139345 6:-0.60625 7:-0.958932 8:0.0530745 9:0.439262 10:5.35676e-06 11:-3.01253e-07 13:0.256962 14:-0.416633 15:-0.504081 16:0.387482 17:-0.0493463 18:0.332801 19:0.364121 20:0.283893 21:-0.282878 22:0.678715 23:1 
32 1:-0.933014 2:-0.225487 3:-0.893063 4:0.118008 5:0.0412355 6:-1 7:-0.296556 8:-0.677256 9:0.0772989 10:5.35676e-06 11:-3.01253e-07 13:-0.272356 14:0.185673 15:0.970018 16:-0.0581523 17:0.00116774 18:0.534159 19:0.603967 20:0.0567809 21:-0.388528 22:0.0361446 23:1 
32 1:-0.756812 2:-0.27057 3:0.610368 4:8.04572e-06 5:-1.20111e-05 7:-0.920119 8:0.415259 9:0.511099 10:5.35676e-06 11:-3.01253e-07 13:0.237707 14:-0.103128 15:-0.0997251 16:0.00114976 17:0.022405 18:0.0227727 19:0.32113 20:0.0831062 21:-0.553969 22:1 23:1 
32 1:-0.80953 2:-0.83709 3:0.41233 4:0.135976 5:0.481155 6:0.775 7:-0.721997 8:0.679693 9:-0.963395 10:5.35676e-06 11:-3.01253e-07 13:0.521741 14:0.0304881 15:0.62456 16:-0.0671822 17:-0.225335 18:-0.373552 19:0.743472 20:0.211403 21:0.0410327 22:1 23:1 
32 1:0.732949 2:0.0600078 3:-0.0511873 4:0.987136 5:-0.160004 6:-0.4 7:0.796368 8:-0.70462 9:0.812057 10:5.35676e-06 11:-3.01253e-07 13:0.0591481 14:-0.40643 15:0.862585 16:-0.494942 17:0.104781 18:0.227327 19:0.21658 20:-0.97823 21:-0.515841 22:1 23:1 
32 1:0.87127 2:0.838941 3:-0.639168 4:-0.158682 5:-0.339787 6:0.85 7:0.796368 8:-0.70462 9:0.812057 10:5.35676e-06 11:-3.01253e-07 13:0.500444 14:0.147303 15:-0.549478 16:0.0809012 17:0.197346 18:-0.411906 19:0.821016 20:-0.795648 21:0.065042 22:0.678715 23:1 
13.00230666237531 1:-0.926913 2:-0.079088 3:0.0979305 4:0.119136 5:0.0378535 6:-1 7:0.43952 8:0.162613 9:-0.361249 10:0.296281 11:-0.63617 13:0.64377 14:-0.237361 15:-0.459227 16:0.0901776 17:-0.324644 18:0.534159 19:0.570543 20:0.0194416 21:0.280958 22:-0.285141 23:1 
32 1:-0.753679 2:0.776915 3:-0.450758 4:-0.01928 5:0.123493 6:-0.264491 7:-0.660292 8:0.131927 9:-0.985394 10:5.35676e-06 11:-3.01253e-07 13:0.213987 14:-0.103128 15:-0.534404 16:0.0108432 17:-0.0411846 18:0.15803 19:0.627378 20:-0.212569 21:-0.601468 22:0.678715 23:1 
32 1:-0.251928 2:-0.764404 3:-0.509094 4:0.0283389 5:0.999605 6:0.4 7:0.0931204 8:-0.212124 9:0.145115 10:5.35676e-06 11:-3.01253e-07 13:-0.246674 14:0.0826555 15:0.653859 16:-0.0130882 17:-0.492272 18:-0.181782 19:0.0584368 20:0.367394 21:-0.554625 22:-0.285141 23:1 
4.274452009206139 1:0.801801 2:0.583938 3:0.83922 4:-0.875087 5:0.483962 6:0.4 7:0.571739 8:-0.663347 9:-0.998989 10:5.35676e-06 11:-3.01253e-07 13:-0.173347 14:0.402142 15:0.162125 16:0.440938 17:-0.226781 18:-0.181782 19:0.536733 20:-0.835748 21:-0.137839 22:1 23:1 
32 1:0.641134 2:0.958519 3:0.566466 4:0.0259187 5:-0.122299 6:-1 7:0.186518 8:0.574545 9:0.0523525 10:5.35676e-06 11:-3.01253e-07 13:-0.134259 14:0.164604 15:-0.514338 16:-0.0118719 17:0.0853676 18:0.534159 19:0.638464 20:-0.726065 21:-0.571527 22:0.0361446 23:1 
32 1:-0.562794 2:-0.378215 3:-0.272506 4:4.9541e-06 5:-8.44941e-06 7:-0.200705 8:-0.928829 9:0.542333 10:5.35676e-06 11:-3.01253e-07 13:0.237707 14:-0.103128 15:0.814301 16:0.00115132 17:0.0224032 18:0.0227727 19:0.0585051 20:0.148437 21:-0.553968 22:1 23:1 
32 1:0.939807 2:-0.776229 3:0.451136 4:0.11468 5:0.741183 6:0.625 7:0.356218 8:-0.040773 9:0.136543 10:5.35676e-06 11:-3.01253e-07 13:0.196373 14:0.245536 15:-0.314869 16:-0.0564799 17:-0.359217 18:-0.296844 19:0.863519 20:0.820633 21:-0.313941 22:0.0361446 23:1 
32 1:0.437034 2:-0.917933 3:-0.193594 4:-0.820774 5:0.571251 6:-0.4 7:0.356218 8:-0.040773 9:0.136543 10:5.35676e-06 11:-3.01253e-07 13:-0.247264 14:0.175595 15:0.329813 16:0.413642 17:-0.271723 18:0.227327 19:0.376654 20:0.675978 21:-0.435416 22:-0.285141 23:1 
32 1:-0.495249 2:0.912321 3:-0.917561 4:0.0604188 5:0.0160149 6:-0.925 7:0.0925142 8:0.196882 9:-0.729722 10:5.35676e-06 11:-3.01253e-07 13:-0.248568 14:0.269267 15:0.187905 16:-0.0292103 17:0.0141532 18:0.495805 19:0.448493 20:-0.302826 21:-0.296162 22:0.35743 23:1 
26.70129507755199 1:-0.0301988 2:0.771391 3:-0.407719 4:-0.286063 5:0.958215 6:2.88658e-15 7:0.0925142 8:0.196882 9:-0.729722 10:5.35676e-06 11:-3.01253e-07 13:0.194243 14:-0.103128 15:-0.321898 16:0.144918 17:-0.470961 18:0.0227727 19:-0.0107852 20:-0.480628 21:-0.641006 22:-0.285141 23:1 
32 1:0.140573 2:0.707234 3:-0.00676171 4:1.28719e-05 5:-1.21129e-05 6:0.935969 7:0.714173 8:0.701594 9:0.882642 10:5.35676e-06 11:-3.01253e-07 13:0.263525 14:-0.103128 15:0.888711 16:0.00114734 17:0.0224051 18:-0.455869 19:-0.0691107 20:-0.576894 21:-0.502269 22:0.678715 23:1 
32 1:0.965883 2:0.327215 3:0.291835 4:-0.266127 5:-0.347265 6:-0.8125 7:-0.292186 8:0.603523 9:0.990817 10:5.35676e-06 11:-3.01253e-07 13:-0.331706 14:0.506264 15:0.698257 16:0.134898 17:0.201196 18:0.438274 19:0.670988 20:-0.917471 21:0.160239 22:0.678715 23:1 
32 1:-0.753574 2:-0.832117 3:0.399267 4:0.155601 5:0.475172 6:0.358277 7:-0.541787 8:-0.0310945 9:0.234776 10:5.35676e-06 11:-3.01253e-07 13:0.282479 14:-0.103128 15:-0.16482 16:-0.0770449 17:-0.222255 18:-0.160445 19:0.664555 20:0.22153 21:-0.464312 22:0.678715 23:1 
32 1:0.813686 2:-0.734692 3:0.964854 4:-0.9939 5:0.110285 6:0.4 7:-0.13431 8:-0.765001 9:-0.492055 10:5.35676e-06 11:-3.01253e-07 13:0.42721 14:-0.0360224 15:0.543175 16:0.500649 17:-0.0343842 18:-0.181782 19:0.652584 20:0.807488 21:-0.166458 22:0.35743 23:1 
32 1:-0.576201 2:-0.634606 3:0.286561 4:-0.0194098 5:-0.0244975 6:-0.17413 7:-0.164413 8:0.00920432 9:-0.0359985 10:0.993558 11:-0.113423 13:0.281332 14:-0.113289 15:-0.322759 16:0.51023 17:-0.0233875 18:0.111821 19:0.263877 20:0.220441 21:-0.466339 22:0.35743 23:1 
32 1:0.948608 2:0.61775 3:0.302006 4:0.0546307 5:0.0761831 6:-0.79375 7:0.264661 8:0.683615 9:-0.774742 10:5.35676e-06 11:-3.01253e-07 13:-0.208648 14:0.204243 15:0.923433 16:-0.0263014 17:-0.0168259 18:0.428686 19:0.780137 20:-0.850791 21:-0.438832 22:0.678715 23:1 
32 1:0.945008 2:0.610663 3:0.203836 4:0.050123 5:0.0373356 6:0.925 7:0.264661 8:0.683615 9:-0.774742 10:5.35676e-06 11:-3.01253e-07 13:-0.282125 14:0.132588 15:-0.978405 16:-0.024036 17:0.00317573 18:-0.45026 19:0.770411 20:-0.851767 21:-0.442009 22:0.35743 23:1 
32 1:-0.809067 2:0.859533 3:0.834546 4:0.108495 5:-0.0621083 6:-1 7:-0.588196 8:-0.16973 9:-0.553211 10:5.35676e-06 11:-3.01253e-07 13:-0.315864 14:0.212474 15:0.612348 16:-0.0533715 17:0.0543768 18:0.534159 19:0.769696 20:-0.217237 21:-0.293239 22:0.0361446 23:1 
32 1:-0.554409 2:0.842131 3:0.791746 4:-0.099176 5:0.0760663 6:1 7:-0.588196 8:-0.16973 9:-0.553211 10:5.35676e-06 11:-3.01253e-07 13:-0.248355 14:0.246244 15:0.655145 16:0.0509958 17:-0.0167657 18:-0.488614 19:0.43854 20:-0.273314 21:-0.331433 22:0.0361446 23:1 
32 1:0.60816 2:0.825699 3:-0.740278 4:0.00837021 5:0.00888248 7:0.105638 8:0.148109 9:0.507052 10:5.35676e-06 11:-3.01253e-07 13:0.31928 14:-0.103128 15:-0.753224 16:-0.00305273 17:0.0178255 18:0.0227727 19:0.470552 20:-0.7411 21:-0.390618 22:0.0361446 23:1 
30.93750076524181 1:0.639893 2:-0.722043 3:0.303801 4:-0.00101025 5:-0.00144951 6:-1.44329e-15 7:0.920989 8:-0.13175 9:-0.76161 10:5.35676e-06 11:-3.01253e-07 13:0.237714 14:-0.103128 15:0.934762 16:0.00166152 17:0.0231452 18:0.0227727 19:0.406081 20:0.7729 21:-0.553956 22:1 23:1 
3.272326483574523 1:0.631749 2:-0.434241 3:0.394181 4:0.296524 5:0.858907 6:4.44089e-16 7:0.845842 8:0.518808 9:0.975644 10:5.35676e-06 11:-3.01253e-07 13:0.342492 14:-0.103128 15:0.580753 16:-0.147867 17:-0.41983 18:0.0227727 19:0.179255 20:0.846213 21:-0.344135 22:-0.285141 23:1 
32 1:0.944654 2:-0.59225 3:-0.0878137 4:-0.0479157 5:0.0135478 6:-0.909766 7:-0.252475 8:0.906924 9:0.283977 10:5.35676e-06 11:-3.01253e-07 13:-0.754024 14:0.31372 15:0.3714 16:0.0252344 17:0.0154234 18:0.488014 19:0.753224 20:0.857956 21:0.530745 22:0.678715 23:1 
32 1:0.316354 2:-0.868925 3:-0.254601 4:0.174245 5:-0.179298 6:0.925 7:-0.252475 8:0.906924 9:0.283977 10:5.35676e-06 11:-3.01253e-07 13:-0.706264 14:0.185294 15:0.538175 16:-0.0864147 17:0.114715 18:-0.45026 19:0.221064 20:0.639744 21:0.346526 22:0.0361446 23:1 
32 1:0.903329 2:0.484411 3:-0.884341 4:-0.116817 5:-0.0444768 6:1 7:-0.130638 8:-0.270244 9:0.909506 10:5.35676e-06 11:-3.01253e-07 13:0.541469 14:-0.00877482 15:-0.206923 16:0.0598617 17:0.0452988 18:-0.488614 19:0.635794 20:-0.87396 21:0.0670239 22:-0.285141 23:1 
32 1:0.846999 2:-0.734867 3:-0.961216 4:-0.915003 5:-0.112372 7:-0.115505 8:-0.894546 9:-0.585264 10:5.35676e-06 11:-3.01253e-07 13:0.441485 14:-0.103128 15:0.375943 16:0.460998 17:0.0802563 18:0.0227727 19:0.700079 20:0.813431 21:-0.145901 22:0.678715 23:1 
9.651303883759695 1:-0.904265 2:0.11375 3:-0.859347 4:-0.11297 5:-0.0535032 6:1 7:-0.0244933 8:-0.540979 9:0.92706 10:5.35676e-06 11:-3.01253e-07 13:-0.322603 14:0.347036 15:-0.21437 16:0.0579281 17:0.0499462 18:-0.488614 19:0.536487 20:-0.0316463 21:-0.0960937 22:1 23:1 
32 1:-0.790735 2:0.782352 3:-0.568674 4:-0.0261142 5:-0.11935 6:0.836125 7:-0.278378 8:0.111242 9:0.631324 10:5.35676e-06 11:-3.01253e-07 13:0.161268 14:0.226593 15:-0.800606 16:0.0142778 17:0.083849 18:-0.40481 19:0.682132 20:-0.2063 21:-0.382226 22:0.0361446 23:1 
32 1:0.198857 2:-0.868835 3:-0.405096 4:-0.0244644 5:0.0795633 6:-0.949902 7:0.763155 8:0.14837 9:-0.583394 10:5.35676e-06 11:-3.01253e-07 13:-0.312456 14:0.329544 15:-0.178268 16:0.0134486 17:-0.0185662 18:0.50854 19:0.149453 20:0.590442 21:-0.133801 22:0.0361446 23:1 
32 1:-0.455381 2:-0.528843 3:0.135956 4:0.68261 5:0.31074 6:-0.146511 7:-0.0299169 8:-0.272007 9:0.280291 10:5.35676e-06 11:-3.01253e-07 13:0.199079 14:-0.103128 15:0.143963 16:-0.341899 17:-0.137593 18:0.0976964 19:0.0154423 20:0.228081 21:-0.631323 22:-0.285141 23:1 
2.703084173546041 1:-0.90523 2:-0.331581 3:-0.255707 4:0.43404 5:-0.449737 6:0.7 7:0.804439 8:0.326729 9:0.547907 10:-0.148434 11:0.988923 12:1.13243e-14 13:0.384981 14:0.764298 15:0.803075 16:-0.291578 17:0.763136 18:-0.335198 19:0.588295 20:0.0854429 21:0.688697 22:0.0361446 23:1 
32 1:-0.856042 2:-0.857276 3:0.900357 4:-0.713529 5:0.23102 6:-0.625 7:0.0286002 8:0.883928 9:0.0246735 10:-0.997049 11:-0.0767667 12:5.77316e-15 13:-0.251005 14:-0.934657 15:-0.875868 16:-0.141337 17:-0.136073 18:0.342389 19:0.823023 20:0.206557 21:0.475294 22:-0.927711 23:1 
32 1:-0.229937 2:0.846932 3:0.575216 4:0.0877932 5:-0.364599 6:-0.625 7:0.840438 8:0.863952 9:-0.183996 10:0.837361 11:-0.546666 12:-2.88658e-15 13:-0.159836 14:-0.685872 15:-0.759314 16:0.377856 17:-0.0713474 18:0.342389 19:0.157809 20:-0.389605 21:-0.00881939 22:1 23:1 
32 1:0.958498 2:0.137553 3:0.0363548 4:-0.0776077 5:-0.00892415 7:-0.192402 8:-0.68599 9:0.0371754 10:-0.993268 11:-0.115837 12:0.4 13:-0.631576 14:-0.370176 15:0.000565115 16:-0.459026 17:-0.0326488 18:0.227327 19:0.611953 20:-0.963665 21:0.193183 22:0.35743 23:1 
32 1:-0.448055 2:-0.383094 3:0.908219 4:-0.239339 5:0.0710037 6:-0.211622 7:-0.975463 8:-0.137605 9:0.491047 10:0.0295514 11:0.999565 12:2.22045e-16 13:0.253174 14:-0.114698 15:-0.417596 16:0.136285 17:0.5005 18:0.130993 19:-0.109935 20:0.180933 21:-0.522612 22:0.678715 23:1 
32 1:-0.895506 2:0.710443 3:-0.131131 4:0.34366 5:-0.150116 6:0.0650626 7:0.851055 8:-0.273201 9:-0.655486 10:0.468913 11:0.88325 12:-5.66214e-15 13:0.917985 14:-0.0911933 15:-0.524268 16:0.0640989 17:0.55446 18:-0.0104995 19:0.777813 20:-0.173901 21:0.808422 22:0.35743 23:1 
32 1:-0.246199 2:0.734238 3:-0.322466 4:-0.529431 5:0.848355 7:-0.898471 8:-0.109394 9:0.514738 10:-0.0448186 11:0.998996 13:0.0605323 14:-0.59968 15:0.836677 16:0.244698 17:0.099969 18:0.0227727 19:0.0304633 20:-0.366673 21:-0.175446 22:0.35743 23:1 
32 1:-0.832574 2:0.698707 3:-0.291453 4:-0.114263 5:0.148646 6:-0.9625 7:-0.984678 8:-0.148559 9:0.494903 10:-0.0104106 11:-0.597131 13:0.166242 14:-0.394753 15:0.785842 16:0.0533434 17:-0.361588 18:0.514982 19:0.677937 20:-0.181892 21:-0.433209 22:-0.606426 23:1 
32 1:-0.918446 2:-0.753432 3:-0.819958 4:8.04567e-06 5:-1.2011e-05 7:0.738398 8:0.540437 9:-0.766761 10:0.742949 11:0.669359 13:-0.99501 14:-0.0628132 15:0.0532908 16:0.374525 17:0.367047 18:0.0227727 19:0.833976 20:0.17692 21:0.827548 22:0.678715 23:1 
32 1:-0.149041 2:-0.867307 3:-0.524173 4:-0.00235535 5:-0.0311731 6:0.8875 7:0.931375 8:0.79586 9:-0.54331 10:0.13541 11:0.990792 12:-8.54872e-15 13:-0.696482 14:0.449382 15:-0.0191371 16:0.0703868 17:0.548591 18:-0.431083 19:0.130999 20:0.426841 21:0.565969 22:0.35743 23:1 
11.42009993705835 1:-0.926318 2:-0.375848 3:0.0615136 4:0.12268 5:0.0240075 6:-0.58563 7:0.933307 8:0.0850443 9:0.482528 10:-0.0562642 11:-0.998418 12:5.10703e-15 13:0.915394 14:-0.114726 15:0.420533 16:-0.0887792 17:-0.50403 18:0.322256 19:0.639328 20:0.0943078 21:0.803227 22:-0.606426 23:1 
10.5344375478839 1:0.903606 2:0.190049 3:-0.941599 4:-0.614469 5:-0.114248 6:-0.0637796 7:-0.974386 8:-0.241982 9:-0.500578 10:0.00164944 11:1 12:-0.0560254 13:0.916717 14:-0.114892 15:0.440969 16:0.310788 17:0.596105 18:0.026738 19:0.528154 20:-0.947481 21:0.805879 22:0.0361446 23:1 
32 1:-0.372086 2:-0.187168 3:-0.464803 4:0.110583 5:-0.993898 6:-0.475 7:-0.753611 8:-0.965171 9:-6.10947e-05 10:-1 11:0.000824153 13:0.233211 14:-0.354005 15:0.464469 16:-0.556986 17:0.534556 18:0.265681 19:-0.342939 20:0.112679 21:-0.394879 22:0.35743 23:1 
27.42593213624248 1:-0.308777 2:-0.909038 3:-0.583934 4:0.195308 5:0.724128 6:-0.625 7:0.984918 8:-0.236454 9:0.499766 10:-0.00216779 11:-1 12:5.10703e-15 13:-0.449422 14:0.521935 15:-0.916838 16:-0.0980922 17:-0.865318 18:0.342389 19:0.27224 20:0.364443 21:0.310431 22:1 23:1 
32 1:-0.326579 2:-0.591379 3:0.22092 4:0.576482 5:0.479771 6:0.0137084 7:0.173815 8:-0.0282963 9:-0.757121 10:0.722352 11:0.691536 13:0.29502 14:-0.102296 15:-0.977876 16:0.0744608 17:0.131437 18:0.0157624 19:-0.0747974 20:0.297365 21:-0.439197 22:1 23:1 
17.7295372462326 1:-0.924029 2:0.295715 3:0.922665 4:0.485317 5:-0.120346 6:1.13243e-14 7:0.651913 8:-0.964811 9:-0.997435 10:0.99997 11:0.00903012 13:-0.91415 14:0.192905 15:0.0802395 16:0.259797 17:0.0890114 18:0.0227727 19:0.611022 20:-0.0772617 21:0.74463 22:0.35743 23:1 
32 1:-0.494282 2:-0.867392 3:-0.988501 4:-0.874418 5:-0.031918 6:-0.55 7:-0.969774 8:0.535311 9:-0.498298 10:-0.00551167 11:0.999986 13:0.193365 14:-0.691167 15:0.490147 16:0.437829 17:0.553708 18:0.304035 19:0.388934 20:0.293933 21:0.0642182 22:1 23:1 
32 1:-0.75495 2:0.181289 3:0.476689 4:0.0195629 5:0.266563 6:-0.220074 7:-0.676952 8:0.917528 9:0.07078 10:0.975554 11:0.219806 12:2.88658e-15 13:0.240023 14:-0.11458 15:-0.406149 16:0.481596 17:-0.00167318 18:0.135315 19:0.294954 20:-0.0589774 21:-0.548936 22:1 23:1 
12.00932372299494 1:0.898626 2:-0.785462 3:0.886737 4:-0.585828 5:0.217771 6:-0.00400275 7:-0.307893 8:-0.193111 9:-0.158202 10:-0.809886 11:0.439695 12:-0.522072 13:0.601517 14:-0.104683 15:0.954969 16:-0.111453 17:0.136666 18:-0.242161 19:0.810861 20:0.812334 21:0.17457 22:0.678715 23:1 
5.002190979353767 1:0.701005 2:0.785532 3:-0.308153 4:0.443003 5:-0.643538 6:-0.0980427 7:0.999318 8:0.121009 9:-0.482446 10:0.05527 11:-0.998474 12:-0.4 13:0.268464 14:-0.109359 15:-0.174307 16:-0.193708 17:-0.160357 18:-0.131644 19:0.549049 20:-0.771743 21:-0.492271 22:1 23:1 
32 1:0.944191 2:-0.846884 3:-0.100466 4:-0.111397 5:0.0363488 6:-0.990625 7:-0.494965 8:0.368409 9:0.097517 10:-0.953676 11:-0.300837 13:-0.852995 14:0.130053 15:0.197686 16:-0.422147 17:-0.151212 18:0.529365 19:0.921081 20:0.808491 21:0.595711 22:1 23:1 
32 1:-0.801676 2:0.830659 3:0.843862 4:-0.110249 5:0.0588832 6:1 7:0.61533 8:-0.808602 9:-0.994546 10:0.999847 11:0.0181002 12:-5.66214e-15 13:-0.951278 14:0.126617 15:0.161924 16:0.559044 17:0.00140105 18:-0.488614 19:0.735978 20:-0.213374 21:0.785504 22:1 23:1 
3.432626790320986 1:0.37103 2:-0.846879 3:0.820708 4:-0.31705 5:0.200245 6:0.85 7:-0.891183 8:0.230172 9:0.503942 10:-0.010934 11:0.999942 13:0.716296 14:-0.107237 15:-0.317203 16:0.154993 17:0.434151 18:-0.411906 19:0.238372 20:0.664109 21:0.404432 22:-0.606426 23:1 
28.53112197008502 1:0.936506 2:0.880121 3:0.200543 4:-0.403981 5:-0.294629 7:-0.229143 8:0.945479 9:0.983703 10:-0.998574 11:0.0533877 12:1.13243e-14 13:-0.486194 14:0.286509 15:0.782432 16:-0.29767 17:0.201584 18:0.0227727 19:0.943412 20:-0.799459 21:0.0515801 22:1 23:1 
22.1326773898898 1:0.376466 2:-0.695793 3:-0.587408 4:-0.270912 5:-0.962632 6:-0.4 7:-0.896824 8:-0.67923 9:-0.426649 10:0.228464 11:-0.973556 12:-2.88658e-15 13:0.131433 14:-0.781569 15:0.160695 16:0.252118 17:0.0167664 18:0.227327 19:0.0748459 20:0.694583 21:0.179434 22:1 23:1 
32 1:-0.364104 2:-0.624049 3:0.914342 4:-0.421625 5:0.116315 6:-0.2053 7:-0.877497 8:-0.404983 9:0.561888 10:-0.191692 11:0.981456 13:0.242327 14:-0.113842 15:-0.352913 16:0.116706 17:0.467846 18:0.12776 19:-0.00151833 20:0.289287 21:-0.544375 22:1 23:1 
13.23518048782154 1:0.790975 2:0.223726 3:0.166604 4:0.8661 5:0.499896 6:0.4 7:0.935631 8:0.962859 9:-0.00340246 10:0.559651 11:-0.00633366 12:-0.283147 13:0.180805 14:0.108017 15:-0.170232 16:-0.152857 17:-0.238246 18:-0.32658 19:0.346615 20:-0.930064 21:-0.521472 22:1 23:1 
22.2372434175054 1:0.369564 2:0.643752 3:0.331258 4:0.505611 5:0.862773 7:0.823928 8:0.977636 9:0.00646536 10:0.999817 11:0.019667 12:-1.27676e-14 13:0.191716 14:-0.26463 15:-0.325011 16:0.249521 17:-0.411694 18:0.0227727 19:0.0231685 20:-0.700918 21:-0.55903 22:0.678715 23:1 
32 1:-0.850188 2:-0.86864 3:-0.790611 4:0.197796 5:0.152898 6:-0.0630696 7:0.64199 8:0.341143 9:-0.284649 10:-0.625966 11:0.77985 13:-0.903297 14:0.00570754 15:0.505811 16:-0.41284 17:0.345207 18:0.0550256 19:0.824132 20:0.20964 21:0.653712 22:-0.285141 23:1 
32 1:-0.45137 2:0.859238 3:0.749611 4:0.0289736 5:-0.029052 6:-0.899219 7:0.0360235 8:-0.943122 9:0.151013 10:0.684089 11:0.350547 13:-0.685624 14:0.233395 15:-0.598859 16:0.330388 17:0.217848 18:0.482621 19:0.347953 20:-0.307616 21:0.343015 22:0.35743 23:1 
32 1:0.441395 2:0.857192 3:0.364362 4:0.0161531 5:0.0355586 6:0.896875 7:-0.647527 8:-0.847722 9:0.953077 10:-0.988834 11:0.149022 13:-0.842022 14:0.149773 15:0.588015 16:-0.503917 17:0.0808197 18:-0.435877 19:0.324583 20:-0.685405 21:0.583897 22:-0.285141 23:1 
23.10813789712426 1:0.29775 2:0.871048 3:0.36955 4:-0.149399 5:-0.34397 6:-0.512875 7:-0.601234 8:-0.561901 9:-0.355079 10:5.35676e-06 11:-3.01253e-07 12:0.00751679 13:-0.707634 14:0.11358 15:-0.724659 16:0.0762359 17:0.1995 18:0.288894 19:0.222761 20:-0.630435 21:0.307077 22:0.678715 23:1 
32 1:-0.931473 2:-0.110805 3:-0.972431 4:0.2335 5:0.0203425 6:-0.934375 7:0.495462 8:0.0508383 9:0.666255 10:5.35676e-06 11:-3.01253e-07 12:-0.00770843 13:-0.750123 14:-0.100052 15:-0.361966 16:-0.116194 17:0.011925 18:0.496657 19:0.581423 20:0.0275594 21:0.335772 22:-0.636546 23:1 
32 1:-0.570673 2:-0.771819 3:-0.441434 4:0.183182 5:-0.983111 6:0.4 7:-0.0935317 8:0.147685 9:0.839143 10:5.35676e-06 11:-3.01253e-07 12:0.150136 13:-0.32967 14:0.222444 15:-0.720125 16:-0.0909063 17:0.528577 18:-0.105004 19:0.37936 20:0.253174 21:-0.260897 22:-0.927711 23:1 
32 1:-0.0386999 2:-0.869612 3:-0.511656 4:0.00299171 5:0.0819665 6:-0.948437 7:0.383778 8:0.464377 9:0.950334 10:5.35676e-06 11:-3.01253e-07 12:0.00928486 13:-0.541431 14:0.116337 15:-0.538774 16:-0.000349709 17:-0.0198036 18:0.512539 19:0.105789 20:0.478758 21:-0.00656036 22:0.0361446 23:1 
32 1:-0.877338 2:0.262442 3:-0.0842128 4:-0.120648 5:0.0326578 6:-0.0545996 7:-0.376747 8:0.0884818 9:0.43165 10:-0.026792 11:-0.122094 12:-5.55112e-16 13:0.218402 14:-0.104622 15:0.515397 16:0.0483196 17:-0.0572799 18:0.0506941 19:0.522777 20:-0.0725156 21:-0.592621 22:0.35743 23:1 
32 1:0.769238 2:0.867103 3:0.286551 4:-0.0388293 5:-0.0489817 6:-0.925 7:-0.266706 8:0.182098 9:-0.439267 10:5.35676e-06 11:-3.01253e-07 12:0.00107526 13:-0.555363 14:0.159267 15:-0.72581 16:0.0206679 17:0.0476182 18:0.496355 19:0.708032 20:-0.771027 21:0.049657 22:1 23:1 
32 1:0.209245 2:-0.822979 3:0.491729 4:0.00650205 5:0.249908 6:-0.925 7:0.497978 8:0.720798 9:0.819684 10:5.35676e-06 11:-3.01253e-07 12:0.00252147 13:0.547608 14:-0.255849 15:0.327332 16:-0.00211387 17:-0.106272 18:0.497094 19:0.0969669 20:0.600011 21:0.0992711 22:1 23:1 
32 1:-0.709282 2:-0.512372 3:0.617866 4:0.361871 5:-0.932262 7:-0.547261 8:0.650934 9:0.985673 10:5.35676e-06 11:-3.01253e-07 12:0.130912 13:0.344419 14:-0.352204 15:0.367108 16:-0.180708 17:0.502396 18:0.0897195 19:0.363485 20:0.158635 21:-0.215217 22:0.35743 23:1 
32 1:-0.567073 2:0.872267 3:0.499741 4:0.000514158 5:0.624999 6:-0.7 7:0.592399 8:-0.751069 9:0.061649 10:5.35676e-06 11:-3.01253e-07 12:-0.049558 13:-0.644006 14:-0.746326 15:-0.438326 16:0.000895412 17:-0.299397 18:0.3554 19:0.482837 20:-0.275297 21:0.593067 22:0.678715 23:1 
4.639991034556215 1:0.894275 2:0.380057 3:-0.841097 4:-0.658356 5:-0.359274 6:-0.0996221 7:0.194737 8:-0.0810672 9:-0.369908 10:-0.298031 11:0.688242 12:-0.0566076 13:0.34593 14:-0.112067 15:0.471077 16:0.182236 17:0.561743 18:0.0447697 19:0.572954 20:-0.897895 21:-0.337076 22:-0.285141 23:1 
32 1:0.849643 2:-0.30935 3:-0.593712 4:0.0724901 5:0.239255 6:-0.925 7:0.154677 8:0.183171 9:-0.688782 10:5.35676e-06 11:-3.01253e-07 12:0.0216903 13:-0.112425 14:-0.515677 15:-0.0949998 16:-0.0352769 17:-0.100787 18:0.506897 19:0.468517 20:0.914435 21:-0.331635 22:-0.606426 23:1 
32 1:-0.803015 2:0.859571 3:0.70103 4:0.141187 5:-0.193031 6:0.931519 7:0.902432 8:0.448884 9:0.252398 10:5.35676e-06 11:-3.01253e-07 12:-0.860657 13:-0.667773 14:-0.762426 15:-0.448949 16:-0.069801 17:0.121785 18:-0.893721 19:0.761671 20:-0.218407 21:0.647733 22:1 23:1 
32 1:0.498027 2:0.878031 3:0.657206 4:-0.148123 5:0.275155 6:-0.6625 7:-0.149455 8:0.00262928 9:-0.296795 10:5.35676e-06 11:-3.01253e-07 12:0.0683949 13:-0.175339 14:0.377774 15:-0.95404 16:0.0755944 17:-0.119271 18:0.396542 19:0.402557 20:-0.700059 21:-0.178938 22:1 23:1 
21.14952855648867 1:0.371597 2:-0.871504 3:-0.282192 4:0.0531073 5:-0.0650816 6:0.950781 7:0.39542 8:0.21023 9:-0.976382 10:0.872541 11:0.0656824 12:-0.118254 13:-0.33463 14:0.19784 15:-0.69395 16:0.412968 17:0.0897266 18:-0.523918 19:0.267169 20:0.660413 21:-0.284601 22:-0.606426 23:1 
32 1:0.568065 2:0.857973 3:-0.724253 4:-0.161854 5:-0.190544 6:-0.0601455 7:0.58562 8:0.318853 9:0.0124071 10:-0.624539 11:-0.0239479 12:-0.48939 13:0.108726 14:0.0619846 15:0.736362 16:-0.231377 17:0.108175 18:-0.196737 19:0.456215 20:-0.724174 21:-0.683539 22:0.0361446 23:1 
32 1:0.388639 2:0.806255 3:0.0894217 4:-0.668035 5:-0.192854 6:-0.657812 7:0.537103 8:0.33938 9:0.0859395 10:0.602496 11:0.166235 12:0.339819 13:-0.00155632 14:-0.318303 15:-0.00375876 16:0.639671 17:0.207286 18:0.532948 19:0.21929 20:-0.675558 21:-0.701462 22:-0.285141 23:1 
32 1:0.810938 2:0.842274 3:0.271965 4:-0.0484645 5:-0.0556892 6:0.938584 7:0.296303 8:0.651727 9:-0.388685 10:-0.0428219 11:0.117434 12:0.00335662 13:-0.251964 14:0.0453491 15:-0.66067 16:0.00398675 17:0.111537 18:-0.45549 19:0.741832 20:-0.783895 21:-0.585015 22:0.678715 23:1 
8.289184700292113 1:-0.333014 2:0.852168 3:0.746056 4:-0.0436331 5:0.0447295 6:0.925 7:0.270674 8:-0.793091 9:0.274855 10:5.35676e-06 11:-3.01253e-07 12:-0.0114731 13:-0.689711 14:0.132096 15:-0.471525 16:0.0230821 17:-0.000631238 18:-0.456127 19:0.235133 20:-0.348337 21:0.282723 22:-0.285141 23:1 
32 1:-0.434059 2:-0.741181 3:0.182785 4:2.25659e-05 5:-2.61529e-06 7:0.0221209 8:-0.349803 9:0.692456 10:5.35676e-06 11:-3.01253e-07 12:-0.921778 13:0.237707 14:-0.103128 15:0.509091 16:0.00114247 17:0.0224002 18:-0.448612 19:0.194062 20:0.289319 21:-0.553969 22:1 23:1 
32 1:-0.933451 2:0.335636 3:0.91028 4:0.120073 5:-0.0347919 6:1 7:0.615553 8:0.518409 9:0.365769 10:5.35676e-06 11:-3.01253e-07 12:-0.00317981 13:-0.760867 14:-0.410021 15:-0.544871 16:-0.0591903 17:0.0403123 18:-0.49024 19:0.640053 20:-0.0862201 21:0.460628 22:0.0361446 23:1 
32 1:0.0383407 2:-0.841793 3:-0.819624 4:0.0686675 5:0.0437045 6:-0.904164 7:-0.768213 8:-0.956707 9:-0.440628 10:0.162336 11:-0.859812 12:0.132177 13:0.330529 14:-0.305427 15:0.378923 16:0.0482253 17:-0.442806 18:0.552743 19:0.0679566 20:0.516241 21:-0.280626 22:-0.606426 23:1 
32 1:0.854565 2:-0.870576 3:0.349209 4:0.0356465 5:0.0695122 6:-0.94375 7:0.521541 8:-0.485044 9:-0.765336 10:0.369976 11:0.336338 12:-0.35958 13:0.0266547 14:0.118815 15:0.885633 16:0.169173 17:0.159783 18:0.321509 19:0.815326 20:0.789044 21:-0.676618 22:0.678715 23:1 
32 1:-0.931916 2:-0.141909 3:-0.916416 4:0.0905372 5:0.024354 6:-0.9625 7:0.0810034 8:-0.687542 9:0.457394 10:5.35676e-06 11:-3.01253e-07 12:0.0318485 13:-0.466676 14:0.258054 15:-0.626731 16:-0.0443466 17:0.00985962 18:0.531269 19:0.58622 20:0.0355606 21:-0.0109673 22:-0.285141 23:1 
10.11850484932844 1:0.521092 2:-0.837578 3:-0.00556147 4:0.12499 5:-0.00218094 6:1 7:-0.612569 8:0.297045 9:-0.840768 10:5.35676e-06 11:-3.01253e-07 12:0.00101968 13:-0.605861 14:0.354289 15:-0.835016 16:-0.0616614 17:0.0235218 18:-0.488092 19:0.373644 20:0.716414 21:0.317171 22:-0.606426 23:1 
32 1:-0.928628 2:-0.197774 3:0.960535 4:-0.0232495 5:0.00288887 6:-0.878125 7:-0.430567 8:0.846903 9:0.875436 10:5.35676e-06 11:-3.01253e-07 12:0.0159988 13:-0.225215 14:-0.561199 15:-0.0857157 16:0.0128381 17:0.0209114 18:0.480015 19:0.590454 20:0.0500073 21:-0.181342 22:0.0361446 23:1 
32 1:-0.659971 2:0.706144 3:-0.558645 4:0.0293638 5:0.157736 6:-0.148709 7:-0.797785 8:-0.24381 9:-0.0798623 10:-0.968565 11:0.248759 12:-0.156927 13:0.332673 14:-0.11507 15:0.478543 16:-0.50037 17:0.0692667 18:0.0185703 19:0.44347 20:-0.218288 21:-0.363477 22:-0.285141 23:1 
32 1:-0.471104 2:-0.866705 3:-0.354217 4:-0.0604671 5:0.122607 6:-0.992969 7:0.712661 8:-0.343054 9:0.707433 10:-0.529465 11:0.696628 12:0.0522155 13:0.0531783 14:0.58321 15:-0.938978 16:-0.23455 17:0.317954 18:0.557266 19:0.364525 20:0.301031 21:0.162231 22:0.678715 23:1 
5.74215658330214 1:-0.909248 2:0.881237 3:0.982179 4:0.499226 5:-0.0280454 6:-0.775 7:0.66384 8:-0.116692 9:0.270189 10:5.35676e-06 11:-3.01253e-07 12:1 13:-0.842279 14:0.262827 15:-0.712296 16:-0.249738 17:0.0368387 18:0.930483 19:0.923197 20:-0.203185 21:0.65181 22:0.35743 23:1 
13.5419356274955 1:0.475315 2:0.832038 3:0.552381 4:-0.00511099 5:0.0308164 6:0.8875 7:-0.0480501 8:0.149178 9:-0.269084 10:0.663329 11:-0.748338 12:-0.475 13:-0.248225 14:0.220481 15:-0.821525 16:0.337084 17:-0.378774 18:-0.673991 19:0.330615 20:-0.701002 21:-0.369942 22:0.0361446 23:1 
26.29327336113332 1:0.609933 2:-0.670079 3:-0.528237 4:-0.0883442 5:-0.99612 6:-0.4 7:-0.00886187 8:0.12099 9:-0.703596 10:5.35676e-06 11:-3.01253e-07 12:-0.070447 13:-0.302744 14:-0.462243 15:-0.175277 16:0.0455521 17:0.535275 18:0.191302 19:0.322468 20:0.777119 21:-0.251964 22:-0.606426 23:1 
32 1:-0.138503 2:-0.679428 3:0.660614 4:-0.0453267 5:0.0820833 6:-0.171016 7:-0.471603 8:0.179202 9:-0.818834 10:0.631501 11:0.40462 12:-0.169176 13:0.32894 14:-0.112085 15:0.520781 16:0.341299 17:0.188468 18:0.0237134 19:-0.113241 20:0.413411 21:-0.371092 22:-0.285141 23:1 
32 1:0.977605 2:0.288584 3:0.784216 4:8.04567e-06 5:-1.2011e-05 6:-0.85 7:0.0276108 8:-0.728595 9:-0.226778 10:5.35676e-06 11:-3.01253e-07 12:1 13:0.0873312 14:0.54448 15:0.98894 16:0.00114976 17:0.022405 18:0.968837 19:0.678265 20:-0.927569 21:0.10445 22:0.35743 23:1 
2.827049027769319 1:-0.153973 2:0.85188 3:0.723082 4:-0.120896 5:0.143304 6:0.9625 7:0.146692 8:-0.975183 9:-0.00763523 10:5.35676e-06 11:-3.01253e-07 12:1 13:-0.657792 14:0.254772 15:-0.730899 16:0.0619115 17:-0.0513845 18:0.0419497 19:0.126332 20:-0.42392 21:0.310297 22:0.678715 23:1 
32 1:-0.237391 2:0.859386 3:-0.659571 4:-0.0399811 5:-0.0730324 6:-0.949902 7:0.228552 8:0.560092 9:0.366668 10:-0.0509761 11:-0.114132 12:-0.0201104 13:-0.0454866 14:0.186777 15:-0.974236 16:-0.00437463 17:0.00123709 18:0.498256 19:0.177607 20:-0.387907 21:-0.570429 22:-0.285141 23:1 
32 1:0.887846 2:0.859804 3:0.557611 4:-0.0149914 5:0.0819606 6:0.949998 7:-0.674571 8:-0.137743 9:-0.541321 10:5.35676e-06 11:-3.01253e-07 12:-0.98085 13:-0.265066 14:0.812542 15:0.901147 16:0.00868787 17:-0.0198005 18:-0.964637 19:0.860289 20:-0.794817 21:0.630212 22:1 23:1 
32 1:0.946671 2:-0.266482 3:-0.121022 4:0.0798142 5:-0.0318929 6:-0.953125 7:-0.640803 8:0.035844 9:-0.544563 10:5.35676e-06 11:-3.01253e-07 12:-1 13:-0.807765 14:-0.310044 15:-0.42351 16:-0.0389576 17:0.0388196 18:-0.00119856 19:0.617129 20:0.933488 21:0.496237 22:0.0361446 23:1 
32 1:-0.485744 2:-0.886873 3:-0.543568 4:0.076624 5:0.557256 6:-0.7375 7:-0.331564 8:0.68409 9:0.862948 10:5.35676e-06 11:-3.01253e-07 12:0.0228664 13:-0.626871 14:-0.110974 15:-0.594204 16:-0.0373544 17:-0.264518 18:0.411614 19:0.400797 20:0.299959 21:0.0890323 22:0.678715 23:1 
31.80330376218956 1:-0.771626 2:0.111944 3:0.714605 4:0.33203 5:-0.415543 6:-0.546765 7:-0.684755 8:0.811398 9:0.966531 10:5.35676e-06 11:-3.01253e-07 12:0.11975 13:0.146758 14:-0.311054 15:0.251245 16:-0.165712 17:0.236351 18:0.363619 19:0.309622 20:-0.0364595 21:-0.574627 22:1 23:1 
32 1:0.732023 2:0.16259 3:-0.560034 4:0.0234136 5:0.122779 7:0.600538 8:-0.552404 9:-0.0511882 10:5.35676e-06 11:-3.01253e-07 12:-0.0235814 13:0.239504 14:-0.103128 15:0.508592 16:-0.0106129 17:-0.0408171 18:0.0107135 19:0.231454 20:-0.944265 21:-0.55037 22:1 23:1 
32 1:-0.934953 2:0.053708 3:0.0111249 4:8.04567e-06 5:-1.2011e-05 6:-0.85 7:0.702109 8:-0.44597 9:0.61304 10:5.35676e-06 11:-3.01253e-07 12:0.0295899 13:0.77928 14:-0.341628 15:0.601362 16:0.00114976 17:0.022405 18:0.472583 19:0.583256 20:-0.0151292 21:0.587309 22:0.678715 23:1 
32 1:0.0619375 2:-0.874037 3:-0.0798852 4:0.333004 5:-0.085335 6:-0.64375 7:0.0883642 8:0.227424 9:-0.98029 10:5.35676e-06 11:-3.01253e-07 12:0.0922449 13:-0.119264 14:0.342337 15:-0.900148 16:-0.166201 17:0.0663356 18:0.39915 19:0.113055 20:0.526876 21:-0.270235 22:1 23:1 
32 1:0.407011 2:0.837187 3:-0.732754 4:-0.0834379 5:-0.0930831 6:-1 7:-0.17736 8:0.172043 9:-0.242612 10:5.35676e-06 11:-3.01253e-07 13:0.345801 14:-0.152594 15:0.489973 16:0.0430864 17:0.0703249 18:0.534159 19:0.270544 20:-0.676909 21:-0.332208 22:0.35743 23:1 
0.582418251337798 1:0.864208 2:-0.263181 3:-0.514655 4:-0.045778 5:-0.998982 6:-0.4 7:-0.17736 8:0.172043 9:-0.514909 10:5.35676e-06 11:-3.01253e-07 12:-0.0922549 13:-0.172521 14:-0.674369 15:-0.000267495 16:0.02416 17:0.536749 18:0.180149 19:0.477847 20:0.928173 21:-0.0228938 22:0.35743 23:1 
23.54735142099695 1:-0.92701 2:0.370689 3:-0.124642 4:8.04567e-06 5:-1.2011e-05 6:-0.526873 7:-0.0157845 8:-0.124963 9:0.314305 10:-0.0689696 11:-0.104248 12:-0.0129361 13:0.454792 14:-0.104596 15:0.438537 16:-0.0335145 17:-0.0312702 18:0.285593 19:0.642429 20:-0.095224 21:-0.11925 22:-0.606426 23:1 
2.159838723609928 1:0.311094 2:0.861092 3:-0.863764 4:0.568555 5:0.25958 6:-0.7 7:-0.348337 8:0.892866 9:-0.50284 10:5.35676e-06 11:-3.01253e-07 12:0.0802577 13:0.260305 14:-0.259651 15:0.360879 16:-0.284579 17:-0.111252 18:0.421786 19:0.220143 20:-0.637093 21:-0.443577 22:0.0361446 23:1 
32 1:-0.877782 2:0.588857 3:-0.540872 4:4.11057e-06 5:-4.25478e-05 7:-0.923839 8:-0.123728 9:-0.04935 10:5.35676e-06 11:-3.01253e-07 12:3.86796e-06 13:0.237707 14:-0.103128 15:0.491268 16:0.00115174 17:0.0224207 18:0.0227747 19:0.672843 20:-0.151335 21:-0.553969 22:1 23:1 
32 1:0.933328 2:-0.46841 3:0.938882 4:0.0263969 5:-0.0051448 7:0.27163 8:-0.30429 9:-0.569035 10:5.35676e-06 11:-3.01253e-07 12:0.00381663 13:0.289439 14:-0.103128 15:0.492204 16:-0.0121122 17:0.0250478 18:0.0247244 19:0.670799 20:0.883858 21:-0.450374 22:0.35743 23:1 
13.13723005146319 1:0.944584 2:-0.31577 3:0.559595 4:-0.0387978 5:0.204845 6:-0.949902 7:0.299842 8:-0.133208 9:-0.577039 10:5.35676e-06 11:-3.01253e-07 12:0.0166023 13:0.0902483 14:0.216924 15:0.863463 16:0.0206521 17:-0.0830704 18:0.51703 19:0.628386 20:0.921192 21:-0.465108 22:-0.606426 23:1 
32 1:-0.339364 2:0.830947 3:-0.0568399 4:0.738107 5:-0.133133 6:0.625 7:0.403516 8:0.730515 9:0.485958 10:0.03414 11:0.749224 12:0.0711757 13:0.34304 14:-0.0753947 15:0.542306 16:-0.352635 17:0.476708 18:-0.260446 19:0.215499 20:-0.342608 21:-0.341355 22:-0.285141 23:1 
32 1:-0.700338 2:-0.682357 3:0.283036 4:8.06101e-06 5:-1.19921e-05 6:1.33227e-15 7:-0.347354 8:-0.120363 9:0.792392 10:5.35676e-06 11:-3.01253e-07 12:-3.0533e-09 13:0.237707 14:-0.103128 15:0.508732 16:0.00114976 17:0.022405 18:0.0227727 19:0.470798 20:0.201896 21:-0.553969 22:1 23:1 
32 1:0.641105 2:0.504265 3:-0.502967 4:0.000415228 5:0.0447983 7:0.606928 8:-0.445076 9:-0.0213794 10:5.35676e-06 11:-3.01253e-07 12:-0.00178542 13:0.323475 14:-0.103128 15:0.481323 16:0.00094513 17:-0.000666627 18:0.0218596 19:0.245577 20:-0.824564 21:-0.382218 22:0.0361446 23:1 
32 1:0.944599 2:0.637565 3:0.0513076 4:0.123387 5:0.0200628 6:-1 7:0.773586 8:-0.474779 9:-0.014477 10:0.624345 11:-0.0287965 12:0.0689039 13:-0.168209 14:-0.54635 15:-0.0660125 16:0.252914 17:-0.00275766 18:0.569396 19:0.785977 20:-0.846178 21:-0.248501 22:-0.606426 23:1 
32 1:-0.685799 2:0.869368 3:0.385455 4:0.154057 5:0.409478 6:-0.8125 7:0.616082 8:0.695385 9:0.519946 10:5.35676e-06 11:-3.01253e-07 12:1 13:0.130994 14:-0.804262 15:0.134013 16:-0.0762692 17:-0.188431 18:0.94966 19:0.61978 20:-0.244908 21:0.219116 22:1 23:1 
32 1:0.57393 2:0.858996 3:0.278419 4:-0.0801427 5:-0.0959355 6:-1 7:-0.162367 8:0.149138 9:-0.333079 10:-0.2503 11:0.432838 12:-0.775 13:-0.472738 14:0.0119821 15:-0.611547 16:-0.0843634 17:0.294654 18:0.137835 19:0.463784 20:-0.72562 21:-0.195105 22:0.0361446 23:1 
32 1:-0.928157 2:0.147654 3:-0.992586 4:8.04567e-06 5:-1.2011e-05 6:0.85 7:-0.331436 8:-0.262793 9:0.354721 10:5.35676e-06 11:-3.01253e-07 12:0.0149588 13:-0.321681 14:0.0751292 15:-0.653188 16:0.00114976 17:0.022405 18:-0.404256 19:0.582286 20:-0.0395871 21:-0.437229 22:0.678715 23:1 
32 1:0.662581 2:-0.835051 3:0.34702 4:0.158917 5:0.304809 6:0.345464 7:0.938299 8:-0.0447799 9:0.834958 10:5.35676e-06 11:-3.01253e-07 12:0.0161416 13:0.300677 14:-0.103128 15:0.487296 16:-0.0787117 17:-0.134539 18:-0.145638 19:0.535446 20:0.755273 21:-0.42787 22:1 23:1 
32 1:0.976218 2:-0.427929 3:0.161349 4:-0.218548 5:-0.121398 6:-0.925 7:-0.74386 8:-0.421446 9:-0.309729 10:5.35676e-06 11:-3.01253e-07 12:-0.00993056 13:-0.780303 14:0.356742 15:-0.471146 16:0.110988 17:0.0849034 18:0.490727 19:0.722202 20:0.897655 21:0.614324 22:1 23:1 
32 1:0.927352 2:-0.472416 3:-0.264552 4:0.25283 5:-0.276978 6:-0.85 7:-0.74386 8:-0.421446 9:-0.327771 10:5.35676e-06 11:-3.01253e-07 12:0.0975874 13:-0.608846 14:-0.764484 15:-0.0633092 16:-0.125909 17:0.165008 18:0.507356 19:0.663117 20:0.882246 21:0.566641 22:1 23:1 
32 1:0.945882 2:-0.536163 3:-0.236383 4:0.184214 5:-0.169038 6:-0.925 7:-0.74386 8:-0.421446 9:-0.332256 10:5.35676e-06 11:-3.01253e-07 12:0.00451338 13:-0.682645 14:-0.693251 15:-0.0959595 16:-0.0914249 17:0.109432 18:0.498113 19:0.724483 20:0.870174 21:0.586697 22:1 23:1 
32 1:-0.0626053 2:0.89991 3:0.787005 4:0.245108 5:-0.193879 6:-0.8875 7:0.359031 8:-0.18354 9:0.210352 10:5.35676e-06 11:-3.01253e-07 12:-0.0232661 13:-0.457915 14:0.102095 15:-0.576942 16:-0.122028 17:0.122222 18:0.46473 19:0.162419 20:-0.468585 21:-0.170951 22:1 23:1 
32 1:0.944309 2:0.344185 3:0.194441 4:0.0768008 5:0.0537667 6:0.9625 7:-0.82377 8:-0.288061 9:-0.203695 10:5.35676e-06 11:-3.01253e-07 12:-0.00947277 13:-0.891832 14:0.237584 15:-0.398257 16:-0.0374432 17:-0.00528424 18:-0.474281 19:0.641181 20:-0.911562 21:0.727886 22:0.678715 23:1 
31.34369800751327 1:-0.911988 2:0.860157 3:0.957843 4:-0.290394 5:0.0387058 6:0.899219 7:-0.121619 8:-0.36053 9:0.302678 10:-0.436399 11:-0.609963 12:0.625 13:-0.481589 14:0.342336 15:-0.655489 16:-0.0722262 17:-0.311589 18:-0.117459 19:0.910589 20:-0.199079 21:0.109933 22:-0.285141 23:1 
32 1:0.0727672 2:0.750673 3:-0.360637 4:-0.0463839 5:0.0990389 6:-0.0976778 7:0.325615 8:-0.0173245 9:0.133326 10:-0.228471 11:-0.101486 12:-0.0953395 13:0.285849 14:-0.106119 15:0.493629 16:-0.0903589 17:-0.080847 18:0.0239685 19:-0.0333781 20:-0.536495 21:-0.457542 22:0.35743 23:1 
32 1:0.498172 2:0.860001 3:0.296756 4:-0.297975 5:-0.401527 7:0.445855 8:0.0432705 9:-0.0131982 10:5.35676e-06 11:-3.01253e-07 12:0.0205744 13:-0.291428 14:-0.293054 15:-0.310165 16:0.150904 17:0.229134 18:0.0332941 19:0.383563 20:-0.703237 21:-0.477737 22:0.0361446 23:1 
32 1:0.449941 2:-0.844559 3:-0.240886 4:0.727195 5:-0.686471 6:0.4 7:0.577988 8:0.0748965 9:0.938804 10:5.35676e-06 11:-3.01253e-07 12:0.185977 13:-0.2156 14:0.230637 15:-0.821048 16:-0.364306 17:0.375845 18:-0.086676 19:0.307804 20:0.692474 21:-0.39062 22:1 23:1 
32 1:-0.933043 2:0.798862 3:0.928207 4:0.670087 5:-0.15383 6:-0.6625 7:-0.676336 8:0.220996 9:0.150173 10:5.35676e-06 11:-3.01253e-07 12:-0.130849 13:-0.198645 14:0.103943 15:-0.778282 16:-0.335605 17:0.101602 18:0.294652 19:0.894577 20:-0.184784 21:-0.597718 22:1 23:1 
32 1:-0.369231 2:0.826141 3:-0.930587 4:-0.244055 5:-0.0541807 6:0.925 7:-0.676336 8:0.220996 9:-0.188791 10:5.35676e-06 11:-3.01253e-07 12:0.0264954 13:0.171088 14:0.106607 15:0.741584 16:0.123806 17:0.0502951 18:-0.43671 19:0.235187 20:-0.330533 21:-0.53759 22:1 23:1 
8.133839906920082 1:0.945439 2:-0.451259 3:0.192837 4:-0.115586 5:-0.0800985 6:-0.990625 7:-0.387998 8:-0.146907 9:-0.431885 10:5.35676e-06 11:-3.01253e-07 12:0.000245767 13:-0.51084 14:0.413298 15:-0.624726 16:0.0592428 17:0.0636395 18:0.52949 19:0.68239 20:0.889147 21:0.241124 22:-0.285141 23:1 
32 1:-0.330389 2:0.223796 3:0.132449 4:-0.114323 5:-0.0505477 6:-0.177686 7:-0.00420108 8:0.404104 9:0.673416 10:0.322995 11:-0.535075 12:-0.181496 13:0.14203 14:-0.110548 15:0.540393 16:0.22093 17:-0.227076 18:0.0208243 19:-0.383508 20:-0.152954 21:-0.745305 22:0.678715 23:1 
32 1:-0.47797 2:0.544317 3:0.109159 4:-0.941741 5:-0.336358 6:-0.4 7:0.0290138 8:0.293286 9:0.386726 10:5.35676e-06 11:-3.01253e-07 12:0.132961 13:0.171775 14:-0.297682 15:0.277138 16:0.474436 17:0.195581 18:0.295322 19:0.0669616 20:-0.22787 21:-0.554954 22:0.678715 23:1 
32 1:0.85064 2:0.304878 3:-0.673316 4:-0.323585 5:-0.534731 6:-0.0332965 7:0.347655 8:-0.722534 9:-0.225406 10:-0.284772 11:0.243983 12:0.00134857 13:0.419369 14:-0.107556 15:0.447737 16:0.0206566 17:0.423341 18:0.0404897 19:0.47221 20:-0.912749 21:-0.190152 22:0.0361446 23:1 
0.4606607905779342 1:-0.459289 2:0.766452 3:0.960187 4:-0.992176 5:0.124843 6:0.4 7:0.266169 8:-0.617549 9:0.236219 10:5.35676e-06 11:-3.01253e-07 12:-1 13:-0.460922 14:0.415593 15:-0.724257 16:0.499782 17:-0.0418796 18:-0.693168 19:0.257623 20:-0.287752 21:0.17489 22:0.0361446 23:1 
32 1:0.365557 2:-0.828638 3:-0.272108 4:0.082067 5:-0.0943082 6:1 7:-0.167939 8:0.664947 9:-0.923926 10:5.35676e-06 11:-3.01253e-07 12:-1 13:-0.627753 14:0.0835566 15:-0.651604 16:-0.0400898 17:0.0709557 18:-1 19:0.212834 20:0.665039 21:0.138244 22:0.0361446 23:1 
32 1:-0.158055 2:0.86229 3:0.629857 4:0.0445608 5:-0.103103 6:-0.984766 7:-0.87558 8:-0.114879 9:-0.318403 10:5.35676e-06 11:-3.01253e-07 12:0.00334952 13:-0.228593 14:0.426323 15:-0.94829 16:-0.0212407 17:0.0754841 18:0.528081 19:0.141319 20:-0.422953 21:-0.0594455 22:0.0361446 23:1 
32 1:-0.705704 2:-0.0595958 3:-0.964583 4:-0.993779 5:-0.11139 6:-0.4 7:-0.0887288 8:0.784477 9:0.78124 10:5.35676e-06 11:-3.01253e-07 12:1 13:-0.372503 14:-0.409016 15:-0.254887 16:0.500588 17:0.0797505 18:0.738714 19:0.189584 20:0.0187739 21:-0.221346 22:0.0361446 23:1 
32 1:0.74118 2:0.856212 3:0.233303 4:8.04567e-06 5:-1.2011e-05 7:0.0292199 8:0.356219 9:-0.370444 10:5.35676e-06 11:-3.01253e-07 12:-0.119839 13:-0.419433 14:-0.0045124 15:-0.60378 16:0.00114976 17:0.022405 18:-0.0385111 19:0.662445 20:-0.767093 21:-0.305883 22:1 23:1 
21.14660639255263 1:0.09536 2:-0.340801 3:-0.923191 4:0.242747 5:0.0598118 6:0.925 7:-0.412576 8:-0.551451 9:0.708243 10:0.455355 11:-0.595953 12:0.246943 13:0.23075 14:-0.0859017 15:-0.369236 16:0.108 17:-0.315243 18:-0.323976 19:-0.567425 20:0.606609 21:-0.566976 22:0.196787 23:0.310345 
32 1:0.657581 2:-0.0971025 3:-0.187286 4:0.831948 5:-0.554899 6:-0.4 7:-0.201694 8:-0.28403 9:0.550463 10:-0.156367 11:0.9877 12:-0.4 13:-0.346458 14:-0.426102 15:0.737214 16:-0.495537 17:0.816652 18:0.0227727 19:0.0906679 20:0.965979 21:-0.24004 22:0.799197 23:0.310345 
14.72376868715146 1:-0.33928 2:0.0322473 3:0.515051 4:-0.00556479 5:0.117764 6:0.991487 7:-0.477216 8:0.740403 9:-0.945136 10:-0.98503 11:-0.172384 12:0.4 13:0.23178 14:-0.0371183 15:0.540096 16:-0.491091 17:-0.126992 18:-0.279706 19:-0.440108 20:-0.0262349 21:-0.552469 22:1 23:0.310345 
32 1:0.181548 2:-0.45117 3:0.936809 4:0.306367 5:-0.0616738 6:-0.8875 7:-0.143123 8:-0.0709286 9:0.276733 10:0.013423 11:0.0158493 12:0.87492 13:0.149613 14:-0.222269 15:-0.660388 16:-0.146071 17:0.0623138 18:0.92405 19:-0.375047 20:0.65121 21:-0.671298 22:-0.00401606 23:0.310345 
32 1:0.0502279 2:0.633518 3:-0.227408 4:-0.188889 5:0.163754 6:0.7 7:0.7809 8:0.614666 9:0.446965 10:-0.06138 11:-0.362021 12:-0.854687 13:0.257116 14:0.158907 15:0.673889 16:0.0652322 17:-0.248312 18:-0.772273 19:-0.190851 20:-0.52865 21:-0.345124 22:0.799197 23:0.310345 
32 1:-0.799863 2:-0.0748805 3:0.204481 4:8.04567e-06 5:-1.2011e-05 6:0.079463 7:-0.477441 8:0.250433 9:-0.327294 10:-0.19359 11:0.321164 12:0.079467 13:0.16133 14:-0.0986616 15:-0.531831 16:-0.0961437 17:0.187767 18:0.0227747 19:0.35232 20:0.0212106 21:-0.706831 22:-0.204819 23:0.310345 
7.466652949806977 1:0.348793 2:0.227024 3:-0.702473 4:0.165097 5:0.223674 6:-0.00180712 7:0.0119203 8:-0.349238 9:-0.178719 10:-0.112394 11:0.0707511 12:0.995312 13:0.236989 14:-0.104713 15:0.523555 16:-0.138305 17:-0.0563366 18:0.532686 19:-0.371818 20:-0.847615 21:-0.555398 22:0.799197 23:0.310345 
32 1:0.568476 2:-0.0572926 3:-0.579154 4:0.153679 5:0.605813 6:-0.7 7:0.337172 8:-0.715803 9:-0.129993 10:0.458805 11:-0.198759 12:0.55 13:0.230888 14:-0.148102 15:0.448946 16:0.154496 17:-0.391856 18:0.662006 19:-0.0665374 20:0.977698 21:-0.561356 22:0.799197 23:0.310345 
32 1:-0.651451 2:0.441962 3:-0.396368 4:8.04567e-06 5:-1.2011e-05 6:-0.233472 7:-0.511337 8:-0.0244406 9:0.0721064 10:0.335033 11:0.0769541 12:0.0678244 13:0.15414 14:-0.0990338 15:0.468169 16:0.169522 17:0.0620275 18:0.176852 19:0.238525 20:-0.152861 21:-0.72124 22:0.799197 23:0.310345 
32 1:-0.713372 2:0.700482 3:-0.746387 4:0.218394 5:0.22352 6:0.8875 7:-0.661052 8:0.137885 9:-0.0226569 10:0.685739 11:-0.0493032 12:0.6625 13:0.106417 14:0.0757826 15:0.723448 16:0.236022 17:-0.118071 18:-0.0922893 19:0.511067 20:-0.205131 21:-0.668057 22:0.598394 23:0.310345 
32 1:-0.235458 2:0.804991 3:-0.688886 4:0.0462878 5:0.0686438 6:0.949401 7:-0.290296 8:0.037112 9:0.0154519 10:0.74915 11:0.0359007 12:0.625 13:0.223162 14:0.0500186 15:0.70404 16:0.354383 17:0.00554074 18:-0.143122 19:0.109412 20:-0.381904 21:-0.512611 22:0.598394 23:0.310345 
32 1:0.574246 2:-0.770135 3:0.295783 4:0.598424 5:0.801193 6:0.4 7:-0.171368 8:-0.349953 9:0.256602 10:0.346529 11:0.360448 12:0.55 13:-0.12623 14:0.324391 15:-0.0395301 16:-0.12544 17:-0.204526 18:0.0994806 19:0.367636 20:0.745239 21:-0.299039 22:0.799197 23:0.310345 
32 1:-0.242525 2:0.592665 3:-0.0972512 4:-0.715297 5:0.225486 6:-0.105581 7:0.184628 8:0.404396 9:0.435048 10:-0.101967 11:-0.489492 12:-0.105589 13:0.194764 14:-0.109082 15:0.53183 16:0.309387 17:-0.345729 18:0.0227686 19:-0.139726 20:-0.341751 21:-0.639835 22:-0.204819 23:0.310345 
8.143141872019719 1:-0.610859 2:0.341914 3:-0.298174 4:-0.37035 5:0.503448 6:-0.188229 7:-0.272334 8:-0.296517 9:0.0429503 10:-0.991005 11:-0.133828 12:-0.188229 13:0.257962 14:-0.113632 15:0.340841 16:-0.310767 17:-0.305719 18:0.0227728 19:0.118868 20:-0.129504 21:-0.513095 22:-0.204819 23:0.310345 
24.238867330597 1:-0.316407 2:0.564539 3:-0.10161 4:-0.356067 5:0.117623 6:-0.85 7:-0.712828 8:-0.275513 9:-0.0281927 10:0.311266 11:-0.0278251 12:0.0643313 13:-0.127889 14:-0.504837 15:0.0731852 16:0.336527 17:-0.0524889 18:0.490349 19:-0.102763 20:-0.297488 21:-0.343809 22:-0.405622 23:0.310345 
12.62412675524432 1:0.108806 2:0.207848 3:-0.181747 4:0.841477 5:-0.540339 7:-0.469343 8:-0.287532 9:-0.338599 10:-0.182069 11:0.327833 12:-0.85 13:-0.17609 14:-0.448211 15:-0.156931 16:-0.513243 17:0.469401 18:-0.411906 19:-0.703967 20:-0.678878 21:-0.40913 22:-0.405622 23:0.310345 
10.34367933310999 1:0.498212 2:-0.132501 3:0.732145 4:-0.166572 5:0.18641 6:-0.925 7:0.279249 8:0.636613 9:-0.0425908 10:0.860349 11:-0.116302 12:-0.143162 13:0.245674 14:-0.231228 15:-0.774899 16:0.517242 17:-0.13346 18:0.422594 19:-0.173231 20:0.937949 21:-0.491498 22:0.39759 23:0.310345 
32 1:-0.537493 2:-0.152045 3:-0.496026 4:-0.00317113 5:0.249972 6:-0.925 7:-0.593866 8:-0.895669 9:-0.0259128 10:-0.99664 11:0.0819063 12:-0.475 13:0.243624 14:-0.144764 15:0.469851 16:-0.498129 17:-0.0641332 18:0.252897 19:-0.0817165 20:0.0651664 21:-0.536987 22:0.799197 23:0.310345 
0.212776356248142 1:-0.518476 2:-0.868811 3:0.00274172 4:-0.249985 5:-0.00219485 6:0.925 7:-0.0360952 8:-0.523597 9:-0.365239 10:0.0706103 11:-0.156704 12:-0.746875 13:0.207154 14:0.0387194 15:-0.368032 16:0.16227 17:-0.0571552 18:-0.832201 19:0.415869 20:0.286908 21:-0.550576 22:0.799197 23:0.310345 
32 1:-0.748798 2:-0.432345 3:0.284654 4:-0.626048 5:-0.779809 6:-0.176276 7:-0.402267 8:0.0866376 9:-0.183394 10:0.686926 11:-0.446607 12:-0.176297 13:0.221846 14:-0.112885 15:-0.468172 16:0.661001 17:0.193952 18:0.0227621 19:0.378339 20:0.130441 21:-0.585423 22:0.598394 23:0.310345 
1.053526462638908 1:-0.800608 2:0.099102 3:-0.395404 4:-0.0403569 5:0.118294 6:0.0767632 7:-0.644119 8:-0.409263 9:-0.927441 10:0.365234 11:0.085057 12:0.0767675 13:0.169546 14:-0.0986616 15:-0.531831 16:0.204986 17:0.00528708 18:0.0227749 19:0.357337 20:-0.0313135 21:-0.690382 22:0.196787 23:0.310345 
9.821904610703777 1:-0.357962 2:0.669112 3:-0.699885 4:0.257139 5:0.354379 6:-0.169978 7:-0.738793 8:-0.00181929 9:0.641576 10:-0.428748 11:0.903424 12:-0.169014 13:0.287073 14:-0.113632 15:-0.659158 16:-0.34355 17:0.305096 18:0.0232656 19:0.0507299 20:-0.304632 21:-0.454829 22:-0.00401606 23:0.310345 
30.63121208177641 1:0.879123 2:-0.853825 3:0.128884 4:0.114897 5:0.04924 6:1 7:0.506986 8:0.434676 9:-0.752792 10:-0.31188 11:-0.306815 12:0.8125 13:-0.00116374 14:0.45968 15:-0.88152 16:-0.213331 17:-0.160927 18:-0.0731123 19:0.835483 20:0.796425 21:-0.0724803 22:0.598394 23:0.310345 
32 1:0.268588 2:0.449319 3:-0.390829 4:-0.0841134 5:0.235415 6:0.925 7:0.489637 8:-0.226299 9:0.0885909 10:0.601091 11:0.171245 12:0.7 13:0.246738 14:-0.0729021 15:0.479107 16:0.345509 17:-0.0106389 18:-0.0922893 19:-0.285893 20:-0.705609 21:-0.533204 22:-0.00401606 23:0.310345 
32 1:0.625469 2:0.570215 3:-0.579342 4:0.184841 5:0.726869 6:-0.0638037 7:0.443778 8:-0.200155 9:-0.202562 10:-0.351781 11:0.260104 12:-0.8125 13:0.267341 14:-0.107976 15:0.376602 16:-0.268535 17:-0.217924 18:-0.3601 19:0.271157 20:-0.803088 21:-0.494562 22:0.598394 23:0.310345 
32 1:-0.869151 2:-0.414446 3:0.00660049 4:-0.749836 5:-0.015651 6:-0.21326 7:-0.40151 8:-0.417205 9:-0.48618 10:0.0217813 11:-0.499527 12:-0.55 13:0.192585 14:-0.109111 15:-0.49277 16:0.388935 17:-0.22674 18:-0.149432 19:0.562057 20:0.109713 21:-0.644196 22:-0.204819 23:0.310345 
32 1:-0.940932 2:-0.577302 3:0.0620492 4:-0.490517 5:-0.0969155 6:-0.00631686 7:0.0453583 8:-0.294734 9:0.721809 10:-0.640414 11:0.768029 12:0.111144 13:0.466599 14:-0.0926237 15:0.659156 16:-0.0741828 17:0.467743 18:0.0828407 19:0.757733 20:0.13821 21:-0.0954269 22:0.799197 23:0.310345 
32 1:-0.662255 2:0.827582 3:0.910512 4:-0.360264 5:0.104065 6:0.85 7:-0.619759 8:-0.00758278 9:-0.13929 10:-0.905601 11:0.42413 12:-0.128308 13:-0.135189 14:0.22712 15:0.950097 16:-0.272916 17:0.187196 18:-0.477521 19:0.552467 20:-0.242628 21:-0.464328 22:0.799197 23:0.310345 
32 1:0.156589 2:-0.764639 3:0.764938 4:8.04567e-06 5:-1.2011e-05 6:-0.471694 7:-0.117347 8:-0.414479 9:-0.707119 10:0.454004 11:0.596982 12:-0.4 13:0.15363 14:-0.11207 15:0.528123 16:0.229313 17:0.329781 18:0.0594363 19:-0.00214685 20:0.580782 21:-0.721983 22:-0.00401606 23:0.310345 
29.48965598677858 1:-0.0344525 2:-0.849188 3:-0.371374 4:-0.208972 5:0.488418 6:0.75625 7:-0.113655 8:-0.11846 9:-0.973821 10:-0.996543 11:-0.0830836 12:0.4 13:-0.301314 14:-0.0220908 15:-0.602214 16:-0.394653 17:-0.271853 18:-0.159409 19:0.07847 20:0.480322 21:-0.543064 22:-0.807229 23:0.310345 
32 1:-0.927814 2:0.568668 3:-0.886455 4:0.175685 5:0.0655203 6:0.7375 7:-0.494897 8:-0.36351 9:0.323829 10:0.526622 11:0.850106 12:0.0604982 13:-0.10619 14:0.339424 15:-0.790187 16:0.177519 17:0.426369 18:-0.323437 19:0.73821 20:-0.140022 21:-0.280448 22:0.196787 23:0.310345 
2.840148029249645 1:0.564559 2:0.658815 3:-0.690504 4:0.563175 5:0.82635 6:-0.0675369 7:0.289272 8:0.168883 9:-0.202478 10:0.00628848 11:-0.00464337 12:-0.859375 13:0.191887 14:-0.103034 15:0.48784 16:-0.278718 17:-0.405458 18:-0.382163 19:0.262956 20:-0.764802 21:-0.645724 22:1 23:0.310345 
22.00278447873017 1:0.930946 2:0.669792 3:0.426373 4:0.171931 5:0.730031 6:0.625 7:0.381581 8:0.359686 9:-0.221645 10:0.767042 11:-0.64161 12:0.297887 13:-0.210283 14:0.145788 15:-0.648112 16:0.300232 17:-0.683829 18:-0.144508 19:0.785577 20:-0.8377 21:-0.524174 22:1 23:0.310345 
7.14562453343537 1:0.821092 2:0.858965 3:0.818147 4:-0.841155 5:0.540791 6:0.4 7:-0.147844 8:-0.442632 9:-0.0946902 10:0.836456 11:-0.256874 12:0.148217 13:0.100906 14:0.634273 15:-0.912967 16:0.844254 17:-0.3883 18:-0.105986 19:0.769227 20:-0.782809 21:0.269895 22:1 23:0.310345 
32 1:0.415017 2:0.702942 3:-0.594079 4:0.29104 5:0.95672 6:-0.285551 7:0.253115 8:0.151351 9:-0.069411 10:-0.701646 11:0.155858 12:-0.41875 13:0.187747 14:-0.111705 15:0.524421 16:-0.497735 17:-0.389943 18:-0.0453434 19:0.132322 20:-0.705567 21:-0.653742 22:-0.00401606 23:0.310345 
32 1:-0.438207 2:0.51284 3:0.526397 4:-0.0828235 5:0.99657 6:-0.4 7:0.231149 8:-0.0714534 9:0.220211 10:-0.674378 11:-0.557528 12:-0.55 13:-0.282538 14:-0.452202 15:-0.306499 16:-0.296142 17:-0.777771 18:-0.0539353 19:-0.0117064 20:-0.232092 21:-0.291549 22:0.598394 23:0.310345 
32 1:-0.454693 2:0.276386 3:-0.262151 4:-0.424832 5:0.458406 6:0.7 7:-0.00677594 8:0.69845 9:0.849421 10:-0.889266 11:0.45739 12:0.0852356 13:0.0042594 14:0.193466 15:-0.889122 16:-0.232257 17:0.0218801 18:-0.291609 19:-0.161297 20:-0.13934 21:-0.553332 22:-0.405622 23:0.310345 
4.16308722411548 1:0.364625 2:-0.815054 3:-0.266764 4:-0.669036 5:0.74323 6:-0.4 7:-0.242334 8:-0.505194 9:-0.749583 10:0.253644 11:0.254595 12:-0.859375 13:-0.321595 14:-0.261423 15:-0.482694 16:0.464854 17:-0.229184 18:-0.212145 19:0.196517 20:0.666968 21:-0.454413 22:-0.606426 23:0.310345 
32 1:-0.570042 2:0.728757 3:-0.745374 4:-0.348269 5:-0.358774 6:0.55 7:-0.687502 8:0.228282 9:0.779335 10:-0.767972 11:0.640482 12:-0.381088 13:0.148867 14:-0.00872643 15:-0.475984 16:-0.209776 17:0.536896 18:-0.453373 19:0.348064 20:-0.246152 21:-0.693633 22:-0.807229 23:0.310345 
12.85532384029775 1:0.736438 2:-0.00265945 3:0.774974 4:0.190088 5:-0.162404 6:0.720799 7:0.28767 8:0.449544 9:-0.690315 10:-0.562504 11:-0.826795 12:-0.4 13:0.236249 14:-0.0912303 15:0.534883 16:-0.377073 17:-0.319685 18:-0.550388 19:0.219637 20:-0.999238 21:-0.556457 22:0.799197 23:0.310345 
32 1:-0.885378 2:-0.0479201 3:-0.441734 4:0.182254 5:-0.983283 7:-0.54412 8:-0.367935 9:0.232547 10:0.745477 11:0.666542 12:0.4 13:0.114007 14:0.048232 15:0.67389 16:0.284207 17:0.871857 18:0.227327 19:0.497251 20:0.0118286 21:-0.693593 22:-0.807229 23:0.310345 
32 1:-0.247361 2:-0.327826 3:0.354685 4:-0.0964169 5:-0.196367 6:-0.235426 7:-0.0658105 8:0.140003 9:-0.13121 10:0.447307 11:-0.195811 12:-0.557031 13:0.162952 14:-0.108966 15:-0.48604 16:0.274406 17:0.0226838 18:-0.141692 19:-0.427008 20:0.246342 21:-0.703525 22:-0.00401606 23:0.310345 
30.4328302456299 1:0.375292 2:-0.573696 3:0.464164 4:0.0280914 5:0.24841 6:0.7 7:0.262721 8:-0.0021108 9:0.0250621 10:-0.747715 11:-0.0584875 12:0.226799 13:0.173435 14:-0.024582 15:-0.43932 16:-0.38874 17:-0.135615 18:-0.219216 19:-0.0538903 20:0.723993 21:-0.658804 22:0.39759 23:0.310345 
32 1:0.543998 2:-0.567452 3:0.69932 4:-0.293004 5:0.405144 6:0.55 7:0.248519 8:-0.130203 9:0.174572 10:-0.853817 11:-0.520573 12:-0.254914 13:0.179621 14:-0.0860489 15:-0.525025 16:-0.280693 17:-0.454233 18:-0.388849 19:0.149086 20:0.785243 21:-0.669162 22:-0.00401606 23:0.310345 
32 1:0.558944 2:0.139775 3:-0.485872 4:-0.00189557 5:0.0426281 7:0.555136 8:-0.582297 9:-0.0892521 10:-0.120097 11:0.0346503 12:1 13:0.237427 14:-0.104545 15:0.396391 16:-0.0582523 17:0.0182917 18:0.534159 19:-0.0663762 20:-0.936949 21:-0.554523 22:1 23:0.310345 
1.863561085493242 1:-0.848492 2:0.279918 3:-0.491815 4:-0.0157316 5:0.606451 6:0.606104 7:-0.494546 8:-0.438222 9:0.33125 10:0.50667 11:0.862146 12:0.0859777 13:0.240609 14:0.0754081 15:0.82262 16:0.26369 17:0.154057 18:-0.243213 19:0.480073 20:-0.0795812 21:-0.459464 22:0.39759 23:0.310345 
13.85928120806377 1:0.437825 2:-0.738233 3:0.792621 4:-0.795135 5:0.60643 6:-0.4 7:0.132449 8:0.339264 9:0.111629 10:0.117433 11:0.042848 12:-1 13:0.325664 14:-0.359909 15:-0.68123 16:0.459772 17:-0.267774 18:-0.284059 19:0.182305 20:0.708793 21:-0.239695 22:1 23:0.310345 
32 1:-0.0684953 2:0.0861754 3:-0.114415 4:-0.23403 5:0.0878946 6:-0.925 7:0.428614 8:-0.180334 9:0.3984 10:0.0590687 11:0.177955 12:0.9625 13:0.240311 14:-0.10858 15:0.512364 16:0.148451 17:0.06877 18:0.988014 19:-0.859814 20:-0.239966 21:-0.548665 22:0.799197 23:0.310345 
32 1:0.110796 2:0.45835 3:0.00677388 4:-0.474371 5:-0.0101643 6:-0.79031 7:0.497998 8:-0.00316814 9:0.307888 10:0.426373 11:0.61702 12:-0.4 13:0.16435 14:-0.300919 15:0.300718 16:0.453831 17:0.345325 18:0.222372 19:-0.398998 20:-0.591283 21:-0.562214 22:0.799197 23:0.310345 
32 1:0.288736 2:-0.661778 3:0.846137 4:0.221359 5:-0.116224 6:0.854623 7:-0.201733 8:-0.317604 9:-0.622174 10:0.0935368 11:0.231845 12:-0.0330305 13:0.239835 14:-0.106105 15:0.531831 16:-0.0630871 17:0.201612 18:-0.431161 19:-0.0434516 20:0.663136 21:-0.54968 22:0.799197 23:0.310345 
32 1:-0.879852 2:0.126855 3:0.77794 4:-0.76633 5:0.642445 6:-0.4 7:-0.265796 8:0.534747 9:0.809894 10:-0.61935 11:0.42297 12:-0.0644026 13:-0.168153 14:-0.442878 15:0.0313574 16:0.0750167 17:-0.0905993 18:0.194393 19:0.496614 20:-0.0360838 21:-0.424443 22:0.598394 23:0.310345 
32 1:-0.0774174 2:-0.605594 3:0.694891 4:-0.28734 5:0.409181 6:-0.55 7:-0.280463 8:-0.104119 9:0.198955 10:0.456477 11:0.328698 12:-0.157578 13:0.178079 14:-0.131022 15:-0.496227 16:0.374965 17:-0.0190365 18:0.223452 19:-0.231664 20:0.443121 21:-0.670356 22:-0.204819 23:0.310345 
32 1:0.285308 2:0.753302 3:-0.648125 4:0.112133 5:0.223439 6:-0.530568 7:0.0160015 8:0.108768 9:0.914898 10:-0.481955 11:0.133105 12:0.55 13:0.24252 14:-0.108998 15:-0.437732 16:-0.297415 17:-0.0241101 18:0.57536 19:0.0727989 20:-0.642555 21:-0.544228 22:0.39759 23:0.310345 
32 1:0.71779 2:0.85375 3:-0.768352 4:0.0330509 5:0.0294425 6:0.0503569 7:0.243277 8:0.312522 9:0.816826 10:0.314213 11:-0.204695 12:0.85 13:0.272128 14:-0.0987963 15:-0.415536 16:0.142453 17:-0.0981539 18:0.431699 19:0.630555 20:-0.762422 21:-0.48499 22:0.39759 23:0.310345 
32 1:-0.030835 2:0.722952 3:-0.357795 4:0.0605064 5:-0.126236 6:0.766018 7:0.310179 8:0.169887 9:0.0694361 10:-0.610287 11:-0.134805 12:-0.0627796 13:0.23204 14:-0.028248 15:0.42693 16:-0.335964 17:0.0179857 18:-0.401063 19:-0.0743899 20:-0.478984 21:-0.548189 22:0.799197 23:0.310345 
32 1:0.583035 2:0.608779 3:-0.613828 4:0.076524 5:0.204923 6:-0.222462 7:0.402433 8:0.123023 9:-0.0817608 10:-0.806516 11:0.212273 12:-0.222509 13:0.166783 14:-0.11306 15:0.531825 16:-0.442632 17:0.0261849 18:0.0227484 19:0.243957 20:-0.782254 21:-0.69559 22:0.196787 23:0.310345 
32 1:0.417423 2:0.740857 3:-0.665793 4:0.435223 5:0.759091 6:0.55 7:0.906135 8:0.311347 9:0.427155 10:0.228148 11:0.973629 12:0.4 13:-0.0201173 14:0.234358 15:-0.907559 16:-0.102916 17:0.132867 18:-0.0539353 19:0.174988 20:-0.69853 21:-0.483756 22:-0.807229 23:0.310345 
20.36214677660708 1:-0.946221 2:0.622191 3:-0.919382 4:-0.605007 5:-0.156822 6:0.7 7:-0.536841 8:-0.00608716 9:0.09265 10:-0.239536 11:-0.0715572 12:-0.925 13:-0.163805 14:0.20486 15:-0.988322 16:0.184822 17:0.0662988 18:-0.80823 19:0.797553 20:-0.14876 21:-0.480711 22:1 23:0.310345 
32 1:-0.861707 2:0.554948 3:0.011324 4:-0.499678 5:-0.0178542 6:-0.0693134 7:-0.389075 8:0.575591 9:0.543672 10:0.0507337 11:-0.371554 12:-0.0693166 13:0.195314 14:-0.107594 15:0.531831 16:0.277766 17:-0.159715 18:0.022771 19:0.628055 20:-0.146157 21:-0.638789 22:-0.204819 23:0.310345 
32 1:-0.789856 2:0.5412 3:-0.0751062 4:8.04567e-06 5:-1.2011e-05 6:-0.201861 7:-0.369323 8:0.394945 9:0.457199 10:-0.110019 11:-0.805018 12:-0.201599 13:0.177936 14:-0.112804 15:0.531826 16:-0.0541446 17:-0.392084 18:0.0229071 19:0.509846 20:-0.154094 21:-0.673296 22:-0.807229 23:0.310345 
32 1:-0.284983 2:-0.232011 3:-0.585972 4:0.104737 5:0.378647 6:-0.839279 7:-0.687482 8:-0.309474 9:-0.412599 10:-0.271168 11:0.962532 12:-0.35474 13:0.0491348 14:-0.313252 15:0.173303 16:-0.187765 17:0.323035 18:0.27056 19:-0.452944 20:0.171623 21:-0.681291 22:-0.807229 23:0.310345 
32 1:-0.784242 2:-0.872797 3:0.222674 4:0.0567924 5:0.0477803 6:-0.0683729 7:-0.656166 8:-0.176026 9:-0.0348889 10:5.35676e-06 11:-3.01253e-07 12:0.0424284 13:0.177103 14:0.0783777 15:-0.257768 16:-0.0273878 17:-0.00220199 18:0.0794349 19:0.739362 20:0.222853 21:-0.561736 22:0.598394 23:0.310345 
32 1:0.143553 2:-0.901356 3:0.766538 4:0.371429 5:-0.334755 6:-0.55 7:-0.441951 8:-0.481577 9:0.483069 10:-0.0409248 11:-0.748884 12:-0.4 13:0.289227 14:-0.0178175 15:-0.283899 16:-0.206082 17:-0.190832 18:0.0994806 19:0.168437 20:0.563114 21:-0.432466 22:-0.405622 23:0.310345 
32 1:0.814115 2:-0.897645 3:0.0996078 4:-0.178382 5:-0.0577511 6:-0.9625 7:0.169438 8:-0.35036 9:-0.542169 10:-0.0494398 11:-0.371727 12:0.85 13:-0.266264 14:0.218523 15:-0.641731 16:0.0659525 17:-0.139262 18:0.94966 19:0.78391 20:0.776634 21:-0.350889 22:0.598394 23:0.310345 
32 1:-0.148028 2:-0.93622 3:0.448666 4:-0.0401316 5:-0.246773 6:-0.7 7:-0.255245 8:-0.226943 9:-0.976694 10:-0.685609 11:-0.0509359 12:0.107243 13:0.220883 14:0.00234775 15:0.574934 16:-0.323242 17:0.12323 18:0.435586 19:0.219169 20:0.432533 21:-0.552809 22:1 23:0.310345 
20.80391262838144 1:0.38541 2:-0.337184 3:-0.825427 4:0.853194 5:0.521616 7:-0.0336009 8:0.286687 9:0.0683838 10:0.977181 11:0.21246 12:0.0218082 13:0.0179729 14:-0.438521 15:0.893476 16:0.0634634 17:-0.136776 18:0.0339251 19:-0.250415 20:0.812164 21:-0.479363 22:-0.405622 23:0.310345 
20.53982290840267 1:-0.751892 2:-0.854139 3:0.261126 4:0.511455 5:0.548566 6:0.625 7:-0.423069 8:0.624526 9:0.0636468 10:-0.980222 11:-0.197903 12:0.126765 13:0.478718 14:0.185322 15:-0.197731 16:-0.748508 17:-0.36194 18:-0.232018 19:0.681092 20:0.226004 21:0.054906 22:0.799197 23:0.310345 
32 1:-0.791967 2:-0.696137 3:0.748637 4:0.704048 5:-0.710192 6:-0.4 7:-0.496464 8:0.0208761 9:-0.314435 10:0.481609 11:-0.73054 12:0.0649073 13:0.0580588 14:-0.421417 15:0.936906 16:-0.110637 17:0.0119162 18:0.26052 19:0.610293 20:0.186683 21:-0.490625 22:-0.204819 23:0.310345 
32 1:-0.821443 2:-0.843351 3:0.174336 4:-0.640263 5:-0.390609 6:0.625 7:-0.477216 8:-0.211735 9:-0.309665 10:0.00879982 11:-0.0129154 12:-0.86875 13:0.230345 14:0.0258125 15:-0.484069 16:0.327344 17:0.216864 18:-0.741111 19:0.764687 20:0.210322 21:-0.519103 22:-0.204819 23:0.310345 
32 1:0.137155 2:-0.634321 3:-0.91236 4:0.12029 5:0.0340114 6:-1 7:-0.00632971 8:-0.0315864 9:0.136958 10:0.90922 11:0.416339 12:-0.231232 13:-0.0308335 14:-0.362797 15:-0.951059 16:0.397638 17:0.219253 18:0.41591 19:-0.176623 20:0.58473 21:-0.625871 22:0.196787 23:0.310345 
32 1:0.353115 2:0.0849935 3:0.941788 4:0.245837 5:-0.0455027 6:0.7 7:-0.289911 8:-0.243508 9:-0.530296 10:0.094819 11:0.995496 12:-0.220517 13:0.2558 14:0.0950377 15:0.528019 16:-0.0747443 17:0.558391 18:-0.447967 19:-0.427335 20:-0.937519 21:-0.414949 22:1 23:0.310345 
32 1:0.906527 2:0.00938459 3:-0.645034 4:8.04567e-06 5:-1.2011e-05 6:-0.128703 7:0.676566 8:-0.48842 9:-0.112975 10:-0.527351 11:0.195717 12:-0.128715 13:0.177236 14:-0.109827 15:0.53183 16:-0.263879 17:0.123176 18:0.0227663 19:0.512014 20:-0.99613 21:-0.674889 22:-0.405622 23:0.310345 
32 1:0.900428 2:-0.12439 3:-0.278301 4:-0.375972 5:0.4494 6:-0.723437 7:0.662131 8:-0.579371 9:-0.148245 10:-0.0977019 11:0.0491554 12:0.667048 13:0.0308512 14:-0.310396 15:0.129873 16:0.140999 17:-0.183676 18:0.733848 19:0.509425 20:0.967866 21:-0.699438 22:-0.606426 23:0.310345 
32 1:-0.642443 2:0.446777 3:0.447649 4:0.0818637 5:0.493251 6:-0.55 7:-0.131092 8:-0.0651272 9:0.184013 10:-0.628508 11:-0.409239 12:0.4 13:-0.184161 14:-0.412639 15:-0.263937 16:-0.355855 17:-0.442273 18:0.50859 19:0.227796 20:-0.156082 21:-0.460039 22:-0.807229 23:0.310345 
32 1:0.207988 2:0.82203 3:0.573382 4:0.0571303 5:-0.243403 6:0.7 7:-0.17175 8:0.0471136 9:-0.328846 10:-0.496064 11:0.832103 12:-0.180042 13:-0.277446 14:0.170441 15:-0.902257 16:-0.276863 17:0.576157 18:-0.427269 19:0.107965 20:-0.598153 21:-0.401686 22:0.799197 23:0.310345 
16.40551846351302 1:-0.117201 2:0.491575 3:-0.996409 4:0.125001 5:0.00144171 6:-0.272109 7:-0.511871 8:0.511094 9:-0.620525 10:0.23083 11:0.580815 12:-0.7 13:0.165201 14:-0.110047 15:0.375889 16:0.0543374 17:0.320708 18:-0.196045 19:-0.347831 20:-0.400331 21:-0.698965 22:0.598394 23:0.310345 
30.5893809965346 1:-0.230904 2:-0.507061 3:0.0659034 4:0.978639 5:0.205659 6:-0.4 7:-0.560173 8:-0.0819628 9:-0.853907 10:-0.896182 11:-0.443687 12:0.475 13:-0.16566 14:0.10653 15:-0.919607 16:-0.941062 17:-0.311936 18:0.470236 19:-0.25905 20:0.324492 21:-0.634659 22:0.598394 23:0.310345 
32 1:-0.280357 2:0.541491 3:0.151376 4:-0.888997 5:-0.457933 7:0.491074 8:0.213065 9:-0.757125 10:-0.72235 11:-0.691527 12:-0.0267812 13:0.25591 14:-0.42368 15:-0.908342 16:0.0849 17:-0.0978785 18:0.00907713 19:-0.1634 20:-0.309101 21:-0.275351 22:0.598394 23:0.310345 
32 1:0.92486 2:0.394199 3:-0.644504 4:0.110046 5:0.225647 6:0.00673656 7:0.634542 8:-0.298755 9:0.798289 10:-0.0880102 11:0.0649323 12:-0.98125 13:0.25737 14:-0.104415 15:-0.557903 16:-0.0983842 17:-0.0603485 18:-0.48247 19:0.628701 20:-0.897685 21:-0.514589 22:0.598394 23:0.310345 
24.8047251465495 1:0.112558 2:-0.856793 3:-0.318905 4:0.0336889 5:-0.0526615 6:0.925 7:0.168462 8:0.498498 9:-0.119002 10:0.290871 11:-0.114256 12:-0.8875 13:-0.443547 14:0.229383 15:0.199702 16:0.130401 17:-0.00931533 18:-0.904115 19:0.101157 20:0.551711 21:-0.0792881 22:0.196787 23:0.310345 
32 1:-0.842474 2:0.000609325 3:-0.225363 4:-0.28491 5:0.243812 6:0.85 7:-0.396331 8:0.585003 9:0.873123 10:-0.546731 11:0.231564 12:-0.49375 13:-0.0106501 14:0.232914 15:-0.902217 16:-0.130431 17:0.0160947 18:-0.664403 19:0.422512 20:-0.00153168 21:-0.485223 22:-0.00401606 23:0.310345 
19.93019005530433 1:0.0364187 2:0.830967 3:0.766364 4:0.348044 5:-0.314024 6:0.79375 7:-0.248444 8:0.350112 9:-0.160712 10:-0.492211 11:0.272273 12:-0.20543 13:-0.052747 14:0.15126 15:-0.927176 16:-0.421128 17:0.32427 18:-0.488194 19:0.0670331 20:-0.515066 21:-0.63401 22:-0.00401606 23:0.310345 
25.55276563599879 1:0.629362 2:-0.571772 3:0.517445 4:0.0205494 5:-0.374456 6:0.85 7:0.0382772 8:-0.444306 9:-0.542761 10:-0.133689 11:-0.991025 12:0.4 13:0.0300825 14:0.209168 15:0.939872 16:-0.0763633 17:-0.295065 18:-0.207351 19:0.270035 20:0.806542 21:-0.515863 22:0.196787 23:0.310345 
29.92043091394564 1:0.288627 2:-0.518163 3:0.900212 4:-0.475614 5:0.154225 6:-0.55 7:0.104018 8:-0.212828 9:-0.696247 10:0.577817 11:0.816174 12:-0.4 13:0.0828015 14:-0.194105 15:0.403725 16:0.530565 17:0.363226 18:0.0994806 19:-0.203316 20:0.698589 21:-0.811582 22:-0.606426 23:0.310345 
32 1:-0.277513 2:-0.558692 3:0.726362 4:0.359483 5:-0.41732 6:0.347699 7:-0.528949 8:-0.203654 9:0.194847 10:-0.818968 11:-0.573839 12:0.378743 13:0.151264 14:-0.0912182 15:-0.5318 16:-0.591094 17:-0.0581932 18:0.0386482 19:-0.158546 20:0.312676 21:-0.726442 22:-0.807229 23:0.310345 
32 1:-0.923349 2:0.675847 3:0.185198 4:-0.417708 5:-0.27482 6:-0.775 7:-0.458524 8:0.529142 9:-0.554975 10:-0.00535703 11:-0.0307868 12:0.138974 13:0.121077 14:-0.292975 15:-0.740115 16:0.208382 17:0.148045 18:0.490166 19:0.796112 20:-0.162809 21:-0.633719 22:0.196787 23:0.310345 
32 1:-0.0585633 2:-0.836535 3:0.552403 4:0.122918 5:-0.739886 6:0.625 7:-0.141376 8:-0.641191 9:0.220239 10:0.385339 11:0.318621 12:-0.611641 13:0.0463291 14:-0.0735118 15:-0.332475 16:0.133034 17:0.5674 18:-0.609629 19:0.0652392 20:0.468058 21:-0.928434 22:-0.228916 23:0.310345 
32 1:0.544844 2:-0.419251 3:-0.524448 4:0.0765004 5:0.997077 6:-0.4 7:0.00175492 8:-0.472618 9:0.555974 10:-0.173434 11:0.984846 12:0.000408283 13:0.00562662 14:-0.391002 15:-0.92014 16:-0.124457 17:0.0161103 18:0.227536 19:0.0391478 20:0.830799 21:-0.568622 22:-0.405622 23:0.310345 
32 1:0.582413 2:-0.754679 3:-0.812635 4:0.415779 5:0.277729 6:-0.775 7:0.266763 8:0.137529 9:0.0523915 10:0.986613 11:0.163143 12:-0.4 13:-0.0973026 14:-0.499564 15:0.864701 16:0.288031 17:-0.0365968 18:0.214543 19:0.362992 20:0.750759 21:-0.366137 22:-0.405622 23:0.310345 
32 1:-0.396362 2:-0.667954 3:0.0831526 4:0.483036 5:0.129174 6:0.286806 7:0.0334135 8:-0.506009 9:0.551838 10:-0.059605 11:0.366275 12:0.0905589 13:0.189951 14:-0.0987082 15:0.468169 16:-0.271559 17:0.14448 18:-0.0775852 19:0.0782019 20:0.286962 21:-0.649529 22:-0.405622 23:0.310345 
32 1:0.743742 2:0.237705 3:-0.984071 4:0.776807 5:0.0391635 6:-0.128987 7:0.0436782 8:0.211875 9:-0.573943 10:0.114971 11:0.486604 12:0.55 13:0.306348 14:-0.108875 15:0.410111 16:-0.331461 17:0.252779 18:0.369997 19:0.27191 20:-0.921376 21:-0.416435 22:0.196787 23:0.310345 
19.94362401345347 1:0.86696 2:-0.622511 3:0.168638 4:-0.687599 5:-0.402779 6:0.596875 7:0.487905 8:-0.157207 9:0.257151 10:-0.691798 11:-0.722091 12:-0.4 13:-0.0966443 14:0.160214 15:0.0881542 16:-0.000960736 17:-0.142013 18:-0.487016 19:0.652679 20:0.840283 21:-0.603108 22:-0.405622 23:0.310345 
32 1:-0.506801 2:0.307867 3:-0.267507 4:-0.166819 5:0.186188 6:0.925 7:-0.108689 8:-0.222235 9:-0.911613 10:5.35676e-06 11:-3.01253e-07 12:-0.0969118 13:0.246879 14:-0.0884334 15:-0.643898 16:0.0849904 17:-0.0734647 18:-0.499819 19:-0.0626257 20:-0.1392 21:-0.534967 22:-0.00401606 23:0.310345 
17.60729988908039 1:-0.121375 2:0.255449 3:0.0187555 4:-0.374342 5:-0.0221382 6:-0.0139769 7:0.15588 8:0.28754 9:-0.502979 10:0.00100978 11:0.10937 12:-0.98125 13:0.108654 14:-0.101822 15:-0.521715 16:0.189788 17:0.0901102 18:-0.471878 19:-0.628388 20:-0.319227 21:-0.812391 22:-0.204819 23:0.310345 
32 1:0.0251145 2:-0.85595 3:0.70874 4:0.20008 5:-0.26009 6:0.30851 7:-0.279672 8:-0.293047 9:0.240877 10:0.636815 11:0.600086 12:-0.186035 13:0.226244 14:-0.113548 15:-0.468173 16:0.220638 17:0.465286 18:-0.230131 19:0.0856847 20:0.509529 21:-0.57658 22:1 23:0.310345 
32 1:-0.407019 2:-0.223405 3:0.465478 4:0.108239 5:0.994132 6:0.4 7:-0.214173 8:-0.769578 9:-0.8755 10:-0.231042 11:-0.0954876 12:-0.7 13:-0.226802 14:-0.231087 15:0.659265 16:-0.169359 17:-0.538619 18:-0.539752 19:-0.269725 20:0.122657 21:-0.647468 22:0.196787 23:0.310345 
21.44603531555659 1:0.381603 2:0.0648073 3:0.636465 4:8.04567e-06 5:-1.2011e-05 6:0.85 7:-0.0626528 8:-0.565165 9:-0.085807 10:0.963764 11:-0.266795 12:0.210216 13:-0.159393 14:0.221659 15:-0.72242 16:0.485499 17:-0.114963 18:-0.304404 19:-0.383541 20:-0.954929 21:-0.456373 22:-0.00401606 23:0.310345 
3.843786684014912 1:0.836829 2:0.204194 3:0.545289 4:8.04567e-06 5:-1.2011e-05 6:0.85 7:0.347415 8:0.306138 9:-0.511643 10:0.0136478 11:0.374752 12:-0.000239984 13:0.0342805 14:0.143624 15:0.94313 16:0.00800593 17:0.215359 18:-0.412028 19:0.418513 20:-0.939325 21:-0.62901 22:-0.204819 23:0.310345 
6.369931210761056 1:0.431646 2:0.210542 3:-0.974999 4:0.249233 5:0.0196898 6:0.925 7:0.667523 8:-0.69817 9:0.961248 10:-0.186058 11:0.0231756 12:-0.955647 13:-0.137368 14:0.282698 15:-0.0645562 16:-0.217609 17:0.0241939 18:-0.938964 19:-0.250863 20:-0.882117 21:-0.366611 22:-0.606426 23:0.310345 
28.25864261240434 1:-0.293659 2:-0.149825 3:0.160629 4:-0.109407 5:-0.0604576 6:0.902933 7:0.171637 8:0.225296 9:-0.361629 10:-0.31582 11:0.680262 12:0.4 13:0.239086 14:-0.0941728 15:-0.5223 16:-0.102584 17:0.403782 18:-0.23442 19:-0.486394 20:0.112979 21:-0.550965 22:0.799197 23:0.310345 
32 1:0.201476 2:-0.868677 3:0.48446 4:0.0030577 5:0.0624147 6:-0.925 7:0.369523 8:-0.190235 9:-0.0655073 10:0.978801 11:-0.204864 12:-0.189511 13:0.225379 14:-0.190866 15:-0.550137 16:0.491523 17:-0.115218 18:0.398891 19:0.150521 20:0.591618 21:-0.554702 22:-0.204819 23:0.310345 
32 1:-0.0324511 2:-0.851013 3:0.945497 4:0.821297 5:-0.142116 6:-0.425196 7:-0.516157 8:-0.31738 9:0.126352 10:0.92258 11:0.385832 12:-0.0726209 13:0.239862 14:-0.275709 15:-0.819379 16:0.0520536 17:0.294229 18:0.203075 19:0.0806606 20:0.481343 21:-0.4662 22:0.39759 23:0.310345 
32 1:-0.698214 2:-0.866913 3:0.285773 4:0.0243561 5:0.0305346 6:0.826562 7:-0.719511 8:-0.0362404 9:-0.0171643 10:0.249635 11:-0.0136256 12:-0.925 13:0.198013 14:0.127484 15:-0.303146 16:0.114368 17:-0.000338073 18:-0.872952 19:0.623676 20:0.239988 21:-0.47218 22:0.196787 23:0.310345 
25.4921743442411 1:-0.520491 2:-0.181777 3:0.66056 4:0.483276 5:-0.875503 6:0.4 7:-0.98989 8:0.00775548 9:-0.525266 10:-0.079074 11:-0.99687 12:-0.0244658 13:0.145265 14:0.0948599 15:0.814253 16:-0.281464 17:-0.0400985 18:-0.194293 19:-0.101328 20:0.0802613 21:-0.589645 22:0.598394 23:0.310345 
32 1:-0.542093 2:-0.867342 3:0.332837 4:8.04567e-06 5:-1.2011e-05 6:0.953125 7:-0.62816 8:-0.911636 9:-0.0630573 10:5.35676e-06 11:-3.01253e-07 12:0.0647352 13:-0.0712957 14:-0.0639442 15:-0.396076 16:0.00114976 17:0.022405 18:-0.431538 19:0.43992 20:0.279784 21:-0.995027 22:0.00401606 23:-0.241379 
11.10813824750657 1:-0.100643 2:-0.749358 3:-0.73186 4:0.665483 5:0.746427 6:0.4 7:-0.227803 8:-0.988076 9:-0.024108 10:0.997099 11:-0.0762575 12:0.0219873 13:0.0730763 14:-0.0908495 15:0.707472 16:0.16781 17:-0.401181 18:-0.170538 19:-0.0382092 20:0.441366 21:-0.882485 22:-0.626506 23:0.310345 
28.65529653957599 1:0.0631318 2:-0.751928 3:0.927766 4:-0.263542 5:0.0608708 6:0.220586 7:-0.473753 8:-0.61929 9:0.359551 10:-0.428146 11:-0.90371 12:0.4 13:0.239199 14:-0.0914351 15:-0.56857 16:-0.0815734 17:-0.474246 18:0.114523 19:-0.0469231 20:0.531869 21:-0.550568 22:1 23:0.310345 
32 1:0.0547217 2:0.524095 3:-0.265696 4:0.503657 5:-0.555758 6:0.4 7:0.00705608 8:0.923598 9:0.94153 10:-0.982782 11:0.184769 12:0.031952 13:-0.155317 14:-0.0117424 15:-0.793514 16:-0.745876 17:0.403678 18:-0.165442 19:-0.333394 20:-0.538018 21:-0.803915 22:1 23:0.310345 
32 1:0.0982059 2:0.853063 3:0.455674 4:8.04567e-06 5:-1.2011e-05 7:0.697258 8:-0.0846692 9:0.210005 10:0.790749 11:0.612153 12:0.251792 13:-0.342217 14:-0.49507 15:-0.245982 16:0.398548 17:0.337592 18:0.151535 19:0.105945 20:-0.544302 21:-0.155344 22:0.39759 23:0.310345 
18.08499693877457 1:0.379032 2:-0.247147 3:-0.742651 4:-0.258888 5:-0.271308 6:0.85 7:0.0385817 8:-1 9:-0.0152194 10:0.998839 11:-0.0484029 12:0.00808365 13:0.282202 14:-0.019549 15:0.727146 16:0.633237 17:0.137167 18:-0.407772 19:-0.319602 20:0.853362 21:-0.44688 22:-0.606426 23:0.310345 
7.904536891460843 1:-0.077703 2:0.201831 3:0.0411599 4:0.619787 5:0.0806493 6:0.7 7:0.645365 8:0.416537 9:-0.492664 10:-0.0231998 11:0.999732 12:0.149047 13:0.342795 14:-0.0705843 15:-0.533808 16:-0.321989 17:0.495619 18:-0.258977 19:-0.727244 20:-0.345384 21:-0.341212 22:0.799197 23:0.310345 
19.45168004313303 1:0.744396 2:0.855739 3:-0.522723 4:0.00889408 5:0.124674 6:1 7:0.809631 8:0.83188 9:0.896172 10:5.35676e-06 11:-3.01253e-07 13:-0.0238982 14:-0.0481898 15:-0.581841 16:-0.00331601 17:-0.0417926 18:-0.488614 19:0.666146 20:-0.767871 21:-0.996212 22:-0.839357 23:-0.655172 
11.61191793635009 1:-0.64368 2:0.282525 3:0.504071 4:-0.0127815 5:0.999925 7:-0.961999 8:-0.268158 9:0.633093 10:0.404544 11:-0.914524 12:0.4 13:-0.239779 14:0.0861935 15:0.128496 16:0.210883 17:-0.963309 18:0.227327 19:0.143445 20:-0.104048 21:-0.561267 22:-0.204819 23:0.310345 
23.86731843526436 1:-0.708527 2:-0.915224 3:0.33148 4:-0.252493 5:-0.43158 6:-0.55 7:-0.913131 8:0.491176 9:-0.587671 10:-0.271654 11:-0.962396 12:-0.0187463 13:0.363963 14:0.296853 15:-0.919065 16:-0.00847859 17:-0.250913 18:0.294449 19:0.680477 20:0.24635 21:-0.0190822 22:0.799197 23:0.310345 
32 1:-0.409822 2:-0.870241 3:0.912594 4:0.962527 5:-0.271264 6:-0.265628 7:-0.934355 8:-0.695195 9:-0.367902 10:0.403157 11:-0.915136 12:0.4 13:0.24438 14:-0.0938938 15:0.719521 16:-0.279965 17:-0.309122 18:0.363166 19:0.309525 20:0.321896 21:-0.540352 22:-0.405622 23:0.310345 
32 1:-0.26195 2:-0.83599 3:0.353549 4:-0.443992 5:-0.896057 7:-0.940773 8:-0.609451 9:0.549195 10:0.152442 11:-0.988315 12:0.4 13:-0.110271 14:0.280802 15:0.195151 16:0.300896 17:-0.0251107 18:0.227327 19:0.15183 20:0.373417 21:-0.383437 22:0.39759 23:0.310345 
32 1:-0.400533 2:0.815045 3:-0.432154 4:-0.211741 5:0.97733 6:0.4 7:0.0213722 8:0.868912 9:0.909852 10:-0.959576 11:0.281451 12:0.118908 13:-0.00444488 14:0.127851 15:-0.658731 16:-0.374683 17:-0.335889 18:-0.120974 19:0.251009 20:-0.317224 21:-0.673931 22:1 23:0.310345 
7.488109342255751 1:-0.211641 2:-0.307452 3:0.522109 4:0.0347076 5:-0.498816 6:0.55 7:-0.941228 8:-0.438001 9:0.484524 10:-0.0500059 11:-0.998751 12:0.0452272 13:-0.0569809 14:0.308392 15:-0.0380336 16:-0.0414226 17:-0.235013 18:-0.235361 19:-0.489161 20:0.260144 21:-0.348339 22:0.196787 23:0.310345 
32 1:0.578787 2:0.432798 3:0.544538 4:8.04567e-06 5:-1.2011e-05 6:0.85 7:0.365859 8:0.955994 9:-0.980609 10:-0.998087 11:-0.0618256 12:0.314309 13:0.169444 14:-0.0288115 15:0.475156 16:-0.500454 17:-0.00942774 18:-0.251173 19:0.10531 20:-0.831292 21:-0.668837 22:0.39759 23:0.310345 
32 1:-0.687363 2:0.295002 3:-0.173773 4:0.534219 5:-0.324438 6:0.19105 7:0.117895 8:-0.317768 9:-0.692125 10:0.567203 11:0.823585 12:0.102412 13:0.429068 14:-0.0911782 15:-0.518249 16:0.0177285 17:0.613493 18:-0.0225558 19:0.219834 20:-0.101877 21:-0.170512 22:0.196787 23:0.310345 
5.250128312833006 1:-0.0187096 2:-0.57077 3:0.912692 4:8.04567e-06 5:-1.2011e-05 7:-0.702286 8:-0.938285 9:0.888365 10:0.938428 11:-0.345504 12:0.4 13:0.260783 14:0.143987 15:-0.0249538 16:0.472766 17:-0.155489 18:0.227327 19:-0.289209 20:0.482074 21:-0.356168 22:1 23:0.310345 
32 1:0.170758 2:-0.868385 3:0.527716 4:0.00365968 5:-0.0418459 6:-0.900391 7:0.403155 8:-0.932714 9:-0.805392 10:0.818487 11:0.57454 12:0.4 13:-0.0666485 14:-0.237562 15:0.667104 16:0.410652 17:0.339765 18:0.687775 19:0.136292 20:0.577889 21:-0.845119 22:0.253012 23:0.310345 
32 1:0.193792 2:-0.909649 3:-0.0522576 4:8.04567e-06 5:-1.2011e-05 6:-0.85 7:-0.435407 8:-0.928951 9:-0.0583092 10:0.983181 11:-0.182691 12:-0.0175433 13:-0.342449 14:-0.164793 15:-0.00626471 16:0.495257 17:-0.0716594 18:0.44848 19:0.198854 20:0.584409 21:-0.470512 22:-0.606426 23:0.310345 
32 1:-0.435472 2:0.0325758 3:0.0423639 4:0.991159 5:0.132796 6:0.152438 7:0.341573 8:0.206242 9:-0.498826 10:-0.00385382 11:0.999994 12:0.091138 13:0.362234 14:-0.0912585 15:-0.54117 16:-0.498903 17:0.468905 18:-0.00857526 19:-0.275235 20:-0.0206923 21:-0.304308 22:-0.00401606 23:0.310345 
3.426100339487035 1:-0.471503 2:0.469629 3:-0.38595 4:0.263166 5:-0.702342 6:0.4 7:-0.258733 8:0.925328 9:-0.0597445 10:-0.982337 11:0.18712 12:-0.0247962 13:-0.153828 14:0.068249 15:0.325969 16:-0.624792 17:0.480361 18:-0.194462 19:-0.00382716 20:-0.207205 21:-0.704892 22:-0.405622 23:0.310345 
32 1:-0.68288 2:-0.0467448 3:0.669955 4:0.0878701 5:-0.14864 6:0.226452 7:-0.955262 8:0.565096 9:-0.762308 10:-0.733508 11:-0.679681 12:0.4 13:0.23603 14:-0.0914301 15:0.567938 16:-0.411642 17:-0.251026 18:0.111523 19:0.149532 20:0.0148511 21:-0.556908 22:1 23:0.310345 
32 1:-0.754312 2:-0.916582 3:0.814432 4:0.834803 5:-0.550595 6:0.4 7:-0.954004 8:-0.701568 9:-0.297976 10:0.592802 11:-0.805356 12:0.4 13:0.103898 14:-0.111827 15:0.887566 16:-0.120468 17:-0.108778 18:0.0227727 19:0.738832 20:0.236716 21:-0.821471 22:0.39759 23:0.310345 
32 1:-0.247954 2:-0.700878 3:-0.742822 4:0.690788 5:0.723072 6:0.4 7:-0.399785 8:-0.957754 9:-0.0371942 10:0.993125 11:-0.117153 12:0.0882905 13:0.0880403 14:-0.0934506 15:0.705353 16:0.153095 17:-0.410212 18:-0.136631 19:-0.0204497 20:0.358717 21:-0.853046 22:0.196787 23:0.310345 
32 1:-0.0259854 2:0.774709 3:-0.304741 4:-0.575824 5:0.817575 7:0.26999 8:0.973909 9:-0.0261362 10:-0.996582 11:0.0826056 12:0.0199136 13:-0.00277471 14:0.0793546 15:0.278356 16:-0.210307 17:-0.356017 18:0.0329562 19:-0.00683499 20:-0.482947 21:-0.760436 22:0.196787 23:0.310345 
32 1:0.537254 2:-0.846179 3:-0.271639 4:8.04567e-06 5:-1.2011e-05 7:-0.330339 8:-0.758005 9:-0.431786 10:0.21273 11:-0.977114 12:0.4 13:-0.342423 14:-0.433614 15:-0.160185 16:0.108057 17:-0.480694 18:0.227327 19:0.399975 20:0.719628 21:-0.23644 22:0.598394 23:0.310345 
32 1:0.0114161 2:-0.853786 3:-0.602518 4:0.105335 5:0.315906 6:-0.875195 7:-0.70376 8:-0.987131 9:-0.275619 10:0.647834 11:-0.761791 12:0.4 13:0.125078 14:-0.462762 15:0.326757 16:0.273791 17:-0.532486 18:0.67489 19:0.082393 20:0.502851 21:-0.37061 22:-0.606426 23:0.310345 
32 1:0.624983 2:-0.138642 3:0.221991 4:0.191627 5:0.160562 6:0.7 7:0.862564 8:0.452715 9:-0.28354 10:-0.628677 11:0.777666 12:0.263374 13:0.210383 14:-0.012882 15:-0.505609 16:-0.411102 17:0.340137 18:-0.200512 19:0.042561 20:0.948125 21:-0.581902 22:0.196787 23:0.310345 
32 1:-0.0744322 2:-0.599343 3:0.967324 4:0.186521 5:-0.0192461 6:0.9625 7:-0.629138 8:-0.859434 9:0.903593 10:0.95387 11:-0.300253 12:0.0565293 13:0.234626 14:0.0336007 15:-0.0643613 16:0.386792 17:-0.122287 18:-0.440528 19:-0.240672 20:0.444554 21:-0.505454 22:-0.00401606 23:0.310345 
32 1:-0.922279 2:0.396028 3:0.819914 4:0.105527 5:-0.0670277 6:-0.775 7:0.254561 8:0.742028 9:0.789791 10:-0.788583 11:0.614928 12:0.4 13:-0.46156 14:-0.566612 15:-0.0307057 16:-0.448195 17:0.373526 18:0.623652 19:0.644858 20:-0.101721 21:0.103252 22:0.39759 23:0.310345 
2.963375173801501 1:-0.561607 2:-0.865548 3:0.469832 4:-0.00738446 5:-0.0777879 6:0.94375 7:-0.655342 8:-0.918298 9:-0.0590494 10:5.35676e-06 11:-3.01253e-07 12:0.0261854 13:-0.0566009 14:-0.0461062 15:-0.529056 16:0.00486495 17:0.0624498 18:-0.446457 19:0.459756 20:0.273967 21:-0.98507 22:-0.349398 23:-0.655172 
2.784676903277411 1:-0.394099 2:0.325763 3:0.780837 4:-0.772147 5:0.635443 6:0.4 7:0.0198692 8:-0.905974 9:-0.884515 10:0.934634 11:0.355638 12:0.248137 13:-0.487835 14:0.144699 15:0.334919 16:0.858914 17:-0.121662 18:-0.0548878 19:-0.221449 20:-0.179756 21:-0.0838343 22:0.39759 23:0.310345 
32 1:0.494681 2:0.769196 3:0.280546 4:8.04567e-06 5:-1.2011e-05 6:0.85 7:0.230294 8:0.968578 9:0.0870604 10:-0.963038 11:-0.269368 12:0.4 13:-0.0581858 14:0.0501935 15:-0.193749 16:-0.482839 17:-0.116287 18:-0.207351 19:0.285617 20:-0.71926 21:-0.815175 22:-0.00401606 23:0.310345 
32 1:-0.912317 2:0.531232 3:-0.0104982 4:8.04567e-06 5:-1.2011e-05 6:0.8875 7:-0.893675 8:0.690843 9:0.406962 10:5.35676e-06 11:-3.01253e-07 12:0.0886327 13:-0.0382981 14:-0.041513 15:0.417012 16:0.00114976 17:0.022405 18:-0.385757 19:0.693428 20:-0.133897 21:-0.985796 22:0.172691 23:-0.241379 
32 1:0.918364 2:-0.868216 3:0.180062 4:0.105532 5:0.0669962 6:-0.775 7:-0.204116 8:-0.00446503 9:0.369126 10:-0.400787 11:-0.916172 12:0.130202 13:-0.32631 14:0.52428 15:0.188649 16:-0.253306 17:-0.483816 18:0.485681 19:0.90104 20:0.800549 21:0.184222 22:0.799197 23:0.310345 
32 1:-0.67218 2:-0.299204 3:-0.451158 4:0.0382732 5:-0.247071 6:0.7 7:-0.420909 8:-0.881822 9:0.048047 10:0.988747 11:0.149669 12:0.27699 13:0.199226 14:-0.0092669 15:0.498908 16:0.478823 17:0.226672 18:-0.193549 19:0.192566 20:0.102282 21:-0.600816 22:-0.204819 23:0.310345 
10.98972018772764 1:0.338992 2:0.11935 3:-0.58032 4:8.04567e-06 5:-1.2011e-05 6:0.85 7:0.888461 8:-0.227185 9:-0.604839 10:0.323122 11:0.946361 12:0.138134 13:0.0209235 14:0.24056 15:-0.0244904 16:0.163536 17:0.50967 18:-0.341266 19:-0.440273 20:-0.911216 21:-0.46349 22:0.598394 23:0.310345 
32 1:0.554237 2:0.766498 3:-0.569149 4:0.215297 5:0.976557 6:0.4 7:0.972205 8:0.575186 9:-0.438324 10:-0.192617 11:0.981275 12:0.4 13:-0.00854487 14:0.157069 15:0.130768 16:-0.203851 17:0.0248365 18:0.0227727 19:0.350304 20:-0.73794 21:-0.622207 22:0.39759 23:0.310345 
32 1:-0.0549042 2:-0.899715 3:-0.528279 4:-0.0663551 5:-0.747084 6:-0.240333 7:0.629362 8:-0.246428 9:-0.353442 10:-0.444269 11:0.895893 12:0.320664 13:-0.310083 14:0.257351 15:0.17474 16:-0.188774 17:0.868333 18:0.309659 19:0.147489 20:0.471999 21:-0.240652 22:0.196787 23:0.310345 
32 1:-0.248319 2:-0.869915 3:0.388226 4:0.0268793 5:0.0733478 6:-0.94375 7:-0.347336 8:-0.968187 9:0.967178 10:5.35676e-06 11:-3.01253e-07 12:-0.0160752 13:-0.084044 14:-0.0633362 15:0.578246 16:-0.0123546 17:-0.015366 18:0.497173 19:0.184555 20:0.383574 21:-0.974653 22:0.184739 23:-0.655172 
20.18362031225734 1:0.764948 2:-0.227144 3:-0.823337 4:-0.424864 5:-0.263621 6:0.55 7:0.460336 8:-0.99661 9:-0.0144695 10:0.99895 11:-0.0460508 12:0.0573581 13:0.23539 14:0.0853085 15:0.808575 16:0.716706 17:0.13442 18:-0.229158 19:0.301007 20:0.930065 21:-0.458972 22:-0.204819 23:0.310345 
32 1:-0.243073 2:-0.756627 3:-0.108129 4:0.94292 5:-0.333084 6:0.4 7:-0.932508 8:0.544648 9:0.430365 10:-0.218314 11:-0.975879 12:0.0283775 13:-0.527597 14:0.273762 15:0.538026 16:-0.58244 17:-0.308568 18:-0.16727 19:0.0429518 20:0.370275 21:0.104583 22:0.39759 23:0.310345 
32 1:-0.328154 2:-0.869747 3:-0.648736 4:0.0773883 5:0.153462 6:5.77316e-15 7:-0.970331 8:-0.665231 9:0.644039 10:0.435731 11:-0.900083 12:0.4 13:0.0439035 14:-0.465224 15:-0.707842 16:0.181241 17:-0.520052 18:0.227327 19:0.239943 20:0.351529 21:-0.42138 22:0.39759 23:0.310345 
23.73558689968256 1:0.0620764 2:0.764057 3:0.239999 4:-0.728927 5:-0.684615 6:0.4 7:0.142554 8:0.991281 9:-0.018866 10:-0.998208 11:0.0598355 12:0.00449377 13:0.0540288 14:-0.0728338 15:-0.259077 16:-0.134181 17:0.405698 18:-0.179484 19:-0.0177665 20:-0.530154 21:-0.913383 22:-0.228916 23:1 
8.553694870994393 1:0.518227 2:0.74113 3:-0.353419 4:-0.44457 5:0.895747 6:0.4 7:0.850424 8:0.818919 9:-0.169687 10:-0.861058 11:0.508506 12:0.4 13:0.0243082 14:0.0875283 15:0.183553 16:-0.208161 17:-0.176977 18:0.0227727 19:0.28393 20:-0.73247 21:-0.732264 22:-0.927711 23:0.310345 
32 1:0.127017 2:0.859457 3:0.347277 4:-0.0572932 5:-0.110145 6:0.998975 7:0.562793 8:-0.187366 9:-0.865694 10:0.911996 11:0.410222 12:0.142193 13:-0.279876 14:-0.525931 15:0.787259 16:0.488279 17:0.290326 18:-0.415374 19:0.122146 20:-0.557468 21:-0.185155 22:1 23:0.310345 
32 1:0.0234334 2:-0.877577 3:0.0193967 4:-0.249528 5:-0.0152654 6:-0.7 7:0.459942 8:-0.497651 9:0.57641 10:-0.236231 11:0.971697 12:0.4 13:0.200124 14:0.0398638 15:0.556481 16:0.00783355 17:0.530569 18:0.585298 19:0.114081 20:0.508498 21:-0.561947 22:-0.124498 23:0.310345 
16.85574313003066 1:0.565902 2:0.332447 3:0.543071 4:-0.134886 5:0.990866 6:0.4 7:-0.468435 8:-0.927829 9:-0.0536332 10:0.985757 11:-0.168237 12:0.139708 13:-0.433319 14:0.527047 15:-0.596876 16:0.564344 17:-0.574395 18:-0.110337 19:0.024378 20:-0.862233 21:0.299248 22:-0.124498 23:0.310345 
20.45146446467245 1:-0.752232 2:0.577464 3:-0.665289 4:-0.496008 5:-0.868344 6:0.4 7:-0.0807802 8:-0.649914 9:-0.793589 10:0.796636 11:0.604473 12:0.175252 13:0.201859 14:0.466667 15:-0.128182 16:0.650784 17:0.780719 18:-0.0921604 19:0.476609 20:-0.169338 21:0.0407138 22:1 23:0.310345 
20.29534330655939 1:-0.153079 2:0.847552 3:0.912565 4:0.481255 5:-0.135682 6:0.55 7:0.53705 8:0.236937 9:-0.726875 10:0.653519 11:0.756919 12:0.0742612 13:-0.435816 14:0.0381783 15:0.360761 16:0.0877254 17:0.481982 18:-0.220514 19:0.12043 20:-0.423959 21:-0.253595 22:1 23:0.310345 
32 1:0.947667 2:-0.0481454 3:-0.0701309 4:8.04567e-06 5:-1.2011e-05 6:0.85 7:-0.103369 8:-0.0997947 9:-0.49571 10:0.0136474 11:-0.999909 12:0.127589 13:-0.532493 14:-0.248997 15:-0.425569 16:0.00800574 17:-0.492431 18:-0.346659 19:0.58358 20:0.98915 21:-0.0653911 22:-0.405622 23:0.310345 
12.93988065477266 1:0.738696 2:-0.465938 3:0.495727 4:-0.00418525 5:-0.31249 6:0.232691 7:0.694186 8:0.235014 9:0.900952 10:-0.951336 11:0.308155 12:0.268575 13:0.227847 14:-0.0916925 15:0.40456 16:-0.474851 17:0.341955 18:0.0411234 19:0.362186 20:0.857275 21:-0.573303 22:0.196787 23:0.310345 
32 1:-0.0648917 2:0.0579433 3:0.29562 4:0.598835 5:0.800885 6:0.4 7:-0.909466 8:-0.499551 9:0.615237 10:0.352661 11:-0.935756 12:0.264029 13:-0.457743 14:0.1355 15:0.319085 16:-0.122566 17:-0.871761 18:-0.046761 19:-0.888003 20:-0.1904 21:-0.14518 22:0.799197 23:0.310345 
32 1:0.364505 2:-0.72002 3:-0.739595 4:0.256288 5:0.273757 6:0.497679 7:0.180328 8:-0.997732 9:0.985224 10:0.998828 11:-0.0486181 12:0.0767857 13:0.0979745 14:-0.0940024 15:-0.275979 16:0.374324 17:-0.143584 18:-0.192467 19:0.0897574 20:0.68464 21:-0.833265 22:0.39759 23:0.310345 
18.0685089231982 1:-0.870945 2:-0.203362 3:0.735271 4:0.589417 5:-0.64673 6:-0.55 7:-0.919094 8:0.740065 9:0.273111 10:-0.654757 11:-0.755839 12:0.4 13:0.249711 14:-0.334731 15:-0.462485 16:-0.624123 17:-0.0337852 18:0.50859 19:0.493871 20:0.054741 21:-0.390839 22:-0.417671 23:0.310345 
32 1:-0.933028 2:0.488453 3:0.0086335 4:8.04567e-06 5:-1.2011e-05 6:0.925 7:-0.924458 8:0.630037 9:0.42864 10:5.35676e-06 11:-3.01253e-07 12:0.0164741 13:-0.0405758 14:-0.0483926 15:0.419548 16:0.00114976 17:0.022405 18:-0.441835 19:0.704137 20:-0.121821 21:-0.997777 22:-0.160643 23:-0.241379 
32 1:0.692499 2:-0.264366 3:-0.553023 4:0.0862198 5:0.513518 6:0.23694 7:0.59731 8:-0.972871 9:0.969146 10:0.995102 11:-0.098961 12:0.0298587 13:0.232413 14:-0.0911855 15:-0.478607 16:0.457921 17:-0.292952 18:-0.0831257 19:0.192559 20:0.910589 21:-0.564129 22:1 23:0.310345 
32 1:0.901776 2:0.0927899 3:-0.311323 4:-0.488946 5:0.725641 6:0.55 7:0.984543 8:-0.0218582 9:-0.527053 10:0.084678 11:0.99641 12:0.0282283 13:0.036699 14:-0.0751611 15:-0.215722 16:0.289432 17:0.16182 18:-0.244054 19:0.509126 20:-0.973448 21:-0.947638 22:0.799197 23:1 
32 1:0.933232 2:0.580652 3:-0.646085 4:0.0553531 5:0.11207 6:1 7:1 8:0.530908 9:-0.443198 10:5.35676e-06 11:-3.01253e-07 13:-0.0375845 14:-0.0399755 15:0.202826 16:-0.0266645 17:-0.0353032 18:-0.488614 19:0.734771 20:-0.856484 21:-0.983104 22:0.429719 23:-0.655172 
