svm_type c_svc
kernel_type rbf
gamma 0.000488281
nr_class 2
total_sv 1610
rho -37.8165
label 1 -1
probA -1.28468
probB -0.0723017
nr_sv 829 781
SV
1790.309592930121 1:0.968695 2:0.382375 3:0.40903 4:5.95392e-06 5:8.62324e-08 6:-0.915625 7:0.848582 8:0.381666 9:-0.0556261 10:3.43181e-06 11:-1.71933e-05 12:-1.44329e-15 13:0.0308519 14:0.0507835 15:-0.46434 16:0.000366221 17:-0.00399953 18:0.471609 19:0.716275 20:-0.91487 21:-0.996958 22:0.618474 23:-0.241379 
367.3747715431843 1:-0.931365 2:-0.713214 3:0.382195 4:-0.136203 5:-0.349389 6:-0.85 7:-0.804954 8:-0.697451 9:-0.905238 10:3.43181e-06 11:-1.71933e-05 12:0.925 13:0.0669363 14:-0.0504101 15:0.713791 16:0.0691489 17:0.175293 18:0.905363 19:0.848355 20:0.171353 21:-0.991097 22:0.497992 23:-0.655172 
32768 1:-0.93585 2:-0.734241 3:0.283522 4:5.95392e-06 5:8.62324e-08 6:1.33227e-15 7:-0.812285 8:-0.701764 9:-0.848309 10:3.43181e-06 11:-1.71933e-05 12:-1.44329e-15 13:0.0819564 14:-0.0320185 15:0.86927 16:0.000366221 17:-0.00399953 18:0.00946372 19:0.868909 20:0.174627 21:-0.989892 22:0.413655 23:-0.241379 
32768 1:-0.941565 2:-0.0564408 3:-0.968656 4:5.95392e-06 5:8.62324e-08 6:1.33227e-15 7:-0.843403 8:0.0511296 9:0.309767 10:3.43181e-06 11:-1.71933e-05 12:-1.44329e-15 13:-0.00546024 14:-0.0534647 15:-0.722522 16:0.000366221 17:-0.00399953 18:0.00946372 19:0.607633 20:0.0210742 21:-0.974658 22:0.855422 23:-0.241379 
32768 1:0.797525 2:-0.907745 3:0.367884 4:5.95392e-06 5:8.62324e-08 6:-0.925 7:0.683232 8:-0.791755 9:-0.255991 10:3.43181e-06 11:-1.71933e-05 12:0.4 13:0.0621822 14:0.0672285 15:-0.623367 16:0.000366221 17:-0.00399953 18:0.678233 19:0.812423 20:0.771719 21:-0.956616 22:0.367837 23:-0.241379 
32768 1:-0.00541863 2:0.261231 3:-0.247684 4:-0.711961 5:0.70222 6:-0.00346997 7:0.252585 8:-0.110415 9:0.759484 10:-0.725472 11:0.688249 12:0.0493374 13:0.213906 14:-0.00417352 15:-0.993814 16:-0.00645637 17:-0.0111668 18:0.0361173 19:-0.706406 20:-0.492238 21:-0.735962 22:1 23:1 
32768 1:-0.976776 2:-0.193976 3:0.0535724 4:5.95392e-06 5:8.62324e-08 6:1.33227e-15 7:-0.854635 8:-0.199982 9:-0.955448 10:3.43181e-06 11:-1.71933e-05 12:-1.44329e-15 13:0.0836312 14:-0.00520267 15:0.992052 16:0.000366221 17:-0.00399953 18:0.00946372 19:0.688282 20:0.0535178 21:-0.999446 22:-0.13253 23:-0.241379 
32768 1:-0.855211 2:-0.868711 3:-0.179646 4:5.95392e-06 5:8.62324e-08 6:-0.8875 7:-0.735703 8:-0.811741 9:-0.800316 10:3.43181e-06 11:-1.71933e-05 12:0.925 13:0.0603854 14:0.0517521 15:-0.619913 16:0.000366221 17:-0.00399953 18:0.92429 19:0.853839 20:0.21228 21:-0.983752 22:-0.441767 23:-0.241379 
32768 1:-0.867197 2:0.649881 3:-0.487304 4:-0.0349592 5:0.874302 6:0.55 7:-0.825362 8:0.462622 9:0.549709 10:3.43181e-06 11:-1.71933e-05 12:0.0495141 13:0.0936878 14:0.00377256 15:-0.963892 16:0.0180229 17:-0.452656 18:-0.243147 19:0.679592 20:-0.157583 21:-0.978298 22:0.195822 23:-0.655172 
32768 1:-0.277738 2:-0.909525 3:0.421472 4:5.95392e-06 5:8.62324e-08 6:1.33227e-15 7:-0.241161 8:-0.797757 9:-0.585499 10:3.43181e-06 11:-1.71933e-05 12:-1.44329e-15 13:0.0861788 14:-0.00554806 15:0.993929 16:0.000366221 17:-0.00399953 18:0.00946372 19:0.284127 20:0.380899 21:-0.994279 22:-0.139688 23:-0.241379 
32768 1:0.719878 2:-0.908158 3:-0.0314276 4:5.95392e-06 5:8.62324e-08 6:1.33227e-15 7:0.676777 8:-0.796494 9:-0.422856 10:3.43181e-06 11:-1.71933e-05 12:-1.44329e-15 13:0.0172531 14:0.0485553 15:-0.390989 16:0.000366221 17:-0.00399953 18:0.00946372 19:0.714865 20:0.755414 21:-0.99461 22:-0.574297 23:-0.241379 
32768 1:-0.967237 2:-0.751546 3:-0.572773 4:5.95392e-06 5:8.62324e-08 6:1.33227e-15 7:-0.877674 8:-0.643072 9:-0.692021 10:3.43181e-06 11:-1.71933e-05 12:-1.44329e-15 13:-0.0183377 14:0.0183294 15:-0.118854 16:0.000366221 17:-0.00399953 18:0.00946372 19:0.926491 20:0.173142 21:-0.980902 22:0.206345 23:-0.241379 
27809.03824260249 1:0.154355 2:-0.420816 3:0.188207 4:-0.415461 5:-0.278191 6:1.74903e-07 7:0.461229 8:-0.163143 9:0.188295 10:-0.830929 11:-0.556409 12:1.53322e-06 13:0.219675 14:-0.00394496 15:-9.85997e-08 16:-0.209436 17:-0.146756 18:0.00946441 19:-0.376 20:0.638986 21:-0.724292 22:1 23:1 
32768 1:0.382748 2:-0.749208 3:-0.11754 4:-0.11654 5:0.0451911 6:1 7:0.360879 8:-0.620662 9:0.5791 10:3.43181e-06 11:-1.71933e-05 12:-0.4 13:0.00896959 14:0.0503919 15:0.695935 16:0.0592194 17:-0.0271897 18:-0.697161 19:0.185386 20:0.686528 21:-0.984542 22:0.654618 23:-0.655172 
32768 1:-0.363939 2:-0.924005 3:-0.373784 4:5.95392e-06 5:8.62324e-08 6:1.33227e-15 7:-0.432087 8:-0.815421 9:0.723714 10:3.43181e-06 11:-1.71933e-05 12:-1.44329e-15 13:-0.0236169 14:-0.0235566 15:-0.903525 16:0.000366221 17:-0.00399953 18:0.00946372 19:0.361972 20:0.350485 21:-0.972313 22:0.618474 23:-0.241379 
12371.44462875516 1:-0.0106208 2:0.790255 3:-0.511178 4:5.95392e-06 5:8.62324e-08 6:-1 7:-0.0614219 8:0.627819 9:-0.654868 10:3.43181e-06 11:-1.71933e-05 12:-1.44329e-15 13:0.0850448 14:-0.0311045 15:-0.143299 16:0.000366221 17:-0.00399953 18:0.514196 19:-0.0258198 20:-0.494844 21:-0.985106 22:0.331047 23:-0.655172 
23690.90903512852 1:-0.59611 2:-0.660778 3:-0.345849 4:-0.116345 5:0.221275 6:0.925 7:-0.48106 8:-0.719161 9:0.913366 10:3.43181e-06 11:-1.71933e-05 12:-0.925 13:0.0694338 14:0.0375476 15:-0.741997 16:0.059121 17:-0.117549 18:-0.92429 19:0.340574 20:0.227422 21:-0.99484 22:0.405622 23:-0.655172 
21982.49847848677 1:0.719086 2:-0.279141 3:0.379972 4:5.95392e-06 5:8.62324e-08 6:1 7:0.802309 8:-0.256463 9:0.103567 10:3.43181e-06 11:-1.71933e-05 12:-1.44329e-15 13:0.0696306 14:-0.0476679 15:-0.27628 16:0.000366221 17:-0.00399953 18:-0.495268 19:0.286778 20:0.903057 21:-0.991544 22:0.86747 23:-0.655172 
32768 1:-0.962119 2:-0.610576 3:-0.536292 4:5.95392e-06 5:8.62324e-08 6:1.33227e-15 7:-0.874024 8:-0.500908 9:0.323343 10:3.43181e-06 11:-1.71933e-05 12:-1.44329e-15 13:-0.0162285 14:0.0242032 15:0.858946 16:0.000366221 17:-0.00399953 18:0.00946372 19:0.831479 20:0.147027 21:-0.980598 22:0.272146 23:-0.241379 
32768 1:0.626113 2:0.278847 3:-0.853455 4:0.559712 5:0.278135 6:0.000194813 7:0.449572 8:0.141965 9:-0.853827 10:0.895502 11:0.445067 12:0.00231018 13:0.125503 14:-0.00394575 15:2.13267e-05 16:0.169935 17:0.0816678 18:0.0105314 19:0.114658 20:-0.906981 21:-0.914778 22:0.678715 23:1 
32768 1:0.823331 2:0.772793 3:0.821355 4:-0.845274 5:0.534335 6:0.4 7:0.00601187 8:0.589338 9:0.0900227 10:0.960613 11:0.277909 12:0.199333 13:0.339814 14:0.284125 15:-0.730917 16:0.912302 17:-0.135581 18:-0.0918194 19:0.700407 20:-0.810449 21:-0.288387 22:1 23:0.241379 
32768 1:0.644822 2:0.148468 3:0.479043 4:-0.0676 5:-0.997713 6:-0.0958685 7:0.643363 8:0.345954 9:-0.497529 10:0.00858927 11:-1 12:-0.4 13:0.117015 14:-0.00484087 15:-0.975731 16:0.0388414 17:-0.00515465 18:-0.144041 19:0.109767 20:-0.955511 21:-0.931938 22:-0.285141 23:1 
32768 1:0.33384 2:0.417699 3:-0.327415 4:-0.515817 5:0.856699 6:-0.00582641 7:0.560376 8:-0.138145 9:0.680649 10:-0.53484 11:0.844952 12:-0.00124196 13:0.259708 14:-0.00420791 15:-0.992884 16:-0.00923985 17:-0.0100267 18:0.0117776 19:-0.245062 20:-0.771117 21:-0.643317 22:1 23:0.506863 
32768 1:-0.938997 2:-0.697289 3:-0.098572 4:5.95392e-06 5:8.62324e-08 6:1.33227e-15 7:-0.816012 8:-0.6587 9:-0.862508 10:3.43181e-06 11:-1.71933e-05 12:-1.44329e-15 13:0.0748359 14:0.0363628 15:-0.76306 16:0.000366221 17:-0.00399953 18:0.00946372 19:0.849279 20:0.167188 21:-0.988655 22:0.0361446 23:-0.241379 
8352.155504185186 1:0.193495 2:-0.860329 3:0.429503 4:5.95392e-06 5:8.62324e-08 6:1.33227e-15 7:0.0934399 8:-0.839949 9:0.904373 10:3.43181e-06 11:-1.71933e-05 12:-1.44329e-15 13:0.04007 14:0.0520099 15:0.474154 16:0.000366221 17:-0.00399953 18:0.00946372 19:0.178413 20:0.591328 21:-0.994725 22:0.104418 23:-0.241379 
32768 1:-0.97436 2:-0.0789456 3:-0.448216 4:5.95392e-06 5:8.62324e-08 6:-0.925 7:-0.842348 8:-0.22854 9:-0.247151 10:3.43181e-06 11:-1.71933e-05 12:0.4 13:0.0885181 14:0.0456649 15:0.201053 16:0.000366221 17:-0.00399953 18:0.678233 19:0.665856 20:0.0258679 21:-0.956688 22:-0.333065 23:-0.241379 
32768 1:-0.403342 2:0.876473 3:0.820638 4:0.84408 5:-0.536238 6:0.4 7:-0.55007 8:0.788669 9:-0.0954158 10:0.955254 11:-0.295839 12:-0.39664 13:0.0901633 14:0.063 15:-0.915437 16:0.056509 17:0.119375 18:-0.392626 19:0.284431 20:-0.320927 21:-0.932367 22:0.477912 23:1 
32768 1:-0.966318 2:0.425966 3:-0.900994 4:5.95392e-06 5:8.62324e-08 6:-0.925 7:-0.843842 8:0.313116 9:0.79955 10:3.43181e-06 11:-1.71933e-05 12:-0.632051 13:-0.000698295 14:0.0454001 15:-0.300892 16:0.000366221 17:-0.00399953 18:0.157324 19:0.724796 20:-0.0957948 21:-0.981201 22:0.634538 23:-0.241379 
32768 1:-0.96891 2:-0.456877 3:-0.559179 4:5.95392e-06 5:8.62324e-08 6:1.33227e-15 7:-0.847587 8:-0.411671 9:0.0800691 10:3.43181e-06 11:-1.71933e-05 12:-1.44329e-15 13:0.00191006 14:0.0426761 15:0.638809 16:0.000366221 17:-0.00399953 18:0.00946372 19:0.76338 20:0.114214 21:-0.988371 22:-0.208835 23:-0.241379 
32768 1:0.803568 2:0.904374 3:-0.667107 4:5.95392e-06 5:8.62324e-08 6:-1 7:0.765451 8:0.74236 9:-0.564528 10:3.43181e-06 11:-1.71933e-05 12:8.31091e-05 13:0.0823098 14:0.0134913 15:0.102774 16:0.000366221 17:-0.00399953 18:0.514238 19:0.774603 20:-0.782008 21:-0.996979 22:-0.0120482 23:-0.241379 
32768 1:-0.0968317 2:0.300496 3:-0.335179 4:-0.247388 5:0.434509 6:-1.44084e-11 7:0.0871808 8:-0.156784 9:-0.335333 10:-0.494782 11:0.869016 12:-1.25137e-10 13:0.215595 14:-0.00394496 15:7.87703e-12 16:-0.124562 17:0.218973 18:0.00946372 19:-0.619629 20:-0.361482 21:-0.732546 22:1 23:1 
32768 1:0.36931 2:-0.869604 3:0.661128 4:5.95392e-06 5:8.62324e-08 6:-4.21885e-15 7:0.260689 8:-0.884143 9:0.981086 10:3.43181e-06 11:-1.71933e-05 12:0.925 13:0.0622391 14:0.0432868 15:0.319303 16:0.000366221 17:-0.00399953 18:0.476341 19:0.30609 20:0.661175 21:-0.995352 22:0.264286 23:-0.241379 
447.0569981242539 1:0.0829407 2:0.438309 3:0.829509 4:0.322011 5:-0.192196 6:-1.06439e-07 7:-0.241702 8:0.674858 9:-0.171196 10:0.858682 11:-0.51255 12:-2.37386e-06 13:0.222572 14:-0.00394496 15:1 16:0.271376 17:-0.168378 18:0.00946258 19:-0.459506 20:-0.584611 21:-0.718432 22:1 23:1 
30426.9432159962 1:0.198522 2:0.816485 3:0.665518 4:0.247495 5:-0.434454 6:0.775 7:0.0931753 8:0.714354 9:0.118023 10:3.43181e-06 11:-1.71933e-05 12:-0.775 13:0.0372293 14:0.0596781 15:-0.547207 16:-0.12461 17:0.218945 18:-0.772871 19:0.0638405 20:-0.603598 21:-0.981147 22:0.64257 23:-0.655172 
32768 1:0.206772 2:0.802184 3:0.762527 4:0.183199 5:-0.170121 6:0.925 7:0.10317 8:0.719392 9:0.113503 10:3.43181e-06 11:-1.71933e-05 12:-0.53213 13:0.0583749 14:0.0497059 15:-0.648671 16:-0.092142 17:0.0832995 18:-0.725996 19:0.0510937 20:-0.60939 21:-0.988879 22:0.248996 23:-0.655172 
32768 1:-0.244549 2:0.952331 3:-0.68675 4:-3.05142e-05 5:-5.48281e-05 6:-0.850079 7:-0.299481 8:0.323103 9:-0.590846 10:0.280452 11:0.959871 12:0.051059 13:0.234442 14:0.101523 15:0.0961148 16:0.142005 17:0.488595 18:0.464297 19:0.253638 20:-0.392782 21:-0.651021 22:1 23:1 
32768 1:-0.928491 2:-0.130922 3:-0.878113 4:5.95392e-06 5:8.62324e-08 6:0.55 7:-0.790227 8:-0.182548 9:-0.102532 10:3.43181e-06 11:-1.71933e-05 12:-0.208253 13:-0.0131745 14:0.0293803 15:0.775141 16:0.000366221 17:-0.00399953 18:-0.373251 19:0.594461 20:0.040368 21:-0.981457 22:0.975904 23:-0.241379 
32768 1:0.60106 2:-0.90719 3:0.330623 4:5.95392e-06 5:8.62324e-08 6:1.33227e-15 7:0.550512 8:-0.797775 9:-0.382953 10:3.43181e-06 11:-1.71933e-05 12:-1.44329e-15 13:0.0673116 14:0.0409324 15:-0.712953 16:0.000366221 17:-0.00399953 18:0.00946372 19:0.574101 20:0.726982 21:-0.99292 22:-0.0883534 23:-0.241379 
32768 1:0.60106 2:-0.90719 3:0.330623 4:5.95392e-06 5:8.62324e-08 6:1.33227e-15 7:0.550512 8:-0.797775 9:-0.382953 10:3.43181e-06 11:-1.71933e-05 12:-1.44329e-15 13:0.0673116 14:0.0409324 15:-0.712953 16:0.000366221 17:-0.00399953 18:0.00946372 19:0.574101 20:0.726982 21:-0.99292 22:-0.257028 23:-0.241379 
32768 1:0.607056 2:-0.908681 3:-0.059793 4:5.95392e-06 5:8.62324e-08 6:1.33227e-15 7:0.553059 8:-0.796574 9:-0.399155 10:3.43181e-06 11:-1.71933e-05 12:-1.44329e-15 13:0.00643487 14:0.0453121 15:-0.338966 16:0.000366221 17:-0.00399953 18:0.00946372 19:0.582278 20:0.728291 21:-0.989858 22:0.0224402 23:-0.241379 
32768 1:0.541618 2:0.87695 3:0.377134 4:-0.141738 5:-0.34718 6:0.625 7:-0.171096 8:0.086262 9:0.275736 10:0.649082 11:0.760723 12:0.167087 13:-0.352388 14:0.23714 15:-0.101463 16:0.399715 17:0.564533 18:-0.221659 19:0.427802 20:-0.724642 21:-0.198193 22:1 23:0.241379 
32768 1:-0.187742 2:0.924067 3:-0.621366 4:5.95392e-06 5:8.62324e-08 6:1.33227e-15 7:-0.113276 8:0.76171 9:0.703757 10:3.43181e-06 11:-1.71933e-05 12:-1.44329e-15 13:0.0679356 14:0.0509421 15:-0.676034 16:0.000366221 17:-0.00399953 18:0.00946372 19:0.189757 20:-0.414035 21:-0.9774 22:-0.0240964 23:-0.241379 
32768 1:-0.942697 2:-0.504486 3:-0.611925 4:5.95392e-06 5:8.62324e-08 6:1.33227e-15 7:-0.873268 8:-0.395482 9:0.36659 10:3.43181e-06 11:-1.71933e-05 12:-1.44329e-15 13:-0.0175334 14:0.000539856 15:0.977732 16:0.000366221 17:-0.00399953 18:0.00946372 19:0.744238 20:0.127501 21:-0.989525 22:0.296174 23:-0.241379 
32768 1:0.343494 2:0.784105 3:0.840261 4:0.875495 5:-0.483252 6:0.4 7:0.0953561 8:0.4704 9:-0.84412 10:0.881531 11:0.472135 12:-0.350338 13:0.0900015 14:0.161274 15:0.317064 16:0.0034165 17:0.48627 18:-0.369256 19:0.1312 20:-0.673709 21:-0.776723 22:1 23:1 
32768 1:0.0908073 2:0.955723 3:0.458891 4:5.95392e-06 5:8.62324e-08 6:1.33227e-15 7:0.16049 8:0.794677 9:-0.275393 10:3.43181e-06 11:-1.71933e-05 12:0.4 13:-0.00763017 14:-0.0492566 15:-0.733697 16:0.000366221 17:-0.00399953 18:0.211356 19:0.197229 20:-0.54189 21:-0.977035 22:0.630522 23:-0.241379 
32768 1:0.0913432 2:0.961151 3:0.458891 4:5.95392e-06 5:8.62324e-08 6:1.33227e-15 7:0.157166 8:0.800363 9:-0.323012 10:3.43181e-06 11:-1.71933e-05 12:-1.44329e-15 13:-0.00777894 14:-0.047141 15:-0.781265 16:0.000366221 17:-0.00399953 18:0.00946372 19:0.204271 20:-0.54189 21:-0.979424 22:-0.53012 23:-0.241379 
32768 1:-0.46545 2:-0.00936966 3:-0.238913 4:-0.731026 5:0.68235 6:0.4 7:-0.280114 8:-0.0525567 9:0.809206 10:-0.823615 11:0.567146 12:-0.00587166 13:0.102128 14:0.0555677 15:-0.952913 16:-0.0463888 17:-0.0631144 18:-0.195393 19:-0.211329 20:0.018288 21:-0.923977 22:0.176707 23:1 
32768 1:0.100633 2:-0.870596 3:-0.15248 4:5.95392e-06 5:8.62324e-08 6:1.33227e-15 7:0.0395727 8:-0.761555 9:-0.340618 10:3.43181e-06 11:-1.71933e-05 12:-1.44329e-15 13:-0.0131704 14:0.0279653 15:-0.187864 16:0.000366221 17:-0.00399953 18:0.00946372 19:0.156896 20:0.548423 21:-0.982795 22:0.104418 23:-0.241379 
32768 1:0.103061 2:-0.87228 3:-0.203902 4:5.95392e-06 5:8.62324e-08 6:1.33227e-15 7:0.0395727 8:-0.761555 9:-0.340618 10:3.43181e-06 11:-1.71933e-05 12:-1.44329e-15 13:-0.0184578 14:0.0186292 15:-0.136475 16:0.000366221 17:-0.00399953 18:0.00946372 19:0.159667 20:0.549457 21:-0.980483 22:-0.0522088 23:-0.241379 
32768 1:0.00574259 2:0.941597 3:-0.503169 4:5.95392e-06 5:8.62324e-08 6:-0.92133 7:-0.0703011 8:0.7795 9:-0.695803 10:3.43181e-06 11:-1.71933e-05 12:-0.427401 13:0.0842215 14:-0.046167 15:-0.192193 16:0.000366221 17:-0.00399953 18:0.258765 19:0.168786 20:-0.503316 21:-0.971902 22:-0.554217 23:-0.241379 
32768 1:-0.69419 2:-0.850639 3:0.192621 4:5.95392e-06 5:8.62324e-08 6:1.33227e-15 7:-0.63817 8:-0.741226 9:0.384996 10:3.43181e-06 11:-1.71933e-05 12:-1.44329e-15 13:0.0778729 14:0.0284047 15:0.192076 16:0.000366221 17:-0.00399953 18:0.00946372 19:0.629321 20:0.241934 21:-0.99288 22:0.522088 23:-0.241379 
32768 1:-0.69419 2:-0.850639 3:0.192621 4:5.95392e-06 5:8.62324e-08 6:1.33227e-15 7:-0.63817 8:-0.741226 9:0.384996 10:3.43181e-06 11:-1.71933e-05 12:-1.44329e-15 13:0.0778729 14:0.0284047 15:0.192076 16:0.000366221 17:-0.00399953 18:0.00946372 19:0.629321 20:0.241934 21:-0.99288 22:0.353414 23:-0.241379 
15919.10096597704 1:-0.69419 2:-0.850639 3:0.192621 4:5.95392e-06 5:8.62324e-08 6:1.33227e-15 7:-0.63817 8:-0.741226 9:0.384996 10:3.43181e-06 11:-1.71933e-05 12:-1.44329e-15 13:0.0778729 14:0.0284047 15:0.192076 16:0.000366221 17:-0.00399953 18:0.00946372 19:0.629321 20:0.241934 21:-0.99288 22:-0.160643 23:-0.241379 
32768 1:0.381874 2:0.91397 3:0.394228 4:5.95392e-06 5:8.62324e-08 6:1.33227e-15 7:0.376379 8:0.751175 9:-0.502451 10:3.43181e-06 11:-1.71933e-05 12:-1.44329e-15 13:-0.0102199 14:-0.0228478 15:-0.895887 16:0.000366221 17:-0.00399953 18:0.00946372 19:0.308546 20:-0.666395 21:-0.998431 22:0.341365 23:-0.241379 
32768 1:0.381874 2:0.91397 3:0.394228 4:5.95392e-06 5:8.62324e-08 6:1.33227e-15 7:0.376379 8:0.751175 9:-0.502451 10:3.43181e-06 11:-1.71933e-05 12:-1.44329e-15 13:-0.0102199 14:-0.0228478 15:-0.895887 16:0.000366221 17:-0.00399953 18:0.00946372 19:0.308546 20:-0.666395 21:-0.998431 22:0.196787 23:-0.241379 
32768 1:0.381874 2:0.91397 3:0.394228 4:5.95392e-06 5:8.62324e-08 6:1.33227e-15 7:0.376379 8:0.751175 9:-0.502451 10:3.43181e-06 11:-1.71933e-05 12:-1.44329e-15 13:-0.0102199 14:-0.0228478 15:-0.895887 16:0.000366221 17:-0.00399953 18:0.00946372 19:0.308546 20:-0.666395 21:-0.998431 22:-0.269076 23:-0.241379 
32768 1:-0.0642491 2:-0.885805 3:0.0137362 4:5.95392e-06 5:8.62324e-08 6:1.33227e-15 7:0.0353096 8:-0.837654 9:0.158013 10:3.43181e-06 11:-1.71933e-05 12:-1.44329e-15 13:0.08417 14:0.0223949 15:0.144112 16:0.000366221 17:-0.00399953 18:0.00946372 19:0.168358 20:0.471228 21:-0.987351 22:0.166248 23:-0.241379 
32768 1:-0.928905 2:0.598888 3:-0.339737 4:5.95392e-06 5:8.62324e-08 6:-1 7:-0.806601 8:0.544861 9:-0.0620563 10:3.43181e-06 11:-1.71933e-05 12:-1.44329e-15 13:0.0671303 14:0.0380512 15:0.277534 16:0.000366221 17:-0.00399953 18:0.514196 19:0.744878 20:-0.137953 21:-0.997218 22:0.164659 23:-0.655172 
30459.85246106025 1:-0.149269 2:-0.85157 3:0.483576 4:5.95392e-06 5:8.62324e-08 6:1.33227e-15 7:-0.172499 8:-0.739914 9:0.590862 10:3.43181e-06 11:-1.71933e-05 12:-1.44329e-15 13:0.0834716 14:0.014705 15:0.106944 16:0.000366221 17:-0.00399953 18:0.00946372 19:0.14761 20:0.430007 21:-0.994041 22:0.176707 23:-0.241379 
32768 1:-0.300527 2:0.940826 3:0.984636 4:0.187263 5:-0.00957314 6:-0.9625 7:-0.192815 8:0.822943 9:0.813221 10:3.43181e-06 11:-1.71933e-05 12:-0.474038 13:-0.0149985 14:0.0291839 15:-0.171685 16:-0.0941944 17:0.000913061 18:0.256006 19:0.274995 20:-0.369067 21:-0.978483 22:0.654618 23:-0.655172 
32768 1:-0.896883 2:0.169026 3:-0.45851 4:-0.103787 5:0.791592 6:0.4 7:-0.581547 8:-0.452179 9:0.375793 10:3.43181e-06 11:-1.71933e-05 12:-1.44329e-15 13:0.268712 14:0.123973 15:0.833605 16:0.0527793 17:-0.410212 18:-0.192429 19:0.538518 20:-0.0377929 21:-0.570822 22:1 23:1 
32768 1:0.928642 2:0.133069 3:0.0226743 4:-0.0818233 5:-0.00576312 6:0.948437 7:-0.616151 8:-0.14914 9:0.231333 10:3.43181e-06 11:-1.71933e-05 12:-1.44329e-15 13:-0.724164 14:-0.0482408 15:0.20842 16:0.0416882 17:-0.00104209 18:-0.469243 19:0.591441 20:-0.973085 21:0.441603 22:-0.927711 23:1 
32768 1:0.249006 2:-0.826226 3:0.0231396 4:0.342874 5:0.0246516 6:0.86875 7:-0.172592 8:-0.0158818 9:0.611472 10:3.43181e-06 11:-1.71933e-05 12:-1.44329e-15 13:-0.149011 14:0.348474 15:0.58768 16:-0.172774 17:-0.0166497 18:-0.429022 19:0.167643 20:0.619437 21:-0.355098 22:1 23:1 
32768 1:0.531006 2:-0.840229 3:-0.143265 4:-0.675116 5:0.326678 6:0.4 7:-0.172592 8:-0.0158818 9:0.611472 10:3.43181e-06 11:-1.71933e-05 12:-1.44329e-15 13:-0.407478 14:0.138236 15:0.75398 16:0.341288 17:-0.171637 18:-0.192429 19:0.430841 20:0.71926 21:-0.164475 22:0.35743 23:1 
32768 1:0.126071 2:0.944326 3:0.442477 4:-0.0226754 5:-0.122925 6:1.33227e-15 7:-0.450999 8:0.538094 9:0.626328 10:3.43181e-06 11:-1.71933e-05 12:-1.44329e-15 13:-0.151236 14:0.280215 15:0.183446 16:0.0118198 17:0.0590806 18:0.00946372 19:0.192186 20:-0.558307 21:-0.456738 22:1 23:1 
32768 1:0.916075 2:-0.0169634 3:0.336804 4:0.0768609 5:0.136042 6:0.98125 7:-0.450383 8:-0.25341 9:0.703916 10:3.43181e-06 11:-1.71933e-05 12:-1.44329e-15 13:-0.359249 14:0.599446 15:0.366556 16:-0.0384438 17:-0.0738109 18:-0.485804 19:0.564886 20:0.989873 21:0.260492 22:0.0361446 23:1 
32768 1:-0.615145 2:-0.0507238 3:-0.30742 4:5.95082e-06 5:9.07259e-08 6:1.33227e-15 7:-0.294723 8:-0.674633 9:0.0774217 10:3.43181e-06 11:-1.71933e-05 12:-1.44329e-15 13:0.299945 14:-0.00394496 15:0.384564 16:0.000366223 17:-0.00399953 18:0.00946372 19:0.0487799 20:0.0298969 21:-0.561928 22:1 23:1 
32768 1:-0.468924 2:-0.878365 3:-0.524478 4:-0.0766607 5:-0.997057 6:0.4 7:0.508224 8:-0.892852 9:-0.176464 10:3.43181e-06 11:-1.71933e-05 12:-1.44329e-15 13:-0.00413707 14:0.525155 15:0.347876 16:0.0390812 17:0.50765 18:-0.192429 19:0.403873 20:0.30818 21:-0.130931 22:0.35743 23:1 
23760.6344276791 1:-0.293467 2:-0.846809 3:-0.828654 4:-0.268182 5:-0.160414 6:-0.8875 7:0.0971255 8:0.88409 9:0.574053 10:3.43181e-06 11:-1.71933e-05 12:-1.44329e-15 13:-0.454195 14:-0.504424 15:-0.598438 16:0.135795 17:0.0783186 18:0.457413 19:0.2202 20:0.366719 21:0.24844 22:0.678715 23:1 
32768 1:0.379783 2:-0.873065 3:-0.154861 4:-0.828473 5:0.438795 6:-0.5125 7:0.49648 8:0.954593 9:-0.974065 10:-0.996482 11:-0.0838514 12:-1.44329e-15 13:-0.22504 14:0.689121 15:-0.818242 16:-0.0844748 17:-0.27219 18:0.268139 19:0.318734 20:0.664433 21:0.269725 22:0.678715 23:1 
32768 1:0.105326 2:0.173818 3:0.255113 4:-0.522484 5:-0.538061 6:1.33227e-15 7:0.396722 8:0.557657 9:-0.694757 10:3.43181e-06 11:-1.71933e-05 12:-1.44329e-15 13:0.243318 14:-0.00394496 15:-0.948954 16:0.264212 17:0.272111 18:0.00946372 19:-0.74566 20:-0.743568 21:-0.676469 22:-0.285141 23:1 
32768 1:-0.0957431 2:0.899945 3:0.542861 4:0.0206811 5:-0.154876 6:0.98125 7:0.615196 8:0.489533 9:0.592576 10:3.43181e-06 11:-1.71933e-05 12:-1.44329e-15 13:-0.148457 14:-0.369467 15:0.0494093 16:-0.0100743 17:0.0754766 18:-0.485804 19:0.12683 20:-0.454461 21:-0.334942 22:0.678715 23:1 
26919.90378278121 1:-0.85382 2:0.883494 3:0.622521 4:-0.0466856 5:0.115952 6:-1 7:0.615196 8:0.489533 9:0.592576 10:3.43181e-06 11:-1.71933e-05 12:-1.44329e-15 13:-0.355425 14:-0.687753 15:-0.0302006 16:0.0239444 17:-0.0635016 18:0.514196 19:0.823051 20:-0.205628 21:0.377179 22:0.678715 23:1 
32768 1:-0.927859 2:-0.0283726 3:-0.472061 4:0.0712742 5:-0.809369 6:0.5875 7:0.134745 8:-0.408667 9:0.0480238 10:3.43181e-06 11:-1.71933e-05 12:-1.44329e-15 13:0.209032 14:0.553017 15:0.519736 16:-0.0356227 17:0.411336 18:-0.287066 19:0.582181 20:0.0141699 21:-0.024445 22:0.678715 23:1 
32768 1:-0.55829 2:0.883829 3:0.763017 4:0.275188 5:-0.254757 6:0.625 7:-0.531908 8:-0.396544 9:-0.890028 10:3.43181e-06 11:-1.71933e-05 12:-1.44329e-15 13:-0.277723 14:0.363271 15:0.3484 16:-0.138595 17:0.126731 18:-0.305994 19:0.450873 20:-0.272797 21:-0.176278 22:-0.606426 23:1 
32768 1:0.925622 2:0.120412 3:-0.0241724 4:0.0233746 5:-0.00179737 6:-0.878125 7:0.797297 8:-0.701956 9:0.812603 10:3.43181e-06 11:-1.71933e-05 12:-1.44329e-15 13:0.0046893 14:-0.329415 15:0.835875 16:-0.0114344 17:-0.00307715 18:0.452681 19:0.584954 20:-0.976237 21:-0.501509 22:1 23:1 
32768 1:-0.146491 2:0.897108 3:0.570372 4:0.0365115 5:-0.163954 6:0.962271 7:0.636549 8:-0.699433 9:0.515602 10:3.43181e-06 11:-1.71933e-05 12:-1.44329e-15 13:-0.604785 14:-0.284351 15:-0.0549749 16:-0.0180683 17:0.080135 18:-0.476225 19:0.138946 20:-0.43039 21:0.294903 22:0.35743 23:1 
32768 1:0.677813 2:0.0935328 3:0.773527 4:-3.09871e-06 5:7.92849e-06 6:1.33227e-15 7:0.259296 8:0.543803 9:-0.44477 10:3.43181e-06 11:-1.71933e-05 12:-1.44329e-15 13:0.299945 14:-0.00394496 15:0.78267 16:0.000370793 17:-0.00400355 18:0.00946372 19:0.158437 20:-0.976789 21:-0.561928 22:1 23:1 
32768 1:-0.916649 2:0.815583 3:-0.355427 4:-0.000591528 5:0.00122438 6:1.33227e-15 7:-0.658157 8:0.133337 9:-0.985884 10:3.43181e-06 11:-1.71933e-05 12:-1.44329e-15 13:0.29995 14:-0.00394496 15:-0.629608 16:0.000667936 17:-0.00462779 18:0.00946372 19:0.861355 20:-0.182678 21:-0.561918 22:1 23:1 
32768 1:0.662132 2:0.580057 3:-0.791589 4:-0.202155 5:-0.155421 6:1.33227e-15 7:0.0963734 8:-0.0249766 9:0.83983 10:3.43181e-06 11:-1.71933e-05 12:-1.44329e-15 13:0.379881 14:-0.00394496 15:-0.369993 16:0.102453 17:0.0757562 18:0.00946372 19:0.333247 20:-0.822233 21:-0.400239 22:0.0361446 23:1 
32768 1:-0.892288 2:0.621048 3:0.922905 4:0.485092 5:-0.121227 6:0.55 7:0.7999 8:-0.888188 9:0.479696 10:3.43181e-06 11:-1.71933e-05 12:-1.44329e-15 13:-0.897208 14:0.354222 15:-0.443153 16:-0.244591 17:0.0582091 18:-0.268139 19:0.700656 20:-0.147691 21:0.898908 22:1 23:1 
32768 1:-0.923694 2:-0.242456 3:0.72303 4:-0.160738 5:0.191473 6:-0.925 7:0.0946317 8:-0.210198 9:0.145277 10:3.43181e-06 11:-1.71933e-05 12:-1.44329e-15 13:-0.265276 14:-0.438043 15:-0.577459 16:0.0815385 17:-0.102256 18:0.476341 19:0.610691 20:0.0685979 21:-0.100052 22:1 23:1 
32768 1:-0.656758 2:-0.709385 3:0.153693 4:0.553901 5:0.289534 6:1.33227e-15 7:0.0946317 8:-0.210198 9:0.145277 10:3.43181e-06 11:-1.71933e-05 12:-1.44329e-15 13:0.445508 14:-0.00394496 15:-0.00847866 16:-0.279339 17:-0.152577 18:0.00946372 19:0.460316 20:0.222917 21:-0.267492 22:0.0361446 23:1 
29932.10657047517 1:0.662681 2:0.478427 3:-0.811051 4:-0.00149938 5:-0.00101726 6:1.33227e-15 7:0.205737 8:0.04378 9:-0.915039 10:3.43181e-06 11:-1.71933e-05 12:-1.44329e-15 13:0.299939 14:-0.00394496 15:-0.103501 16:0.00112638 17:-0.00347747 18:0.00946372 19:0.269466 20:-0.849988 21:-0.561941 22:1 23:1 
32768 1:-0.831704 2:-0.536832 3:0.391855 4:0.000293727 5:0.000810012 6:1.33227e-15 7:-0.630717 8:0.124761 9:0.831518 10:3.43181e-06 11:-1.71933e-05 12:-1.44329e-15 13:0.299942 14:-0.00394496 15:0.439002 16:0.000220902 17:-0.00441515 18:0.00946372 19:0.58897 20:0.149922 21:-0.561934 22:1 23:1 
32768 1:-0.414824 2:-0.809286 3:-0.889892 4:-0.293893 5:-0.106213 6:-0.8875 7:-0.630717 8:0.124761 9:0.831518 10:3.43181e-06 11:-1.71933e-05 12:-1.44329e-15 13:0.0233397 14:-0.410412 15:-0.280054 16:0.148779 17:0.0505049 18:0.457413 19:0.27828 20:0.314591 21:-0.356984 22:1 23:1 
32768 1:0.693022 2:0.312351 3:0.862832 4:-0.000343163 5:0.000161679 6:0.99951 7:0.187952 8:0.575291 9:0.052461 10:3.43181e-06 11:-1.71933e-05 12:-1.44329e-15 13:0.299868 14:0.00306744 15:-0.809888 16:0.000542518 17:-0.00408245 18:-0.495021 19:0.23703 20:-0.904934 21:-0.561931 22:1 23:1 
32768 1:0.633212 2:0.630025 3:0.653232 4:0.461107 5:-0.88735 6:0.4 7:0.187952 8:0.575291 9:0.052461 10:3.43181e-06 11:-1.71933e-05 12:-1.44329e-15 13:0.125312 14:0.211887 15:-0.60042 16:-0.232479 17:0.451353 18:-0.192429 19:0.327789 20:-0.802968 21:-0.664213 22:-0.285141 23:1 
23128.09085033612 1:0.884892 2:0.20241 3:0.30146 4:0.58527 5:0.810847 6:0.4 7:0.0763489 8:0.944608 9:0.246824 10:-0.11345 11:-0.110848 12:-1.44329e-15 13:0.0334257 14:0.530026 15:-0.0547172 16:-0.352471 17:-0.476966 18:-0.192429 19:0.527316 20:-0.953308 21:-0.125381 22:-0.606426 23:1 
32768 1:-0.307817 2:0.926827 3:0.455482 4:0.0529395 5:0.371246 6:0.625 7:0.094026 8:0.198195 9:-0.730065 10:3.43181e-06 11:-1.71933e-05 12:-1.44329e-15 13:-0.189016 14:-0.257921 15:0.815532 16:-0.0263641 17:-0.194508 18:-0.305994 19:0.263629 20:-0.364396 21:-0.449152 22:0.35743 23:1 
32768 1:-0.85616 2:0.891512 3:0.794624 4:-0.0249163 5:0.0188536 6:-0.8875 7:0.903626 8:0.389433 9:0.327536 10:3.43181e-06 11:-1.71933e-05 12:-1.44329e-15 13:-0.754764 14:-0.428575 15:-0.466947 16:0.0129514 17:-0.0136744 18:0.457413 19:0.832476 20:-0.206634 21:0.678333 22:1 23:1 
32768 1:-0.224328 2:-0.602836 3:0.13859 4:0.464112 5:0.215236 6:0.154083 7:0.346598 8:-0.245476 9:0.419647 10:0.252007 11:0.967729 12:-1.44329e-15 13:0.347087 14:0.00513408 15:0.280687 16:-0.106741 17:0.382148 18:-0.068307 19:-0.114512 20:0.359678 21:-0.466355 22:1 23:1 
32768 1:-0.452654 2:0.810319 3:0.852345 4:-0.893183 5:0.449696 6:0.4 7:-0.1619 8:-0.87713 9:-0.194769 10:3.43181e-06 11:-1.71933e-05 12:-1.44329e-15 13:-0.358823 14:0.526225 15:0.953631 16:0.451407 17:-0.234765 18:-0.192429 19:0.262966 20:-0.291604 21:0.154645 22:-0.606426 23:1 
32768 1:-0.755187 2:-0.852112 3:-0.808604 4:0.11591 5:0.0796357 6:0.990625 7:-0.53975 8:-0.02944 9:0.23499 10:3.43181e-06 11:-1.71933e-05 12:-1.44329e-15 13:-0.218324 14:-0.224771 15:-0.95717 16:-0.0581629 17:-0.0448653 18:-0.490536 19:0.708012 20:0.22883 21:-0.445126 22:1 23:1 
32768 1:-0.904924 2:-0.632442 3:-0.766205 4:0.648588 5:0.586435 6:-0.4 7:-0.53975 8:-0.02944 9:0.23499 10:3.43181e-06 11:-1.71933e-05 12:-1.44329e-15 13:-0.242729 14:-0.0657861 15:-0.999543 16:-0.327153 17:-0.304934 18:0.211356 19:0.757447 20:0.15944 21:-0.523184 22:0.35743 23:1 
32768 1:-0.340395 2:-0.848914 3:0.394766 4:0.0267627 5:0.0775451 6:-0.948437 7:-0.53975 8:-0.02944 9:0.23499 10:3.43181e-06 11:-1.71933e-05 12:-1.44329e-15 13:0.29109 14:0.216182 15:-0.159786 16:-0.0131453 17:-0.0437925 18:0.48817 19:0.257591 20:0.348506 21:-0.44287 22:-0.285141 23:1 
32768 1:-0.955553 2:-0.0245649 3:0.830844 4:-0.430404 5:0.254461 6:0.55 7:-0.287832 8:0.388466 9:-0.280491 10:0.048013 11:-0.0582245 12:-1.44329e-15 13:-0.157395 14:-0.336666 15:0.889491 16:0.241958 17:-0.164447 18:-0.268139 19:0.629445 20:0.0128142 21:-0.376806 22:0.35743 23:1 
16846.99077611832 1:0.236003 2:-0.837333 3:-0.327235 4:-0.0645324 5:0.107051 6:-0.775 7:-0.95455 8:0.0805123 9:-0.283058 10:3.43181e-06 11:-1.71933e-05 12:-1.44329e-15 13:-0.561022 14:-0.367304 15:0.0442787 16:0.0329567 17:-0.0589337 18:0.400631 19:0.173104 20:0.612437 21:0.278776 22:0.35743 23:1 
32768 1:0.16142 2:0.894551 3:-0.577867 4:-0.151207 5:-0.606432 6:1.33227e-15 7:0.900048 8:0.760188 9:0.875952 10:3.43181e-06 11:-1.71933e-05 12:-1.44329e-15 13:-0.0161392 14:0.402364 15:-0.547497 16:0.0767254 17:0.307197 18:0.00946372 19:0.142426 20:-0.578026 21:-0.350352 22:1 23:1 
32768 1:-0.540518 2:0.411286 3:-0.352258 4:5.62415e-06 5:7.4526e-07 6:1.33227e-15 7:-0.286561 8:-0.266336 9:0.190895 10:3.43181e-06 11:-1.71933e-05 12:-1.44329e-15 13:0.299945 14:-0.00394496 15:0.542723 16:0.000366388 17:-0.00399987 18:0.00946372 19:0.0406429 20:-0.156476 21:-0.561928 22:1 23:1 
32768 1:-0.931397 2:0.0850303 3:-0.00955966 4:0.0832952 5:-0.00257338 6:-0.949994 7:-0.742869 8:0.820695 9:-0.347472 10:3.43181e-06 11:-1.71933e-05 12:-1.44329e-15 13:0.108003 14:0.306593 15:-0.337541 16:-0.041693 17:-0.00267893 18:0.488956 19:0.588541 20:-0.0149796 21:-0.513178 22:-0.606426 23:1 
32768 1:0.631199 2:-0.844695 3:-0.992629 4:-0.462618 5:-0.0112147 6:1.33227e-15 7:-0.113821 8:-0.891597 9:-0.585523 10:3.43181e-06 11:-1.71933e-05 12:-1.44329e-15 13:0.397815 14:-0.00394496 15:0.40712 16:0.233981 17:0.00175543 18:0.00946372 19:0.549585 20:0.745717 21:-0.363963 22:-0.285141 23:1 
32768 1:0.376821 2:-0.170584 3:0.647288 4:5.95392e-06 5:8.62324e-08 6:0.85 7:-0.113821 8:-0.891597 9:-0.585523 10:3.43181e-06 11:-1.71933e-05 12:-1.44329e-15 13:-0.084884 14:0.359445 15:0.768231 16:0.000366221 17:-0.00399953 18:-0.419558 19:-0.313678 20:0.882615 21:-0.392403 22:-0.606426 23:1 
32768 1:-0.42521 2:0.890883 3:0.826068 4:0.853099 5:-0.52177 6:-0.4 7:-0.0228846 8:-0.53856 9:0.927673 10:3.43181e-06 11:-1.71933e-05 12:-1.44329e-15 13:-0.395224 14:0.36697 15:0.101112 16:-0.430427 17:0.263752 18:0.211356 19:0.320302 20:-0.315694 21:0.00498293 22:0.678715 23:1 
32768 1:-0.259401 2:0.853005 3:0.801734 4:0.810787 5:-0.585359 6:0.4 7:-0.276559 8:0.112683 9:0.631766 10:3.43181e-06 11:-1.71933e-05 12:-1.44329e-15 13:-0.105899 14:0.237461 15:-0.170154 16:-0.40906 17:0.296383 18:-0.192429 19:0.143394 20:-0.374446 21:-0.572887 22:-0.285141 23:1 
32768 1:-0.687205 2:0.858125 3:-0.821187 4:0.105747 5:0.066663 6:1 7:-0.276559 8:0.112683 9:0.631766 10:3.43181e-06 11:-1.71933e-05 12:-1.44329e-15 13:0.0101476 14:0.356307 15:-0.54825 16:-0.0530309 17:-0.0382082 18:-0.495268 19:0.581911 20:-0.234907 21:-0.439485 22:-0.285141 23:1 
32768 1:-0.888744 2:0.566972 3:-0.992517 4:0.499859 5:0.0122927 6:0.775 7:-0.276559 8:0.112683 9:0.631766 10:3.43181e-06 11:-1.71933e-05 12:-1.44329e-15 13:-0.252273 14:0.176439 15:-0.377027 16:-0.252049 17:-0.0103076 18:-0.381703 19:0.665128 20:-0.136373 21:-0.428845 22:-0.606426 23:1 
23727.52059577996 1:0.0282884 2:-0.820159 3:0.0503861 4:0.617293 5:0.0979194 6:0.7 7:0.764112 8:0.149755 9:-0.583652 10:3.43181e-06 11:-1.71933e-05 12:-1.44329e-15 13:0.451586 14:0.329008 15:-0.633373 16:-0.31135 17:-0.0542477 18:-0.343849 19:0.0800639 20:0.515317 21:-0.0598596 22:0.678715 23:1 
32768 1:0.356244 2:-0.259075 3:0.20132 4:-0.0504521 5:-0.0368818 7:0.779253 8:0.144502 9:-0.291234 10:3.43181e-06 11:-1.71933e-05 12:-1.44329e-15 13:0.299401 14:-0.00394496 15:-0.492112 16:0.0258464 17:0.0149268 18:0.00946372 19:-0.295263 20:0.829332 21:-0.563028 22:1 23:1 
32768 1:0.569327 2:-0.683937 3:-0.146174 4:-0.112012 5:0.0554718 6:1 7:0.779253 8:0.144502 9:-0.291234 10:3.43181e-06 11:-1.71933e-05 12:-1.44329e-15 13:-0.0033231 14:0.358948 15:-0.144836 16:0.056933 17:-0.0324654 18:-0.495268 19:0.328902 20:0.761822 21:-0.432035 22:0.0361446 23:1 
2013.270884797305 1:-0.55168 2:-0.0228002 3:-0.0983923 4:0.0553054 5:-0.0177009 6:1.33227e-15 7:-0.0283037 8:-0.269991 9:0.280531 10:3.43181e-06 11:-1.71933e-05 12:-1.44329e-15 13:0.29974 14:-0.00394496 15:0.378555 16:-0.0275588 17:0.00508388 18:0.00946372 19:-0.0626181 20:0.0212698 21:-0.562342 22:1 23:1 
32768 1:-0.722674 2:0.122145 3:-0.252786 4:-0.525466 5:0.535149 6:0.4 7:-0.0283037 8:-0.269991 9:0.280531 10:3.43181e-06 11:-1.71933e-05 12:-1.44329e-15 13:0.364664 14:0.157607 15:0.532851 16:0.265718 17:-0.278616 18:-0.192429 19:0.234845 20:-0.0315688 21:-0.369029 22:-0.285141 23:1 
14263.45586925827 1:-0.297201 2:-0.54803 3:-0.108021 4:0.942762 5:-0.333505 6:0.0491289 7:0.543156 8:-0.957756 9:-0.929838 10:0.874546 11:0.198052 12:0.536988 13:0.470559 14:0.00168191 15:-0.820874 16:-0.0340791 17:0.268781 18:0.255702 19:-0.113198 20:0.308568 21:-0.216761 22:0.678715 23:1 
739.1619102657191 1:-0.226606 2:0.896141 3:0.559341 4:5.95392e-06 5:8.62324e-08 6:-0.85 7:0.890277 8:-0.308801 9:-0.451811 10:0.151476 11:-0.988498 12:0.29701 13:-0.485841 14:-0.517559 15:0.989689 16:0.076857 17:-0.511238 18:0.588396 19:0.175253 20:-0.394163 21:0.311972 22:0.678715 23:1 
32768 1:-0.716394 2:-0.62588 3:0.572574 4:-0.224073 5:0.974572 6:-0.0061862 7:-0.838331 8:0.192295 9:-0.438118 10:-0.193792 11:0.981044 12:-1.44329e-15 13:0.349415 14:-0.00430914 15:0.990143 16:0.0156581 17:-0.000679075 18:0.0125861 19:0.47689 20:0.191129 21:-0.461863 22:1 23:1 
32768 1:-0.742316 2:-0.838278 3:-0.923851 4:-0.364233 5:-0.089202 6:-0.85 7:-0.0153492 8:0.925625 9:-0.0265399 10:0.996469 11:-0.0840846 12:-1.44329e-15 13:-0.459334 14:-0.612856 15:0.896759 16:0.687494 17:-0.00136376 18:0.438486 19:0.679675 20:0.22904 21:0.396042 22:0.35743 23:1 
32768 1:0.925978 2:-0.679012 3:-0.164766 4:-0.217177 5:0.123825 6:-0.909096 7:-0.961802 8:0.585478 9:0.339375 10:-0.485255 11:-0.874407 12:3.9968e-15 13:-1 14:-0.0609458 15:0.503668 16:-0.135007 17:-0.516234 18:0.468314 19:0.821226 20:0.835936 21:1 22:1 23:1 
32768 1:-0.197723 2:-0.501265 3:-0.120994 4:0.919591 5:-0.368092 6:0.0226069 7:0.337913 8:-0.810587 9:0.912342 10:0.961234 11:-0.275787 12:-1.44329e-15 13:0.317358 14:-0.00275472 15:-0.967734 16:0.0213975 17:0.0433793 18:-0.00194671 19:-0.251992 20:0.353499 21:-0.526703 22:1 23:1 
32768 1:-0.91124 2:-0.223125 3:-0.922826 4:5.95392e-06 5:8.62324e-08 6:1.33227e-15 7:0.809859 8:0.737939 9:-0.385293 10:-0.353022 11:0.935616 12:-1.44329e-15 13:-0.866985 14:-0.165525 15:0.537373 16:-0.177904 17:0.47612 18:0.00946372 19:0.584641 20:0.0646515 21:0.751904 22:0.678715 23:1 
32684.77537821242 1:0.814212 2:0.726565 3:0.929097 4:-0.974696 5:0.223546 6:0.4 7:0.0050136 8:-0.928209 9:-0.995311 10:-0.999853 11:-0.0172729 12:-1.44329e-15 13:0.285128 14:0.734331 15:0.0772561 16:-0.012338 17:-0.127569 18:-0.192429 19:0.654535 20:-0.818184 21:0.338163 22:1 23:1 
16232.27092962629 1:0.925761 2:0.0170122 3:-0.0507759 4:0.0231432 5:-0.00374069 6:-0.878125 7:-0.577113 8:-0.862301 9:0.688612 10:-0.550266 11:0.823068 12:-1.44329e-15 13:-0.6398 14:-0.474844 15:0.738605 16:-0.289192 17:0.420286 18:0.452681 19:0.58058 20:0.998742 21:0.515353 22:0.678715 23:1 
32768 1:-0.570177 2:0.620185 3:0.938594 4:-0.980927 5:0.19439 6:0.4 7:-0.646458 8:-0.560016 9:-0.984056 10:0.998627 11:0.0525346 12:-0.4 13:-0.00127167 14:0.462871 15:0.0790077 16:1 17:-0.0767854 18:-0.394322 19:0.230806 20:-0.211421 21:-0.244342 22:1 23:1 
32768 1:0.929273 2:0.208372 3:-0.00634038 4:-0.0468593 5:0.000974127 6:0.90625 7:-0.989805 8:-0.189205 9:-0.551632 10:0.160506 11:0.987038 12:-1.44329e-15 13:-0.901928 14:-0.175679 15:-0.544696 16:0.105083 17:0.502007 18:-0.44795 19:0.603753 20:-0.954033 21:0.824636 22:-0.606426 23:1 
30274.95641971256 1:-0.375845 2:0.492713 3:-0.922855 4:-0.363953 5:-0.0903402 6:0.107813 7:-0.955269 8:0.24555 9:0.351728 10:-0.398549 11:-0.78875 12:0.544783 13:0.338618 14:0.00392949 15:-0.726379 16:-0.0171034 17:-0.362379 18:0.230016 19:-0.129445 20:-0.239129 21:-0.483535 22:1 23:1 
32168.58662718155 1:-0.456653 2:0.897934 3:0.69441 4:0.142919 5:-0.205125 6:0.0589791 7:0.668909 8:-0.871421 9:-0.000546536 10:-0.999999 11:0.00257614 12:-0.4 13:-0.799024 14:-0.10455 15:-0.694522 16:-0.576782 17:0.102593 18:-0.222198 19:0.358005 20:-0.306332 21:0.60081 22:-0.285141 23:1 
32768 1:0.928412 2:-0.826696 3:-0.192742 4:-0.0674183 5:0.0467246 6:0.948437 7:-0.631697 8:-0.0510305 9:0.354278 10:0.443856 11:0.896102 12:-3.33067e-16 13:-0.756684 14:-0.221462 15:0.546512 16:0.25855 17:0.431866 18:-0.469243 19:0.925827 20:0.809076 21:0.553429 22:0.0361446 23:1 
15730.60505544952 1:-0.931139 2:0.351103 3:0.914228 4:0.0801949 5:-0.022377 6:0.949902 7:0.749424 8:0.245244 9:-0.623497 10:0.377162 11:0.926151 12:-1.44329e-15 13:-0.762554 14:-0.218361 15:0.463525 16:0.15033 17:0.482746 18:-0.469982 19:0.640242 20:-0.0814899 21:0.563623 22:-0.285141 23:1 
6591.356310756431 1:0.499312 2:-0.543406 3:-0.830553 4:-0.468841 5:-0.276655 6:-0.108096 7:-0.0438107 8:-0.977838 9:0.997516 10:-0.999929 11:0.0120761 12:-1.44329e-15 13:0.338558 14:-0.0100446 15:-0.173539 16:-0.267822 17:0.144174 18:0.0640232 19:0.118868 20:0.776009 21:-0.483724 22:0.678715 23:1 
32768 1:-0.928038 2:0.360673 3:0.916651 4:0.180986 5:-0.0490224 6:0.921148 7:0.795766 8:0.425871 9:0.453596 10:-0.147668 11:-0.989073 12:-1.44329e-15 13:-0.768448 14:-0.284604 15:-0.462976 16:-0.165595 17:-0.486377 18:-0.455469 19:0.638272 20:-0.0840533 21:0.60737 22:0.678715 23:1 
32768 1:0.759873 2:0.312808 3:0.681582 4:-0.29171 5:0.456881 6:0.187406 7:0.433717 8:0.901437 9:0.987321 10:-0.999031 11:0.0440551 12:-1.44329e-15 13:0.306471 14:0.00568015 15:0.30509 16:-0.356815 17:-0.215837 18:-0.0851263 19:0.347168 20:-0.912768 21:-0.548447 22:1 23:1 
32768 1:-0.919612 2:-0.753485 3:-0.784882 4:0.292426 5:0.234771 6:0.625 7:0.966678 8:-0.780156 9:0.658643 10:-0.237629 11:0.439913 12:-0.775 13:-0.683125 14:0.63925 15:-0.557684 16:-0.267299 17:0.101276 18:-0.697161 19:0.85835 20:0.180706 21:0.769084 22:-0.606426 23:1 
32768 1:-0.928363 2:0.739672 3:0.490074 4:0.0227059 5:0.687126 6:-0.6625 7:0.886191 8:-0.0873173 9:-0.657565 10:-0.473828 11:-0.880652 12:4.21885e-15 13:-0.225579 14:-1 15:0.853384 16:-0.250372 17:-0.808501 18:0.343849 19:0.827545 20:-0.166559 21:0.790721 22:1 23:1 
32768 1:0.903806 2:0.450042 3:0.0770392 4:-0.485548 5:-0.119337 6:-0.55 7:0.771844 8:-0.583975 9:-0.0785074 10:3.43181e-06 11:-1.71933e-05 12:0.129076 13:-0.105527 14:-0.38453 15:-0.155414 16:0.24556 17:0.0572393 18:0.352215 19:0.63602 20:-0.892876 21:-0.34808 22:1 23:1 
20074.51389570215 1:-0.91568 2:-0.252513 3:0.0181087 4:0.0936099 5:0.00524547 6:-0.9625 7:0.771844 8:-0.583975 9:0.540259 10:3.43181e-06 11:-1.71933e-05 12:1 13:0.852001 14:-0.178974 15:0.521573 16:-0.0469017 17:-0.00669125 18:1 19:0.600091 20:0.0716795 21:0.585158 22:1 23:1 
32768 1:-0.762595 2:-0.966988 3:-0.301394 4:0.438015 5:-0.608811 6:-0.4 7:0.652878 8:0.368472 9:0.498292 10:-0.00595784 11:-0.750008 12:0.069414 13:0.0382827 14:0.940326 15:0.798954 16:-0.223829 17:-0.0764397 18:0.246392 19:0.817671 20:0.246794 21:0.621175 22:0.678715 23:1 
32768 1:-0.929994 2:0.562812 3:0.870628 4:0.0800871 5:-0.0347125 6:0.939003 7:-0.0311494 8:0.14012 9:0.345181 10:-0.117309 11:-0.220789 12:-0.0267479 13:-0.419112 14:-0.0489233 15:-0.525278 16:-0.0993131 17:-0.0994751 18:-0.477981 19:0.727599 20:-0.130084 21:-0.173914 22:-0.606426 23:1 
12451.60427256263 1:0.897728 2:-0.297542 3:-0.94013 4:0.0579809 5:0.0110934 6:0.133766 7:0.205628 8:-0.512105 9:-0.423986 10:0.118553 11:-0.48577 12:0.12969 13:0.375273 14:0.00192866 15:0.516016 16:0.0309553 17:-0.258956 18:0.00740624 19:0.587574 20:0.917063 21:-0.409476 22:0.0361446 23:1 
32768 1:0.787495 2:-0.456097 3:-0.11909 4:0.930605 5:-0.36606 6:0.4 7:0.485606 8:0.573466 9:-0.931424 10:3.43181e-06 11:-1.71933e-05 12:0.0657215 13:-0.23585 14:0.335141 15:-0.811396 16:-0.469566 17:0.183848 18:-0.159257 19:0.478631 20:0.864115 21:-0.271276 22:0.35743 23:1 
32768 1:-0.932544 2:-0.293906 3:-0.812251 4:-0.0701603 5:-0.0470361 6:0.951367 7:0.878757 8:-0.149814 9:0.518123 10:-0.0339075 11:0.624074 12:-0.7 13:-0.734035 14:0.487347 15:-0.6707 16:0.0186743 17:0.34039 18:-0.824034 19:0.640768 20:0.0804603 21:0.697902 22:0.35743 23:1 
32768 1:-0.642003 2:-0.804888 3:-0.559133 4:-0.0230547 5:-0.122854 6:1 7:0.405652 8:-0.132206 9:0.57923 10:0.152238 11:-0.606205 12:-0.7 13:-0.307326 14:0.501839 15:-0.862619 16:0.0888868 17:-0.252021 18:-0.84858 19:0.523974 20:0.245858 21:0.0552526 22:-0.285141 23:1 
32768 1:0.751421 2:0.903826 3:0.233138 4:-0.0930505 5:-0.0834604 6:-1 7:-0.333684 8:0.329398 9:-0.293386 10:3.43181e-06 11:-1.71933e-05 12:0.0011899 13:-0.491085 14:0.224743 15:-0.52606 16:0.0473577 17:0.038829 18:0.514796 19:0.705859 20:-0.771581 21:0.046437 22:0.678715 23:1 
9203.927506208682 1:-0.928349 2:-0.201626 3:-0.989671 4:5.95392e-06 5:8.62324e-08 6:-0.85 7:0.393744 8:0.662866 9:0.748758 10:3.43181e-06 11:-1.71933e-05 12:-0.85 13:-0.617924 14:-0.339364 15:-0.263008 16:0.000366221 17:-0.00399953 18:0.00946372 19:0.608174 20:0.0581539 21:0.358712 22:0.35743 23:1 
32768 1:0.0805833 2:-0.849807 3:-0.405744 4:-0.0236406 5:0.0775289 6:-0.947266 7:0.514243 8:0.63809 9:0.958051 10:0.495393 11:-0.0677802 12:-0.55 13:-0.427275 14:0.402836 15:-0.637504 16:0.262469 17:-0.0785567 18:0.209976 19:0.125708 20:0.54 21:0.0962599 22:0.0361446 23:1 
32768 1:-0.396439 2:-0.765145 3:0.493594 4:-0.000130483 5:-0.0062087 6:-0.0523335 7:-0.372088 8:0.00819854 9:0.99482 10:3.43181e-06 11:-1.71933e-05 12:-0.0513762 13:0.325096 14:-0.00394496 15:0.500451 16:0.000435119 17:-0.000813434 18:0.00994691 19:0.213529 20:0.31329 21:-0.511055 22:0.678715 23:1 
32768 1:-0.300403 2:-0.849308 3:0.416392 4:0.0214399 5:0.0791817 6:-0.948437 7:-0.243965 8:0.0152251 9:0.989135 10:3.43181e-06 11:-1.71933e-05 12:-0.0413038 13:0.352995 14:0.0646239 15:0.571926 16:-0.0104575 17:-0.0446323 18:0.467323 19:0.228027 20:0.36426 21:-0.442618 22:-0.285141 23:1 
32768 1:-0.90563 2:0.395996 3:0.411973 4:-0.274652 5:-0.961543 6:-0.4 7:-0.518038 8:0.561193 9:0.55585 10:-0.128864 11:0.738843 12:0.536574 13:0.152126 14:-0.175127 15:0.143529 16:0.0739872 17:0.868571 18:0.482183 19:0.613944 20:-0.0946347 21:-0.70616 22:0.35743 23:1 
32768 1:0.721146 2:-0.0562131 3:0.188469 4:0.830482 5:0.557066 6:0.4 7:0.0776147 8:0.331349 9:-0.636021 10:3.43181e-06 11:-1.71933e-05 12:0.185724 13:-0.139079 14:0.327252 15:-0.823681 16:-0.419006 17:-0.289863 18:-0.098688 19:0.234007 20:0.973943 21:-0.398573 22:1 23:1 
32768 1:0.928609 2:0.448777 3:0.155989 4:-0.137942 5:-0.0733799 6:-0.98125 7:0.0776147 8:0.331349 9:-0.515151 10:3.43181e-06 11:-1.71933e-05 12:-0.000757825 13:-0.342955 14:0.17852 15:-0.670483 16:0.0700271 17:0.0336561 18:0.504349 19:0.675693 20:-0.895835 21:-0.262688 22:1 23:1 
32768 1:0.487974 2:0.903244 3:0.344001 4:-0.0663796 5:-0.123969 6:-0.990625 7:-0.125809 8:-0.0164907 9:-0.19027 10:0.413244 11:-0.281509 12:0.0453209 13:-0.39132 14:0.119064 15:-0.533849 16:0.242567 17:-0.0848308 18:0.532339 19:0.396977 20:-0.703783 21:-0.20522 22:0.678715 23:1 
32768 1:0.19546 2:-0.821779 3:-0.0522328 4:0.061659 5:-0.0102574 6:0.925 7:0.353208 8:0.285072 9:0.901339 10:0.475573 11:-0.154411 12:-0.0674644 13:0.0466355 14:0.461082 15:0.952557 16:0.209385 17:-0.0779628 18:-0.491465 19:0.131896 20:0.59612 21:-0.250533 22:0.678715 23:1 
32768 1:-0.933052 2:0.362386 3:-0.883637 4:0.0291816 5:0.0111965 6:-0.8875 7:0.173488 8:-0.743317 9:0.426252 10:3.43181e-06 11:-1.71933e-05 12:0.0196082 13:-0.324448 14:0.616686 15:-0.69113 16:-0.0143668 17:-0.00974508 18:0.46731 19:0.647151 20:-0.0840298 21:0.246581 22:1 23:1 
32768 1:-0.570589 2:0.84593 3:-0.852774 4:-0.894572 5:-0.446928 6:0.4 7:0.0614975 8:-0.827964 9:0.0158736 10:3.43181e-06 11:-1.71933e-05 12:0.0859985 13:0.0296557 14:0.742751 15:0.868095 16:0.452108 17:0.225346 18:-0.149023 19:0.428631 20:-0.26219 21:0.261721 22:0.678715 23:1 
32768 1:-0.933054 2:0.478464 3:0.987803 4:0.0312298 5:-0.00128505 6:-0.8875 7:0.0614388 8:-0.785898 9:0.383896 10:0.179386 11:0.466706 12:0.0417555 13:-0.463156 14:0.47373 15:-0.603707 16:0.0751833 17:0.236159 18:0.478489 19:0.6923 20:-0.111045 21:0.234386 22:-0.285141 23:1 
948.8921877262524 1:-0.930042 2:0.470351 3:0.891176 4:0.225207 5:-0.0808056 6:-0.929956 7:0.0999363 8:-0.658456 9:0.333265 10:3.43181e-06 11:-1.71933e-05 12:1 13:-0.568693 14:0.228151 15:-0.557716 16:-0.113355 17:0.0374667 18:0.983574 19:0.683893 20:-0.109532 21:0.195929 22:-0.285141 23:1 
32768 1:-0.228119 2:0.805107 3:0.729239 4:0.657789 5:-0.753212 6:0.4 7:-0.517815 8:0.466758 9:-0.238596 10:3.43181e-06 11:-1.71933e-05 12:-0.319539 13:0.0473746 14:0.201692 15:-0.96712 16:-0.3318 17:0.382518 18:-0.353711 19:0.0661911 20:-0.382102 21:-0.722026 22:1 23:1 
32768 1:-0.92773 2:-0.116478 3:-0.965557 4:0.198039 5:0.0217181 6:0.955469 7:0.425802 8:0.381014 9:0.72524 10:3.43181e-06 11:-1.71933e-05 12:-0.00225604 13:-0.63983 14:-0.134219 15:-0.310599 16:-0.0996361 17:-0.0151443 18:-0.47393 19:0.590934 20:0.036731 21:0.28932 22:-0.285141 23:1 
32768 1:-0.225561 2:0.89679 3:0.709765 4:-0.0572313 5:0.0742498 6:0.9625 7:0.023691 8:-0.347671 9:0.13931 10:3.43181e-06 11:-1.71933e-05 12:0.997874 13:-0.387878 14:0.190528 15:-0.570163 16:0.0292698 17:-0.0421015 18:0.0273183 19:0.175458 20:-0.394692 21:-0.17049 22:1 23:1 
32768 1:-0.960612 2:0.350178 3:-0.754554 4:5.95392e-06 5:8.62324e-08 6:-0.85 7:0.675473 8:0.0456028 9:0.281711 10:3.43181e-06 11:-1.71933e-05 12:0.00926147 13:-0.466145 14:0.695193 15:-0.964515 16:0.000366221 17:-0.00399953 18:0.44316 19:0.688904 20:-0.0788681 21:0.530168 22:1 23:1 
32768 1:0.604148 2:0.396791 3:0.626321 4:-0.288424 5:0.692322 6:0.625 7:0.175084 8:-0.574003 9:-0.142548 10:3.43181e-06 11:-1.71933e-05 12:0.0982545 13:-0.202113 14:0.35422 15:-0.768323 16:0.146017 17:-0.359271 18:-0.256401 19:0.13325 20:-0.863314 21:-0.287293 22:-0.606426 23:1 
32768 1:0.931188 2:-0.479778 3:-0.0151378 4:0.156074 5:-0.00755974 6:0.98125 7:-0.342592 8:0.639521 9:-0.84212 10:3.43181e-06 11:-1.71933e-05 12:-0.510187 13:-0.60456 14:0.424323 15:-0.826076 16:-0.0784448 17:-0.000120135 18:-0.743312 19:0.717047 20:0.877959 21:0.414005 22:0.0361446 23:1 
32768 1:0.0282324 2:-0.851559 3:-0.543952 4:-0.0118059 5:-0.0851218 6:-0.953125 7:-0.658445 8:-0.233776 9:-0.655326 10:-0.292268 11:-0.55248 12:0.0748179 13:-0.14844 14:-0.414741 15:-0.111003 16:-0.14126 17:-0.243815 18:0.528299 19:0.120411 20:0.514765 21:-0.262092 22:0.678715 23:1 
32768 1:0.526108 2:-0.839476 3:-0.0572803 4:-0.983718 5:0.179732 6:0.4 7:0.606118 8:-0.404984 9:0.903268 10:3.43181e-06 11:-1.71933e-05 12:-1 13:0.0500425 14:0.186932 15:0.959528 16:0.497125 17:-0.0962304 18:-0.697161 19:0.42478 20:0.717953 21:-0.748407 22:0.678715 23:1 
32768 1:0.305616 2:-0.795938 3:0.09369 4:-0.957304 5:-0.289091 6:0.4 7:0.606118 8:-0.404984 9:0.728874 10:3.43181e-06 11:-1.71933e-05 12:-0.11824 13:0.224246 14:0.107441 15:0.634448 16:0.483787 17:0.14435 18:-0.252108 19:0.171394 20:0.647705 21:-0.664603 22:0.678715 23:1 
8400.281914013643 1:-0.572531 2:0.901607 3:0.586873 4:0.00418708 5:-0.0150551 6:0.86875 7:0.652444 8:-0.9426 9:0.449276 10:3.43181e-06 11:-1.71933e-05 12:0.00478679 13:-0.760961 14:-0.449296 15:-0.13772 16:-0.00174516 17:0.00372619 18:-0.426606 19:0.484158 20:-0.272051 21:0.706251 22:-0.285141 23:1 
32768 1:0.674267 2:-0.63285 3:-0.875596 4:0.0529052 5:0.0218481 6:-0.924215 7:0.100833 8:-0.893358 9:-0.40354 10:3.43181e-06 11:-1.71933e-05 12:0.00113999 13:0.324107 14:-0.0328207 15:0.471946 16:-0.0263468 17:-0.015211 18:0.47652 19:0.425894 20:0.799838 21:-0.510696 22:0.678715 23:1 
32768 1:0.920251 2:0.112926 3:-0.0542929 4:0.246348 5:-0.0426241 6:-0.925 7:0.100833 8:-0.893358 9:-0.290505 10:3.43181e-06 11:-1.71933e-05 12:-1 13:-0.293607 14:-0.469374 15:-0.235931 16:-0.124031 17:0.0178735 18:-0.0283912 19:0.575057 20:-0.978026 21:-0.0198684 22:0.678715 23:1 
32768 1:-0.41883 2:0.860172 3:-0.978705 4:-0.249419 5:-0.016975 6:0.925 7:0.0825248 8:-0.684903 9:0.235376 10:3.43181e-06 11:-1.71933e-05 12:0.0141605 13:-0.169009 14:0.625948 15:-0.786789 16:0.12632 17:0.00471139 18:-0.450266 19:0.281307 20:-0.312618 21:0.121464 22:-0.285141 23:1 
32768 1:0.0163206 2:0.656608 3:0.922486 4:-0.969845 5:0.24373 6:0.4 7:0.477565 8:-0.32331 9:0.14184 10:3.43181e-06 11:-1.71933e-05 12:0.0482691 13:-0.269961 14:0.30753 15:-0.780223 16:0.49012 17:-0.129072 18:-0.168066 19:-0.197338 20:-0.511852 21:-0.258649 22:0.35743 23:1 
32768 1:-0.403246 2:0.711247 3:-0.492725 4:-0.00573547 5:0.250132 6:0.0993545 7:-0.37198 8:-0.162838 9:0.00293077 10:0.249996 11:0.0020626 12:0.0894829 13:0.343187 14:-0.00100474 15:0.495343 16:0.129507 17:-0.13129 18:0.00448123 19:0.110306 20:-0.288651 21:-0.474438 22:0.35743 23:1 
32768 1:-0.316952 2:-0.800527 3:-0.62298 4:0.376496 5:0.926423 6:0.475 7:0.255301 8:-0.869775 9:0.495553 10:3.43181e-06 11:-1.71933e-05 12:-0.142564 13:-0.0539278 14:0.290258 15:-0.882398 16:-0.189753 17:-0.479402 18:-0.302241 19:0.183847 20:0.350406 21:-0.531964 22:-0.606426 23:1 
32768 1:-0.397174 2:0.925782 3:0.669663 4:0.0632865 5:-0.107799 6:0.74282 7:-0.901565 8:0.472968 9:-0.32844 10:3.43181e-06 11:-1.71933e-05 12:3.1404e-06 13:0.0319047 14:0.327884 15:-0.997328 16:-0.0315891 17:0.0513186 18:-0.36546 19:0.333119 20:-0.331082 21:-0.493152 22:0.678715 23:1 
32768 1:-0.18313 2:0.958285 3:0.46941 4:0.0244417 5:0.248803 6:0.7 7:-0.863336 8:0.645496 9:-0.429594 10:3.43181e-06 11:-1.71933e-05 12:0.0601937 13:-0.10051 14:0.361145 15:-0.898244 16:-0.0119733 17:-0.131675 18:-0.313467 19:0.230214 20:-0.419016 21:-0.378012 22:0.678715 23:1 
32768 1:-0.18037 2:0.905306 3:0.692395 4:-0.0973528 5:0.141642 6:0.971875 7:-0.829944 8:0.484632 9:-0.396022 10:0.160669 11:-0.47351 12:0.132415 13:0.102055 14:0.383448 15:0.912448 16:0.130663 17:-0.319657 18:-0.414239 19:0.163135 20:-0.415594 21:-0.379327 22:0.35743 23:1 
32768 1:-0.183822 2:0.904603 3:0.692731 4:-0.141825 5:0.205875 6:0.925 7:-0.760792 8:0.329523 9:-0.330522 10:3.43181e-06 11:-1.71933e-05 12:0.0201436 13:0.0357985 14:0.385887 15:0.97754 16:0.0719875 17:-0.109646 18:-0.447246 19:0.163833 20:-0.413978 21:-0.387656 22:0.0361446 23:1 
32768 1:-0.175071 2:0.896358 3:-0.332883 4:-0.031309 5:0.0540893 6:0.738815 7:0.0753453 8:0.306893 9:0.149434 10:0.223115 11:0.112776 12:0.0285478 13:0.272543 14:-0.00100916 15:0.481945 16:0.128846 17:0.026124 18:-0.349031 19:0.149657 20:-0.417175 21:-0.617325 22:-0.927711 23:1 
20873.77601155195 1:-0.484714 2:0.547223 3:-0.454414 4:-0.0892089 5:0.6186 6:0.7 7:0.171613 8:0.402761 9:0.474327 10:3.43181e-06 11:-1.71933e-05 12:-0.0902602 13:0.122948 14:0.33967 15:0.927939 16:0.0454178 17:-0.32144 18:-0.389406 19:0.057634 20:-0.216346 21:-0.447172 22:-0.927711 23:1 
32768 1:-0.316518 2:-0.855496 3:0.464744 4:-0.0280725 5:-0.248418 6:0.925 7:-0.431587 8:-0.226325 9:-0.937902 10:-0.245142 11:-0.0490523 12:-0.568438 13:0.26405 14:0.0938531 15:0.598665 16:-0.109248 17:0.0983163 18:-0.744322 19:0.246933 20:0.35872 21:-0.601478 22:0.0361446 23:1 
32768 1:0.15557 2:0.903876 3:0.551963 4:0.0250981 5:-0.154222 6:-0.98125 7:-0.82761 8:0.691704 9:-0.522205 10:3.43181e-06 11:-1.71933e-05 12:-0.00349804 13:0.0476884 14:0.541335 15:0.926745 16:-0.0123048 17:0.075141 18:0.502966 19:0.151707 20:-0.574558 21:-0.104503 22:0.35743 23:1 
32768 1:-0.927587 2:0.210204 3:0.611012 4:-0.212356 5:0.587817 6:-0.7 7:-0.6826 8:0.811789 9:0.85412 10:3.43181e-06 11:-1.71933e-05 12:-0.110491 13:0.213114 14:-0.204363 15:0.242559 16:0.107604 17:-0.305643 18:0.307008 19:0.597791 20:-0.0469766 21:-0.584958 22:1 23:1 
32768 1:-0.926107 2:0.21543 3:0.415107 4:-0.0331417 5:-0.120525 6:1 7:-0.80014 8:0.870157 9:0.952492 10:0.123537 11:-0.0191156 12:4.21885e-15 13:0.287584 14:0.0152342 15:0.536607 16:0.0794867 17:0.0480486 18:-0.495268 19:0.596287 20:-0.04837 21:-0.585739 22:-0.285141 23:1 
32768 1:0.928163 2:-0.836986 3:-0.247531 4:0.0333952 5:-0.0329004 6:-0.90625 7:-0.831568 8:0.233004 9:-0.398831 10:3.43181e-06 11:-1.71933e-05 12:-0.00819328 13:-0.85707 14:-0.36142 15:-0.151022 16:-0.0164946 17:0.0128837 18:0.462742 19:0.933009 20:0.807248 21:0.821924 22:1 23:1 
32768 1:0.93002 2:-0.415816 3:-0.218282 4:-0.0120826 5:0.0099001 6:0.86875 7:-0.831568 8:0.233004 9:-0.415393 10:3.43181e-06 11:-1.71933e-05 12:1 13:-0.78679 14:-0.400826 15:-0.196797 16:0.00647067 17:-0.00907981 18:0.0757098 19:0.685873 20:0.892145 21:0.716178 22:1 23:1 
32768 1:0.706903 2:-0.880426 3:-0.473203 4:0.0105238 5:-0.124557 6:0.775 7:-0.0218696 8:-0.568394 9:-0.630432 10:3.43181e-06 11:-1.71933e-05 12:-1 13:-0.115561 14:-0.383924 15:-0.156841 16:-0.00494506 17:0.0599179 18:-0.886435 19:0.674072 20:0.757321 21:-0.34113 22:0.678715 23:1 
32768 1:-0.658288 2:0.860953 3:0.723848 4:-0.644935 5:0.764237 6:0.4 7:-0.86092 8:-0.0917716 9:-0.089392 10:3.43181e-06 11:-1.71933e-05 12:0.78789 13:-0.150871 14:0.329837 15:-0.81269 16:0.326047 17:-0.396175 18:0.205244 19:0.548079 20:-0.242286 21:-0.382228 22:1 23:1 
32768 1:0.925489 2:0.432975 3:0.268964 4:-0.0415443 5:-0.0466888 6:-0.8125 7:0.601629 8:-0.549968 9:-0.100536 10:3.43181e-06 11:-1.71933e-05 12:-0.0106844 13:-0.323912 14:-0.136239 15:-0.369223 16:0.0213482 17:0.0199593 18:0.414166 19:0.664155 20:-0.899168 21:-0.331291 22:1 23:1 
32768 1:0.219817 2:0.910564 3:0.346701 4:-0.0290306 5:-0.0553456 6:0.925 7:0.601629 8:-0.549968 9:0.0237341 10:3.43181e-06 11:-1.71933e-05 12:-0.0221543 13:-0.336845 14:-0.460876 15:-0.322776 16:0.015029 17:0.0244016 18:-0.468595 19:0.190202 20:-0.602541 21:0.0247554 22:1 23:1 
19036.6994223783 1:0.908171 2:0.448228 3:-0.786968 4:-0.171465 5:-0.135829 6:0.94375 7:0.0619044 8:-0.75638 9:-0.233842 10:3.43181e-06 11:-1.71933e-05 12:1 13:0.621919 14:0.0867739 15:0.552886 16:0.0869554 17:0.0657027 18:0.0378549 19:0.642317 20:-0.89378 21:0.10077 22:1 23:1 
32768 1:0.651259 2:-0.850861 3:-0.305858 4:0.0357921 5:-0.0512408 6:-0.925 7:-0.175625 8:0.173393 9:-0.82943 10:3.43181e-06 11:-1.71933e-05 12:0.00837331 13:-0.507224 14:-0.128535 15:-0.522862 16:-0.017705 17:0.0222952 18:0.480567 19:0.57934 20:0.749567 21:0.0238447 22:0.35743 23:1 
32768 1:0.0782648 2:0.774093 3:0.614982 4:0.35148 5:-0.936199 6:0.4 7:-0.292833 8:0.386407 9:-0.268315 10:3.43181e-06 11:-1.71933e-05 12:-0.218369 13:-0.0223026 14:0.238364 15:-0.882621 16:-0.17712 17:0.47642 18:-0.302647 19:-0.0371881 20:-0.544895 21:-0.640875 22:1 23:1 
32768 1:0.158442 2:0.71848 3:-0.994409 4:0.124985 5:0.00233086 6:-1 7:-0.358727 8:0.72305 9:-0.501385 10:0.000442825 11:0.124984 12:5.73024e-11 13:0.290329 14:-0.0224728 15:0.492945 16:-0.0625237 17:0.058949 18:0.514196 19:-0.0772459 20:-0.595069 21:-0.580277 22:0.0361446 23:1 
32768 1:0.278543 2:0.825959 3:0.652787 4:0.344902 5:-0.665995 6:0.625 7:-0.346461 8:0.893135 9:-0.524785 10:3.43181e-06 11:-1.71933e-05 12:-0.0953512 13:0.20758 14:0.281441 15:0.823407 16:-0.173799 17:0.337762 18:-0.35412 19:0.126213 20:-0.63908 21:-0.471756 22:0.0361446 23:1 
32768 1:-0.694853 2:0.88992 3:-0.603409 4:-0.000552574 5:-0.00165995 6:1.33227e-15 7:-0.900253 8:-0.0471633 9:-0.122167 10:3.43181e-06 11:-1.71933e-05 12:-0.000128008 13:0.383922 14:-0.00394496 15:0.480995 16:0.000648266 17:-0.00314767 18:0.00939911 19:0.619278 20:-0.239099 21:-0.392065 22:-0.285141 23:1 
32768 1:0.817595 2:-0.91981 3:0.132017 4:-0.171685 5:-0.0753594 6:-0.9625 7:0.301182 8:-0.1314 9:-0.746083 10:3.43181e-06 11:-1.71933e-05 12:-0.0101036 13:-0.0719698 14:0.406457 15:-0.877206 16:0.0870662 17:0.0346719 18:0.490169 19:0.848576 20:0.773609 21:-0.319269 22:-0.606426 23:1 
32768 1:0.928749 2:-0.0440932 3:-0.00756161 4:-0.078096 5:0.00192296 6:-0.94375 7:-0.2483 8:0.114605 9:-0.442055 10:3.43181e-06 11:-1.71933e-05 12:0.412721 13:-0.538746 14:0.054839 15:-0.434018 16:0.039806 17:-0.00498627 18:0.694118 19:0.588198 20:0.983069 21:0.069355 22:-0.285141 23:1 
32768 1:-0.872628 2:0.726595 3:-0.709481 4:-0.611204 5:-0.791473 6:0.4 7:-0.0179973 8:-0.636848 9:0.101203 10:3.43181e-06 11:-1.71933e-05 12:0.104318 13:0.167952 14:0.688409 15:0.810128 16:0.309014 17:0.402152 18:-0.139776 19:0.736644 20:-0.172622 21:0.190997 22:0.0361446 23:1 
32768 1:0.928039 2:0.225946 3:0.360198 4:0.0666706 5:0.141315 6:0.98125 7:-0.127394 8:0.635422 9:-0.514873 10:3.43181e-06 11:-1.71933e-05 12:-0.0210596 13:-0.0398291 14:0.586473 15:-0.874286 16:-0.0332979 17:-0.0765167 18:-0.496434 19:0.605109 20:-0.949558 21:-0.0119498 22:0.0361446 23:1 
32768 1:0.930981 2:-0.261151 3:-0.00973876 4:5.95392e-06 5:8.62324e-08 6:-0.85 7:-0.172842 8:0.299996 9:-0.715958 10:3.43181e-06 11:-1.71933e-05 12:-0.398484 13:-0.507396 14:0.21405 15:-0.705447 16:0.000366221 17:-0.00399953 18:0.237358 19:0.631556 20:0.928725 21:0.0704742 22:-0.606426 23:1 
21220.06463330521 1:-0.923418 2:-0.395823 3:-0.895172 4:0.443434 5:0.15199 6:9.99201e-15 7:-0.0299158 8:0.448719 9:0.621489 10:0.184845 11:-0.464606 12:-0.0362886 13:-0.474324 14:-0.181002 15:-0.484577 16:-0.130214 17:-0.320398 18:-0.00885231 19:0.66341 20:0.105409 21:-0.0167119 22:-0.285141 23:1 
32768 1:0.541096 2:-0.481671 3:0.220685 4:-0.054836 5:-0.0454467 6:1.33227e-15 7:0.93911 8:-0.043105 9:0.71205 10:3.43181e-06 11:-1.71933e-05 12:-0.00676837 13:0.299058 14:-0.00394496 15:0.490727 16:0.0280602 17:0.0193219 18:0.00604751 19:0.126901 20:0.806035 21:-0.563722 22:1 23:1 
32768 1:-0.921589 2:-0.8501 3:-0.75093 4:-0.0515583 5:-0.0513254 6:0.937305 7:0.601233 8:-0.0317837 9:0.447118 10:3.43181e-06 11:-1.71933e-05 12:0.00485268 13:-0.706513 14:0.337327 15:-0.80291 16:0.0264051 17:0.0223386 18:-0.461175 19:0.93066 20:0.197635 21:0.52718 22:-0.606426 23:1 
4402.856324592913 1:-0.554487 2:-0.822413 3:0.813342 4:-0.311833 5:0.208286 6:-0.85 7:-0.409507 8:0.390124 9:0.906553 10:0.358527 11:-0.109962 12:-0.0561444 13:0.23156 14:-0.458869 15:0.0927324 16:0.338885 17:-0.167301 18:0.410148 19:0.437072 20:0.272494 21:-0.179061 22:0.35743 23:1 
32768 1:0.546603 2:-0.562817 3:0.475194 4:-0.0283772 5:-0.355187 6:-0.157431 7:0.610721 8:0.342893 9:0.960868 10:0.991943 11:-0.126778 12:-0.170646 13:0.375337 14:-0.0156939 15:0.484925 16:0.515608 17:0.113221 18:0.00279407 19:0.197262 20:0.784896 21:-0.409097 22:0.0361446 23:1 
32768 1:-0.00937768 2:0.902589 3:0.501561 4:0.000386013 5:-0.124999 6:1 7:0.371938 8:-0.124847 9:0.187588 10:0.416086 11:0.277256 12:0.0518524 13:-0.328275 14:-0.211684 15:-0.313864 16:0.210287 17:0.202428 18:-0.469097 19:0.118641 20:-0.49613 21:-0.269863 22:0.0361446 23:1 
32768 1:0.94354 2:-0.276992 3:-0.0748613 4:-0.607688 5:0.146081 6:1.33227e-15 7:0.220154 8:0.669378 9:-0.709211 10:3.43181e-06 11:-1.71933e-05 12:1 13:-0.385208 14:0.287397 15:-0.633626 16:0.307238 17:-0.0789622 18:0.514196 19:0.6572 20:0.925856 21:-0.0944991 22:1 23:1 
32768 1:-0.927776 2:0.927803 3:-0.69342 4:-0.285264 5:-0.410637 6:-0.775 7:-0.285442 8:-0.6815 9:0.274467 10:0.407567 11:0.473826 12:0.041416 13:0.332792 14:0.639992 15:0.967153 16:0.350233 17:0.449875 18:0.421535 19:0.958909 20:-0.200629 21:0.220067 22:0.678715 23:1 
32768 1:0.397924 2:-0.370838 3:0.782038 4:0.386534 5:-0.317173 6:-0.775 7:0.582881 8:0.388364 9:0.89031 10:3.43181e-06 11:-1.71933e-05 12:0.0698045 13:0.142234 14:-0.316288 15:0.107793 16:-0.194822 17:0.158761 18:0.435863 19:-0.155696 20:0.796921 21:-0.488974 22:-0.606426 23:1 
32768 1:0.612269 2:-0.00141271 3:-0.125247 4:0.923355 5:-0.38398 6:0.4 7:0.504368 8:0.942726 9:-0.986792 10:3.43181e-06 11:-1.71933e-05 12:0.114637 13:-0.143217 14:0.338068 15:-0.860551 16:-0.465905 17:0.193043 18:-0.134568 19:0.0433243 20:0.990411 21:-0.377356 22:1 23:1 
32768 1:0.581191 2:-0.290242 3:-0.254145 4:-0.037936 5:0.0389723 6:7.10543e-15 7:0.94121 8:-0.836493 9:0.237415 10:3.43181e-06 11:-1.71933e-05 12:-0.00684444 13:0.300137 14:-0.00394496 15:0.491142 16:0.0195261 17:-0.0239985 18:0.00600911 19:0.0690055 20:0.877859 21:-0.56154 22:1 23:1 
32768 1:-0.93379 2:-0.105044 3:-0.607196 4:-0.0722116 5:-0.206486 6:-0.71875 7:0.0380381 8:-0.27605 9:0.404126 10:-0.0373492 11:-0.119308 12:0.0568739 13:-0.0694795 14:0.50791 15:-0.989499 16:0.0179722 17:0.0407464 18:0.400946 19:0.599658 20:0.0336025 21:-0.14176 22:-0.285141 23:1 
20860.19484031026 1:-0.477456 2:0.859614 3:-0.912176 4:-0.36072 5:-0.10249 6:0.85 7:-0.0221209 8:-0.420557 9:0.178954 10:3.43181e-06 11:-1.71933e-05 12:1 13:-0.0507746 14:0.549228 15:-0.909637 16:0.182525 17:0.0485941 18:0.0851735 19:0.339184 20:-0.292754 21:-0.075459 22:-0.927711 23:1 
32768 1:-0.940915 2:0.506324 3:-0.963287 4:-0.248306 5:-0.0290241 6:-0.7 7:-0.0221209 8:-0.420557 9:0.210841 10:3.43181e-06 11:-1.71933e-05 12:0.0215999 13:-0.366492 14:0.414355 15:-0.826706 16:0.125758 17:0.0108945 18:0.373678 19:0.71748 20:-0.116406 21:0.0166887 22:-0.927711 23:1 
32768 1:-0.0850745 2:0.890864 3:0.548498 4:5.95392e-06 5:8.62324e-08 6:1.33227e-15 7:0.190564 8:-0.780765 9:0.179187 10:3.43181e-06 11:-1.71933e-05 12:0.011149 13:-0.575413 14:-0.0524693 15:-0.369164 16:0.000366221 17:-0.00399953 18:0.015091 19:0.11277 20:-0.45913 21:0.141757 22:0.678715 23:1 
11970.77477074199 1:-0.676349 2:0.717795 3:0.379268 4:-0.371763 5:-0.928327 6:-0.4 7:-0.146732 8:0.190349 9:0.289847 10:-0.30738 11:-0.394381 12:0.0594874 13:-0.0389432 14:-0.340377 15:-0.0895005 16:0.0328794 17:0.270012 18:0.241382 19:0.451688 20:-0.208492 21:-0.466604 22:-0.285141 23:1 
32768 1:0.928106 2:0.740861 3:0.263611 4:0.0158793 5:0.0172441 6:0.878125 7:-0.695847 8:-0.0536264 9:-0.365524 10:3.43181e-06 11:-1.71933e-05 12:-1 13:-0.707415 14:0.435817 15:-0.628574 16:-0.00764949 17:-0.0128485 18:-0.938486 19:0.830946 20:-0.833838 21:0.605385 22:-0.927711 23:1 
32768 1:-0.542695 2:-0.849135 3:-0.724771 4:0.0539937 5:0.0633741 6:0.949902 7:-0.939161 8:-0.0845744 9:-0.829114 10:-0.429158 11:-0.256581 12:0.111159 13:-0.0502543 14:-0.382916 15:-0.103896 16:-0.243614 17:-0.168176 18:-0.413877 19:0.450214 20:0.280751 21:-0.385969 22:0.0361446 23:1 
32768 1:-0.159905 2:-0.603155 3:0.0142937 4:-0.00519063 5:-0.000228721 6:1.33227e-15 7:0.429784 8:-0.591707 9:0.515295 10:3.43181e-06 11:-1.71933e-05 12:0.000653964 13:0.325092 14:-0.00394496 15:0.500449 16:0.00299038 17:-0.00388212 18:0.0097938 19:-0.155573 20:0.397096 21:-0.511062 22:0.678715 23:1 
32768 1:-0.0947999 2:-0.861534 3:-0.393117 4:0.0308888 5:-0.0885174 6:-0.79375 7:0.746137 8:-0.522678 9:0.596965 10:0.148578 11:-0.477442 12:0.775 13:0.0478927 14:0.479449 15:0.989184 16:0.0597982 17:-0.203566 18:0.801262 19:0.143411 20:0.456006 21:-0.217055 22:0.678715 23:1 
32768 1:0.900829 2:-0.170266 3:-0.121462 4:-0.231956 5:0.0932453 6:-0.7 7:0.267537 8:-0.615015 9:-0.37044 10:3.43181e-06 11:-1.71933e-05 12:0.0817129 13:-0.189357 14:-0.287239 15:-0.248652 16:0.117502 17:-0.0518492 18:0.404019 19:0.558194 20:0.949526 21:-0.409624 22:0.0361446 23:1 
32768 1:-0.098948 2:0.90434 3:0.48881 4:5.95392e-06 5:8.62324e-08 6:0.85 7:0.267537 8:-0.615015 9:0.196075 10:3.43181e-06 11:-1.71933e-05 12:0.00154368 13:-0.499576 14:-0.225671 15:-0.292644 16:0.000366221 17:-0.00399953 18:-0.418779 19:0.133221 20:-0.45317 21:0.057964 22:0.0361446 23:1 
32768 1:0.926369 2:-0.643298 3:0.201613 4:0.0882482 5:0.0646247 6:0.98125 7:0.370836 8:0.490082 9:-0.753876 10:3.43181e-06 11:-1.71933e-05 12:-0.00477048 13:0.0703723 14:0.547261 15:-0.954544 16:-0.0441942 17:-0.0371622 18:-0.488212 19:0.799501 20:0.843024 21:-0.091543 22:0.35743 23:1 
32768 1:0.569508 2:0.295417 3:0.776067 4:0.000879653 5:-0.000744685 6:1.33227e-15 7:0.112292 8:0.785423 9:-0.724768 10:3.43181e-06 11:-1.71933e-05 12:0.000144336 13:0.325078 14:-0.00394496 15:0.500439 16:-7.49772e-05 17:-0.00361734 18:0.00953657 19:0.0290212 20:-0.892089 21:-0.511091 22:0.678715 23:1 
32768 1:0.78864 2:0.819864 3:0.488035 4:-0.0295542 5:-0.749418 6:0.625 7:0.193855 8:0.920042 9:-0.542585 10:3.43181e-06 11:-1.71933e-05 12:-0.130107 13:0.070933 14:0.315698 15:0.970275 16:0.0152934 17:0.380571 18:-0.371663 19:0.687272 20:-0.794759 21:-0.510951 22:0.35743 23:1 
32768 1:0.643905 2:0.669393 3:0.418765 4:-0.254085 5:-0.967181 6:0.4 7:0.193855 8:0.920042 9:-0.608132 10:3.43181e-06 11:-1.71933e-05 12:-0.25879 13:0.0785651 14:0.256883 15:0.974026 16:0.128676 17:0.492319 18:-0.323049 19:0.372492 20:-0.795926 21:-0.61443 22:0.35743 23:1 
32768 1:0.656331 2:0.798796 3:0.338441 4:-0.487385 5:-0.873186 6:0.4 7:0.193855 8:0.920042 9:-0.543192 10:3.43181e-06 11:-1.71933e-05 12:-0.21376 13:-0.025217 14:0.241019 15:-0.88083 16:0.246488 17:0.444084 18:-0.30032 19:0.494131 20:-0.770365 21:-0.634674 22:0.35743 23:1 
27728.38765008489 1:-0.929246 2:0.140503 3:0.971477 4:0.311176 5:-0.0288322 6:0.799399 7:-0.0191884 8:0.638744 9:0.637868 10:3.43181e-06 11:-1.71933e-05 12:-1 13:-0.383807 14:-0.260034 15:-0.333696 16:-0.156768 17:0.010796 18:-0.89875 19:0.589855 20:-0.0292182 21:-0.129375 22:-0.285141 23:1 
32768 1:0.72977 2:0.902225 3:0.375441 4:-0.0183164 5:-0.0442048 6:-0.907422 7:0.0307842 8:0.357293 9:-0.370458 10:3.43181e-06 11:-1.71933e-05 12:0.0112314 13:-0.267463 14:0.263548 15:-0.745261 16:0.00961858 17:0.0186846 18:0.473137 19:0.676707 20:-0.767253 21:-0.314498 22:1 23:1 
32768 1:-0.252263 2:0.885622 3:0.49833 4:-0.00176961 5:-0.249994 6:-0.925 7:0.00404449 8:-0.0576283 9:0.0905284 10:3.43181e-06 11:-1.71933e-05 12:0.0118423 13:-0.296231 14:-0.143371 15:-0.407589 16:0.00126284 17:0.124287 18:0.482318 19:0.177735 20:-0.38181 21:-0.379739 22:-0.606426 23:1 
32768 1:0.629473 2:0.950544 3:0.31062 4:-0.491487 5:-0.723923 6:-0.55 7:0.415785 8:0.0228878 9:-0.0968576 10:3.43181e-06 11:-1.71933e-05 12:0.85 13:-0.29056 14:-0.116926 15:-0.407179 16:0.248559 17:0.367488 18:0.716088 19:0.598443 20:-0.735245 21:-0.406273 22:1 23:0.310345 
32768 1:-0.284374 2:-0.766002 3:-0.417979 4:-0.254782 5:0.966998 6:0.45625 7:0.153228 8:-0.590598 9:-0.418476 10:-0.0951942 11:0.362705 12:-0.171909 13:0.0197973 14:0.244926 15:-0.000305052 16:0.0809557 17:-0.314093 18:-0.307588 19:0.119282 20:0.358766 21:-0.643037 22:-0.204819 23:0.310345 
32768 1:-0.242988 2:-0.643604 3:-0.267414 4:-0.667124 5:0.744947 6:0.4 7:0.300276 8:-0.493398 9:-0.325069 10:-0.155119 11:0.253113 12:0.896875 13:0.165417 14:0.262643 15:-0.0574693 16:0.258919 17:-0.256382 18:0.260252 19:-0.0533909 20:0.35752 21:-0.545227 22:-0.606426 23:0.310345 
32768 1:0.706036 2:-0.530091 3:0.932832 4:0.702408 5:-0.152449 6:-0.278634 7:0.354635 8:-0.440221 9:-0.490427 10:-0.0154301 11:0.499754 12:0.55 13:0.206743 14:-0.00965098 15:0.577858 16:-0.362125 17:0.330689 18:0.427702 19:0.398709 20:0.831308 21:-0.750295 22:0.196787 23:0.310345 
13691.51325361 1:-0.0699845 2:-0.750601 3:-0.138057 4:-0.907158 5:0.420795 6:0.435438 7:0.403523 8:-0.364279 9:-0.263039 10:0.677579 11:-0.735489 12:-0.4 13:0.184074 14:0.255145 15:-0.124784 16:0.800625 17:-0.597341 18:-0.412208 19:-0.00359327 20:0.46305 21:-0.537828 22:0.39759 23:0.310345 
32768 1:0.484035 2:0.298646 3:0.767752 4:0.743841 5:-0.668371 6:0.4 7:-0.0632125 8:0.170019 9:0.593017 10:-0.142645 11:0.479212 12:-0.286852 13:0.208584 14:0.224399 15:-0.1749 16:-0.447288 17:0.584897 18:-0.337213 19:-0.106251 20:-0.873421 21:-0.553559 22:0.598394 23:0.310345 
32768 1:-0.588328 2:-0.591305 3:-0.316042 4:-0.546072 5:0.837738 6:0.4 7:-0.154282 8:-0.400968 9:-0.342635 10:-0.118683 11:0.220018 12:-0.011808 13:0.0832945 14:0.236082 15:-0.0264195 16:0.21619 17:-0.320981 18:-0.198389 19:0.273356 20:0.212801 21:-0.64963 22:1 23:0.310345 
32768 1:-0.710099 2:0.309317 3:-0.249667 4:-0.209449 5:0.209176 6:-0.10505 7:-0.315595 8:-0.251757 9:-0.909655 10:-0.629582 11:-0.185198 12:-0.105057 13:0.304292 14:-0.0107189 15:-0.659156 16:-0.211791 17:-0.206365 18:0.00946041 19:0.260583 20:-0.0925793 21:-0.552996 22:0.598394 23:0.310345 
32768 1:0.112731 2:-0.530961 3:0.592449 4:0.142214 5:-0.479351 6:-0.775 7:0.31946 8:-0.0792619 9:-0.134595 10:0.569853 11:-0.256732 12:0.447859 13:0.171932 14:-0.168355 15:-0.726527 16:0.216317 17:0.110251 18:0.62668 19:-0.267019 20:0.585346 21:-0.689876 22:-0.405622 23:0.310345 
32768 1:0.867551 2:-0.835345 3:0.130164 4:0.344258 5:0.148719 6:0.85 7:0.498965 8:-0.0964015 9:-0.675046 10:-0.431785 11:-0.706679 12:0.158036 13:-0.013405 14:0.354945 15:-0.804395 16:-0.391518 17:-0.442939 18:-0.339793 19:0.847366 20:0.797349 21:-0.436526 22:0.196787 23:0.310345 
32768 1:0.606641 2:-0.933688 3:0.0804275 4:-0.968508 5:-0.24899 6:-0.4 7:0.458088 8:-0.260217 9:-0.801027 10:-0.404908 11:-0.293363 12:-0.55 13:0.0335207 14:0.287074 15:-0.880533 16:0.284972 17:-0.026758 18:-0.0662461 19:0.606253 20:0.724028 21:-0.567436 22:-0.00401606 23:0.310345 
32768 1:-0.0244057 2:-0.428492 3:0.255661 4:5.95392e-06 5:8.62324e-08 6:0.85 7:0.222516 8:-0.0169434 9:-0.256461 10:-0.69261 11:0.72131 12:0.316407 13:0.233583 14:0.0217306 15:-0.511684 16:-0.349389 17:0.366149 18:-0.259857 19:-0.423566 20:0.478774 21:-0.693447 22:0.598394 23:0.310345 
32768 1:-0.578465 2:0.683145 3:-0.191512 4:-0.206026 5:0.141604 6:-0.925 7:-0.181264 8:0.123032 9:0.240537 10:-0.72898 11:-0.684567 12:-0.475 13:0.300679 14:-0.0622664 15:0.431666 16:-0.263714 17:-0.427941 18:0.236593 19:0.293098 20:-0.224878 21:-0.550049 22:0.598394 23:0.310345 
32197.90030572434 1:-0.92556 2:0.426316 3:-0.0443271 4:-0.123771 5:0.0174485 6:1 7:-0.377384 8:0.562255 9:0.580237 10:0.154152 11:-0.605722 12:-0.7 13:0.284052 14:0.101605 15:0.623903 16:0.140713 17:-0.32377 18:-0.84858 19:0.658296 20:-0.0998417 21:-0.558652 22:0.39759 23:0.310345 
32768 1:0.873942 2:0.22293 3:0.494647 4:-0.0186589 5:-0.999826 6:0.4 7:0.357221 8:0.295678 9:-0.496166 10:0.00964955 11:-0.74997 12:-0.4 13:0.0669071 14:0.270434 15:-0.989964 16:0.0146627 17:0.124233 18:-0.394322 19:0.512914 20:-0.947263 21:-0.593684 22:0.39759 23:0.310345 
32768 1:0.91673 2:0.467977 3:0.286433 4:-0.136244 5:-0.171137 6:0.94375 7:0.449503 8:0.159281 9:-0.395248 10:0.0606843 11:-0.17743 12:0.00839324 13:-0.182355 14:0.117532 15:-0.681072 16:0.0998118 17:-0.00721821 18:-0.462641 19:0.664649 20:-0.890134 21:-0.604104 22:0.196787 23:0.310345 
32768 1:0.398302 2:0.278622 3:-0.00565005 4:-0.249953 5:0.00465323 6:0.925 7:0.909804 8:0.392817 9:0.556389 10:-0.0867417 11:0.49241 12:0.55 13:0.291905 14:0.0583121 15:0.561429 16:0.0827854 17:0.246302 18:-0.179811 19:-0.251039 20:-0.859375 21:-0.565967 22:-0.405622 23:0.310345 
32768 1:-0.810971 2:-0.635223 3:0.113747 4:0.117158 5:0.043595 6:0.718281 7:-0.367493 8:-0.446862 9:0.631568 10:0.0257127 11:-0.059122 12:0.927344 13:0.258142 14:-0.00470196 15:0.517204 16:-0.0458106 17:-0.0567003 18:0.114984 19:0.619687 20:0.175167 21:-0.646482 22:-0.00401606 23:0.310345 
32768 1:0.972109 2:0.789528 3:0.517132 4:0.0162263 5:-0.312079 6:-0.8875 7:0.262637 8:0.349495 9:-0.437653 10:-0.0333603 11:0.167596 12:0.747461 13:-0.0963691 14:0.382697 15:-0.953986 16:-0.0246727 17:0.242157 18:0.834681 19:0.92769 20:-0.831126 21:-0.344641 22:1 23:0.310345 
32768 1:0.905244 2:0.220273 3:0.652284 4:0.0250071 5:-0.0484644 6:0.935269 7:0.543895 8:0.752756 9:-0.805303 10:0.408815 11:0.287868 12:-0.181209 13:0.29346 14:0.0592511 15:0.543697 16:0.194183 17:0.168599 18:-0.554058 19:0.565342 20:-0.949754 21:-0.562529 22:0.799197 23:0.310345 
32768 1:0.811924 2:0.13878 3:0.412802 4:-0.272149 5:-0.962255 6:0.4 7:0.351899 8:0.266005 9:-0.611587 10:-0.342285 11:-0.939631 12:-0.000102545 13:0.0295459 14:0.24704 15:0.976534 16:-0.0350502 17:0.00762788 18:-0.192481 19:0.392803 20:-0.9675 21:-0.640137 22:0.799197 23:0.310345 
32768 1:0.922841 2:0.827663 3:0.449634 4:-0.0199078 5:-0.123404 6:1 7:0.589892 8:0.223175 9:-0.24624 10:0.715392 11:-0.698762 12:0.2319 13:-0.195942 14:0.128557 15:-0.695325 16:0.371679 17:-0.299234 18:-0.378221 19:0.881649 20:-0.816777 21:-0.570513 22:-0.807229 23:0.310345 
32768 1:0.683729 2:0.86339 3:0.00787788 4:0.624833 5:0.0149105 6:-0.7 7:0.00510984 8:-0.00261705 9:-0.381939 10:-0.272137 11:0.698882 12:0.4 13:-0.300472 14:-0.333618 15:-0.389398 16:-0.452583 17:0.346989 18:0.564669 19:0.584649 20:-0.764121 21:-0.190622 22:1 23:0.310345 
32768 1:-0.711754 2:0.721394 3:-0.383098 4:-0.135026 5:0.351119 6:-0.143303 7:-0.498624 8:-0.0580363 9:0.95903 10:-0.898264 11:0.120042 12:-0.143315 13:0.324881 14:-0.0132995 15:-0.659157 16:-0.385052 17:-0.122571 18:0.00945762 19:0.503038 20:-0.20147 21:-0.511242 22:0.598394 23:0.310345 
32768 1:-0.913193 2:0.783696 3:0.755829 4:0.154328 5:-0.149475 6:-0.946094 7:-0.441605 8:0.507535 9:-0.592113 10:-0.0088798 11:-0.0299786 12:0.0501058 13:-0.186453 14:-0.103431 15:0.653175 16:-0.082049 17:0.0573305 18:0.512277 19:0.834363 20:-0.177283 21:-0.613025 22:-0.204819 23:0.310345 
32768 1:-0.380945 2:-0.272648 3:-0.373392 4:-0.296459 5:0.705898 6:-0.615625 7:-0.481655 8:-0.768309 9:-0.0579662 10:-0.983343 11:0.181756 12:-0.195549 13:0.171862 14:-0.134456 15:0.315254 16:-0.346495 17:-0.272961 18:0.22149 19:-0.252906 20:0.169798 21:-0.732899 22:-0.606426 23:0.310345 
32768 1:0.529416 2:0.901449 3:-0.823462 4:-0.0531015 5:-0.0329528 6:-0.925 7:0.0734542 8:0.444785 9:0.799611 10:-0.403082 11:0.295833 12:0.55 13:0.30465 14:0.0138966 15:-0.378314 16:-0.176366 17:0.164726 18:0.753943 19:0.438711 20:-0.716642 21:-0.551444 22:-0.405622 23:0.310345 
32768 1:-0.395644 2:-0.848267 3:0.383369 4:-0.0449674 5:-0.116629 6:1 7:-0.420784 8:-0.141076 9:-0.0186585 10:-0.748677 11:0.0445313 12:0.14286 13:0.27656 14:0.121043 15:-0.401768 16:-0.354991 17:0.07871 18:-0.423162 19:0.303134 20:0.327968 21:-0.558814 22:-0.405622 23:0.310345 
32768 1:-0.431415 2:-0.715399 3:0.385211 4:-0.0442923 5:-0.116887 6:1 7:-0.262204 8:-0.0703033 9:-0.0597835 10:0.491151 11:-0.0937066 12:-0.0893297 13:0.29022 14:0.0110106 15:-0.444689 16:0.270755 17:0.00790577 18:-0.540356 19:0.196596 20:0.290706 21:-0.58088 22:-0.00401606 23:0.310345 
32768 1:-0.147008 2:-0.787 3:0.311678 4:-0.41921 5:-0.621901 6:0.625 7:-0.0144625 8:-0.169784 9:-0.114701 10:-0.153495 11:0.0579065 12:-0.0603538 13:0.263692 14:0.0826074 15:-0.426061 16:0.134547 17:0.344859 18:-0.336456 19:0.0658245 20:0.425718 21:-0.609139 22:-0.00401606 23:0.310345 
32768 1:-0.929473 2:-0.666142 3:-0.0811383 4:-0.241873 5:0.0632111 6:0.925 7:-0.584937 8:-0.418542 9:-0.284543 10:0.11379 11:-0.141604 12:-0.0536796 13:0.163856 14:0.146585 15:-0.203147 16:0.17997 17:-0.109092 18:-0.484507 19:0.815274 20:0.162559 21:-0.71948 22:1 23:0.310345 
5839.772507364641 1:0.59329 2:-0.433496 3:-0.660189 4:0.150601 5:0.273821 6:-0.8875 7:0.209132 8:-0.315999 9:0.457903 10:0.134294 11:0.990944 12:-0.259833 13:0.078927 14:-0.210714 15:-0.882822 16:-0.00786683 17:0.363998 18:0.326267 19:0.169017 20:0.83369 21:-0.710596 22:-0.405622 23:0.310345 
32768 1:0.0939778 2:0.728543 3:0.812854 4:0.830725 5:-0.556702 6:0.4 7:0.0741061 8:0.216937 9:0.0423236 10:-0.619568 11:-0.0822426 12:-0.409481 13:-0.0544954 14:0.164292 15:-0.770068 16:-0.731999 17:0.239484 18:-0.399107 19:-0.0907749 20:-0.556997 21:-0.74089 22:-0.00401606 23:0.310345 
9203.853009582301 1:0.588341 2:0.90144 3:-0.729012 4:-0.0411542 5:-0.0470331 6:-0.925 7:0.633161 8:0.166037 9:0.0607882 10:0.936002 11:0.179886 12:0.503125 13:0.209981 14:0.208055 15:0.789276 16:0.493811 17:0.112453 18:0.730284 19:0.504268 20:-0.733201 21:-0.574041 22:-0.405622 23:0.310345 
32768 1:0.977553 2:-0.798503 3:0.31945 4:0.471244 5:0.737268 6:-0.55 7:0.265642 8:-0.479281 9:-0.729416 10:0.082344 11:0.0940331 12:0.775 13:-0.0437252 14:0.390545 15:0.952127 16:-0.196018 17:-0.334074 18:0.678233 19:0.976251 20:0.821538 21:-0.36154 22:0.799197 23:0.310345 
15524.58108057039 1:-0.178978 2:0.819883 3:-0.752488 4:0.178054 5:0.175498 6:0.925 7:-0.53165 8:0.227777 9:0.75867 10:0.723718 11:-0.690135 12:0.4 13:0.305913 14:0.0195654 15:-0.49014 16:0.275917 17:-0.448191 18:-0.255521 19:0.0568013 20:-0.407665 21:-0.548187 22:0.799197 23:0.310345 
32768 1:0.184607 2:-0.850452 3:-0.0230669 4:-0.997318 5:0.0732304 6:-0.475 7:0.0511719 8:-0.537067 9:0.123001 10:-0.81091 11:-0.328736 12:-0.291096 13:-0.0380521 14:0.126299 15:0.145919 16:0.094498 17:-0.21026 18:0.102286 19:0.161988 20:0.588319 21:-0.81723 22:0.799197 23:0.310345 
32768 1:0.925086 2:-0.507574 3:-0.129573 4:-0.279712 5:0.120804 6:1.33227e-15 7:0.229257 8:-0.181305 9:0.262061 10:0.510841 11:0.549128 12:0.4 13:-0.321966 14:-0.0213308 15:0.391266 16:0.39958 17:0.215802 18:0.211356 19:0.721218 20:0.871136 21:-0.373358 22:-0.204819 23:0.310345 
32768 1:-0.559836 2:-0.841579 3:0.274518 4:0.258668 5:0.301061 6:1.33227e-15 7:-0.193805 8:-0.227445 9:0.734065 10:3.43181e-06 11:-1.71933e-05 12:0.85 13:0.324274 14:0.0174048 15:0.458919 16:-0.130252 17:-0.158492 18:0.438486 19:0.461723 20:0.2745 21:-0.511427 22:0.39759 23:0.310345 
32768 1:0.729379 2:-0.092962 3:-0.561473 4:5.95392e-06 5:8.62324e-08 6:-0.170679 7:0.641844 8:-0.580822 9:-0.981467 10:-0.233941 11:-0.0142356 12:0.709375 13:0.207261 14:-0.00661354 15:-0.419278 16:-0.117771 17:-0.0112957 18:0.453655 19:0.252925 20:0.962356 21:-0.749369 22:0.799197 23:0.310345 
32768 1:-0.059883 2:-0.686354 3:0.617755 4:0.101147 5:-0.262435 6:-0.255387 7:-0.168687 8:-0.253293 9:-0.851733 10:0.669419 11:0.338202 12:-0.220235 13:0.210239 14:-0.0127225 15:0.531825 16:0.287334 17:0.304229 18:0.0272059 19:-0.0876758 20:0.465637 21:-0.743019 22:0.39759 23:0.310345 
32768 1:-0.550296 2:0.244457 3:0.39127 4:0.0790897 5:0.221288 6:-0.709003 7:-0.0139583 8:0.379252 9:0.722748 10:-0.641486 11:0.767133 12:0.0963597 13:0.177558 14:-0.252254 15:0.330936 16:-0.363508 17:0.276107 18:0.415956 19:-0.0259738 20:-0.0921938 21:-0.561453 22:0.598394 23:0.310345 
32768 1:0.888741 2:0.236745 3:0.877447 4:0.289325 5:-0.118119 6:0.8875 7:0.501432 8:-0.115472 9:0.731364 10:-0.455118 11:0.515282 12:-0.207884 13:0.159051 14:0.194379 15:-0.146331 16:-0.375561 17:0.32104 18:-0.543411 19:0.540964 20:-0.944531 21:-0.657943 22:-0.204819 23:0.310345 
32768 1:0.689902 2:0.551535 3:0.993134 4:0.0624879 5:-0.0015247 6:-0.925 7:0.24398 8:0.598495 9:0.442291 10:0.182663 11:0.983179 12:-0.475 13:0.249387 14:-0.0282926 15:-0.550704 16:0.0610536 17:0.501309 18:0.236593 19:0.355295 20:-0.8354 21:-0.661932 22:-0.405622 23:0.310345 
20361.33627012209 1:-0.642832 2:-0.454446 3:0.953098 4:-0.988759 5:0.149534 6:-0.4 7:-0.0972515 8:0.348609 9:-0.0678476 10:-0.85508 11:0.185636 12:-0.0228994 13:-0.178263 14:-0.378057 15:0.979724 16:0.0678713 17:0.0145335 18:0.199798 19:0.253171 20:0.163105 21:-0.290618 22:1 23:0.310345 
32768 1:0.254125 2:-0.418619 3:-0.795307 4:0.799862 5:0.600201 6:-0.4 7:-0.0771406 8:0.0772254 9:-0.828098 10:0.856687 11:0.515844 12:0.4 13:0.0513995 14:-0.280118 15:-0.0323885 16:0.0290638 17:-0.0472844 18:0.413249 19:-0.289332 20:0.708762 21:-0.593426 22:0.39759 23:0.310345 
32768 1:0.633718 2:0.332996 3:-0.354118 4:0.442275 5:-0.896884 6:-0.4 7:-0.147785 8:0.711731 9:0.350045 10:0.45572 11:0.890127 12:-0.4 13:-0.26505 14:-0.310632 15:0.703559 16:0.00715723 17:0.913022 18:0.00946372 19:0.149027 20:-0.889676 21:-0.271857 22:0.39759 23:0.310345 
11966.09760773716 1:-0.877873 2:0.755558 3:-0.868903 4:-0.916047 5:-0.401075 6:0.4 7:-0.570279 8:-0.181927 9:0.219555 10:0.772447 11:0.635084 12:0.4 13:0.0390381 14:0.395518 15:-0.912327 16:0.853021 17:0.527718 18:0.00946372 19:0.763797 20:-0.17752 21:-0.370095 22:1 23:0.310345 
32768 1:-0.831969 2:0.682617 3:-0.820222 4:0.844319 5:0.535862 6:0.475 7:-0.572884 8:0.0512998 9:0.212324 10:-0.589988 11:-0.463075 12:-0.365105 13:0.0539104 14:0.271855 15:-0.9682 16:-0.723926 17:-0.5166 18:-0.414564 19:0.647746 20:-0.170232 21:-0.59375 22:0.39759 23:0.310345 
32768 1:0.352159 2:0.735526 3:0.866696 4:-0.114061 5:0.0511264 6:0.775 7:0.101002 8:0.15922 9:-0.218237 10:0.592562 11:-0.484857 12:0.263868 13:0.0643201 14:0.253241 15:0.915847 16:0.357197 17:-0.279031 18:-0.248521 19:0.0863817 20:-0.686823 21:-0.625375 22:-0.00401606 23:0.310345 
32768 1:-0.529336 2:-0.844177 3:-0.716849 4:0.25568 5:0.315707 6:1.33227e-15 7:-0.717429 8:-0.365636 9:0.196682 10:0.510005 11:0.361275 12:-0.168713 13:-0.0429653 14:-0.218329 15:0.912866 16:0.128796 17:0.0193893 18:-0.0756913 19:0.43077 20:0.283762 21:-0.675889 22:-0.00401606 23:0.310345 
6075.183226672636 1:0.34814 2:-0.848886 3:0.0826741 4:-0.966728 5:-0.255815 6:0.4 7:0.283593 8:-0.570627 9:0.143009 10:0.0563384 11:0.0270509 12:-0.8125 13:0.0358107 14:0.12181 15:0.0602298 16:0.516993 17:0.141164 18:-0.602524 19:0.265354 20:0.656444 21:-0.868152 22:-0.807229 23:0.310345 
32768 1:-0.898171 2:-0.68808 3:0.119417 4:0.465438 5:0.182694 6:0.084654 7:-0.158567 8:-0.308007 9:-0.221743 10:-0.575201 11:0.481286 12:0.0846572 13:0.419132 14:0.00379672 15:-0.340845 16:-0.525133 17:0.14923 18:0.00946533 19:0.782887 20:0.171596 21:-0.320716 22:0.39759 23:0.310345 
32768 1:0.641514 2:-0.604298 3:0.828655 4:-0.428646 5:0.257412 6:-0.55 7:0.28873 8:-0.243007 9:-0.681267 10:0.268985 11:0.421476 12:-0.142198 13:0.25134 14:-0.041295 15:0.491338 16:0.352656 17:0.0801963 18:0.215294 19:0.358862 20:0.799017 21:-0.654987 22:-0.00401606 23:0.310345 
32768 1:-0.075009 2:0.899101 3:-0.743107 4:0.172809 5:0.180665 6:0.925 7:-0.408725 8:0.284035 9:-0.302607 10:0.145321 11:-0.20345 12:-0.7 13:0.305008 14:0.0256072 15:0.440362 16:-0.0135132 17:-0.201101 18:-0.810726 19:0.121211 20:-0.464339 21:-0.549042 22:-0.405622 23:0.310345 
32768 1:-0.437925 2:0.256649 3:0.625214 4:0.208564 5:-0.505546 6:-0.746875 7:-0.337101 8:0.727446 9:-0.076213 10:3.43181e-06 11:-1.71933e-05 12:0.85 13:0.185946 14:-0.125581 15:-0.700954 16:-0.104951 17:0.255426 18:0.815457 19:-0.203148 20:-0.119954 21:-0.720573 22:0.196787 23:0.310345 
32768 1:0.0563575 2:0.685319 3:-0.654714 4:0.0583525 5:0.110548 6:-0.899989 7:-0.127507 8:0.24376 9:0.878469 10:-0.926543 11:0.376183 12:-0.304942 13:0.211008 14:-0.0156484 15:-0.468185 16:-0.496984 17:0.132319 18:0.309803 19:-0.155258 20:-0.536974 21:-0.741187 22:-0.606426 23:0.310345 
32768 1:-0.310674 2:-0.699913 3:-0.214142 4:-0.78183 5:0.623492 6:0.4 7:0.159323 8:-0.386698 9:-0.366044 10:-0.0894363 11:0.199617 12:-0.199677 13:0.13758 14:0.260588 15:-0.151638 16:0.350011 17:-0.221508 18:-0.293213 19:0.0647745 20:0.33581 21:-0.573168 22:-0.606426 23:0.310345 
13790.97037074357 1:-0.543858 2:0.377977 3:0.557477 4:0.0222124 5:-0.123012 6:-1 7:0.0343609 8:0.675664 9:0.556272 10:0.0432854 11:-0.246247 12:-0.925 13:0.10206 14:-0.332484 15:-0.00146247 16:0.0110089 17:-0.0672275 18:0.0473186 19:0.026248 20:-0.144022 21:-0.484177 22:0.196787 23:0.310345 
8691.518110435238 1:-0.575216 2:-0.315129 3:0.104706 4:-0.828392 5:-0.281768 6:-0.222776 7:-0.149223 8:-0.165028 9:-0.387146 10:0.173793 11:-0.468852 12:-0.55 13:0.248252 14:-0.00982387 15:-0.491366 16:0.506449 17:-0.0999902 18:-0.155697 19:0.0689179 20:0.133657 21:-0.666357 22:0.39759 23:0.310345 
32768 1:-0.478373 2:-0.764434 3:-0.645495 4:0.440989 5:0.897518 6:0.4 7:-0.164612 8:-0.564758 9:-0.346277 10:0.0397077 11:-0.0756835 12:-0.79873 13:-0.102855 14:0.104781 15:0.299189 16:-0.202271 17:-0.503397 18:-0.595574 19:0.296032 20:0.284587 21:-0.754364 22:-0.204819 23:0.310345 
32768 1:-0.336989 2:-0.800964 3:-0.691694 4:0.459947 5:0.669787 6:-0.5875 7:-0.337072 8:-0.40557 9:-0.0355661 10:-0.201839 11:0.0227848 12:0.153459 13:-0.0871223 14:-0.104263 15:0.655732 16:-0.33382 17:-0.336006 18:0.383449 19:0.200343 20:0.342408 21:-0.789122 22:-0.204819 23:0.310345 
32768 1:-0.536471 2:0.312311 3:0.348665 4:-0.344331 5:-0.666284 6:-0.625 7:-0.214788 8:0.756245 9:-0.146403 10:-0.895914 11:0.444222 12:0.217 13:0.257268 14:-0.0666732 15:-0.49469 16:-0.278171 17:0.565871 18:0.434448 19:-0.0195926 20:-0.121338 21:-0.633963 22:0.196787 23:0.310345 
32768 1:-0.623738 2:0.876732 3:-0.955133 4:-0.433097 5:-0.0618991 6:0.8125 7:0.158643 8:-0.341441 9:0.381644 10:0.365357 11:0.930871 12:0.117686 13:-0.278739 14:0.53169 15:-0.664238 16:0.403569 17:0.505449 18:-0.341231 19:0.520181 20:-0.253865 21:0.0665164 22:1 23:0.310345 
23401.63733863572 1:-0.899397 2:0.524609 3:-0.0257099 4:-0.124579 5:0.010188 6:0.173021 7:-0.259234 8:0.4486 9:0.602286 10:-0.234786 11:0.712299 12:-0.4 13:0.341191 14:0.00418028 15:0.627323 16:-0.0552849 17:0.356297 18:-0.279758 19:0.66007 20:-0.125464 21:-0.478321 22:0.196787 23:0.310345 
32768 1:0.210567 2:0.875721 3:-0.0576302 4:-0.98352 5:0.180812 6:-0.4 7:0.0662282 8:0.187264 9:-0.165177 10:-0.813939 11:0.465193 12:0.5125 13:0.0101676 14:-0.280273 15:-0.107405 16:0.0860012 17:0.141938 18:0.470032 19:0.142662 20:-0.602292 21:-0.59159 22:0.39759 23:0.310345 
32768 1:0.342596 2:-0.849181 3:-0.0110374 4:-0.508137 5:0.0180608 6:0.769925 7:-0.0121831 8:-0.31451 9:-0.846277 10:0.40434 11:0.213039 12:0.575781 13:-0.144107 14:0.214436 15:-0.834326 16:0.461149 17:0.0960624 18:-0.0885266 19:0.261247 20:0.654294 21:-0.558663 22:0.39759 23:0.310345 
32768 1:0.423946 2:-0.867723 3:0.456943 4:-0.0853789 5:-0.61914 6:0.7 7:0.195326 8:-0.379275 9:-0.871748 10:-0.81857 11:-0.350962 12:0.122813 13:0.204671 14:0.144254 15:0.672544 16:-0.369879 17:0.133631 18:-0.281861 19:0.351786 20:0.680669 21:-0.661193 22:-0.204819 23:0.310345 
32768 1:-0.465441 2:-0.359994 3:0.209956 4:5.95392e-06 5:8.62324e-08 6:-0.85 7:0.192538 8:-0.471561 9:-0.654458 10:-0.348914 11:-0.663926 12:0.4 13:0.268764 14:-0.249084 15:-0.863571 16:-0.17583 17:-0.344684 18:0.640379 19:-0.0706941 20:0.177687 21:-0.44758 22:1 23:0.310345 
32768 1:-0.770088 2:0.812643 3:-0.700349 4:0.588275 5:0.808669 6:0.4 7:-0.630152 8:0.0713082 9:-0.857935 10:-0.901158 11:-0.43352 12:-0.4 13:0.210304 14:0.218665 15:-0.157092 16:-0.751765 17:-0.641427 18:-0.394322 19:0.653543 20:-0.208256 21:-0.559213 22:0.39759 23:0.310345 
22964.45773186836 1:-0.737209 2:-0.617106 3:-0.388147 4:0.258086 5:-0.704199 6:0.4 7:-0.642301 8:0.392248 9:-0.862927 10:-0.907838 11:-0.41935 12:0.4 13:-0.304451 14:0.178517 15:-0.474084 16:-0.5884 17:0.142186 18:0.00946372 19:0.500296 20:0.184912 21:-0.333512 22:-0.606426 23:0.310345 
1102.457423972973 1:0.213639 2:-0.827917 3:-0.510948 4:-0.00855777 5:-0.249853 6:-0.925 7:-0.476248 8:-0.36709 9:0.504245 10:0.00805397 11:-0.749989 12:0.0703626 13:-0.128687 14:-0.388467 15:-0.985677 16:0.00875607 17:-0.260632 18:0.511855 19:0.148975 20:0.603674 21:-0.322556 22:1 23:0.310345 
32768 1:0.347225 2:-0.933239 3:-0.095478 4:-0.955149 5:0.296131 6:-0.4 7:0.164766 8:-0.527714 9:0.216073 10:0.389672 11:0.313295 12:-0.333901 13:-0.0937597 14:0.13266 15:0.311255 16:0.679473 17:0.00481385 18:0.0428259 19:0.361403 20:0.644269 21:-0.736319 22:-0.405622 23:0.310345 
32768 1:-0.496737 2:-0.120737 3:0.323583 4:-0.131889 5:-0.212377 6:0.925 7:-0.301651 8:0.555408 9:-0.11242 10:-0.93811 11:0.346334 12:0.4 13:0.299451 14:0.0609046 15:-0.435679 16:-0.406757 17:0.282714 18:-0.255521 19:-0.138296 20:0.0697081 21:-0.550047 22:0.196787 23:0.310345 
32768 1:0.35907 2:0.892218 3:-0.604293 4:0.0401959 5:0.118363 6:1 7:0.285274 8:0.15302 9:0.997699 10:-0.35935 11:0.00412175 12:-0.0546428 13:0.290666 14:0.0536305 15:-0.399473 16:-0.201395 17:-0.0626147 18:-0.522848 19:0.264945 20:-0.661403 21:-0.570175 22:-0.606426 23:0.310345 
20659.23244441595 1:0.744877 2:-0.352416 3:0.856833 4:0.224865 5:-0.109266 6:0.7 7:0.0817075 8:-0.110111 9:-0.74399 10:0.692437 11:0.721482 12:-0.188049 13:0.365944 14:0.054699 15:0.400522 16:0.236482 17:0.422309 18:-0.438763 19:0.359613 20:0.885257 21:-0.419968 22:-0.00401606 23:0.310345 
32768 1:0.758373 2:-0.875911 3:-0.112902 4:-0.761741 5:0.28268 6:-0.5875 7:0.499334 8:0.463986 9:-0.766428 10:-0.648791 11:-0.587136 12:0.00592341 13:-0.24938 14:0.466073 15:-0.652764 16:0.0574037 17:-0.450339 18:0.308983 19:0.734973 20:0.769256 21:-0.0658147 22:-0.405622 23:0.310345 
32768 1:-0.11693 2:0.874873 3:0.402438 4:-0.113737 5:-0.357334 6:-0.85 7:0.310231 8:0.477619 9:0.27613 10:0.313945 11:0.368855 12:0.141316 13:-0.0287611 14:-0.270923 15:-0.126358 16:0.216338 17:0.368656 18:0.509812 19:0.100849 20:-0.442813 21:-0.594138 22:0.598394 23:0.310345 
32768 1:-0.57798 2:0.854321 3:0.636148 4:0.103223 5:-0.227698 6:-0.925 7:-0.244636 8:0.405433 9:0.263982 10:0.0105767 11:0.0114873 12:0.840625 13:-0.168671 14:-0.0930206 15:-0.372056 16:-0.0464166 17:0.11875 18:0.900631 19:0.445168 20:-0.261759 21:-0.653449 22:-0.405622 23:0.310345 
19.17805489544284 1:0.0832057 2:0.0131327 3:0.394916 4:5.95392e-06 5:8.62324e-08 6:0.194258 7:0.196824 8:0.505207 9:-0.137306 10:-0.685605 11:0.315891 12:0.194295 13:0.231851 14:0.00488973 15:-0.531827 16:-0.345852 17:0.158109 18:0.00948249 19:-0.863955 20:0.965216 21:-0.699338 22:-0.00401606 23:0.310345 
32768 1:0.903546 2:0.663631 3:-0.965251 4:-0.372723 5:-0.0412386 6:0.85 7:0.627653 8:-0.449587 9:-0.0393872 10:0.24807 11:-0.031058 12:-0.7 13:0.204556 14:0.416634 15:0.925301 16:0.313855 17:0.00123392 18:-0.772871 19:0.745999 20:-0.845635 21:-0.258726 22:0.196787 23:0.310345 
32768 1:0.915375 2:0.0652967 3:0.283445 4:-0.226198 5:-0.278719 6:0.859624 7:0.419101 8:0.17394 9:-0.522309 10:0.0345657 11:0.498797 12:-0.138963 13:-0.0750081 14:0.233652 15:-0.805009 16:0.132048 17:0.394994 18:-0.494555 19:0.563544 20:-0.990287 21:-0.610348 22:0.799197 23:0.310345 
32768 1:0.604926 2:-0.234064 3:0.735805 4:0.168298 5:-0.184873 6:0.925 7:0.277845 8:-0.196697 9:-0.594336 10:-0.263665 11:-0.86708 12:0.272797 13:0.156854 14:0.10696 15:0.670966 16:-0.217765 17:-0.354063 18:-0.319724 19:0.0825768 20:0.901888 21:-0.779094 22:-0.204819 23:0.310345 
32768 1:-0.811883 2:-0.08266 3:-0.198435 4:-0.405805 5:0.292097 6:0.775 7:-0.338899 8:0.216788 9:-0.384603 10:-0.355049 11:0.934848 12:0.126742 13:0.147877 14:0.247833 15:-0.185875 16:0.0259974 17:0.325834 18:-0.317733 19:0.388676 20:0.0320625 21:-0.585495 22:0.799197 23:0.310345 
32768 1:-0.923477 2:-0.473727 3:0.0236344 4:-0.249324 5:-0.0183156 6:0.925 7:-0.388204 8:-0.23136 9:-0.376161 10:0.379696 11:-0.925149 12:-0.4 13:0.294921 14:0.0828504 15:-0.399372 16:0.318009 17:-0.469332 18:-0.659306 19:0.698633 20:0.123094 21:-0.548847 22:0.196787 23:0.310345 
32768 1:0.336484 2:0.57509 3:-0.796953 4:5.95392e-06 5:8.62324e-08 6:0.489943 7:0.0206329 8:0.239118 9:0.699238 10:-0.0728963 11:0.101526 12:-0.775 13:0.225291 14:-0.00541504 15:-0.50507 16:-0.0364466 17:0.0481075 18:-0.628993 19:-0.095837 20:-0.718859 21:-0.712925 22:0.39759 23:0.310345 
7631.063478197299 1:0.251112 2:0.87714 3:-0.702482 4:0.296842 5:0.402356 6:-0.0629551 7:-0.0471459 8:0.305818 9:0.766961 10:3.43181e-06 11:-1.71933e-05 12:-0.157097 13:0.280621 14:-0.00394496 15:-0.531833 16:-0.14953 17:-0.210472 18:-0.0380525 19:0.16813 20:-0.620005 21:-0.601015 22:-0.204819 23:0.310345 
32768 1:-0.134514 2:-0.466826 3:0.318174 4:-0.37257 5:-0.577794 6:-0.6625 7:0.100349 8:-0.134284 9:-0.26637 10:-0.102044 11:0.1131 12:0.0694183 13:0.206128 14:-0.0322153 15:-0.584056 16:0.136977 17:0.350547 18:0.378886 19:-0.335516 20:0.390141 21:-0.747883 22:-0.606426 23:0.310345 
32768 1:-0.393389 2:-0.850006 3:0.33304 4:0.0313888 5:0.0540499 6:-0.925 7:-0.637589 8:-0.245816 9:0.158157 10:-0.879758 11:-0.475451 12:0.475 13:0.168983 14:0.245082 15:-0.174847 16:-0.459743 17:-0.275705 18:0.716088 19:0.303062 20:0.329052 21:-0.569439 22:-0.405622 23:0.310345 
32768 1:-0.725681 2:0.35778 3:-0.0236352 4:-0.997185 5:0.07501 6:0.4 7:-0.600879 8:0.946545 9:0.959561 10:-0.991408 11:0.130811 12:0.115195 13:0.070597 14:0.248596 15:0.982136 16:0.00328371 17:0.0246429 18:-0.134286 19:0.305122 20:-0.105195 21:-0.63199 22:0.799197 23:0.310345 
32768 1:-0.682026 2:0.803217 3:0.369466 4:5.95392e-06 5:8.62324e-08 6:0.85 7:-0.90654 8:0.52312 9:0.527736 10:0.0843572 11:-0.996473 12:0.4 13:-0.0966184 14:0.0780592 15:0.157927 16:0.0429631 17:-0.51533 18:-0.217666 19:0.528507 20:-0.22532 21:-0.791017 22:-0.590361 23:0.310345 
32768 1:-0.968595 2:-0.212852 3:-0.922168 4:-0.485011 5:-0.1215 6:-0.55 7:0.0269276 8:-0.524997 9:0.417018 10:0.259983 11:0.965616 12:0.225238 13:-0.405356 14:0.238496 15:-0.661847 16:0.376573 17:0.553864 18:0.400751 19:0.678691 20:0.0584777 21:-0.102214 22:0.196787 23:0.310345 
32768 1:0.8575 2:0.377609 3:-0.865616 4:-0.113977 5:-0.0513133 6:1 7:0.890838 8:-0.35727 9:-0.760635 10:0.729162 11:0.684345 12:0.4 13:0.117244 14:0.268934 15:0.105265 16:0.426135 17:0.373513 18:-0.293375 19:0.531402 20:-0.905607 21:-0.573604 22:1 23:0.310345 
32768 1:0.900147 2:-0.611413 3:-0.894216 4:0.472508 5:0.163542 6:-0.239111 7:0.484229 8:-0.840632 9:-0.107821 10:0.943017 11:-0.332793 12:0.156191 13:0.245033 14:0.00338177 15:0.785951 16:0.237966 17:-0.258686 18:0.208985 19:0.740479 20:0.845695 21:-0.67279 22:1 23:0.310345 
32768 1:0.451378 2:-0.314412 3:-0.281016 4:-0.218335 5:0.265822 6:0.224999 7:0.807114 8:-0.899059 9:-0.759839 10:0.72745 11:0.686165 12:0.4 13:0.307653 14:0.00778953 15:-0.478173 16:0.477969 17:0.211706 18:0.0977922 19:-0.118368 20:0.837434 21:-0.545923 22:0.598394 23:0.310345 
32768 1:-0.526919 2:-0.855117 3:0.392586 4:-0.083154 5:-0.235764 6:0.925 7:-0.764736 8:-0.879046 9:-0.100931 10:0.949991 11:-0.312327 12:0.4 13:-0.00660966 14:0.127081 15:-0.493162 16:0.522084 17:-0.0432768 18:-0.255521 19:0.439147 20:0.286419 21:-0.84385 22:-0.00401606 23:0.310345 
32768 1:-0.540819 2:-0.462386 3:-0.42613 4:-0.229952 5:0.973202 6:0.4 7:-0.207276 8:-0.83542 9:0.162291 10:0.873524 11:0.486788 12:0.171475 13:0.195212 14:0.134337 15:0.587976 16:0.5576 17:-0.253603 18:-0.10588 19:0.10955 20:0.190055 21:-0.687383 22:-0.815261 23:0.310345 
14898.67791795951 1:-0.724491 2:-0.585161 3:-0.275197 4:-0.567633 5:0.665896 6:0.55 7:-0.0592939 8:-0.135068 9:0.602684 10:-0.314236 11:0.949346 12:0.0595898 13:0.111843 14:0.39092 15:0.877052 16:0.128327 17:0.141455 18:-0.238062 19:0.459702 20:0.180048 21:-0.362062 22:-0.815261 23:0.310345 
32768 1:-0.102611 2:0.52083 3:0.0658512 4:-0.978885 5:-0.204422 6:0.4 7:-0.28729 8:0.898512 9:-0.943343 10:-0.983785 11:-0.179384 12:0.00319453 13:-0.0260852 14:0.177665 15:0.991872 16:-0.00210821 17:0.00885954 18:-0.190817 19:-0.34913 20:-0.415078 21:-0.743872 22:1 23:0.310345 
32768 1:-0.36151 2:-0.190933 3:0.23448 4:-0.556219 5:-0.503109 6:0.4 7:-0.83957 8:0.412007 9:-0.646833 10:-0.443908 11:-0.896107 12:0.0788061 13:0.00902879 14:0.364899 15:-0.880463 16:0.0570815 17:-0.205652 18:-0.152653 19:-0.330978 20:0.135144 21:-0.423722 22:0.196787 23:0.310345 
32768 1:-0.908713 2:0.813549 3:-0.0274175 4:0.373592 5:-0.0325671 6:0.85 7:-0.246069 8:0.961232 9:0.962678 10:-0.99264 11:0.121108 12:-0.0135817 13:0.345035 14:0.0975576 15:0.989029 16:-0.689551 17:0.0748682 18:-0.426413 19:0.848511 20:-0.18357 21:-0.444057 22:0.799197 23:0.310345 
32768 1:0.0870734 2:-0.862584 3:-0.555166 4:-0.172224 5:-0.985057 6:0.4 7:0.789736 8:0.063281 9:-0.271807 10:-0.657083 11:0.753817 12:0.261086 13:-0.36435 14:0.311513 15:0.283306 16:-0.244476 17:0.888321 18:-0.0606508 19:0.143427 20:0.542493 21:-0.105316 22:-0.00401606 23:0.310345 
32768 1:-0.467478 2:-0.0921471 3:0.112054 4:-0.704289 5:-0.257831 6:0.4 7:-0.727883 8:0.775338 9:0.204392 10:-0.801774 11:-0.597658 12:0.4 13:0.0197117 14:0.386816 15:0.0921845 16:-0.0488615 17:-0.17837 18:0.00946372 19:-0.194875 20:0.0599113 21:-0.385254 22:0.799197 23:0.310345 
32768 1:0.704302 2:-0.154016 3:-0.503129 4:0.00279753 5:0.287341 6:0.197131 7:0.703036 8:-0.986608 9:-0.897449 10:0.947862 11:0.318696 12:0.4 13:0.328967 14:0.00716688 15:-0.393659 16:0.477606 17:0.0120963 18:0.111858 19:0.222538 20:0.940832 21:-0.50288 22:0.39759 23:0.310345 
32768 1:-0.566442 2:-0.207951 3:-0.90212 4:-0.952822 5:-0.303536 6:0.4 7:0.221254 8:-0.710059 9:-0.684836 10:0.547375 11:0.836891 12:0.309831 13:-0.27637 14:0.308914 15:0.217463 16:0.757935 17:0.581222 18:-0.0360472 19:0.00618088 20:0.0959794 21:-0.247364 22:0.799197 23:0.310345 
32768 1:-0.830928 2:-0.827236 3:-0.896516 4:0.118423 5:0.0400316 6:-0.775 7:-0.0613227 8:0.323209 9:-0.211295 10:-0.787561 11:0.616234 12:0.0912314 13:-0.452014 14:-0.321419 15:0.684888 16:-0.457136 17:0.291687 18:0.446678 19:0.788197 20:0.209403 21:0.0457583 22:0.799197 23:0.310345 
32768 1:-0.220658 2:-0.527345 3:-0.99603 4:0.624954 5:0.00847331 6:0.7 7:0.0093283 8:-0.976222 9:-0.927809 10:0.973883 11:0.227077 12:0.177302 13:-0.0728692 14:0.169519 15:0.0686057 16:0.17657 17:0.108186 18:-0.254359 19:-0.20417 20:0.345476 21:-0.712772 22:0.586345 23:0.310345 
32768 1:-0.193801 2:0.751539 3:-0.347752 4:0.0575194 5:-0.110983 6:0.775 7:-0.0575284 8:0.964317 9:-0.0315223 10:-0.995026 11:0.0996198 12:0.09834 13:-0.0128196 14:0.104361 15:0.316045 16:-0.531146 17:0.104081 18:-0.332068 19:-0.0189143 20:-0.391725 21:-0.877058 22:0.598394 23:0.310345 
32768 1:-0.127599 2:0.395637 3:0.354618 4:-0.442425 5:-0.896805 6:0.4 7:-0.580563 8:0.696964 9:0.253115 10:-0.701397 11:-0.712803 12:0.00711043 13:0.0421586 14:0.28095 15:-0.101557 16:-0.130409 17:0.0904387 18:-0.18884 19:-0.486383 20:-0.363774 21:-0.578413 22:0.196787 23:0.310345 
32768 1:-0.00514746 2:0.900862 3:0.507531 4:0.00179293 5:-0.0820117 6:-0.948437 7:-0.106364 8:-0.403304 9:0.944758 10:0.98427 11:-0.176744 12:0.143384 13:-0.427116 14:0.0640404 15:0.436516 16:0.496498 17:-0.0526019 18:0.560541 19:0.11635 20:-0.498176 21:-0.153216 22:-0.00401606 23:0.310345 
32768 1:0.928706 2:0.145197 3:-0.0212561 4:-0.0779412 5:0.00527816 6:0.94375 7:0.84213 8:-0.8492 9:-0.768253 10:0.745314 11:0.666718 12:0.4 13:0.0269113 14:-0.396881 15:-0.746175 16:0.416094 17:0.335427 18:-0.264984 19:0.592969 20:-0.969996 21:-0.381799 22:0.196787 23:0.310345 
32768 1:-0.657381 2:0.166494 3:0.690821 4:0.562378 5:-0.826888 6:0.4 7:-0.9787 8:0.134314 9:0.46918 10:-0.0991418 11:-0.99511 12:-0.0214508 13:0.128192 14:0.151929 15:-0.22172 16:-0.333686 17:-0.0903057 18:-0.203256 19:0.131099 20:-0.0505533 21:-0.756904 22:-0.204819 23:0.310345 
32768 1:-0.652555 2:-0.837983 3:0.339952 4:-0.0150953 5:-0.027359 6:0.8875 7:-0.941711 8:-0.705109 9:-0.31538 10:0.548198 11:-0.836387 12:0.4 13:0.0114782 14:0.174506 15:-0.654777 16:0.284819 17:-0.419142 18:-0.236593 19:0.566729 20:0.24948 21:-0.768676 22:0.39759 23:0.310345 
32768 1:-0.434387 2:-0.577692 3:-0.434217 4:-0.0512889 5:0.244681 6:0.925 7:-0.105298 8:-0.893917 9:0.177716 10:0.848945 11:0.528488 12:0.309458 13:0.171741 14:0.142496 15:0.611466 16:0.454967 17:0.141642 18:-0.30122 19:0.0655567 20:0.257307 21:-0.713538 22:0.39759 23:0.310345 
9545.838953916978 1:-0.428333 2:0.913241 3:0.831215 4:5.95392e-06 5:8.62324e-08 6:-0.7375 7:-0.315054 8:0.956285 9:0.963334 10:-0.124108 11:0.0148678 12:-1.44329e-15 13:0.00561071 14:-0.057237 15:0.131591 16:-0.0623074 17:0.00363867 18:0.381703 19:0.347353 20:-0.318337 21:-0.982772 22:0.574297 23:-0.655172 
30266.28406929807 1:-0.427282 2:0.912121 3:0.682232 4:5.95392e-06 5:8.62324e-08 6:1.33227e-15 7:-0.317707 8:0.956694 9:0.966306 10:3.43181e-06 11:-1.71933e-05 12:-1.44329e-15 13:0.0318792 14:-0.0650874 15:0.283448 16:0.000366221 17:-0.00399953 18:0.00946372 19:0.345165 20:-0.318511 21:-0.985486 22:-0.168675 23:-0.241379 
32768 1:0.490311 2:0.896752 3:0.239386 4:-0.0913955 5:-0.0852696 6:-1 7:0.802347 8:0.873385 9:0.84212 10:-0.877702 11:0.479201 12:0.4 13:0.1536 14:-0.123492 15:0.601966 16:-0.396701 17:0.285668 18:0.716088 19:0.392689 20:-0.705646 21:-0.773786 22:-0.00401606 23:0.310345 
2312.046978006093 1:0.543503 2:0.896622 3:-0.573006 4:-0.0638669 5:-0.273901 6:-0.90625 7:0.952197 8:0.711144 9:0.700198 10:-0.585639 11:0.810571 12:0.4 13:0.0436088 14:0.235959 15:-0.727919 16:-0.263117 17:0.552508 18:0.66877 19:0.449242 20:-0.7216 21:-0.660142 22:-0.606426 23:0.310345 
32768 1:0.417368 2:0.367269 3:-0.248747 4:-0.354804 5:0.352296 6:0.775 7:0.397947 8:0.960293 9:0.966374 10:-0.993978 11:0.109585 12:0.0729317 13:-0.127228 14:0.169704 15:-0.786087 16:-0.322403 17:-0.128541 18:-0.344893 19:-0.167864 20:-0.825623 21:-0.640807 22:-0.807229 23:0.310345 
32768 1:-0.813457 2:0.878641 3:0.892911 4:-0.943068 5:0.332605 6:0.4 7:0.0588905 8:-0.679339 9:-0.732947 10:0.667024 11:0.74504 12:0.178939 13:-0.546971 14:0.423231 15:0.375498 16:0.81343 17:0.207647 18:-0.102113 19:0.764389 20:-0.212221 21:0.314388 22:1 23:0.310345 
32768 1:-0.924823 2:0.920916 3:0.800773 4:0.303385 5:-0.220426 6:0.635016 7:0.23731 8:0.806104 9:-0.212274 10:-0.785663 11:0.618651 12:0.4 13:-0.438938 14:-0.344167 15:0.987685 16:-0.549579 17:0.426584 18:-0.109156 19:0.949598 20:-0.199951 21:0.044916 22:0.799197 23:0.310345 
