svm_type c_svc
kernel_type rbf
gamma 0.125
nr_class 2
total_sv 1861
rho 1.01339
label -1 1
probA -1.06235
probB -0.00782378
nr_sv 932 929
SV
8 1:-0.0416364 2:-0.196889 3:-0.16572 4:3.50942e-05 5:-1.78247e-05 6:-2.10942e-15 7:0.0503436 8:-0.276326 9:-0.117698 10:-8.90741e-05 11:2.70567e-05 12:0.879148 13:0.0291723 14:-0.174251 15:0.0479149 16:-0.00714293 17:0.0354948 18:0.77729 19:-0.737823 20:0.395336 21:-0.983767 22:0.483871 23:-0.655172 
8 1:-0.0461163 2:-0.192125 3:-0.169202 4:3.50942e-05 5:-1.78247e-05 6:-0.817383 7:0.0455364 8:-0.273174 9:-0.166732 10:-8.90741e-05 11:2.70567e-05 12:0.879148 13:0.0292578 14:-0.174251 15:0.0024029 16:-0.00714293 17:0.0354948 18:0.870719 19:-0.741021 20:0.384179 21:-0.983599 22:-0.0443548 23:-0.655172 
8 1:0.816005 2:-0.936685 3:0.315979 4:3.50942e-05 5:-1.78247e-05 6:-2.10942e-15 7:0.68794 8:-0.804199 9:-0.254215 10:-8.90741e-05 11:2.70567e-05 12:0.879148 13:-0.0126954 14:-0.101741 15:-0.569885 16:-0.00714293 17:0.0354948 18:0.77729 19:0.826573 20:0.77136 21:-0.963653 22:0.232224 23:-0.241379 
8 1:-0.0928957 2:-0.642761 3:0.841977 4:0.878882 5:-0.477209 6:7.73932e-10 7:-0.394465 8:-0.422681 9:-0.158577 10:0.878801 11:-0.477195 12:0.879148 13:0.140413 14:-0.174251 15:1 16:-0.00714293 17:0.0354948 18:0.77729 19:-0.160753 20:0.433304 21:-0.764508 22:1 23:1 
8 1:0.428841 2:-0.546164 3:-0.895631 4:0.946034 5:0.32429 6:-0.00687941 7:0.0672341 8:-0.705174 9:-0.889734 10:0.939683 11:0.342108 12:0.877398 13:0.151034 14:-0.174475 15:0.00599292 16:-0.0103613 17:0.0446986 18:0.776422 19:-0.000181943 20:0.753435 21:-0.743575 22:1 23:0.971757 
2.90847536531203 1:0.532045 2:-0.803865 3:0.791138 4:0.791863 5:-0.610822 6:0.278084 7:0.396228 8:-0.67939 9:0.851175 10:0.891789 11:-0.452457 12:0.901193 13:0.0438017 14:-0.176463 15:0.0597006 16:0.0441625 17:0.117595 18:0.766355 19:0.362133 20:0.726821 21:-0.954878 22:0.238825 23:1 
5.93056381973339 1:0.42203 2:-0.172007 3:0.956642 4:0.990653 5:-0.137027 6:1.4382e-09 7:0.0653114 8:-0.111408 9:-0.0438852 10:0.990578 11:-0.136991 12:0.879148 13:0.140741 14:-0.174251 15:1 16:-0.00714293 17:0.0354948 18:0.77729 19:-0.263908 20:0.903701 21:-0.763862 22:1 23:1 
8 1:-0.196931 2:0.0990783 3:-0.235903 4:3.50942e-05 5:-1.78247e-05 6:1 7:-0.110284 8:-0.0336611 9:0.926228 10:-8.90741e-05 11:2.70567e-05 12:0.879148 13:0.0366408 14:-0.179856 15:-0.838907 16:-0.00714293 17:0.0354948 18:0.662989 19:-0.631313 20:-0.113712 21:-0.968659 22:-0.560484 23:-0.655172 
8 1:0.46529 2:-0.844011 3:0.364053 4:-0.362485 5:-0.79641 6:0.55 7:0.38728 8:-0.684241 9:0.747405 10:0.174958 11:-0.178494 12:0.767359 13:0.0140332 14:-0.119799 15:0.382839 16:0.268637 17:0.355853 18:0.608695 19:0.33188 20:0.698139 21:-0.968989 22:0.149194 23:1 
8 1:-0.357031 2:-0.961637 3:-0.586202 4:3.50942e-05 5:-1.78247e-05 6:-2.10942e-15 7:-0.431845 8:-0.825723 9:0.69889 10:-8.90741e-05 11:2.70567e-05 12:0.879148 13:-0.0636188 14:-0.230727 15:-0.715971 16:-0.00714293 17:0.0354948 18:0.77729 19:0.379855 20:0.349922 21:-0.971691 22:-0.322581 23:-0.241379 
6.491616292678753 1:0.197916 2:-0.839998 3:0.735187 4:0.672926 5:-0.739802 6:-0.154307 7:0.0323708 8:-0.600893 9:-0.185486 10:0.835405 11:-0.549641 12:0.830807 13:0.0873464 14:-0.177195 15:-0.920162 16:0.0762551 17:0.134084 18:0.749207 19:0.122519 20:0.592124 21:-0.869045 22:1 23:0.361252 
1.394712930774504 1:0.67933 2:-0.085897 3:0.307681 4:-0.568053 5:-0.823019 6:0.171947 7:0.737905 8:0.0973159 9:0.236587 10:-0.736642 11:-0.676486 12:0.903801 13:0.0535832 14:-0.17162 15:-0.071208 16:-0.0935509 17:0.111468 18:0.780954 19:0.147211 20:0.969713 21:-0.935585 22:-0.0201613 23:1 
8 1:0.870991 2:-0.922879 3:0.512075 4:0.0282126 5:-0.749502 6:-0.4 7:0.813702 8:-0.650979 9:0.53677 10:0.114067 11:-0.993519 12:0.919312 13:0.0714062 14:-0.166654 15:0.0244517 16:0.0369632 17:-0.0910128 18:0.860999 19:0.887171 20:0.784032 21:-0.900061 22:-0.774194 23:-0.575906 
8 1:-0.589933 2:-0.697835 3:-0.504761 4:3.50942e-05 5:-1.78247e-05 6:-2.10942e-15 7:-0.47737 8:-0.727463 9:0.933054 10:-8.90741e-05 11:2.70567e-05 12:0.915532 13:-0.0168358 14:-0.118008 15:-0.563396 16:-0.00714293 17:0.0354948 18:0.811702 19:0.354901 20:0.227737 21:-0.993407 22:0.762097 23:-0.655172 
7.413734133232403 1:0.79491 2:-0.371809 3:0.845981 4:0.884811 5:-0.466125 6:0.0112384 7:0.470818 8:-0.165479 9:-0.164663 10:0.869524 11:-0.493896 12:0.87939 13:0.135553 14:-0.173876 15:0.989918 16:-0.0149435 17:0.0210889 18:0.776235 19:0.421661 20:0.891288 21:-0.774088 22:0.620968 23:0.235704 
8 1:-0.267201 2:-0.613017 3:-0.206203 4:0.798113 5:-0.602634 6:-2.10942e-15 7:-0.316436 8:-0.435034 9:-0.494567 10:-8.90741e-05 11:2.70567e-05 12:0.936552 13:-0.0858813 14:-0.133288 15:-0.288176 16:-0.416576 17:0.347938 18:0.831584 19:-0.087046 20:0.327291 21:-0.958014 22:0.653226 23:-0.655172 
7.620796638047554 1:0.733475 2:0.468582 3:-0.78963 4:0.787813 5:0.615258 6:-0.00599991 7:0.307973 8:0.0431006 9:-0.781545 10:0.772061 11:0.635611 12:0.87924 13:0.220546 14:-0.174555 15:0.00815451 16:-0.0151798 17:0.0460032 18:0.778063 19:0.373375 20:-0.859761 21:-0.606563 22:1 23:-0.185533 
2.139106252995013 1:-0.242442 2:-0.422596 3:0.752554 4:3.50942e-05 5:-1.78247e-05 6:-8.00886e-10 7:-0.537782 8:-0.0262439 9:0.752831 10:0.712157 11:-0.702031 12:0.879148 13:0.178647 14:-0.174251 15:-1.22212e-10 16:0.358238 17:-0.328483 18:0.77729 19:-0.313096 20:0.285993 21:-0.689149 22:1 23:1 
1.916102466321808 1:-0.177323 2:-0.858785 3:-0.87463 4:0.346001 5:0.144707 6:-0.85 7:-0.291762 8:-0.811701 9:0.998521 10:0.999984 11:-0.00697486 12:0.830807 13:0.0179447 14:-0.215441 15:-0.128346 16:0.328404 17:-0.0431718 18:0.828726 19:0.143688 20:0.409857 21:-0.979958 22:0.520161 23:1 
4.482006919725462 1:0.0861022 2:-0.0723422 3:0.939081 4:0.981597 5:-0.191409 6:2.37344e-06 7:-0.263342 8:0.0145868 9:0.939398 10:0.981519 11:-0.191385 12:0.879147 13:0.144135 14:-0.174251 15:-2.55783e-06 16:-0.00714372 17:0.0354907 18:0.777289 19:-0.842335 20:0.806475 21:-0.757173 22:1 23:1 
8 1:-0.513805 2:0.00941062 3:0.315502 4:3.50942e-05 5:-1.78247e-05 6:-2.10942e-15 7:-0.440428 8:0.140119 9:-0.685298 10:-8.90741e-05 11:2.70567e-05 12:0.879148 13:0.0313103 14:-0.174251 15:0.999874 16:-0.00714293 17:0.0354948 18:0.77729 19:-0.112614 20:-0.00656513 21:-0.979553 22:-0.439516 23:-0.655172 
8 1:-0.0117417 2:0.53588 3:-0.488793 4:3.50942e-05 5:-1.78247e-05 6:-2.10942e-15 7:-0.0155553 8:0.395284 9:-0.48881 10:-8.90741e-05 11:2.70567e-05 12:0.879148 13:0.0215546 14:-0.174251 15:-9.91917e-06 16:-0.00714293 17:0.0354948 18:0.77729 19:-0.314048 20:-0.487391 21:-0.998782 22:0.207208 23:-0.655172 
8 1:-0.0115418 2:-0.452073 3:-0.221717 4:3.50942e-05 5:-1.78247e-05 6:-1 7:0.080345 8:-0.380068 9:0.156923 10:-8.90741e-05 11:2.70567e-05 12:0.879148 13:-0.00625524 14:-0.116201 15:0.378265 16:-0.00714293 17:0.0354948 18:0.891592 19:-0.42277 20:0.480558 21:-0.984338 22:0.00403226 23:-0.655172 
8 1:0.693885 2:0.927103 3:-0.59961 4:-0.0765008 5:-0.23802 6:-0.925 7:0.654887 8:0.777036 9:-0.527668 10:-8.90741e-05 11:2.70567e-05 12:0.885718 13:0.0229837 14:-0.161285 15:0.0719146 16:0.0321218 17:0.158893 18:0.889234 19:0.66699 20:-0.750845 21:-0.993351 22:0.330645 23:-0.655172 
1.890066935925681 1:0.981662 2:0.598732 3:0.838072 4:0.4365 5:-0.243983 6:-0.55 7:0.62416 8:0.74489 9:0.855119 10:0.897322 11:-0.441381 12:0.830807 13:0.137668 14:-0.142654 15:0.016737 16:0.229311 17:-0.0668603 18:0.794436 19:0.828092 20:-0.865869 21:-0.765174 22:1 23:-0.793484 
4.141948297368204 1:0.812811 2:0.0670791 3:0.430207 4:-0.217678 5:-0.97605 6:0.00508591 7:0.808927 8:0.249561 9:0.428601 10:-0.223353 11:-0.974816 12:0.879851 13:0.0423559 14:-0.174184 15:-0.00180771 16:-0.00998488 17:0.036144 18:0.777374 19:0.372685 20:-0.984144 21:-0.957782 22:0.213754 23:1 
3.738891083806144 1:-0.95951 2:-0.748214 3:0.167571 4:0.324217 5:0.188509 6:-2.10942e-15 7:-0.652437 8:-0.563667 9:-0.863827 10:-0.908967 11:-0.417262 12:0.873546 13:0.128116 14:-0.188767 15:0.969337 16:-0.639709 17:-0.278594 18:0.771993 19:0.907773 20:0.166009 21:-0.787678 22:0.991935 23:1 
7.839412494803406 1:0.874226 2:-0.517478 3:0.936305 4:0.979891 5:-0.199957 6:0.141328 7:0.497588 8:-0.420338 9:-0.0323001 10:0.994904 11:-0.100883 12:0.881095 13:0.145438 14:-0.175438 15:-0.9681 16:0.000597572 17:0.0868423 18:0.762978 19:0.617316 20:0.86547 21:-0.754597 22:0.810484 23:-0.633393 
8 1:-0.454997 2:-0.884415 3:-0.568893 4:0.0283304 5:0.129748 6:-0.995312 7:0.202222 8:-0.0503516 9:0.240824 10:-0.727582 11:-0.68622 12:0.856039 13:-0.391224 14:0.105896 15:0.809054 16:-0.394861 17:-0.387567 18:0.8692 19:0.380329 20:0.305052 21:-0.223278 22:1 23:0.241379 
8 1:-0.273164 2:-0.899962 3:0.466907 4:-0.104017 5:-0.994608 6:-0.4 7:-0.177757 8:-0.716069 9:0.387258 10:-8.90741e-05 11:2.70567e-05 12:0.87134 13:0.0436726 14:-0.218551 15:-0.0797924 16:0.0462384 17:0.551168 18:0.815627 19:0.247913 20:0.373417 21:-0.934795 22:-0.483871 23:-0.655172 
8 1:-0.814322 2:-0.371749 3:0.292933 4:3.50942e-05 5:-1.78247e-05 6:1 7:-0.695315 8:-0.366791 9:-0.985983 10:-8.90741e-05 11:2.70567e-05 12:0.879148 13:0.00493946 14:-0.216912 15:0.722 16:-0.00714293 17:0.0354948 18:0.662989 19:0.479461 20:0.102448 21:-0.996438 22:-0.556452 23:-0.655172 
3.570464694163115 1:-0.168661 2:-0.589302 3:-0.0938838 4:-0.957068 5:0.289886 6:0.4 7:-0.0358443 8:-0.546435 9:0.926742 10:-0.973321 11:0.23027 12:0.842921 13:0.0325318 14:-0.135778 15:-0.980325 16:-0.0153928 17:0.00455461 18:0.697306 19:-0.189283 20:0.37794 21:-0.958962 22:0.330645 23:1 
3.596801568141093 1:0.268583 2:-0.260999 3:-0.867819 4:0.887626 5:0.393786 6:-1.41782e-09 7:-0.0744084 8:-0.460937 9:0.132938 10:0.914067 11:0.405623 12:0.879148 13:0.150046 14:-0.174251 15:-1 16:0.00646253 17:0.0415954 18:0.77729 19:-0.447582 20:0.794256 21:-0.745522 22:1 23:1 
1.343448243436535 1:0.974605 2:0.440757 3:0.0516593 4:-0.24667 5:-0.040547 6:0.925 7:0.944217 8:-0.18044 9:0.512811 10:-0.0392741 11:0.999341 12:0.90119 13:-0.0588098 14:-0.421426 15:0.460644 16:0.0993206 17:0.574597 18:0.692409 19:0.741018 20:-0.898681 21:-0.654297 22:1 23:1 
5.908999375569829 1:0.387065 2:0.585814 3:0.922269 4:0.606346 5:-0.151837 6:-2.98423e-05 7:0.00968603 8:0.700738 9:-0.0782761 10:0.970048 11:-0.242927 12:0.879061 13:0.155434 14:-0.174251 15:0.999991 16:0.179484 17:-0.0117486 18:0.777211 19:-0.0110102 20:-0.729489 21:-0.734902 22:1 23:1 
2.004197101933743 1:0.619684 2:-0.416928 3:0.406975 4:-0.288232 5:-0.957589 6:-0.0241687 7:0.629698 8:-0.242105 9:-0.605833 10:-0.324687 11:-0.945914 12:0.831458 13:0.0396091 14:-0.173799 15:0.987856 16:-0.0257734 17:0.0415566 18:0.734948 19:0.169318 20:0.849073 21:-0.963194 22:0.677419 23:1 
2.562191309945185 1:-0.717886 2:0.513091 3:-0.246354 4:-0.447451 5:0.436339 6:0.000140753 7:-0.58586 8:0.351307 9:0.754563 10:-0.71614 11:0.698204 12:0.879338 13:0.0536183 14:-0.174252 15:-0.999983 16:-0.144905 17:0.171219 18:0.777454 19:0.400625 20:-0.158082 21:-0.935584 22:0.677419 23:1 
2.091274725598614 1:-0.459455 2:0.0995569 3:0.848238 4:-0.443993 5:0.229895 6:-0.55 7:-0.289188 8:0.10688 9:0.202868 10:-0.703504 11:-0.520524 12:0.812679 13:-0.0969596 14:-0.220015 15:-0.64512 16:-0.140197 17:-0.353587 18:0.77729 19:-0.195258 20:-0.0529366 21:-0.934945 22:0.294355 23:1 
7.731666093418821 1:-0.0285991 2:-0.012842 3:0.246286 4:-0.715197 5:-0.698952 6:-2.12331e-09 7:0.220698 8:0.325328 9:0.246446 10:-0.715357 11:-0.698952 12:0.879148 13:0.150561 14:-0.174251 15:-6.55605e-10 16:-0.00714293 17:0.0354948 18:0.77729 19:-0.939461 20:0.0771956 21:-0.744508 22:1 23:1 
4.417720050611059 1:-0.513262 2:0.0482586 3:0.148103 4:-0.893547 5:-0.449012 6:1.72874e-05 7:-0.191655 8:0.257815 9:-0.842879 10:-0.879585 11:-0.476077 12:0.900334 13:0.146329 14:-0.174614 15:-0.990277 16:0.000105955 17:0.0214543 18:0.797327 19:-0.111434 20:-0.02442 21:-0.752848 22:1 23:0.930058 
8 1:0.871888 2:-0.175854 3:0.941021 4:0.982745 5:-0.185426 6:0.00448455 7:0.481167 8:-0.0876225 9:0.936737 10:0.979886 11:-0.199577 12:0.878819 13:0.151838 14:-0.17408 15:-0.00460066 16:-0.00857037 17:0.0281411 18:0.776467 19:0.487989 20:0.951803 21:-0.74199 22:1 23:-0.864179 
8 1:-0.553481 2:0.649624 3:-0.403847 4:3.50942e-05 5:-1.78247e-05 6:1 7:-0.605394 8:0.509575 9:-0.68185 10:-8.90741e-05 11:2.70567e-05 12:0.879148 13:0.00967566 14:-0.223192 15:-0.277778 16:-0.00714293 17:0.0354948 18:0.662989 19:0.267976 20:-0.230637 21:-0.981955 22:-0.595446 23:-0.655172 
8 1:-0.191963 2:-0.189434 3:-0.419921 4:0.250392 5:-0.968192 6:-0.4 7:-0.101482 8:-0.135982 9:-0.817779 10:-8.90741e-05 11:2.70567e-05 12:0.927489 13:-0.0353451 14:-0.119159 15:-0.397528 16:-0.135582 17:0.537472 18:0.868732 19:-0.58489 20:0.195053 21:-0.996101 22:0.987903 23:-0.655172 
8 1:0.0154572 2:0.917662 3:-0.452433 4:3.50942e-05 5:-1.78247e-05 6:-2.10942e-15 7:-0.0724022 8:0.775394 9:-0.672253 10:-8.90741e-05 11:2.70567e-05 12:0.879148 13:0.0148362 14:-0.225982 15:-0.219634 16:-0.00714293 17:0.0354948 18:0.77729 19:0.175959 20:-0.506494 21:-0.971562 22:-0.21371 23:-0.241379 
4.90094129410684 1:-0.0595174 2:-0.280995 3:-0.918903 4:0.789689 5:0.207683 6:-2.10942e-15 7:-0.405475 8:-0.405194 9:0.0818423 10:0.967109 11:0.254431 12:0.879148 13:0.147327 14:-0.174251 15:1 16:0.083917 17:0.0597008 18:0.77729 19:-0.625571 20:0.400055 21:-0.750882 22:1 23:1 
8 1:-0.925059 2:0.102937 3:-0.969657 4:0.124443 5:0.0121954 6:1 7:-0.583338 8:-0.458198 9:0.375324 10:-8.90741e-05 11:2.70567e-05 12:0.879148 13:-0.164954 14:0.0680414 15:-0.656046 16:-0.0709671 17:0.0291625 18:0.662989 19:0.595262 20:-0.0285694 21:-0.588251 22:-0.612903 23:1 
2.732087452615478 1:0.0751827 2:0.0809795 3:-0.923568 4:0.0118716 5:0.00291085 6:-2.10942e-15 7:-0.618013 8:-0.153917 9:0.230898 10:-8.90741e-05 11:2.70567e-05 12:0.879148 13:0.321828 14:-0.174251 15:-0.846409 16:-0.0132153 17:0.0339764 18:0.77729 19:-0.849288 20:-0.767857 21:-0.406935 22:0.0322581 23:1 
8 1:0.730434 2:-0.186291 3:0.955581 4:-0.990121 5:0.140292 6:-2.10942e-15 7:-0.173533 8:-0.020113 9:0.610947 10:-8.90741e-05 11:2.70567e-05 12:0.879148 13:0.409889 14:-0.174251 15:-0.344664 16:0.50083 17:-0.0372525 18:0.77729 19:0.252169 20:0.939163 21:-0.233363 22:-0.290323 23:1 
8 1:0.828002 2:0.159003 3:-0.384622 4:0.355938 5:-0.934564 6:-0.4 7:0.323779 8:-0.52748 9:-0.00603512 10:-8.90741e-05 11:2.70567e-05 12:0.879148 13:0.121522 14:-0.515983 15:0.378249 16:-0.18973 17:0.520036 18:0.823011 19:0.410817 20:-0.957897 21:-0.424634 22:1 23:1 
8 1:0.951895 2:0.182615 3:0.0355664 4:-0.0387832 5:-0.00439565 6:0.896875 7:0.323779 8:-0.52748 9:-0.00603512 10:-8.90741e-05 11:2.70567e-05 12:0.879148 13:-0.346193 14:-0.422197 15:-0.0416784 16:0.0127718 17:0.0377646 18:0.674776 19:0.624595 20:-0.958018 21:-0.328574 22:0.0322581 23:1 
8 1:0.863877 2:0.258275 3:-0.282012 4:-0.633458 5:0.773769 6:-0.475 7:0.323779 8:-0.52748 9:-0.00603512 10:-8.90741e-05 11:2.70567e-05 12:0.879148 13:0.0339174 14:-0.591258 15:0.275703 16:0.317854 17:-0.365697 18:0.831584 19:0.494532 20:-0.932885 21:-0.349544 22:-0.612903 23:1 
8 1:-0.306898 2:0.883623 3:0.761091 4:3.50942e-05 5:-1.78247e-05 6:-0.85 7:-0.720672 8:-0.201515 9:-0.844143 10:-8.90741e-05 11:2.70567e-05 12:0.879148 13:-0.143194 14:0.30246 15:0.395852 16:-0.00714293 17:0.0354948 18:0.874447 19:0.253143 20:-0.362048 21:-0.223416 22:-0.290323 23:1 
8 1:0.091387 2:-0.186385 3:-0.970421 4:1.02411e-05 5:-2.02043e-05 6:-2.10942e-15 7:-0.451901 8:-0.258615 9:0.703369 10:-8.90741e-05 11:2.70567e-05 12:0.879148 13:0.23822 14:-0.174251 15:-0.327515 16:-0.00713018 17:0.035496 18:0.77729 19:-0.726265 20:0.670145 21:-0.571728 22:1 23:1 
1.731148682462464 1:0.964287 2:-0.904493 3:0.295873 4:0.299137 5:0.400672 6:-0.775 7:0.159555 8:-0.740274 9:0.955475 10:-8.90741e-05 11:2.70567e-05 12:0.879148 13:-0.206819 14:0.205324 15:0.65887 16:-0.160589 17:-0.172254 18:0.865874 19:1 20:0.802874 21:-0.337309 22:1 23:1 
8 1:-0.204109 2:0.882239 3:0.653127 4:-0.0288513 5:0.055408 6:0.925 7:-0.905334 8:-0.688998 9:0.408487 10:-8.90741e-05 11:2.70567e-05 12:0.879148 13:-0.369852 14:0.463041 15:-0.244686 16:0.00767645 17:0.00675775 18:0.671561 19:0.186901 20:-0.404463 21:0.216607 22:0.0322581 23:1 
8 1:-0.211738 2:-0.0400234 3:0.389077 4:0.341629 5:0.939853 6:-0.4 7:0.0967454 8:0.883547 9:0.573537 10:-8.90741e-05 11:2.70567e-05 12:0.879148 13:0.341806 14:-0.206881 15:0.18411 16:-0.182389 17:-0.451807 18:0.823011 19:-0.625214 20:0.0409149 21:-0.365285 22:1 23:1 
3.898159128503146 1:0.727058 2:-0.121404 3:0.372954 4:0.24298 5:0.575847 6:0.0872174 7:0.949857 8:0.733386 9:0.527109 10:-0.0840693 11:0.996577 12:0.879148 13:0.309003 14:-0.16874 15:0.153834 16:-0.174861 17:0.253578 18:0.767321 19:0.233287 20:0.960004 21:-0.432142 22:1 23:1 
8 1:0.349796 2:-0.884096 3:-0.195345 4:0.153439 5:-0.107843 6:0.9625 7:0.967707 8:0.811032 9:0.868146 10:-0.468202 11:0.206961 12:0.879148 13:-0.12234 14:0.591393 15:-0.937473 16:-0.325984 17:0.198683 18:0.667275 19:0.272688 20:0.650446 21:0.268449 22:0.354839 23:1 
8 1:0.154614 2:-0.384453 3:-0.144805 4:0.898781 5:-0.438585 6:-2.10942e-15 7:0.917559 8:-0.902788 9:0.45627 10:-8.90741e-05 11:2.70567e-05 12:0.879148 13:0.401011 14:-0.174251 15:0.600493 16:-0.46822 17:0.262882 18:0.77729 19:-0.450956 20:0.648657 21:-0.250863 22:1 23:1 
8 1:-0.947258 2:-0.718618 3:-0.983149 4:-0.124778 5:-0.00695193 6:0.775 7:-0.721889 8:0.678903 9:-0.964022 10:-8.90741e-05 11:2.70567e-05 12:0.879148 13:-0.155407 14:-0.734349 15:0.0192312 16:0.0568893 17:0.03909 18:0.688706 19:0.870689 20:0.162203 21:-0.0751056 22:0.677419 23:1 
6.202415085820167 1:-0.284649 2:-0.868563 3:0.275287 4:0.226239 5:0.265364 6:0.865783 7:-0.266148 8:-0.0463346 9:-0.378568 10:-0.373658 11:0.92772 12:0.879148 13:0.205326 14:0.0347437 15:-0.653466 16:-0.314831 17:0.378858 18:0.67833 19:0.218631 20:0.364649 21:-0.50672 22:1 23:1 
8 1:-0.68492 2:-0.0653693 3:0.179043 4:0.845855 5:0.533525 6:-0.4 7:0.134443 8:-0.414508 9:0.0476328 10:-8.90741e-05 11:2.70567e-05 12:0.879148 13:0.243514 14:-0.531047 15:-0.131444 16:-0.441068 17:-0.241135 18:0.823011 19:0.182505 20:0.0204195 21:-0.269843 22:1 23:1 
8 1:-0.781986 2:-0.888903 3:-0.385065 4:0.00903867 5:-0.0237591 6:-0.834766 7:0.292853 8:-0.630037 9:-0.897089 10:-8.90741e-05 11:2.70567e-05 12:0.879148 13:0.0714292 14:0.41076 15:-0.511604 16:-0.011762 17:0.0478041 18:0.872705 19:0.763753 20:0.22201 21:-0.044951 22:0.677419 23:1 
3.602770530546866 1:-0.0411093 2:0.860632 3:-0.47632 4:0.0569552 5:-0.747868 6:-7.88258e-14 7:-0.680901 8:-0.506753 9:-0.898531 10:-8.90741e-05 11:2.70567e-05 12:0.879148 13:0.441158 14:-0.56617 15:-0.421846 16:-0.0363443 17:0.423239 18:0.77729 19:0.105782 20:-0.478917 21:0.0583354 22:1 23:1 
8 1:0.1411 2:0.0419089 3:-0.261433 4:0.682169 5:-0.731289 6:6.66134e-16 7:0.63729 8:-0.706466 9:0.515099 10:-8.90741e-05 11:2.70567e-05 12:0.879148 13:0.34269 14:-0.174251 15:0.775828 16:-0.357094 17:0.414643 18:0.77729 19:-0.770921 20:-0.92917 21:-0.365815 22:1 23:1 
2.993321974512805 1:-0.227644 2:0.191984 3:0.0226483 4:0.99751 5:0.0716702 6:-0.4 7:0.431997 8:0.153845 9:-0.909141 10:-8.90741e-05 11:2.70567e-05 12:0.879148 13:0.298544 14:-0.213971 15:-0.931106 16:-0.518871 17:-0.00167388 18:0.823011 19:-0.531596 20:-0.177708 21:-0.449018 22:1 23:1 
3.219228999939694 1:-0.0314 2:0.224958 3:-0.37004 4:0.000113477 5:-0.000198337 6:-2.10942e-15 7:0.174879 8:-0.450009 9:0.411947 10:-8.90741e-05 11:2.70567e-05 12:0.879148 13:0.23822 14:-0.174251 15:0.781302 16:-0.00718314 17:0.0355884 18:0.77729 19:-0.706786 20:-0.429964 21:-0.571729 22:1 23:1 
1.955346575274489 1:-0.150578 2:0.588696 3:-0.369933 4:0.398645 5:-0.917163 6:-2.10942e-15 7:0.174879 8:-0.450009 9:0.411947 10:-8.90741e-05 11:2.70567e-05 12:0.879148 13:0.381468 14:-0.174251 15:0.781196 16:-0.211639 17:0.511015 18:0.77729 19:-0.199893 20:-0.393441 21:-0.289382 22:0.354839 23:1 
5.510527234552315 1:-0.168331 2:0.897823 3:-0.947196 4:0.822456 5:0.139779 6:-0.574493 7:-0.660107 8:0.129718 9:-0.986029 10:-8.90741e-05 11:2.70567e-05 12:0.879148 13:0.258433 14:0.0841409 15:-0.0386871 16:-0.429064 17:-0.0369867 18:0.842956 19:0.189114 20:-0.421661 21:-0.37056 22:-0.290323 23:1 
8 1:-0.0740637 2:-0.93143 3:-0.163887 4:3.50942e-05 5:-1.78247e-05 6:-0.85 7:-0.663018 8:0.307876 9:0.0515558 10:-8.90741e-05 11:2.70567e-05 12:0.879148 13:-0.500038 14:0.104283 15:0.215193 16:-0.00714293 17:0.0354948 18:0.874447 19:0.20069 20:0.461789 21:-0.0408984 22:1 23:1 
5.601489589456292 1:-0.0168846 2:0.0364905 3:-0.698669 4:-0.582763 5:-0.812669 6:-2.10942e-15 7:-0.517733 8:-0.907167 9:-0.0726747 10:-8.90741e-05 11:2.70567e-05 12:0.879148 13:0.392958 14:-0.174251 15:0.625518 16:0.291846 17:0.456837 18:0.77729 19:-0.940366 20:-0.26883 21:-0.266735 22:0.354839 23:1 
5.273572367229959 1:0.659291 2:0.017452 3:-0.982111 4:0.00390476 5:0.0002098 6:-2.10942e-15 7:0.0959918 8:-0.0292451 9:0.83925 10:-8.90741e-05 11:2.70567e-05 12:0.879148 13:0.238234 14:-0.174251 15:-0.180067 16:-0.00912816 17:0.0353768 18:0.77729 19:0.107969 20:-0.997669 21:-0.571701 22:1 23:1 
8 1:0.345013 2:0.886384 3:0.408195 4:-0.00663512 5:-0.0224866 6:-0.878125 7:-0.816659 8:0.372343 9:-0.817921 10:-8.90741e-05 11:2.70567e-05 12:0.879148 13:-0.364213 14:0.374591 15:0.77473 16:-0.00372095 17:0.0471444 18:0.877661 19:0.272605 20:-0.652238 21:0.0793541 22:0.354839 23:1 
8 1:-0.938275 2:0.393553 3:-0.969729 4:0.155548 5:0.0152135 6:-0.98125 7:-0.0911973 8:-0.320944 9:0.0649801 10:-8.90741e-05 11:2.70567e-05 12:0.879148 13:-0.408836 14:0.156573 15:-0.966053 16:-0.0869249 17:0.0275977 18:0.889449 19:0.689787 20:-0.0988918 21:-0.142493 22:1 23:1 
8 1:-0.931958 2:0.387002 3:0.908658 4:0.0599622 5:-0.017776 6:-0.925 7:-0.0911973 8:-0.320944 9:0.0649801 10:-8.90741e-05 11:2.70567e-05 12:0.879148 13:-0.488556 14:-0.0298647 15:-0.843272 16:-0.0378869 17:0.044702 18:0.883019 19:0.676978 20:-0.0979791 21:-0.150033 22:0.0322581 23:1 
8 1:-0.599746 2:0.827746 3:-0.875796 4:-0.923946 5:-0.382571 6:0.4 7:0.321798 8:-0.710953 9:0.662023 10:-8.90741e-05 11:2.70567e-05 12:0.879148 13:-0.231328 14:0.592677 15:-0.463393 16:0.466881 17:0.23384 18:0.73157 19:0.482868 20:-0.25657 21:0.316376 22:0.354839 23:1 
1.078192099293083 1:0.600963 2:0.787166 3:-0.921953 4:0.605999 5:0.153179 6:0.7 7:0.187761 8:0.573483 9:0.0520689 10:-8.90741e-05 11:2.70567e-05 12:0.879148 13:0.176731 14:-0.145836 15:0.9733 16:-0.318016 17:-0.0439344 18:0.697279 19:0.427494 20:-0.753702 21:-0.689813 22:-0.612903 23:1 
8 1:0.0508924 2:0.561533 3:-0.436803 4:0.198747 5:-0.980095 6:-2.10942e-15 7:0.180325 8:-0.380774 9:0.202508 10:-8.90741e-05 11:2.70567e-05 12:0.879148 13:0.31957 14:-0.174251 15:0.638762 16:-0.109087 17:0.543643 18:0.77729 19:-0.278245 20:-0.535233 21:-0.411386 22:1 23:1 
8 1:-0.791473 2:0.103679 3:-0.667512 4:-0.500606 5:-0.865702 6:0.4 7:0.180325 8:-0.380774 9:0.202508 10:-8.90741e-05 11:2.70567e-05 12:0.879148 13:-0.112898 14:0.381059 15:0.869329 16:0.249698 17:0.484333 18:0.73157 19:0.368104 20:-0.0331966 21:-0.100922 22:0.677419 23:1 
6.631554545736043 1:-0.937916 2:0.0356916 3:-0.635601 4:-0.244318 5:-0.541171 6:-0.49375 7:0.180325 8:-0.380774 9:0.202508 10:-8.90741e-05 11:2.70567e-05 12:0.879148 13:-0.114066 14:0.448157 15:0.837438 16:0.118216 17:0.316071 18:0.833727 19:0.612359 20:-0.0112018 21:0.0161992 22:0.0322581 23:1 
8 1:0.312998 2:-0.8572 3:0.0957371 4:0.611845 5:0.19005 6:0.690625 7:0.0946169 8:0.284098 9:0.293088 10:0.605557 11:0.795871 12:0.879148 13:0.000879628 14:0.300705 15:0.197057 16:-0.0103205 17:0.34955 18:0.698351 19:0.213876 20:0.639939 21:-0.25531 22:1 23:1 
8 1:0.234666 2:-0.883016 3:-0.33781 4:0.122267 5:-0.218106 6:-0.925 7:-0.448153 8:-0.509045 9:0.196747 10:-8.90741e-05 11:2.70567e-05 12:0.879148 13:-0.306899 14:-0.423027 15:0.534076 16:-0.069851 17:0.148569 18:0.883019 19:0.194349 20:0.603895 21:-0.389873 22:1 23:1 
8 1:0.19989 2:0.874063 3:0.715474 4:-0.312887 5:0.389975 6:0.775 7:-0.781822 8:0.476296 9:0.6917 10:-8.90741e-05 11:2.70567e-05 12:0.879148 13:0.162977 14:0.342843 15:-0.0240215 16:0.153394 17:-0.166708 18:0.688706 19:0.166549 20:-0.593557 21:-0.108877 22:1 23:1 
8 1:0.442231 2:0.435868 3:0.944317 4:-0.984541 5:0.175212 6:-2.10942e-15 7:-0.291541 8:0.602536 9:0.990851 10:-8.90741e-05 11:2.70567e-05 12:0.879148 13:0.331361 14:-0.174251 15:0.0461733 16:0.497967 17:-0.0553579 18:0.77729 19:-0.0747456 20:-0.797634 21:-0.388146 22:1 23:1 
4.512954701111101 1:-0.307549 2:0.483365 3:0.127494 4:4.60372e-05 5:-1.31863e-05 6:-2.10942e-15 7:0.187179 8:0.761885 9:-0.956716 10:-8.90741e-05 11:2.70567e-05 12:0.879148 13:0.23822 14:-0.174251 15:0.916579 16:-0.00714854 17:0.0354924 18:0.77729 19:-0.181117 20:-0.275246 21:-0.571728 22:1 23:1 
8 1:0.297683 2:-0.890789 3:-0.342415 4:-0.119031 5:0.219815 6:-0.925 7:0.738474 8:0.186146 9:-0.477975 10:-8.90741e-05 11:2.70567e-05 12:0.879148 13:-0.2623 14:0.257065 15:-0.135471 16:0.0539409 17:-0.0784835 18:0.883019 19:0.242448 20:0.629165 21:-0.203878 22:0.354839 23:1 
6.403808273924278 1:0.713388 2:-0.296359 3:-0.971289 4:-0.995716 5:-0.0926213 6:0.0324929 7:-0.367777 8:-0.432743 9:-0.535408 10:-0.00414089 11:-0.0368291 12:0.822854 13:0.495998 14:-0.173821 15:0.435628 16:0.501622 17:0.0643997 18:0.720334 19:0.258775 20:0.9026 21:-0.0636392 22:0.354839 23:1 
8 1:-0.762429 2:0.459402 3:-0.0192779 4:0.998291 5:-0.0598681 6:-2.10942e-15 7:0.946791 8:0.314489 9:0.187788 10:-8.90741e-05 11:2.70567e-05 12:0.879148 13:0.813625 14:-0.174251 15:0.20679 16:-0.519271 17:0.0665259 18:0.77729 19:0.438596 20:-0.136692 21:0.562412 22:0.677419 23:1 
0.8317244352037197 1:-0.510614 2:-0.878985 3:0.698662 4:-0.00158292 5:0.00223235 6:-2.10942e-15 7:-0.814096 8:-0.284576 9:-0.479095 10:-8.90741e-05 11:2.70567e-05 12:0.879148 13:0.238211 14:-0.174251 15:0.82298 16:-0.00631285 17:0.0343281 18:0.77729 19:0.43122 20:0.28683 21:-0.571747 22:1 23:1 
8 1:-0.161034 2:0.733536 3:0.777455 4:-0.764829 5:0.644229 6:0.4 7:-0.738833 8:-0.305981 9:-0.790801 10:-8.90741e-05 11:2.70567e-05 12:0.879148 13:-0.0502583 14:0.351485 15:0.432795 16:0.38525 17:-0.298533 18:0.73157 19:-0.0175104 20:-0.408305 21:-0.166451 22:1 23:1 
8 1:0.31537 2:0.895956 3:0.645251 4:-0.054979 5:0.112228 6:-0.775 7:-0.738833 8:-0.305981 9:-0.790801 10:-8.90741e-05 11:2.70567e-05 12:0.879148 13:-0.190025 14:0.55466 15:0.564917 16:0.0210806 17:-0.0227023 18:0.865874 19:0.261799 20:-0.639448 21:0.230207 22:-0.290323 23:1 
8 1:-0.0840666 2:-0.0175946 3:0.340401 4:-0.000484793 5:-0.000966242 6:-2.10942e-15 7:0.168002 8:0.619288 9:0.741064 10:-8.90741e-05 11:2.70567e-05 12:0.879148 13:0.238224 14:-0.174251 15:0.40014 16:-0.00687622 17:0.0359865 18:0.77729 19:-0.845176 20:0.0423159 21:-0.57172 22:1 23:1 
8 1:0.139056 2:-0.882351 3:-0.384114 4:0.0223722 5:-0.0583914 6:0.925 7:0.168002 8:0.619288 9:0.741064 10:-8.90741e-05 11:2.70567e-05 12:0.879148 13:-0.528649 14:0.0647855 15:-0.875795 16:-0.0186024 17:0.0657602 18:0.671561 19:0.151192 20:0.56117 21:-0.0198666 22:0.354839 23:1 
8 1:-0.806511 2:0.0274264 3:0.0772143 4:0.970687 5:0.240666 6:0.105947 7:0.263623 8:0.408783 9:-0.343043 10:-0.474573 11:0.880388 12:0.879148 13:0.512826 14:-0.162762 15:-0.420022 16:-0.748519 17:0.367124 18:0.76518 19:0.387709 20:-0.0102455 21:-0.0302786 22:0.677419 23:1 
3.769792544990213 1:0.0457437 2:-0.0703884 3:-0.315384 4:0.549125 5:-0.835813 6:-4.996e-15 7:0.435269 8:-0.90254 9:0.928638 10:-8.90741e-05 11:2.70567e-05 12:0.879148 13:0.333141 14:-0.174251 15:-0.757067 16:-0.288839 17:0.468836 18:0.77729 19:-0.893899 20:0.696649 21:-0.384636 22:1 23:1 
8 1:-0.930276 2:-0.315522 3:-0.649091 4:-0.196736 5:-0.390782 6:0.8125 7:0.435269 8:-0.90254 9:0.928638 10:-8.90741e-05 11:2.70567e-05 12:0.879148 13:-0.136782 14:0.597561 15:-0.423568 16:0.0938053 17:0.238097 18:0.68442 19:0.649025 20:0.0769223 21:0.283402 22:0.0322581 23:1 
0.2533943864856055 1:-0.0184622 2:0.899193 3:0.841357 4:0.109775 5:-0.0598805 6:-1 7:-0.349957 8:0.249138 9:0.524054 10:-8.90741e-05 11:2.70567e-05 12:0.879148 13:0.00260273 14:0.140335 15:-0.317331 16:-0.0634419 17:0.0665323 18:0.891592 19:0.153049 20:-0.490588 21:-0.536825 22:0.354839 23:1 
6.394694901714266 1:0.433904 2:-0.799132 3:0.988179 4:-0.905286 5:0.0347864 6:-2.10942e-15 7:-0.133468 8:-0.769536 9:-0.492523 10:-8.90741e-05 11:2.70567e-05 12:0.879148 13:0.243631 14:-0.174251 15:0.520227 16:0.457308 17:0.0174496 18:0.77729 19:0.253777 20:0.695654 21:-0.561063 22:1 23:1 
8 1:-0.932551 2:-0.0687404 3:-0.979426 4:0.0623971 5:0.00417836 6:-0.925 7:0.132595 8:-0.299392 9:-0.538386 10:-0.0291159 11:-0.243066 12:0.930883 13:-0.53739 14:-0.0433531 15:0.440785 16:-0.0540268 17:-0.0927113 18:0.93195 19:0.604926 20:0.0153792 21:-0.0625952 22:-0.290323 23:1 
8 1:0.724712 2:0.889395 3:0.623907 4:-0.165774 5:0.404855 6:0.8125 7:-0.641247 8:-0.304247 9:0.0191754 10:-8.90741e-05 11:2.70567e-05 12:0.879148 13:-0.174462 14:0.692649 15:-0.604464 16:0.077921 17:-0.174423 18:0.68442 19:0.670832 20:-0.764472 21:0.46136 22:1 23:1 
8 1:-0.378282 2:0.854424 3:-0.870886 4:-0.344205 5:-0.148799 6:0.85 7:-0.287738 8:-0.271593 9:0.19047 10:-8.90741e-05 11:2.70567e-05 12:0.879148 13:0.0947781 14:0.261076 15:-0.939452 16:0.16946 17:0.112635 18:0.680134 19:0.27764 20:-0.330577 21:-0.290307 22:0.0322581 23:1 
8 1:0.688867 2:-0.858999 3:0.224549 4:0.285497 5:0.243183 6:0.85 7:-0.587594 8:0.416809 9:0.274311 10:-0.248438 11:-0.289231 12:0.879148 13:-0.197289 14:0.667644 15:0.0495647 16:-0.280994 17:-0.240564 18:0.680134 19:0.598702 20:0.757925 21:0.427349 22:0.0322581 23:1 
8 1:0.9839 2:0.633456 3:0.144649 4:3.50942e-05 5:-1.78247e-05 6:-0.305006 7:0.266001 8:0.682836 9:-0.775305 10:-8.90741e-05 11:2.70567e-05 12:0.879148 13:-0.320092 14:0.0115742 15:-0.919309 16:-0.00714293 17:0.0354948 18:0.812153 19:0.850732 20:-0.85918 21:-0.430566 22:1 23:1 
8 1:0.946183 2:-0.108947 3:0.541374 4:-0.0807199 5:0.619755 6:0.7 7:-0.58792 8:-0.172722 9:-0.5537 10:-8.90741e-05 11:2.70567e-05 12:0.879148 13:0.0468929 14:0.650993 15:0.905629 16:0.0342863 17:-0.285844 18:0.697279 19:0.603812 20:0.972488 21:0.367826 22:-0.290323 23:1 
8 1:-0.818202 2:-0.471114 3:-0.245272 4:0.71838 5:-0.695753 6:0.4 7:0.106039 8:-0.856438 9:0.201849 10:-8.90741e-05 11:2.70567e-05 12:0.879148 13:0.392593 14:0.0628378 15:0.446693 16:-0.375671 17:0.396218 18:0.73157 19:0.531429 20:0.127154 21:-0.16781 22:1 23:1 
6.741236469980411 1:-0.850125 2:-0.612867 3:-0.317189 4:0.54438 5:-0.838912 6:0.4 7:0.106039 8:-0.856438 9:0.201849 10:-8.90741e-05 11:2.70567e-05 12:0.879148 13:0.299853 14:0.207346 15:0.518566 16:-0.286404 17:0.470443 18:0.73157 19:0.659755 20:0.15518 21:-0.162967 22:0.677419 23:1 
8 1:-0.44975 2:-0.882647 3:-0.798932 4:-0.20141 5:-0.148088 6:-0.925 7:-0.438563 8:0.848219 9:-0.120413 10:-0.459847 11:0.182408 12:0.785093 13:-0.400834 14:-0.738564 15:0.678021 16:-0.139652 17:0.20682 18:0.794063 19:0.373355 20:0.306454 21:0.143486 22:1 23:1 
8 1:0.952201 2:-0.610193 3:0.158474 4:0.183036 5:0.0995241 6:0.950012 7:-0.251781 8:0.906724 9:0.283772 10:-8.90741e-05 11:2.70567e-05 12:0.879148 13:-0.271362 14:0.675446 15:0.125051 16:-0.101027 17:-0.0161155 18:0.668702 19:0.788466 20:0.855836 21:0.479136 22:1 23:1 
8 1:0.319598 2:-0.890597 3:-0.289837 4:-0.115145 5:0.147941 6:-0.9625 7:-0.251781 8:0.906724 9:0.283772 10:-8.90741e-05 11:2.70567e-05 12:0.879148 13:-0.710271 14:0.0316389 15:0.573084 16:0.051947 17:-0.0412188 18:0.887306 19:0.257535 20:0.637878 21:0.300096 22:0.354839 23:1 
8 1:-0.65892 2:0.17623 3:-0.0370964 4:0.993382 5:-0.11559 6:-2.10942e-15 7:0.512592 8:-0.0124386 9:-0.0292436 10:-8.90741e-05 11:2.70567e-05 12:0.879148 13:0.55101 14:-0.174251 15:0.00775048 16:-0.516753 17:0.0954163 18:0.77729 19:0.157568 20:-0.064796 21:0.044789 22:-0.612903 23:1 
8 1:0.449199 2:-0.874659 3:-0.158079 4:0.879728 5:-0.475648 6:0.4 7:0.717505 8:0.509442 9:0.57499 10:-8.90741e-05 11:2.70567e-05 12:0.879148 13:-0.139106 14:0.39621 15:0.732378 16:-0.458446 17:0.282099 18:0.73157 19:0.348555 20:0.687449 21:-0.0647577 22:0.677419 23:1 
8 1:0.48028 2:-0.88517 3:-0.199407 4:0.162344 5:-0.117223 6:0.954883 7:0.717505 8:0.509442 9:0.57499 10:-8.90741e-05 11:2.70567e-05 12:0.879148 13:-0.21851 14:0.36889 15:0.773681 16:-0.0904112 17:0.0962631 18:0.668146 19:0.389817 20:0.69582 21:-0.06523 22:0.0322581 23:1 
8 1:0.258794 2:-0.281259 3:0.918146 4:-0.966836 5:0.255427 6:-2.10942e-15 7:-0.918551 8:0.135531 9:-0.74398 10:-8.90741e-05 11:2.70567e-05 12:0.879148 13:0.568502 14:-0.174251 15:0.338973 16:0.488885 17:-0.0969476 18:0.77729 19:-0.444418 20:0.776663 21:0.0792666 22:1 23:1 
8 1:0.421903 2:-0.38664 3:0.261146 4:1.77834e-05 5:-3.63967e-05 6:-1.44329e-15 7:0.765118 8:0.146203 9:-0.583893 10:-8.90741e-05 11:2.70567e-05 12:0.879148 13:0.23822 14:-0.174251 15:-0.844484 16:-0.00713405 17:0.0355044 18:0.77729 19:-0.140759 20:0.804801 21:-0.571727 22:1 23:1 
0.6188109665669541 1:0.295748 2:-0.222966 3:0.831054 4:-0.107711 5:0.0633626 6:1 7:-0.815974 8:0.258562 9:-0.674302 10:-8.90741e-05 11:2.70567e-05 12:0.879148 13:0.529797 14:-0.0360326 15:0.495629 16:0.0481333 17:0.00263347 18:0.662989 19:-0.435976 20:0.831933 21:0.0297128 22:0.0322581 23:1 
2.084348563033411 1:-0.731229 2:0.00785489 3:-0.612021 4:-0.0857144 5:-0.234858 6:-2.10942e-15 7:-0.955033 8:-0.892525 9:-0.0830325 10:-8.90741e-05 11:2.70567e-05 12:0.879148 13:0.319634 14:-0.174251 15:0.528575 16:0.0368486 17:0.157254 18:0.77729 19:0.258708 20:-0.00472829 21:-0.41126 22:0.0322581 23:1 
8 1:-0.933319 2:-0.68054 3:-0.946756 4:-0.0923718 5:-0.0158567 6:-0.9625 7:-0.265997 8:0.981139 9:0.993805 10:0.999771 11:-0.0217772 12:0.879148 13:-0.444157 14:-0.778705 15:-0.0609764 16:0.55319 17:0.0324026 18:0.887306 19:0.826126 20:0.156821 21:0.251444 22:0.0322581 23:1 
8 1:-0.599959 2:-0.646834 3:-0.30668 4:-0.571689 5:0.820462 6:0.4 7:-0.0289445 8:-0.275264 9:0.280084 10:-8.90741e-05 11:2.70567e-05 12:0.879148 13:0.0207975 14:0.16635 15:0.586231 16:0.286165 17:-0.389906 18:0.73157 19:0.325909 20:0.213205 21:-0.486663 22:0.0322581 23:1 
4.802308912808323 1:0.0791005 2:0.954969 3:0.876822 4:-0.462813 5:0.189175 6:-0.55 7:-0.958442 8:-0.211777 9:0.489823 10:-0.0330545 11:-0.999512 12:0.932453 13:0.285369 14:0.476185 15:-0.386976 16:0.213398 17:-0.580803 18:0.890572 19:0.229806 20:-0.534499 21:0.207173 22:1 23:1 
1.780014922231675 1:-0.148907 2:0.85398 3:-0.532307 4:-0.0248785 5:-0.248778 6:-0.925 7:-0.497516 8:-0.915007 9:-0.0338499 10:-0.99458 11:0.105777 12:0.879148 13:0.626195 14:-0.293682 15:0.498051 16:-0.504533 17:0.219297 18:0.883019 19:0.126341 20:-0.426701 21:0.210091 22:0.354839 23:1 
8 1:-0.325534 2:-0.691675 3:0.688669 4:-0.278997 5:0.414898 6:-0.416413 7:-0.914404 8:0.559062 9:-0.700609 10:0.587534 11:0.80927 12:0.830807 13:0.513537 14:-0.185391 15:0.611641 16:0.437456 17:0.239918 18:0.779166 19:0.0513938 20:0.317112 21:-0.0288904 22:1 23:1 
8 1:-0.183632 2:-0.737916 3:0.458592 4:0.113767 5:0.867576 6:-0.0966181 7:-0.00487366 8:0.924039 9:-0.973923 10:0.996411 11:0.0847699 12:0.879148 13:0.582878 14:-0.185839 15:0.568494 16:0.445713 17:-0.370399 18:0.788334 19:-0.001264 20:0.392913 21:0.107777 22:0.354839 23:1 
4.077683959692511 1:0.0884336 2:0.840525 3:-0.557659 4:-0.0445801 5:-0.246009 6:0.925 7:0.383697 8:-0.973169 9:-0.00223841 10:0.999986 11:-0.00668629 12:0.879148 13:0.590965 14:0.1234 15:0.554972 16:0.528782 17:0.159556 18:0.671561 19:0.0853813 20:-0.54337 21:0.231799 22:0.0322581 23:1 
6.429419612519594 1:0.343324 2:-0.0932495 3:-0.921751 4:-0.969351 5:-0.245747 6:0.00586594 7:-0.359751 8:-0.334169 9:-0.911422 10:-0.960954 11:-0.277337 12:0.879148 13:0.323007 14:-0.173863 15:0.0104274 16:-0.00274703 17:0.019102 18:0.77662 19:-0.419649 20:0.934634 21:-0.404611 22:1 23:1 
6.600514749885094 1:-0.129847 2:0.271576 3:0.0221152 4:0.623531 5:0.0437436 6:-0.112872 7:0.938607 8:0.339737 9:0.527091 10:0.0838336 11:-0.996528 12:0.879148 13:0.505126 14:-0.186112 15:0.504437 16:-0.283959 17:-0.503853 18:0.790192 19:-0.582571 20:-0.313869 21:-0.0454397 22:1 23:1 
6.861836262783473 1:0.209343 2:-0.893085 3:-0.62561 4:3.50942e-05 5:-1.78247e-05 6:0.85 7:-0.871753 8:-0.37845 9:-0.461847 10:-0.121213 11:0.992747 12:0.879148 13:0.0031736 14:-0.800152 15:0.163663 16:-0.0692792 17:0.550165 18:0.680134 19:0.193494 20:0.591877 21:0.0106487 22:1 23:1 
8 1:0.20233 2:-0.889515 3:-0.56454 4:-0.0549532 5:-0.269868 6:-0.909766 7:-0.692119 8:0.566464 9:0.70467 10:0.373907 11:-0.500793 12:0.794551 13:-0.457572 14:-0.770177 15:-0.731844 16:0.212926 17:-0.0842413 18:0.801267 19:0.185705 20:0.589153 21:0.256021 22:0.677419 23:1 
1.369725878755364 1:-0.0909816 2:0.00226284 3:0.905309 4:-0.955758 5:0.294176 6:-0.13566 7:-0.89434 8:0.362833 9:0.517159 10:-0.0529079 11:0.998713 12:0.879148 13:0.390326 14:-0.185388 15:-0.388132 16:0.456105 17:0.400725 18:0.792796 19:-0.834865 20:-0.00857169 21:-0.271689 22:1 23:1 
8 1:-0.65269 2:-0.378267 3:-0.0177284 4:0.99857 5:-0.0550112 6:-0.0583626 7:0.968937 8:-0.52704 9:-0.542332 10:-0.118275 11:-0.895399 12:0.814718 13:0.772185 14:-0.184933 15:-0.524258 16:-0.580044 17:-0.400222 18:0.723024 19:0.224572 20:0.127589 21:0.480845 22:0.677419 23:1 
8 1:-0.932094 2:-0.4038 3:-0.897339 4:0.0592679 5:0.019934 6:-0.925 7:0.930256 8:0.237604 9:-0.387211 10:-0.348357 11:0.937512 12:0.927489 13:-0.966232 14:-0.0959881 15:0.509796 16:-0.216191 17:0.511184 18:0.92874 19:0.683377 20:0.0975902 21:0.761659 22:0.0322581 23:1 
8 1:0.154253 2:0.482582 3:-0.690028 4:-0.560502 5:-0.82818 6:-0.0629426 7:-0.51342 8:-0.81168 9:-0.910642 10:-0.960272 11:-0.279689 12:0.830807 13:0.542302 14:-0.181823 15:-0.220372 16:-0.212146 17:0.319861 18:0.738764 19:-0.335176 20:-0.625013 21:0.0277065 22:0.677419 23:1 
8 1:-0.387997 2:-0.363976 3:-0.94549 4:-0.984958 5:-0.172884 6:0.4 7:-0.901741 8:-0.953673 9:0.552526 10:0.0251724 11:-0.152759 12:0.879148 13:0.263148 14:0.0112416 15:-0.503146 16:0.511141 17:0.0459107 18:0.73157 19:-0.181908 20:0.190768 21:-0.435684 22:1 23:1 
0.9105241609145832 1:0.844438 2:-0.167951 3:-0.988799 4:-0.9993 5:-0.0377685 6:-0.0725492 7:-0.828503 8:-0.226307 9:0.459402 10:0.128028 11:0.991869 12:0.879148 13:0.78525 14:-0.185949 15:-0.552908 16:0.571263 17:0.569283 18:0.785583 19:0.44011 20:0.952456 21:0.506616 22:1 23:1 
7.034033425232613 1:0.007608 2:-0.861646 3:-0.234222 4:0.278302 5:-0.251418 6:0.85 7:0.904572 8:-0.988978 9:0.713588 10:-0.0776623 11:0.0980584 12:0.758295 13:0.33728 14:0.123304 15:0.946953 16:-0.189696 17:0.216664 18:0.565832 19:0.10276 20:0.498781 21:-0.205227 22:1 23:1 
8 1:0.949899 2:-0.136097 3:-0.0907086 4:-0.0599615 5:0.017504 6:0.925 7:-0.934205 8:-0.342671 9:0.585443 10:0.263945 11:-0.964572 12:0.927489 13:-0.884771 14:-0.540403 15:0.675493 16:0.159086 17:-0.473681 18:0.717282 19:0.613525 20:0.96574 21:0.71505 22:1 23:1 
6.65603776996123 1:0.351512 2:-0.0754568 3:-0.301432 4:0.585201 5:-0.810966 6:-0.4 7:-0.949644 8:-0.457988 9:0.479396 10:-0.0657464 11:-0.997897 12:0.879148 13:-0.28733 14:-0.840604 15:0.780128 16:-0.341029 17:-0.061415 18:0.823011 19:-0.410088 20:0.948192 21:0.187475 22:0.354839 23:1 
8 1:0.932671 2:0.19015 3:-0.981592 4:-0.249521 5:-0.0151059 6:-0.0721713 7:-0.796451 8:0.0729998 9:0.516667 10:-0.0478382 11:0.93008 12:0.879148 13:0.812437 14:-0.185296 15:-0.502895 16:0.0963901 17:0.525499 18:0.78554 19:0.593568 20:-0.955157 21:0.560184 22:0.0322581 23:1 
8 1:-0.0757673 2:-0.904002 3:-0.539651 4:0.0613197 5:0.496221 6:-7.77156e-15 7:-0.965701 8:-0.528595 9:-0.494916 10:-0.017696 11:0.999954 12:0.879148 13:-0.108052 14:-0.67951 15:0.0447157 16:-0.0476157 17:0.296613 18:0.77729 19:0.166031 20:0.459881 21:-0.189498 22:0.354839 23:1 
6.810583520460642 1:0.631812 2:-0.744366 3:0.883522 4:-0.233327 5:0.0896901 6:0.925 7:-0.94871 8:-0.702972 9:-0.566757 10:-0.206509 11:-0.978521 12:0.879148 13:0.696715 14:0.119043 15:0.550648 16:0.00668425 17:-0.51834 18:0.671561 19:0.42712 20:0.766791 21:0.422827 22:-0.290323 23:1 
8 1:-0.935479 2:0.764107 3:0.775932 4:0.095257 5:-0.0810049 6:1 7:0.952082 8:-0.355563 9:0.305199 10:-0.503179 11:-0.715975 12:0.852017 13:-0.993099 14:-0.500273 15:-0.470615 16:-0.314078 17:-0.293723 18:0.637329 19:0.883537 20:-0.176717 21:0.894367 22:0.0322581 23:1 
8 1:-0.100811 2:0.843319 3:-0.743949 4:-0.345996 5:-0.360959 6:-0.775 7:-0.905619 8:-0.0473266 9:0.541081 10:0.127502 11:-0.991883 12:0.879148 13:0.478836 14:-0.246671 15:-0.715996 16:0.235833 17:-0.291616 18:0.865874 19:0.0961946 20:-0.448909 21:-0.0893235 22:0.0322581 23:1 
3.826667871809719 1:-0.917202 2:0.862643 3:-0.214572 4:-0.781934 5:0.623358 6:-2.10942e-15 7:-0.797236 8:-0.772718 9:0.650883 10:0.455146 11:-0.89044 12:0.879148 13:0.379201 14:-0.656804 15:0.864664 16:0.62756 17:-0.74937 18:0.77729 19:0.926838 20:-0.197282 21:0.0738168 22:0.354839 23:1 
8 1:-0.282852 2:-0.885515 3:-0.688481 4:0.0348169 5:0.0519118 6:0.925 7:-0.974281 8:0.688213 9:0.353512 10:-8.90741e-05 11:2.70567e-05 12:0.760216 13:-0.310341 14:-0.848568 15:-0.958839 16:-0.0249868 17:0.00857042 18:0.559077 19:0.237317 20:0.367659 21:0.218984 22:0.354839 23:1 
8 1:-0.297276 2:0.0633037 3:-0.624747 4:-0.380213 5:-0.924927 6:0.135212 7:-0.571831 8:-0.927784 9:0.0208898 10:0.997838 11:0.0658696 12:0.879148 13:0.356628 14:-0.163602 15:0.645127 16:0.699868 17:0.549175 18:0.761835 19:-0.476148 20:-0.0517278 21:-0.33811 22:1 23:1 
8 1:-0.020145 2:-0.56509 3:0.11778 4:0.932253 5:0.362002 6:0.111447 7:0.787467 8:-0.108515 9:-0.589334 10:0.275104 11:0.961503 12:0.879148 13:0.409662 14:-0.164803 15:-0.706643 16:-0.344219 17:0.346268 18:0.764552 19:-0.276851 20:0.477822 21:-0.233651 22:1 23:1 
7.590879881673123 1:-0.6605 2:0.890555 3:0.749818 4:0.441381 5:-0.442584 6:-2.10942e-15 7:-0.909369 8:-0.64817 9:0.484801 10:-0.0488051 11:-0.998868 12:0.879148 13:-0.328576 14:0.36738 15:-0.265067 16:-0.258555 17:-0.252916 18:0.77729 19:0.613223 20:-0.253038 21:0.0302551 22:1 23:1 
5.018196951907377 1:-0.0618162 2:0.468655 3:-0.605653 4:-0.324114 5:-0.946046 6:0.100092 7:-0.404742 8:-0.964768 9:-0.983697 10:0.998542 11:0.0541653 12:0.879148 13:0.517442 14:-0.163255 15:-0.377687 16:0.671449 17:0.554057 18:0.76585 19:-0.38956 20:-0.440681 21:-0.0211986 22:-0.290323 23:1 
8 1:0.364283 2:0.563346 3:-0.980577 4:-0.997993 5:-0.0635499 6:0.0612192 7:-0.555292 8:0.465193 9:0.166047 10:-0.867235 11:-0.498215 12:0.879148 13:0.420415 14:-0.169007 15:-0.85423 16:0.0600244 17:-0.189876 18:0.770293 19:-0.0582116 20:-0.725879 21:-0.212567 22:1 23:1 
8 1:0.887833 2:0.721572 3:0.736327 4:-0.6755 5:0.737353 6:0.45625 7:-0.92957 8:-0.914049 9:0.518993 10:0.0104723 11:-0.180005 12:0.839811 13:0.133526 14:1 15:-0.217422 16:0.34484 17:-0.440153 18:0.687935 19:0.76166 20:-0.827725 21:1 22:0.677419 23:1 
3.161402345942834 1:-0.365832 2:0.446563 3:0.142634 4:0.901194 5:0.433569 6:-0.0722418 7:0.402368 8:0.926424 9:0.981463 10:0.998176 11:-0.0604848 12:0.879148 13:0.390953 14:-0.180032 15:0.837979 16:0.0426495 17:-0.220682 18:0.785548 19:-0.145049 20:-0.235715 21:-0.270624 22:0.0322581 23:1 
8 1:0.522072 2:-0.162864 3:0.428028 4:0.196373 5:0.852687 6:-1.44329e-15 7:0.678305 8:0.89889 9:0.612653 10:0.0430808 11:-0.117293 12:1 13:0.369861 14:-0.175063 15:0.184266 16:-0.0857227 17:-0.467438 18:0.891592 19:-0.102149 20:0.925685 21:-0.312259 22:-0.290323 23:1 
8 1:0.948288 2:-0.381263 3:-0.0417713 4:0.082341 5:-0.0108203 6:0.949609 7:-0.932262 8:0.513516 9:0.470727 10:0.00611426 11:0.0666024 12:0.879148 13:-0.975065 14:0.0536633 15:0.511968 16:-0.0461855 17:0.0756113 18:0.668748 19:0.674318 20:0.905785 21:0.816662 22:0.677419 23:1 
8 1:-0.368143 2:0.882917 3:0.608785 4:-0.0417953 5:0.117778 6:-1 7:0.536239 8:-0.651962 9:-0.833582 10:-0.865318 11:-0.501537 12:0.829138 13:-0.69876 14:-0.437171 15:0.558616 16:-0.429544 17:-0.285613 18:0.844293 19:0.300554 20:-0.338819 21:0.308151 22:0.0322581 23:1 
8 1:0.970206 2:0.724818 3:0.164182 4:-0.326135 5:-0.185085 6:-7.77156e-15 7:-0.957767 8:0.30397 9:-0.424044 10:-0.237881 11:0.971429 12:0.879148 13:-0.915652 14:0.196594 15:-0.587868 16:0.038203 17:0.635066 18:0.77729 19:0.884861 20:-0.839615 21:0.774918 22:-0.290323 23:1 
8 1:0.0974736 2:0.664636 3:-0.600927 4:-0.310042 5:-0.950751 6:-0.0948334 7:-0.314187 8:-0.930104 9:0.992834 10:-0.999878 11:0.0248777 12:0.879148 13:0.582609 14:-0.185616 15:-0.40756 16:-0.360956 17:0.541313 18:0.78813 19:-0.135886 20:-0.559447 21:0.10724 22:0.677419 23:1 
8 1:0.940549 2:0.494253 3:0.47147 4:0.0280949 5:0.311226 6:0.8875 7:-0.955716 8:0.129147 9:0.486417 10:0.043561 11:0.999156 12:0.879148 13:-0.239477 14:0.838385 15:0.0147214 16:0.000854113 17:0.392115 18:0.675848 19:0.71041 20:-0.883059 21:0.739399 22:0.0322581 23:1 
4.951403267026615 1:-0.0580823 2:-0.780588 3:0.118487 4:0.931447 5:0.36407 6:0.10253 7:0.781733 8:-0.304526 9:0.393358 10:0.329434 11:0.944263 12:0.879148 13:0.426393 14:-0.165244 15:0.274506 16:-0.315934 17:0.336258 18:0.765571 19:0.00493146 20:0.46321 21:-0.200692 22:1 23:1 
8 1:0.553291 2:0.180685 3:0.887773 4:-0.93812 5:0.346325 6:0.4 7:-0.68176 8:-0.295849 9:-0.445029 10:-0.173426 11:0.984973 12:0.879148 13:0.47615 14:0.237592 15:0.668024 16:0.385231 17:0.366564 18:0.73157 19:-0.0446476 20:-0.926086 21:0.134673 22:1 23:1 
8 1:-0.559827 2:0.533732 3:0.33725 4:0.48938 5:0.872101 6:-0.4 7:0.733758 8:0.904597 9:0.844877 10:0.882669 11:-0.470001 12:0.879148 13:0.403944 14:-0.719545 15:0.507013 16:0.194665 17:-0.660363 18:0.823011 19:0.184316 20:-0.198522 21:0.188438 22:1 23:1 
4.085976466650702 1:-0.468785 2:0.903838 3:0.655892 4:0.0881344 5:-0.165537 6:0.9625 7:0.791538 8:0.158815 9:0.52638 10:0.0816093 11:-0.996712 12:0.927489 13:-0.554971 14:-0.646921 15:-0.129657 16:-0.0104288 17:-0.395442 18:0.712996 19:0.415206 20:-0.30813 21:0.238561 22:0.677419 23:1 
8 1:0.427193 2:0.67753 3:-0.936697 4:-0.489888 5:-0.100011 6:-0.775 7:-0.792883 8:0.533282 9:0.40944 10:-0.209864 11:-0.715226 12:0.879148 13:0.565134 14:-0.252764 15:-0.654897 16:0.136585 17:-0.28348 18:0.865874 19:0.123364 20:-0.722472 21:0.080811 22:0.0322581 23:1 
8 1:0.279548 2:0.205822 3:0.895863 4:-0.47329 5:0.161185 6:0.101576 7:-0.735235 8:0.634174 9:-0.629428 10:-0.393791 11:-0.919303 12:0.851735 13:0.492105 14:-0.162425 15:0.475697 16:0.0337151 17:-0.524707 18:0.739754 19:-0.470394 20:-0.838481 21:-0.0711017 22:0.677419 23:1 
8 1:0.938202 2:-0.189023 3:0.302523 4:0.0470637 5:0.0658072 6:0.947076 7:0.424564 8:0.700429 9:-0.263052 10:-0.639505 11:0.69273 12:0.940713 13:0.0995489 14:0.250674 15:-0.565267 16:-0.359289 17:0.360494 18:0.727266 19:0.602512 20:0.951878 21:-0.304871 22:1 23:1 
8 1:0.954666 2:0.0429957 3:0.122883 4:0.115822 5:0.0470958 6:-0.775 7:-0.900009 8:0.0919605 9:0.491678 10:-0.025577 11:-0.938718 12:0.879148 13:-0.853884 14:0.225023 15:0.368349 16:-0.0796197 17:-0.47562 18:0.865874 19:0.613206 20:-0.993251 21:0.680655 22:0.354839 23:1 
6.311679754428453 1:0.820753 2:-0.388118 3:0.940545 4:-0.368377 5:0.0700607 6:-0.068772 7:-0.919531 8:0.0824812 9:-0.489743 10:-0.0339319 11:0.999536 12:0.879148 13:0.835981 14:-0.185822 15:0.570609 16:0.1645 17:0.517351 18:0.785151 19:0.470281 20:0.890211 21:0.606599 22:1 23:1 
4.373883016786797 1:-0.771299 2:0.24865 3:-0.358566 4:0.431117 5:-0.902357 6:0.4 7:-0.269599 8:-0.443703 9:-0.352826 10:0.447142 11:-0.894487 12:0.879148 13:0.301706 14:-0.0522233 15:0.00571342 16:0.00113032 17:0.0395816 18:0.73157 19:0.365068 20:-0.0773285 21:-0.411805 22:1 23:1 
4.027607103287018 1:-0.9786 2:0.448218 3:-0.760934 4:0.0456324 5:0.0427302 6:-0.925 7:0.257431 8:-0.924219 9:-0.10813 10:0.943058 11:-0.332636 12:0.879148 13:-0.126161 14:0.689887 15:0.65232 16:0.453297 17:-0.159137 18:0.883019 19:0.777127 20:-0.107214 21:0.441593 22:0.677419 23:1 
6.291225097250994 1:-0.540584 2:-0.816947 3:0.0838041 4:0.965499 5:0.260695 6:0.0639686 7:0.864409 8:-0.278676 9:0.355463 10:0.439159 11:0.898488 12:0.879148 13:0.691771 14:-0.165322 15:0.271304 16:-0.277115 17:0.366123 18:0.769979 19:0.402928 20:0.266527 21:0.322321 22:0.677419 23:1 
8 1:-0.240958 2:0.551326 3:-0.396344 4:0.32131 5:-0.947026 6:0.0197926 7:-0.0290505 8:-0.299038 9:-0.363775 10:0.416141 11:-0.909326 12:0.879148 13:0.2968 14:-0.173041 15:0.0325285 16:0.0415607 17:0.0550486 18:0.775028 19:-0.177147 20:-0.33074 21:-0.456262 22:1 23:1 
8 1:0.26235 2:0.883844 3:0.231207 4:0.186912 5:0.166058 6:-0.925 7:0.654683 8:-0.941124 9:-0.0237959 10:-0.997421 11:0.0743448 12:0.879148 13:-0.313766 14:-0.875878 15:-0.254943 16:-0.614645 17:-0.0120824 18:0.883019 19:0.212477 20:-0.619518 21:0.265518 22:0.0322581 23:1 
0.5389204720448082 1:0.27128 2:0.91323 3:-0.8421 4:3.50942e-05 5:-1.78247e-05 6:-0.85 7:-0.980529 8:0.689784 9:-0.492757 10:-0.0244735 11:0.999812 12:0.879148 13:0.548193 14:-0.425052 15:0.349134 16:-0.0196521 17:0.553828 18:0.874447 19:0.25321 20:-0.619714 21:0.122429 22:0.677419 23:1 
3.586422279460728 1:0.912033 2:0.883469 3:0.259775 4:-0.0427773 5:-0.0455546 6:-0.925 7:-0.896363 8:0.0988964 9:-0.593884 10:-0.288987 11:-0.95742 12:0.927489 13:-0.83388 14:0.325249 15:-0.853097 16:-0.133383 17:-0.437279 18:0.92874 19:0.912511 20:-0.801845 21:0.72327 22:0.677419 23:1 
8 1:-0.0273746 2:-0.339767 3:0.139755 4:0.905077 5:0.425406 6:-0.123006 7:0.841336 8:0.188577 9:-0.408279 10:0.285464 11:-0.958423 12:0.879148 13:0.447813 14:-0.18598 15:-0.547704 16:-0.324962 17:-0.681981 18:0.79135 19:-0.563906 20:0.454907 21:-0.158386 22:1 23:1 
8 1:-0.305224 2:0.563031 3:0.481336 4:0.058938 5:0.998264 6:-0.4 7:0.959241 8:0.489019 9:0.214748 10:0.745099 11:0.595739 12:0.879148 13:-0.0144915 14:-0.874387 15:-0.266576 16:0.344919 17:-0.173249 18:0.823011 19:-0.103616 20:-0.300098 21:0.140188 22:1 23:1 
8 1:-0.239833 2:0.00657505 3:-0.416399 4:0.261084 5:-0.965364 6:0.00405108 7:-0.0588026 8:-0.90479 9:0.628834 10:0.162261 11:-0.380375 12:0.951884 13:0.314601 14:-0.17357 15:-0.955665 16:-0.0577816 17:0.338788 18:0.845621 19:-0.580561 20:-0.00882287 21:-0.421177 22:1 23:1 
4.578291702775012 1:-0.440727 2:0.900178 3:-0.752151 4:-0.355175 5:-0.351931 6:-0.775 7:0.833523 8:-0.760516 9:-0.82374 10:0.849233 11:0.528078 12:0.879148 13:-0.0514207 14:0.796726 15:-0.0714601 16:0.610789 17:0.491719 18:0.865874 19:0.384329 20:-0.316527 21:0.618187 22:0.677419 23:1 
6.521691004861523 1:-0.774827 2:0.459569 3:-0.201764 4:0.806434 5:-0.591453 6:0.0257891 7:0.595553 8:-0.884302 9:-0.655415 10:0.226685 11:0.429113 12:0.879148 13:0.801271 14:-0.168557 15:-0.453323 16:-0.30451 17:0.564598 18:0.774343 19:0.458025 20:-0.134842 21:0.538092 22:0.354839 23:1 
8 1:0.318656 2:-0.18843 3:-0.117614 4:0.46647 5:-0.180187 6:0.152707 7:0.964303 8:-0.512557 9:-0.483573 10:-0.0532802 11:0.998694 12:0.879148 13:0.322092 14:-0.16343 15:-0.365726 16:-0.273722 17:0.646662 18:0.759836 19:-0.421611 20:0.86377 21:-0.406149 22:0.677419 23:1 
8 1:-0.406756 2:0.0929862 3:0.108427 4:0.117841 5:0.041794 6:1 7:-0.425096 8:0.843775 9:0.984224 10:-0.899962 11:0.046753 12:0.814564 13:0.0535594 14:0.119043 15:0.874923 16:-0.529213 17:0.0380411 18:0.601906 19:-0.285444 20:-0.0555822 21:-0.55358 22:1 23:1 
3.906510710431942 1:0.951641 2:0.443248 3:-0.164896 4:0.380359 5:-0.216295 6:-0.8125 7:0.733597 8:-0.780218 9:-0.843893 10:-0.881095 11:-0.473277 12:0.879148 13:0.114194 14:-0.65295 15:-0.678485 16:-0.654212 17:-0.097752 18:0.87016 19:0.705036 20:-0.895738 21:-0.205786 22:1 23:1 
1.655686175109452 1:0.945861 2:0.902497 3:0.744032 4:-0.519846 5:0.540593 6:-0.625 7:-0.958834 8:0.162602 9:-0.458704 10:-0.130999 11:0.991504 12:0.879148 13:0.423027 14:0.777069 15:0.798012 16:0.192412 17:0.269226 18:0.848729 19:0.973597 20:-0.804191 21:0.802993 22:0.677419 23:1 
4.724412755118238 1:-0.92713 2:-0.296442 3:0.0185213 4:0.124825 5:0.00732694 6:-1 7:0.715134 8:-0.434185 9:0.3027 10:-8.90741e-05 11:2.70567e-05 12:0.873289 13:0.771972 14:-0.282041 15:0.283829 16:-0.0711631 17:0.0316867 18:0.886051 19:0.63796 20:0.0725585 21:0.49174 22:0.677419 23:1 
8 1:-0.046318 2:-0.200278 3:0.187317 4:0.831711 5:0.555314 6:-2.10942e-15 7:0.655165 8:0.442469 9:0.734492 10:-8.90741e-05 11:2.70567e-05 12:0.871448 13:0.394986 14:-0.174251 15:0.546562 16:-0.433812 17:-0.252433 18:0.770008 19:-0.731069 20:0.388115 21:-0.262738 22:1 23:1 
8 1:-0.430053 2:0.686899 3:0.0593643 4:0.982645 5:0.18592 6:-2.10942e-15 7:0.408634 8:0.897955 9:0.606023 10:-0.0408083 11:0.11822 12:0.872428 13:0.393354 14:-0.172784 15:0.546076 16:-0.532133 17:0.00036645 18:0.770935 19:0.153717 20:-0.27892 21:-0.265951 22:0.677419 23:1 
8 1:-0.00326816 2:-0.107222 3:0.0118054 4:0.999373 5:0.0376793 6:-6.66134e-16 7:0.948989 8:-0.0608566 9:0.499542 10:-8.90741e-05 11:2.70567e-05 12:1 13:0.449321 14:-0.174251 15:0.487215 16:-0.519826 17:0.0159497 18:0.891592 19:-0.865664 20:0.453806 21:-0.155642 22:1 23:1 
8 1:0.758389 2:0.881924 3:0.333852 4:0.0740493 5:0.128655 6:0.985937 7:-0.139329 8:0.091999 9:-0.388352 10:-8.90741e-05 11:2.70567e-05 12:0.879021 13:-0.486916 14:0.0833941 15:-0.721771 16:-0.0451139 17:-0.0312193 18:0.664476 19:0.706923 20:-0.773103 21:-0.0807407 22:-0.612903 23:1 
8 1:-0.933491 2:-0.237776 3:-0.998932 4:-0.085905 5:-0.000528709 6:-0.953125 7:0.49961 8:0.720115 9:0.816729 10:-8.90741e-05 11:2.70567e-05 12:0.878798 13:-0.728616 14:-0.55944 15:-0.185758 16:0.0369464 17:0.0357597 18:0.885903 19:0.632815 20:0.0577667 21:0.445978 22:1 23:1 
1.411755661713737 1:-0.780005 2:0.862722 3:-0.0516075 4:0.493561 5:-0.0803635 6:0.184562 7:0.686415 8:0.531926 9:0.297725 10:-8.90741e-05 11:2.70567e-05 12:0.882375 13:0.700889 14:-0.174251 15:0.348943 16:-0.260334 17:0.0771523 18:0.759247 19:0.740303 20:-0.22194 21:0.340206 22:-0.290323 23:1 
8 1:-0.385538 2:0.88146 3:0.574498 4:-0.0175952 5:0.0740872 6:-0.941406 7:0.731555 8:-0.997642 9:0.423281 10:-8.90741e-05 11:2.70567e-05 12:0.878749 13:-0.815583 14:-0.598377 15:-0.151324 16:0.00190183 17:-0.00292702 18:0.884517 19:0.313834 20:-0.332338 21:0.630161 22:-0.290323 23:1 
8 1:-0.0609813 2:0.724892 3:-0.877314 4:0.0233574 5:0.00950823 6:-2.10942e-15 7:-0.51859 8:0.461057 9:-0.393327 10:0.0411867 11:-0.117973 12:0.87763 13:0.215492 14:-0.172771 15:0.483673 16:0.00206653 17:-0.0306206 18:0.775855 19:-0.0644528 20:-0.462928 21:-0.616518 22:0.677419 23:1 
8 1:-0.2838 2:-0.588824 3:0.388427 4:0.343546 5:0.939154 6:-2.10942e-15 7:0.0655517 8:0.709707 9:0.815465 10:-8.90741e-05 11:2.70567e-05 12:0.886985 13:0.475236 14:-0.174251 15:0.426481 16:-0.183372 17:-0.451445 18:0.784703 19:-0.098309 20:0.3131 21:-0.104562 22:-0.290323 23:1 
8 1:0.0505785 2:-0.708242 3:-0.936506 4:-0.979691 5:-0.200592 6:-2.10942e-15 7:-0.785566 8:-0.93889 9:-0.481592 10:-8.90741e-05 11:2.70567e-05 12:0.885865 13:0.391403 14:-0.174251 15:0.454637 16:0.49548 17:0.139488 18:0.783644 19:-0.0915705 20:0.524396 21:-0.2698 22:1 23:1 
7.938157347843796 1:0.186034 2:-0.611488 3:-0.976563 4:-0.997113 5:-0.0761223 6:-0.0200342 7:-0.742367 8:-0.706923 9:-0.53381 10:-8.90741e-05 11:2.70567e-05 12:0.884632 13:0.427784 14:-0.174251 15:0.442496 16:0.504417 17:0.0749533 18:0.784768 19:-0.162147 20:0.616782 21:-0.198092 22:-0.290323 23:1 
7.39784142426488 1:0.882857 2:-0.767505 3:0.501758 4:-0.00514844 5:0.999987 6:0.4 7:0.161032 8:-0.120314 9:-0.661476 10:-0.242108 11:-0.437545 12:0.895439 13:0.20948 14:0.204266 15:0.837537 16:-0.128639 17:-0.709843 18:0.746978 19:0.785677 20:0.814074 21:-0.280454 22:0.677419 23:1 
6.562015571399446 1:0.200472 2:-0.214893 3:0.725222 4:-0.405853 5:0.475275 6:-0.0328564 7:-0.394694 8:0.727964 9:-0.829949 10:0.322206 11:0.191801 12:0.87938 13:0.421088 14:-0.178635 15:0.445881 16:0.366424 17:-0.11151 18:0.781265 19:-0.575569 20:0.777397 21:-0.211257 22:0.354839 23:1 
8 1:-0.591526 2:-0.759238 3:0.254467 4:0.697079 5:0.717056 6:-2.10942e-15 7:0.0601736 8:0.140812 9:0.812857 10:-8.90741e-05 11:2.70567e-05 12:0.871398 13:0.428467 14:-0.174251 15:0.557752 16:-0.364743 17:-0.336292 18:0.769961 19:0.410179 20:0.240717 21:-0.196746 22:-0.290323 23:1 
8 1:-0.221296 2:-0.0326879 3:0.594087 4:-0.290781 5:0.956783 6:-2.10942e-15 7:-0.391103 8:0.72388 9:-0.909367 10:-8.90741e-05 11:2.70567e-05 12:0.886747 13:0.261476 14:-0.174251 15:0.497584 16:0.142052 17:-0.460585 18:0.784478 19:-0.610132 20:0.0315777 21:-0.525889 22:1 23:1 
4.440936187670088 1:0.0170718 2:0.739188 3:-0.288641 4:0.231505 5:-0.295069 6:0.297893 7:0.962164 8:-0.928236 9:0.0469059 10:-8.90741e-05 11:2.70567e-05 12:0.881295 13:0.738981 14:-0.174251 15:0.335223 16:-0.125892 17:0.188472 18:0.745272 19:-0.0534155 20:-0.508226 21:0.415286 22:1 23:1 
6.04935657558105 1:-0.770248 2:0.206888 3:-0.172409 4:0.857444 5:-0.514731 6:-2.10942e-15 7:0.653218 8:-0.950629 9:0.141599 10:-8.90741e-05 11:2.70567e-05 12:0.888404 13:0.786297 14:-0.174251 15:0.313676 16:-0.447014 17:0.302362 18:0.786045 19:0.351757 20:-0.0651451 21:0.508547 22:-0.290323 23:1 
8 1:-0.746951 2:-0.170402 3:0.063348 4:0.980242 5:0.198195 6:0.0306079 7:0.861333 8:0.281956 9:0.748984 10:-0.439911 11:0.444157 12:0.870937 13:0.779413 14:-0.168054 15:0.684934 16:-0.73564 17:0.162983 18:0.766026 19:0.303892 20:0.0514956 21:0.495016 22:0.677419 23:1 
8 1:-0.932436 2:-0.13288 3:-0.911163 4:-0.0800219 5:-0.0231688 6:0.95 7:0.0490984 8:-0.866999 9:0.384977 10:0.177034 11:0.467648 12:0.812679 13:-0.41014 14:0.258611 15:-0.704858 16:0.124792 17:0.289934 18:0.605838 19:0.611327 20:0.0316446 21:-0.0209775 22:0.0322581 23:1 
8 1:-0.0977823 2:0.88224 3:0.607604 4:-0.0275615 5:0.078618 6:0.950003 7:-0.84744 8:0.440524 9:-0.33685 10:-8.90741e-05 11:2.70567e-05 12:0.877538 13:-0.0530703 14:0.273635 15:-0.943895 16:0.00701475 17:-0.00527615 18:0.667181 19:0.144711 20:-0.452675 21:-0.303189 22:1 23:1 
8 1:-0.338633 2:-0.446854 3:-0.0941376 4:0.956907 5:-0.290684 6:-2.10942e-15 7:0.464062 8:-0.779537 9:0.450408 10:-8.90741e-05 11:2.70567e-05 12:0.871458 13:0.387294 14:-0.174251 15:0.544 16:-0.498041 17:0.186199 18:0.770018 19:-0.179529 20:0.243447 21:-0.277899 22:1 23:1 
8 1:0.371629 2:0.794614 3:-0.841405 4:-0.438651 5:-0.239965 6:-2.10942e-15 7:-0.190653 8:0.381203 9:-0.347682 10:-8.90741e-05 11:2.70567e-05 12:0.881997 13:0.27952 14:-0.174251 15:0.493392 16:0.217914 17:0.159902 18:0.779985 19:0.191443 20:-0.67727 21:-0.490325 22:0.677419 23:1 
8 1:-0.304102 2:-0.885821 3:0.410628 4:0.034693 5:0.120084 6:-1 7:-0.426649 8:-0.213732 9:-0.933911 10:0.122165 11:0.0261399 12:0.879148 13:0.189828 14:-0.0323842 15:0.656406 16:0.0377931 17:-0.0132373 18:0.891592 19:0.252645 20:0.359257 21:-0.599298 22:-0.612903 23:1 
4.430850178524874 1:-0.16974 2:-0.826607 3:0.475614 4:0.0480514 5:0.623146 6:-2.10942e-15 7:-0.0913539 8:0.603952 9:-0.947017 10:-8.90741e-05 11:2.70567e-05 12:0.875256 13:0.493663 14:-0.174251 15:0.578365 16:-0.0317764 17:-0.287602 18:0.773609 19:0.100355 20:0.410155 21:-0.0682436 22:0.0322581 23:1 
8 1:0.00242581 2:0.81379 3:-0.441461 4:0.184391 5:-0.982897 6:0.406484 7:0.149473 8:-0.361594 9:0.00933899 10:-0.250004 11:-0.00737939 12:0.885062 13:0.403678 14:-0.177181 15:0.450414 16:-0.229927 17:0.541256 18:0.736423 19:0.0424123 20:-0.500137 21:-0.24559 22:0.0322581 23:1 
8 1:0.0635205 2:-0.885737 3:-0.368771 4:3.50942e-05 5:-1.78247e-05 6:-0.85 7:0.0150086 8:0.214974 9:-0.957138 10:-0.866912 11:-0.119939 12:0.896296 13:-0.400351 14:-0.0144855 15:-0.587886 16:-0.451821 17:-0.0267008 18:0.890666 19:0.137642 20:0.525499 21:-0.306756 22:0.677419 23:1 
8 1:0.0661409 2:-0.88471 3:-0.366181 4:0.0416135 5:-0.092682 6:0.971875 7:0.164359 8:0.220133 9:-1 10:0.874992 11:0.00263954 12:0.865666 13:-0.370743 14:0.063842 15:-0.6333 16:0.420441 17:0.0848936 18:0.653453 19:0.136706 20:0.526777 21:-0.297655 22:0.0322581 23:1 
8 1:-0.762614 2:0.324963 3:-0.0837036 4:0.965914 5:-0.259188 6:-2.10942e-15 7:0.0482753 8:0.0285097 9:0.458601 10:-8.90741e-05 11:2.70567e-05 12:0.871467 13:0.380557 14:-0.174251 15:0.541759 16:-0.502662 17:0.169869 18:0.770026 19:0.377124 20:-0.100176 21:-0.291179 22:0.0322581 23:1 
8 1:0.171557 2:0.640517 3:-0.665945 4:-0.496341 5:-0.868154 6:-2.10942e-15 7:-0.460167 8:-0.843506 9:-0.0520711 10:-8.90741e-05 11:2.70567e-05 12:0.870984 13:0.59072 14:-0.174251 15:0.613401 16:0.24751 17:0.485605 18:0.769569 19:-0.134426 20:-0.607306 21:0.123059 22:0.677419 23:1 
8 1:-0.932166 2:0.163264 3:-0.989611 4:-0.0832486 5:-0.00295137 6:0.949998 7:-0.399291 8:-0.413995 9:0.26905 10:-8.90741e-05 11:2.70567e-05 12:0.878695 13:-0.272673 14:0.0680404 15:-0.742287 16:0.0355835 17:0.0370158 18:0.668275 19:0.615598 20:-0.0435959 21:-0.448941 22:1 23:1 
8 1:-0.4278 2:0.870415 3:0.811305 4:0.828926 5:-0.559497 6:-0.4 7:-0.264132 8:-0.116303 9:0.0489046 10:-8.90741e-05 11:2.70567e-05 12:0.870393 13:-0.290544 14:0.105974 15:-0.762042 16:-0.432384 17:0.325572 18:0.814731 19:0.340241 20:-0.315882 21:-0.377769 22:0.354839 23:1 
6.290148827600605 1:-0.0263503 2:0.876089 3:0.990583 4:-0.343568 5:0.0105944 6:0.86875 7:-0.331593 8:-0.0719789 9:-0.152491 10:-0.776954 11:0.40283 12:0.869463 13:0.110262 14:0.212007 15:0.857567 16:-0.229397 17:0.238824 18:0.668831 19:0.123997 20:-0.486451 21:-0.361707 22:0.0322581 23:1 
8 1:-0.0249054 2:-0.860391 3:0.957143 4:0.0052571 5:-0.000731707 6:-0.993385 7:-0.561618 8:-0.376978 9:-0.680002 10:-8.90741e-05 11:2.70567e-05 12:0.885147 13:0.256924 14:-0.328403 15:0.363924 16:-0.00982194 17:0.0358649 18:0.89651 19:0.102592 20:0.482769 21:-0.472355 22:0.354839 23:1 
0.1049300511699632 1:0.0190071 2:-0.880182 3:0.508863 4:-0.00447484 5:0.163986 6:-0.976562 7:-0.556474 8:-0.382663 9:-0.669219 10:-8.90741e-05 11:2.70567e-05 12:0.884975 13:0.160781 14:0.134429 15:0.8227 16:-0.00482923 17:-0.0495374 18:0.894425 19:0.126737 20:0.504279 21:-0.436322 22:-0.290323 23:1 
7.338324305169375 1:-0.263883 2:-0.309996 3:0.672889 4:4.04415e-05 5:-2.66953e-05 6:-2.10942e-15 7:-0.539274 8:0.313636 9:-0.836869 10:-8.90741e-05 11:2.70567e-05 12:0.879147 13:0.23822 14:-0.174251 15:0.491268 16:-0.00714567 17:0.0354994 18:0.77729 19:-0.392489 20:0.223864 21:-0.571727 22:1 23:1 
8 1:0.951191 2:-0.552881 3:-0.238774 4:0.183133 5:-0.170252 6:-0.925 7:-0.702359 8:-0.262867 9:-0.363286 10:-8.90741e-05 11:2.70567e-05 12:0.879571 13:-0.685368 14:-0.697394 15:-0.124456 16:-0.101076 17:0.123757 18:0.883419 19:0.755922 20:0.867711 21:0.497414 22:0.677419 23:1 
8 1:0.0615932 2:-0.881461 3:-0.469995 4:-0.00781376 5:0.0816386 6:-0.948437 7:0.643249 8:0.33493 9:0.837307 10:-8.90741e-05 11:2.70567e-05 12:1 13:-0.438257 14:0.199302 15:-0.693807 16:-0.00311628 17:-0.00684224 18:1 19:0.131895 20:0.524706 21:-0.050224 22:0.0322581 23:1 
8 1:-0.555346 2:-0.0683677 3:-0.357579 4:3.50923e-05 5:-1.78208e-05 6:-2.10942e-15 7:-0.312996 8:-0.729733 9:0.151608 10:-8.90741e-05 11:2.70567e-05 12:0.879148 13:0.23822 14:-0.174251 15:0.508732 16:-0.00714293 17:0.0354948 18:0.77729 19:-0.0377979 20:0.0268265 21:-0.571728 22:1 23:1 
3.49850259409245 1:0.908353 2:0.0294997 3:0.951461 4:0.988293 5:-0.153121 6:-0.217622 7:0.434969 8:0.132585 9:-0.521935 10:0.033491 11:0.498939 12:0.844359 13:0.192568 14:-0.18016 15:0.527534 16:-0.496916 17:0.373534 18:0.769262 19:0.533619 20:-0.996282 21:-0.661584 22:0.0322581 23:1 
7.725498644233501 1:0.44214 2:0.899555 3:-0.05302 4:-0.739713 5:0.123782 6:0.625 7:0.57538 8:0.0510576 9:0.0648593 10:-8.90741e-05 11:2.70567e-05 12:0.889989 13:0.0992885 14:-0.496209 15:0.117687 16:0.372365 17:-0.0286929 18:0.716105 19:0.369658 20:-0.684912 21:-0.474679 22:-0.290323 23:1 
8 1:0.949084 2:-0.00119837 3:0.0532062 4:0.077068 5:0.0130218 6:0.94375 7:0.36365 8:0.744261 9:-0.729005 10:-0.575249 11:-0.659481 12:0.891103 13:-0.248985 14:0.176226 15:-0.781663 16:-0.341719 17:-0.313185 18:0.680726 19:0.602707 20:1 21:-0.337474 22:-0.290323 23:1 
8 1:-0.657118 2:-0.0871997 3:-0.0628927 4:0.980776 5:-0.195573 6:6.66134e-16 7:0.0638561 8:-0.282983 9:0.462864 10:-8.90741e-05 11:2.70567e-05 12:0.871516 13:0.330648 14:-0.174251 15:0.52522 16:-0.510286 17:0.136886 18:0.770072 19:0.13754 20:0.0291746 21:-0.38955 22:0.677419 23:1 
8 1:-0.53628 2:-0.883748 3:-0.825245 4:-0.212941 5:-0.130961 6:-0.925 7:-0.832416 8:-0.0122057 9:-0.836784 10:-8.90741e-05 11:2.70567e-05 12:0.960057 13:-0.0634106 14:-0.563954 15:-0.0114445 16:0.102119 17:0.103386 18:0.959543 19:0.46342 20:0.280155 21:-0.403722 22:0.354839 23:1 
3.371584012247806 1:0.158291 2:-0.191039 3:0.978933 4:-0.498852 5:0.0336841 6:-2.10942e-15 7:-0.946239 8:-0.0929426 9:-0.607423 10:-8.90741e-05 11:2.70567e-05 12:0.882069 13:0.51549 14:-0.174251 15:0.414665 16:0.248798 17:0.0180211 18:0.780053 19:-0.649728 20:0.756837 21:-0.0252219 22:0.0322581 23:1 
8 1:-0.207886 2:0.71481 3:-0.32115 4:0.533906 5:-0.845615 6:-4.996e-15 7:0.473462 8:-0.768815 9:0.298498 10:-8.90741e-05 11:2.70567e-05 12:0.871334 13:0.606829 14:-0.174251 15:0.61909 16:-0.281031 17:0.473919 18:0.7699 19:-0.013553 20:-0.381365 21:0.154811 22:1 23:1 
4.327308554130825 1:-0.626525 2:0.926259 3:-0.805834 4:-0.409177 5:-0.287359 6:-0.775 7:0.662766 8:-0.315447 9:0.135847 10:-8.90741e-05 11:2.70567e-05 12:0.881891 13:-0.287929 14:0.642 15:0.940961 16:0.202792 17:0.184475 18:0.868469 19:0.606425 20:-0.2676 21:0.433772 22:0.0322581 23:1 
8 1:0.509986 2:-0.633498 3:0.884154 4:-0.934124 5:0.356962 6:-2.10942e-15 7:-0.503359 8:-0.117499 9:-0.535501 10:-8.90741e-05 11:2.70567e-05 12:0.871259 13:0.497955 14:-0.174251 15:0.581245 16:0.472103 17:-0.149591 18:0.769829 19:0.177532 20:0.757891 21:-0.0597832 22:1 23:1 
4.730134749699825 1:0.0437314 2:-0.796351 3:0.134298 4:-0.0860928 5:-0.0387156 6:-0.106399 7:0.699362 8:-0.411501 9:0.656152 10:0.352337 11:-0.662085 12:0.866188 13:0.330827 14:-0.183128 15:0.521276 16:0.217837 17:-0.28771 18:0.777195 19:0.0206189 20:0.517972 21:-0.389024 22:-0.290323 23:1 
0.04041511646756993 1:0.979487 2:0.633845 3:0.972359 4:-0.249007 5:0.0219774 6:-0.925 7:-0.929235 8:-0.583363 9:-0.0842278 10:-8.90741e-05 11:2.70567e-05 12:0.878972 13:0.857559 14:0.406177 15:0.943984 16:0.120622 17:0.0240908 18:0.882853 19:0.844184 20:-0.85853 21:0.927193 22:1 23:1 
2.179102508696788 1:-0.743551 2:-0.188106 3:0.280068 4:0.0796873 5:0.0963226 6:1 7:-0.380625 8:0.507243 9:0.66359 10:0.428995 11:-0.762628 12:0.812679 13:0.277818 14:-0.141744 15:0.383027 16:0.172113 17:-0.40985 18:0.600123 19:0.302176 20:0.057212 21:-0.490952 22:1 23:0.310345 
8 1:0.268024 2:-0.596086 3:0.442797 4:-0.0978477 5:-0.538118 6:0.625 7:-0.0818889 8:0.000659322 9:0.288504 10:-0.192912 11:-0.245926 12:0.986404 13:0.156674 14:0.0509478 15:-0.154367 16:-0.0558445 17:0.186975 18:0.807294 19:-0.119324 20:0.666642 21:-0.557174 22:0.798387 23:0.310345 
4.46639468564556 1:0.176862 2:-0.447169 3:0.731497 4:-0.166034 5:0.186865 6:0.00210849 7:-0.0992608 8:-0.0505944 9:0.19946 10:-0.106905 11:-0.077266 12:0.836486 13:0.167396 14:-0.172695 15:-0.531856 16:0.0232577 17:-0.101472 18:0.7367 19:-0.361859 20:0.6474 21:-0.711314 22:0.596774 23:0.310345 
8 1:0.860401 2:-0.219997 3:-0.464368 4:-0.0565903 5:0.496775 6:-0.775 7:0.562042 8:-0.851944 9:-0.131672 10:0.228914 11:-0.10032 12:0.794551 13:0.185373 14:-0.347809 15:0.332415 16:0.139385 17:-0.274105 18:0.785863 19:0.478345 20:0.939092 21:-0.575975 22:0.798387 23:0.310345 
1.821320940096127 1:0.782219 2:-0.38995 3:-0.695741 4:-0.14379 5:-0.204512 6:-0.0729958 7:0.52002 8:-0.817686 9:-0.163513 10:-0.313245 11:0.176402 12:0.870325 13:0.164907 14:-0.178493 15:0.531831 16:-0.0940055 17:0.232961 18:0.77729 19:0.409343 20:0.884691 21:-0.716157 22:0.596774 23:0.310345 
8 1:-0.723346 2:0.592588 3:-0.289973 4:-0.306943 5:0.394671 6:-0.0108441 7:-0.409884 8:0.0556585 9:0.00260073 10:-0.187601 11:-0.00156246 12:0.995468 13:0.21547 14:-0.176018 15:0.292287 16:0.054151 17:-0.169967 18:0.888545 19:0.459393 20:-0.176799 21:-0.616559 22:1 23:0.310345 
8 1:0.4769 2:-0.504356 3:0.71834 4:0.474663 5:-0.580761 6:0.625 7:-0.129367 8:-0.416858 9:0.553412 10:0.0212936 11:-0.127104 12:0.999717 13:0.180695 14:0.0532893 15:-0.165057 16:-0.239669 17:0.270687 18:0.819886 19:0.025467 20:0.783157 21:-0.521313 22:-0.612903 23:0.310345 
8 1:0.569011 2:-0.398904 3:-0.806734 4:0.820078 5:0.572351 6:-0.4 7:-0.162787 8:-0.265685 9:-0.530951 10:-8.90741e-05 11:2.70567e-05 12:0.776423 13:0.231839 14:-0.442892 15:0.275629 16:-0.427844 17:-0.261266 18:0.725855 19:0.0818907 20:0.843533 21:-0.398336 22:-0.612903 23:0.310345 
5.137157020274772 1:0.314975 2:0.897657 3:-0.414899 4:0.0332339 5:-0.120531 6:-1 7:0.83186 8:0.322353 9:0.439922 10:0.188398 11:0.982187 12:0.895662 13:0.241709 14:0.05056 15:0.854085 16:0.0725189 17:0.607174 18:0.907212 19:0.26351 20:-0.639066 21:-0.432956 22:-0.41129 23:0.310345 
8 1:0.220461 2:0.06887 3:0.946106 4:0.98558 5:-0.169714 6:-0.0224749 7:-0.446538 8:0.216234 9:0.386109 10:-0.0220217 11:-0.0585039 12:0.990936 13:0.300926 14:-0.173523 15:-0.559842 16:-0.524002 17:0.0931335 18:0.885588 19:-0.631017 20:-0.927385 21:-0.448132 22:-0.612903 23:0.310345 
8 1:0.468107 2:-0.893136 3:0.691291 4:-0.282402 5:0.412587 6:-2.10942e-15 7:0.539508 8:-0.224065 9:-0.132122 10:0.686494 11:-0.301984 12:0.927489 13:0.146567 14:-0.370536 15:-0.822975 16:0.48997 17:-0.335008 18:0.823011 19:0.386333 20:0.69057 21:-0.607873 22:-0.41129 23:0.310345 
8 1:0.462885 2:-0.888417 3:0.537028 4:3.50942e-05 5:-1.78247e-05 6:-0.85 7:0.405968 8:-0.189285 9:-0.0239969 10:-0.997374 11:0.0749738 12:0.906486 13:0.226583 14:-0.188259 15:-0.560775 16:-0.518748 17:0.0743506 18:0.900304 19:0.376295 20:0.689661 21:-0.594056 22:-0.612903 23:0.310345 
8 1:-0.134032 2:-0.4263 3:-0.294772 4:-0.601959 5:0.798519 6:0.4 7:0.324692 8:-0.115339 9:-0.321808 10:-0.399141 11:0.635129 12:0.803615 13:0.0203618 14:0.106618 15:-0.0270495 16:0.0969812 17:-0.0492636 18:0.660131 19:-0.405389 20:0.365827 21:-0.590607 22:0.395161 23:0.310345 
8 1:-0.168319 2:-0.541902 3:0.116749 4:-0.116638 5:-0.0448929 6:0.342253 7:0.329039 8:-0.281371 9:-0.367365 10:0.0173543 11:-0.0392458 12:0.988104 13:0.238257 14:-0.17476 15:-0.483833 16:0.0616615 17:0.0384008 18:0.84122 19:-0.245772 20:0.368668 21:-0.571655 22:0.798387 23:0.310345 
8 1:0.192381 2:0.419015 3:-0.081243 4:-0.483891 5:0.125833 6:-0.121187 7:0.673757 8:0.218173 9:0.451125 10:-0.0962378 11:-0.617585 12:0.864496 13:0.228515 14:-0.181628 15:0.53183 16:0.191799 17:-0.349954 18:0.777285 19:-0.380073 20:-0.671627 21:-0.590689 22:1 23:0.310345 
8 1:0.599206 2:0.896203 3:0.946197 4:-0.123164 5:0.021159 6:-1 7:0.510622 8:-0.180381 9:0.128897 10:0.516976 11:0.221635 12:0.88619 13:-0.0628017 14:0.258704 15:-0.816926 16:0.321315 17:0.139406 18:0.898253 19:0.527835 20:-0.732609 21:-0.327936 22:-0.00806452 23:0.310345 
8 1:-0.694395 2:0.141565 3:-0.217682 4:-0.484867 5:0.394346 6:-0.153481 7:-0.326507 8:-0.266832 9:0.286352 10:-0.194569 11:-0.244617 12:0.799083 13:0.201342 14:-0.177958 15:0.503551 16:0.141855 17:-0.295809 18:0.719109 19:0.209554 20:-0.0501929 21:-0.644368 22:-0.209677 23:0.310345 
0.4739346947167637 1:0.5307 2:0.542633 3:-0.392817 4:-0.0829006 5:0.23583 6:-0.863568 7:0.679901 8:-0.195786 9:0.12962 10:-0.574046 11:-0.247506 12:0.936552 13:0.252266 14:-0.181647 15:0.521978 16:-0.259034 17:-0.21512 18:0.930291 19:0.128715 20:-0.792487 21:-0.54389 22:0.798387 23:0.310345 
2.443227887771118 1:0.991455 2:0.422292 3:0.0881618 4:-0.120191 5:-0.0342549 6:1 7:0.217086 8:0.452769 9:-0.565531 10:0.202564 11:0.979362 12:0.821743 13:-0.373643 14:-0.0484539 15:-0.653261 16:0.158497 17:0.560977 18:0.608695 19:0.760809 20:-0.904429 21:-0.376376 22:0.596774 23:0.310345 
8 1:0.716296 2:0.850401 3:0.337013 4:-0.336837 5:-0.599349 6:0.6625 7:0.285118 8:0.553219 9:-0.37698 10:0.126151 11:-0.309013 12:0.877888 13:-0.215623 14:-0.0383167 15:-0.713566 16:0.230441 17:0.186015 18:0.700374 19:0.626321 20:-0.769716 21:-0.652361 22:-0.209677 23:0.310345 
8 1:0.684877 2:0.875681 3:0.41536 4:-0.110901 5:-0.407055 6:-0.821875 7:0.391869 8:0.341521 9:-0.155447 10:-0.110531 11:0.0585975 12:0.875019 13:-0.245443 14:-0.0897158 15:-0.57052 16:-0.00688676 17:0.2769 18:0.867327 19:0.609437 20:-0.757833 21:-0.639093 22:-0.41129 23:0.310345 
8 1:-0.931205 2:-0.571488 3:0.13646 4:0.122595 5:0.0560517 6:-0.480292 7:-0.551049 8:-0.0780685 9:-0.294301 10:-0.6032 11:0.797794 12:0.908187 13:0.208843 14:-0.0744321 15:-0.43053 16:-0.379414 17:0.420022 18:0.859654 19:0.76018 20:0.134848 21:-0.597432 22:0.193548 23:0.310345 
8 1:-0.92473 2:0.128171 3:0.915201 4:0.120594 5:-0.0330646 6:-1 7:-0.365552 8:0.121601 9:-0.602312 10:-0.0589868 11:-0.177999 12:0.762827 13:-0.284046 14:-0.252103 15:0.483464 16:-0.0992067 17:-0.0396677 18:0.781577 19:0.597724 20:-0.0350164 21:-0.569814 22:-0.612903 23:0.310345 
8 1:-0.389499 2:-0.387279 3:0.0916061 4:-0.312242 5:-0.0926079 6:-0.100922 7:0.133638 8:-0.195962 9:0.624014 10:0.212876 11:-0.520651 12:0.86695 13:0.239249 14:-0.18089 15:0.53183 16:0.262313 17:-0.186442 18:0.77729 19:-0.162455 20:0.199557 21:-0.569569 22:1 23:0.310345 
8 1:-0.903388 2:-0.882413 3:-0.905629 4:-0.238893 5:-0.0736329 6:-0.925 7:-0.44022 8:-0.0446398 9:0.776575 10:0.125016 11:-0.106134 12:0.761128 13:-0.325783 14:-0.426667 15:-0.319124 16:0.179611 17:0.0186241 18:0.771397 19:0.92177 20:0.198748 21:-0.356523 22:0.596774 23:0.310345 
8 1:-0.896979 2:-0.694401 3:-0.428367 4:-0.224563 5:0.974454 6:0.4 7:-0.362998 8:-0.504232 9:0.71438 10:0.0193651 11:-0.0244325 12:0.771891 13:-0.0371535 14:0.11995 15:-0.858232 16:0.118061 17:-0.482428 18:0.630127 19:0.78068 20:0.164918 21:-0.575462 22:0.193548 23:0.310345 
8 1:0.0234937 2:-0.543221 3:0.06672 4:0.489062 5:0.104271 6:0.209373 7:0.498036 8:-0.382389 9:-0.308174 10:-0.425947 11:0.617476 12:0.830807 13:0.219469 14:-0.166036 15:-0.374695 16:-0.476489 17:0.301536 18:0.707638 19:-0.306091 20:0.511006 21:-0.608472 22:1 23:0.310345 
8 1:0.203336 2:-0.484234 3:0.0595418 4:-0.245591 5:-0.0466393 6:-0.157971 7:0.505651 8:-0.418744 9:-0.40891 10:0.150602 11:-0.509449 12:0.860053 13:0.131746 14:-0.180521 15:-0.468171 16:0.196173 17:-0.204468 18:0.777287 19:-0.298739 20:0.656016 21:-0.781397 22:0.798387 23:0.310345 
3.193166007152485 1:0.216184 2:-0.435773 3:-0.245354 4:-0.493704 5:0.478427 6:-0.381334 7:0.428517 8:-0.778132 9:-0.731189 10:-0.662565 11:-0.749175 12:0.830807 13:0.14008 14:-0.1861 15:-0.485469 16:-0.0936922 17:-0.600988 18:0.775157 19:-0.341486 20:0.679509 21:-0.764503 22:0.596774 23:0.310345 
6.732564774236843 1:0.21876 2:-0.331834 3:-0.48006 4:-0.0481002 5:0.748449 6:-0.116896 7:0.219434 8:-0.891094 9:-0.948634 10:-0.49341 11:-0.0817204 12:0.865019 13:0.175505 14:-0.180153 15:-0.46817 16:-0.235521 17:-0.394951 18:0.777289 19:-0.446824 20:0.722741 21:-0.695206 22:0.193548 23:0.310345 
8 1:0.155977 2:0.662333 3:-0.421084 4:0.123444 5:-0.484559 6:-0.55 7:0.127397 8:0.353372 9:-0.0208276 10:0.0155044 11:-0.000988918 12:0.774157 13:0.0770974 14:-0.212888 15:0.399909 16:-0.0624554 17:0.286192 18:0.740857 19:-0.115738 20:-0.595025 21:-0.878297 22:-0.41129 23:0.310345 
8 1:0.84955 2:0.654957 3:0.642978 4:-0.433658 5:0.901069 6:0.4 7:0.401405 8:-0.0837978 9:-0.0889166 10:0.961394 11:-0.275187 12:0.936552 13:-0.17762 14:0.160639 15:-0.731524 16:0.708591 17:-0.574382 18:0.785863 19:0.661468 20:-0.835097 21:-0.433724 22:0.798387 23:0.310345 
8 1:-0.932982 2:-0.0527885 3:-0.835223 4:-0.128793 5:-0.0737664 6:0.985937 7:-0.118725 8:-0.48871 9:0.265446 10:-0.210194 11:-0.231338 12:0.771891 13:-0.289743 14:0.196188 15:-0.90018 16:-0.0488344 17:-0.0462182 18:0.563153 19:0.604673 20:0.0113113 21:-0.261103 22:-0.41129 23:0.310345 
8 1:0.560656 2:0.888012 3:-0.416114 4:-0.0711973 5:0.262467 6:0.911816 7:0.730661 8:0.317995 9:0.187492 10:-0.7278 11:-0.485981 12:0.852427 13:0.195093 14:-0.129037 15:0.603084 16:-0.343913 17:-0.352566 18:0.647796 19:0.477146 20:-0.723434 21:-0.649534 22:-0.612903 23:0.310345 
8 1:-0.247048 2:-0.429951 3:-0.090098 4:-0.459684 5:0.133285 6:0.56282 7:0.528919 8:-0.407648 9:0.468549 10:-0.0217406 11:-0.216317 12:0.966108 13:0.34003 14:-0.0453312 15:0.558088 16:0.217597 17:-0.145783 18:0.795205 19:-0.3008 20:0.285848 21:-0.336187 22:-0.41129 23:0.310345 
3.27216770609057 1:-0.35644 2:0.689745 3:0.23464 4:-0.74027 5:-0.67234 6:-0.4 7:-0.0988659 8:0.1187 9:0.081137 10:-0.967848 11:-0.252235 12:0.927489 13:-0.0714538 14:-0.438135 15:-0.15353 16:-0.123807 17:0.253295 18:0.868732 19:0.0796979 20:-0.307888 21:-0.621148 22:0.193548 23:0.310345 
8 1:-0.772551 2:0.890125 3:-0.330714 4:3.50942e-05 5:-1.78247e-05 6:-0.85 7:-0.180539 8:0.223655 9:0.168623 10:-0.863178 11:-0.505209 12:0.830807 13:0.323467 14:-0.035576 15:0.498883 16:-0.449906 17:-0.226442 18:0.828726 19:0.753236 20:-0.228344 21:-0.361709 22:-0.41129 23:0.310345 
8 1:-0.950791 2:0.792678 3:-0.612131 4:-0.22527 5:-0.616394 6:-0.68125 7:-0.458963 8:0.458205 9:-0.61372 10:0.347823 11:0.937644 12:0.830807 13:0.00440039 14:0.115232 15:-0.00155113 16:0.286922 17:0.841175 18:0.809438 19:0.925069 20:-0.179651 21:-0.58041 22:-0.00806452 23:0.310345 
8 1:-0.467586 2:0.847221 3:0.735527 4:0.589506 5:-0.6467 6:0.55 7:-0.496544 8:0.0603382 9:0.876417 10:-0.231313 11:0.0951456 12:0.767359 13:-0.223817 14:0.0534938 15:0.140498 16:-0.428173 17:0.420099 18:0.608695 19:0.355021 20:-0.298719 21:-0.53634 22:-0.612903 23:0.310345 
1.159911075827116 1:-0.498606 2:-0.900213 3:0.322341 4:-0.529584 5:-0.848285 6:-0.259396 7:-0.161375 8:-0.234714 9:0.834225 10:0.866463 11:-0.499246 12:0.830807 13:0.263851 14:-0.186105 15:0.511271 16:0.709104 17:0.216457 18:0.761219 19:0.440405 20:0.294114 21:-0.520828 22:-0.00806452 23:0.310345 
5.458900634732823 1:-0.471169 2:-0.854164 3:0.260844 4:0.25599 5:0.274064 6:-0.625 7:-0.0171202 8:-0.49876 9:0.656296 10:-8.90741e-05 11:2.70567e-05 12:0.776423 13:0.218074 14:-0.257031 15:0.394951 16:-0.138454 17:-0.106611 18:0.751572 19:0.364932 20:0.294591 21:-0.58987 22:-0.209677 23:0.310345 
0.5883278740200505 1:-0.384377 2:-0.370933 3:0.0670656 4:-0.488878 5:-0.104838 6:-0.775 7:-0.0782561 8:-0.550815 9:0.293803 10:-0.3775 11:-0.498224 12:0.81223 13:0.105513 14:-0.280078 15:0.226425 16:0.05007 17:-0.168474 18:0.802583 19:-0.181843 20:0.194985 21:-0.77351 22:-0.209677 23:0.310345 
8 1:0.675223 2:-0.0204098 3:0.777399 4:0.764786 5:-0.644399 6:0.0204824 7:0.0928582 8:0.603377 9:0.436853 10:-0.049574 11:-0.245048 12:0.97816 13:0.329328 14:-0.17165 15:-0.340539 16:-0.424864 17:0.242535 18:0.868595 19:0.135231 20:0.993006 21:-0.392137 22:-0.612903 23:0.310345 
2.39901587634174 1:0.578536 2:-0.846212 3:0.91405 4:-0.963471 5:0.267841 6:-0.4 7:0.1911 8:0.0901836 9:0.00893578 10:0.999606 11:0.0283876 12:0.849583 13:0.236308 14:-0.486479 15:-0.904658 16:1 17:-0.0886806 18:0.795049 19:0.455477 20:0.732148 21:-0.337917 22:1 23:0.310345 
8 1:0.325598 2:-0.743401 3:0.576687 4:0.148869 5:-0.607051 6:-0.7 7:0.518847 8:-0.0603465 9:-0.171919 10:-0.509609 11:0.304977 12:0.902533 13:0.188676 14:-0.35417 15:-0.748205 16:-0.344881 17:0.508328 18:0.879419 19:0.0938769 20:0.663774 21:-0.564074 22:0.596774 23:0.310345 
7.228199830453603 1:0.728065 2:-0.805052 3:0.780037 4:0.0330395 5:-0.0273632 6:-2.10942e-15 7:0.283463 8:-0.341203 9:0.383596 10:-0.0448761 11:-0.116685 12:0.758295 13:0.237948 14:-0.172847 15:-0.396387 16:-0.0470506 17:-0.0108361 18:0.662989 19:0.602404 20:0.777075 21:-0.572259 22:1 23:0.310345 
8 1:0.804523 2:-0.889677 3:0.560152 4:0.0615301 5:-0.322335 6:0.878125 7:0.346285 8:-0.415732 9:0.210923 10:-0.591542 11:-0.46126 12:0.830807 13:0.180926 14:0.020817 15:-0.349164 16:-0.342106 17:-0.0365428 18:0.631198 19:0.772369 20:0.777223 21:-0.559472 22:0.395161 23:0.310345 
3.899634216381651 1:0.839828 2:0.230106 3:-0.80986 4:0.825656 5:0.564276 6:-0.4 7:0.192659 8:-0.131678 9:0.476796 10:0.0737078 11:0.997383 12:0.864264 13:0.296631 14:-0.246126 15:-0.714357 16:-0.392848 17:0.259995 18:0.808934 19:0.446683 20:-0.938645 21:-0.444133 22:-0.41129 23:0.310345 
3.553078658301919 1:0.548843 2:0.295306 3:-0.908572 4:0.119834 5:0.0356844 6:1 7:0.0554184 8:-0.082733 9:-0.328401 10:0.514342 11:-0.857605 12:0.927489 13:0.233898 14:-0.103331 15:0.579781 16:0.195299 17:-0.427651 18:0.708709 19:-0.0057175 20:-0.879668 21:-0.565264 22:0.596774 23:0.310345 
6.267438554952435 1:0.349461 2:0.216331 3:-0.887386 4:3.50942e-05 5:-1.78247e-05 6:0.85 7:-0.0354467 8:-0.0160318 9:-0.413117 10:0.270877 11:-0.962648 12:0.917127 13:0.171724 14:-0.158413 15:0.473965 16:0.131862 17:-0.463599 18:0.716055 19:-0.358283 20:-0.861994 21:-0.701799 22:-0.41129 23:0.310345 
8 1:0.299363 2:-0.934218 3:-0.0104773 4:-0.187376 5:0.0060289 6:-0.9625 7:-0.0146908 8:-0.521311 9:0.285563 10:0.155979 11:0.195357 12:0.873102 13:-0.178844 14:-0.0127104 15:0.295686 16:0.169066 17:0.133627 18:0.881588 19:0.294983 20:0.624376 21:-0.681525 22:-0.209677 23:0.310345 
8 1:0.332444 2:-0.661968 3:0.998305 4:0.875058 5:-0.00582226 6:-0.55 7:0.0817233 8:-0.304017 9:0.264609 10:0.505619 11:0.553976 12:0.877929 13:0.0888985 14:-0.318657 15:-0.733405 16:-0.196623 17:0.325696 18:0.839003 19:0.0104958 20:0.683227 21:-0.752443 22:-0.612903 23:0.310345 
3.577810862703263 1:-0.446707 2:0.521173 3:-0.540081 4:0.0619901 5:0.496138 6:0.775 7:0.141863 8:0.38123 9:0.442688 10:0.15737 11:0.860816 12:0.945616 13:-0.014808 14:0.152495 15:0.981953 16:0.0418488 17:0.224521 18:0.751572 19:0.0220119 20:-0.229167 21:-0.517952 22:-0.00806452 23:0.310345 
5.039586277520902 1:-0.173289 2:0.892417 3:0.70409 4:0.504236 5:-0.67658 6:-0.56875 7:0.00629651 8:0.320516 9:0.181251 10:-0.842478 11:-0.539015 12:0.856573 13:-0.244882 14:-0.118455 15:-0.522659 16:-0.697954 17:0.106814 18:0.820949 19:0.184572 20:-0.418991 21:-0.65415 22:-0.612903 23:0.310345 
2.425956918146784 1:-0.447561 2:-0.887047 3:0.415345 4:-0.0657157 5:-0.241222 6:0.925 7:-0.7004 8:-0.247254 9:0.202531 10:-0.804621 11:-0.594037 12:0.927489 13:0.162763 14:0.0327379 15:-0.212833 16:-0.386135 17:-0.147436 18:0.717282 19:0.375902 20:0.307908 21:-0.57192 22:0.193548 23:0.310345 
8 1:-0.276236 2:0.217856 3:0.707421 4:0.132187 5:-0.173529 6:-0.16003 7:-0.591062 8:0.802017 9:-0.848903 10:0.423261 11:0.218955 12:0.947316 13:0.238118 14:-0.179819 15:0.444733 16:0.142238 17:0.238958 18:0.860055 19:-0.443261 20:-0.169129 21:-0.571837 22:1 23:0.310345 
8 1:0.484646 2:-0.206637 3:0.246673 4:0.178631 5:0.174933 6:-0.7 7:0.655946 8:-0.155579 9:-0.330052 10:0.509889 11:-0.860261 12:0.830807 13:0.0555805 14:-0.23431 15:-0.576395 16:0.162851 17:-0.501225 18:0.811581 19:-0.148486 20:0.899736 21:-0.900317 22:-0.209677 23:0.310345 
8 1:0.742664 2:-0.629991 3:0.753423 4:-0.10447 5:0.102431 6:0.169129 7:0.320126 8:-0.126866 9:-0.837689 10:-0.4359 11:-0.245158 12:0.812679 13:0.239184 14:-0.168556 15:0.409965 16:-0.177099 17:-0.144737 18:0.695093 19:0.488533 20:0.817413 21:-0.569733 22:1 23:0.310345 
4.534108649284621 1:0.955957 2:-0.500514 3:-0.877133 4:0.462825 5:0.189317 6:-0.775 7:0.584588 8:-0.041577 9:-0.713154 10:0.618936 11:0.78551 12:0.862368 13:0.0623078 14:-0.416785 15:0.163937 16:0.0729938 17:0.344559 18:0.850004 19:0.737421 20:0.879597 21:-0.632092 22:0.395161 23:0.310345 
8 1:0.133447 2:-0.784728 3:0.00678781 4:-0.999772 5:-0.0219684 6:0.4 7:-0.120788 8:-0.472005 9:-0.779067 10:-0.767272 11:-0.641543 12:0.892707 13:-0.144602 14:-0.0447281 15:-0.785293 16:0.112218 17:-0.285743 18:0.744394 19:0.0263212 20:0.565774 21:-0.769287 22:-0.209677 23:0.310345 
8 1:-0.817296 2:-0.240635 3:-0.23226 4:-0.226747 5:0.202345 6:-0.0708299 7:-0.399319 8:-0.73173 9:0.236438 10:-0.0461435 11:-0.0422334 12:0.941934 13:0.238848 14:-0.174989 15:0.468248 16:0.0855757 17:-0.0913354 18:0.844769 19:0.439082 20:0.0667407 21:-0.570489 22:1 23:0.310345 
8 1:-0.915856 2:-0.0483731 3:-0.618707 4:-0.101957 5:-0.26213 6:0.90625 7:-0.605225 8:-0.736478 9:0.319471 10:0.176356 11:0.276707 12:0.985271 13:0.15279 14:0.0756638 15:0.937417 16:0.135698 17:0.314837 18:0.774076 19:0.575216 20:0.0104131 21:-0.529045 22:0.798387 23:0.310345 
4.21026515748357 1:-0.310681 2:0.775273 3:-0.796986 4:0.100303 5:0.0746314 6:1 7:-0.236582 8:0.147926 9:-0.987616 10:0.43707 11:0.0183362 12:0.889231 13:0.0786677 14:0.051134 15:-0.19039 16:0.165679 17:0.00628312 18:0.672526 19:0.131915 20:-0.34366 21:-0.645862 22:0.596774 23:0.310345 
8 1:-0.299263 2:0.617533 3:-0.217622 4:-0.662642 5:0.538717 6:-0.108336 7:0.0402445 8:0.21678 9:-0.686048 10:-0.275106 11:-0.417596 12:0.9439 13:0.192979 14:-0.180152 15:-0.468083 16:0.191742 17:-0.460342 18:0.850916 19:-0.0520189 20:-0.316799 21:-0.660776 22:-0.612903 23:0.310345 
8 1:0.114501 2:-0.0553392 3:0.412458 4:-0.0848835 5:-0.300765 6:0.8875 7:-0.193695 8:0.378568 9:-0.726855 10:-8.90741e-05 11:2.70567e-05 12:0.914147 13:0.0858129 14:0.0322543 15:0.861458 16:0.0364223 17:0.191426 18:0.70895 19:-0.809553 20:0.881908 21:-0.667889 22:-0.00806452 23:0.310345 
5.888265250460095 1:0.0696158 2:0.0318869 3:0.708147 4:0.199449 5:-0.260606 6:0.168101 7:-0.176632 8:0.419503 9:-0.824718 10:-0.531927 11:-0.328372 12:0.899466 13:0.157043 14:-0.166875 15:0.468172 16:-0.382279 17:0.000347281 18:0.777293 19:-0.891522 20:-0.883918 21:-0.731498 22:-0.209677 23:0.310345 
8 1:-0.588759 2:0.886969 3:0.576526 4:0.118858 5:-0.485704 6:0.775 7:-0.571356 8:-0.0544386 9:-0.886946 10:0.248733 11:0.0930732 12:0.989803 13:-0.356777 14:-0.087543 15:0.537536 16:0.0595438 17:0.335552 18:0.793364 19:0.525714 20:-0.270459 21:-0.426988 22:-0.41129 23:0.310345 
8 1:-0.932617 2:-0.114064 3:-0.973839 4:0.0623139 5:0.00527146 6:0.925 7:0.0706051 8:0.266453 9:0.742558 10:-0.68933 11:0.724683 12:0.891189 13:-0.523436 14:-0.283411 15:-0.284944 16:-0.392673 17:0.408446 18:0.68295 19:0.609266 20:0.0268825 21:-0.0974872 22:0.395161 23:0.310345 
8 1:-0.83227 2:-0.247405 3:0.65639 4:0.471278 5:-0.882049 6:-0.4 7:-0.583188 8:0.608988 9:0.932654 10:-0.0917144 11:0.0199158 12:0.783221 13:0.19431 14:-0.450887 15:0.275774 16:-0.295905 17:0.50312 18:0.732284 19:0.465931 20:0.0673981 21:-0.440143 22:-0.612903 23:0.310345 
8 1:-0.794885 2:-0.448999 3:0.624286 4:0.380128 5:-0.92499 6:-0.4 7:-0.454889 8:0.154935 9:-0.204271 10:-0.150398 11:0.112142 12:0.995468 13:0.115514 14:-0.432681 15:-0.828099 16:-0.279248 17:0.573198 18:0.933026 19:0.483661 20:0.124915 21:-0.559233 22:0.395161 23:0.310345 
1.650363022308545 1:0.291193 2:-0.884434 3:0.364886 4:0.0257804 5:0.0569349 6:-0.925 7:0.286566 8:-0.480021 9:-0.0579448 10:-0.508008 11:0.0932758 12:0.897722 13:0.108885 14:-0.113253 15:-0.422659 16:-0.280912 17:0.0543104 18:0.900587 19:0.230571 20:0.627373 21:-0.805871 22:1 23:0.310345 
1.308381420520011 1:-0.185099 2:-0.890758 3:-0.161473 4:0.109357 5:-0.0606399 6:-0.775 7:-0.0189897 8:-0.188897 9:0.928564 10:0.974444 11:-0.224649 12:0.830807 13:-0.0776161 14:0.119554 15:-0.910958 16:0.436706 17:-0.0495561 18:0.820153 19:0.18686 20:0.409477 21:-0.567047 22:0.193548 23:0.310345 
8 1:-0.178374 2:-0.867223 3:-0.480229 4:-0.0158772 5:0.24948 6:0.925 7:-0.0374336 8:-0.171417 9:0.910562 10:-0.720305 11:0.209542 12:0.927489 13:-0.274269 14:-0.0772309 15:-0.610385 16:-0.368449 17:0.0147577 18:0.717282 19:0.154609 20:0.410206 21:-0.578197 22:-0.209677 23:0.310345 
7.134019613944279 1:-0.168918 2:-0.877745 3:-0.527271 4:0.0105239 5:0.124544 6:1 7:0.0389719 8:-0.204093 9:0.92901 10:0.60919 11:-0.139543 12:0.936552 13:-0.279108 14:-0.0810439 15:-0.544941 16:0.300035 17:-0.101447 18:0.717282 19:0.163332 20:0.415465 21:-0.571337 22:-0.41129 23:0.310345 
8 1:0.0796966 2:-0.886748 3:-0.280766 4:0.159164 5:-0.192843 6:0.925 7:0.629851 8:-0.0411139 9:0.610195 10:0.253493 11:-0.70587 12:0.866707 13:-0.0866153 14:0.283551 15:0.890163 16:0.0413071 17:-0.230498 18:0.659795 19:0.141551 20:0.533136 21:-0.278877 22:0.193548 23:0.310345 
2.501993546575128 1:0.344868 2:0.84225 3:-0.0206706 4:-0.374209 5:0.0240627 6:-0.85 7:0.693842 8:0.304906 9:0.235689 10:0.553755 11:0.505852 12:0.927489 13:0.167382 14:-0.375371 15:0.256042 16:0.468974 17:0.285252 18:0.920167 19:0.222105 20:-0.658829 21:-0.572449 22:0.798387 23:0.310345 
8 1:0.404964 2:0.547396 3:-0.403147 4:-0.075209 5:0.238395 6:0.925 7:0.777633 8:0.472253 9:0.397081 10:0.318376 11:0.94805 12:0.927489 13:0.0553257 14:0.0255 15:0.799535 16:0.194831 17:0.40338 18:0.717282 19:-0.0269944 20:-0.747572 21:-0.706755 22:0.395161 23:0.310345 
3.416725622694865 1:0.475959 2:0.284739 3:0.420765 4:-0.154057 5:-0.605737 6:-0.132215 7:0.575355 8:0.908281 9:0.946878 10:0.246369 11:-0.0420511 12:0.877054 13:0.209312 14:-0.177207 15:0.525465 16:0.198342 17:0.327732 18:0.790422 19:-0.125312 20:-0.867023 21:-0.628678 22:-0.41129 23:0.310345 
6.789430233803458 1:0.767825 2:0.0909877 3:-0.69885 4:0.109396 5:0.152292 6:0.9625 7:0.669913 8:-0.598331 9:-0.918083 10:0.483138 11:0.128634 12:0.812679 13:0.193903 14:-0.041358 15:-0.218991 16:0.184647 17:0.023201 18:0.604409 19:0.298422 20:-0.975446 21:-0.600041 22:1 23:0.310345 
8 1:-0.322486 2:0.330171 3:-0.313664 4:-0.282542 5:0.425086 6:0.0171995 7:0.0843287 8:-0.509459 9:-0.84172 10:-0.0652351 11:-0.0355462 12:0.76566 13:0.336148 14:-0.175128 15:-0.527638 16:0.104406 17:-0.203355 18:0.667988 19:-0.297452 20:-0.207818 21:-0.378707 22:-0.209677 23:0.310345 
2.073611642120634 1:0.102399 2:-0.803223 3:-0.54925 4:0.152458 5:0.988316 6:-0.475 7:-0.275863 8:-0.394995 9:-0.774138 10:-0.662608 11:-0.571666 12:0.921846 13:-0.145499 14:-0.400583 15:-0.224675 16:-0.42521 17:-0.773326 18:0.871967 19:0.0401188 20:0.548412 21:-0.632257 22:0.798387 23:0.310345 
1.643299151723244 1:0.405684 2:-0.780559 3:0.864926 4:-0.143093 5:0.0648258 6:-0.832139 7:-0.198882 8:-0.450727 9:-0.615543 10:-0.353362 11:-0.935583 12:0.927489 13:0.285849 14:-0.162415 15:0.520488 16:-0.114944 17:-0.483187 18:0.918126 19:0.206704 20:0.688927 21:-0.477496 22:0.395161 23:0.310345 
8 1:0.346478 2:-0.65235 3:0.692515 4:3.50942e-05 5:-1.78247e-05 6:-2.10942e-15 7:0.348331 8:-0.112471 9:-0.968815 10:0.994924 11:0.100738 12:0.841635 13:0.128397 14:-0.308277 15:0.33982 16:0.503297 17:0.0877079 18:0.741811 19:0.0135706 20:0.691638 21:-0.707645 22:-0.612903 23:0.310345 
3.088053372199929 1:-0.937789 2:-0.132825 3:0.0332196 4:0.435149 5:0.0458093 6:-2.10942e-15 7:-0.607207 8:0.534803 9:0.726856 10:0.0407047 11:-0.0473312 12:0.767359 13:0.150289 14:0.0786202 15:0.692935 16:-0.20944 17:-0.0128182 18:0.671561 19:0.620412 20:0.0314418 21:-0.528029 22:-0.00806452 23:0.310345 
8 1:-0.374378 2:-0.0118007 3:-0.196891 4:0.0538934 5:-0.0382658 6:0.228616 7:0.0768235 8:-0.412959 9:0.327256 10:0.516883 11:0.85613 12:0.927489 13:0.237199 14:-0.162423 15:0.523642 16:0.230432 17:0.499168 18:0.79688 19:-0.350687 20:0.00509412 21:-0.573323 22:1 23:0.310345 
8 1:-0.355989 2:0.869601 3:0.856036 4:0.674321 5:-0.328479 6:0.4 7:-0.286313 8:0.0448347 9:0.024009 10:-0.249398 11:-0.0188754 12:0.963744 13:-0.186236 14:0.107582 15:-0.83162 16:-0.480962 17:0.195995 18:0.811581 19:0.275468 20:-0.34122 21:-0.506904 22:0.798387 23:0.310345 
0.496792052279343 1:0.856902 2:0.492477 3:0.993255 4:-0.874786 5:0.0196591 6:0.16726 7:0.206589 8:0.479129 9:0.652454 10:0.459533 11:-0.888184 12:0.899364 13:0.277607 14:-0.163842 15:-0.340842 16:0.677446 17:-0.435196 18:0.777292 19:0.577697 20:-0.8728 21:-0.493815 22:0.798387 23:0.310345 
8 1:0.782385 2:0.576236 3:-0.907312 4:0.717976 5:0.217036 6:0.625 7:0.306665 8:0.266621 9:0.692527 10:-0.425656 11:0.617676 12:0.853056 13:0.214772 14:-0.127655 15:-0.401417 16:-0.593779 17:0.243174 18:0.681175 19:0.511603 20:-0.841258 21:-0.610916 22:-0.209677 23:0.310345 
8 1:0.810361 2:0.893481 3:-0.778534 4:-0.57463 5:-0.481993 6:-2.10942e-15 7:0.31395 8:0.29858 9:0.583663 10:-0.12941 11:0.483057 12:0.872703 13:0.285343 14:-0.156634 15:-0.638887 16:0.221332 17:0.535812 18:0.771195 19:0.783874 20:-0.781617 21:-0.478064 22:-0.41129 23:0.310345 
8 1:0.0260903 2:-0.763145 3:0.361628 4:-0.263231 5:-0.566881 6:0.7 7:-0.409974 8:-0.170171 9:0.101262 10:0.5936 11:0.195559 12:0.856523 13:0.0787498 14:0.141907 15:-0.260331 16:0.43248 17:0.430774 18:0.675881 19:-0.0233888 20:0.509011 21:-0.499391 22:-0.00806452 23:0.310345 
8 1:0.435974 2:-0.433711 3:0.910254 4:-0.607181 5:0.176613 6:-0.157349 7:-0.0849294 8:-0.222078 9:-0.677821 10:0.264053 11:0.424612 12:0.945616 13:0.232096 14:-0.179962 15:0.412963 16:0.439877 17:0.16404 18:0.858141 19:-0.085614 20:0.792403 21:-0.583701 22:1 23:0.310345 
6.488266444115406 1:0.552007 2:0.611235 3:-0.405752 4:-0.256485 5:0.836555 6:0.55 7:0.701674 8:-0.0294256 9:0.147283 10:0.0278788 11:0.013975 12:0.852534 13:0.218386 14:-0.156667 15:0.552553 16:0.138805 17:-0.391019 18:0.689254 19:0.212626 20:-0.780154 21:-0.609829 22:-0.209677 23:0.310345 
2.417469387128827 1:0.257221 2:0.587853 3:-0.550778 4:-0.00670438 5:-0.0423685 6:-0.229431 7:0.136481 8:-0.130602 9:0.952811 10:-0.988885 11:0.149952 12:0.927489 13:0.236236 14:-0.186113 15:-0.497668 16:-0.510936 17:0.135181 18:0.849235 19:-0.136685 20:-0.666587 21:-0.575218 22:1 23:0.310345 
8 1:0.293398 2:-0.805747 3:-0.105519 4:-0.591138 5:0.202897 6:0.7 7:0.866956 8:-0.469879 9:-0.48099 10:0.00637487 11:-0.105252 12:0.761128 13:0.210609 14:0.0606823 15:-0.375232 16:0.299459 17:-0.124294 18:0.585656 19:0.139772 20:0.639382 21:-0.469258 22:-0.612903 23:0.310345 
8 1:-0.0196588 2:0.639392 3:-0.495142 4:0.00013286 5:-0.00581315 6:0.229194 7:0.00358457 8:-0.0972389 9:0.011119 10:0.999388 11:0.0352377 12:0.927489 13:0.238005 14:-0.162392 15:0.50584 16:0.505537 17:0.0567543 18:0.796814 19:-0.180448 20:-0.484706 21:-0.571733 22:1 23:0.310345 
8 1:0.153946 2:0.825614 3:-0.189096 4:-0.725584 5:0.489024 6:0.132348 7:0.509413 8:0.498393 9:0.279534 10:0.368055 11:0.443314 12:0.895144 13:0.189076 14:-0.167451 15:0.46817 16:0.553973 17:0.0117569 18:0.777292 19:0.0863489 20:-0.576604 21:-0.668425 22:-0.209677 23:0.310345 
8 1:0.938328 2:0.551355 3:0.576956 4:-0.223987 5:0.910342 6:0.5125 7:-0.267247 8:-0.00519656 9:-0.245444 10:0.717811 11:-0.696248 12:0.899225 13:-0.0825986 14:0.507365 15:-0.821937 16:0.476067 17:-0.797487 18:0.7377 19:0.735502 20:-0.870297 21:0.112259 22:0.798387 23:0.310345 
8 1:-0.244878 2:-0.126362 3:-0.944166 4:3.50942e-05 5:-1.78247e-05 6:0.265086 7:-0.639499 8:-0.255773 9:-0.4757 10:0.0777658 11:-0.99702 12:0.911203 13:0.17375 14:-0.162449 15:0.46818 16:0.0327965 17:-0.481419 18:0.777309 19:-0.542726 20:0.112269 21:-0.698255 22:0.596774 23:0.310345 
8 1:-0.358636 2:-0.111549 3:-0.723904 4:0.352927 5:0.417783 6:0.746875 7:-0.50757 8:-0.576529 9:-0.1731 10:0.401268 11:-0.242213 12:0.886849 13:0.150006 14:-0.117945 15:0.550397 16:0.0177106 17:-0.306714 18:0.699205 19:-0.361664 20:0.0694646 21:-0.731753 22:0.193548 23:0.310345 
5.887817358504234 1:-0.326732 2:-0.135087 3:-0.421063 4:-0.0971277 5:0.381362 6:-0.838867 7:-0.302948 8:-0.647505 9:0.0529352 10:-0.25051 11:-0.0420499 12:0.877441 13:0.154833 14:-0.21406 15:0.473587 16:-0.0857614 17:-0.184057 18:0.871561 19:-0.406618 20:0.0916928 21:-0.729279 22:-0.209677 23:0.310345 
8 1:-0.315849 2:-0.173035 3:-0.61359 4:0.186321 5:0.502463 6:-0.262187 7:-0.449622 8:-0.635201 9:-0.0972219 10:-0.480807 11:0.151291 12:0.812962 13:0.152902 14:-0.180221 15:0.515965 16:-0.349319 17:-0.146608 18:0.744661 19:-0.408007 20:0.119587 21:-0.739736 22:-0.41129 23:0.310345 
8 1:0.324303 2:0.931875 3:0.507716 4:-0.0119101 5:0.499848 6:-0.55 7:-0.351646 8:0.391735 9:-0.192792 10:0.822582 11:-0.568653 12:0.936552 13:-0.21208 14:0.195318 15:-0.700133 16:0.421014 17:-0.518504 18:0.89445 19:0.310155 20:-0.638175 21:-0.347848 22:0.798387 23:0.310345 
8 1:0.783734 2:-0.882893 3:0.0278831 4:-0.380966 5:-0.0337022 6:0.845519 7:0.416298 8:-0.0187872 9:0.0741673 10:0.486434 11:0.115543 12:0.945616 13:-0.164526 14:0.190937 15:0.0461342 16:0.437905 17:0.112848 18:0.743512 19:0.739651 20:0.774265 21:-0.395991 22:-0.209677 23:0.310345 
8 1:0.769652 2:0.514339 3:-0.680315 4:0.535061 5:0.844849 6:-0.197494 7:0.504441 8:0.0473665 9:-0.148088 10:-0.670681 11:0.336051 12:0.855276 13:0.175825 14:-0.183103 15:0.531827 16:-0.625636 17:-0.22834 18:0.777287 19:0.454906 20:-0.85411 21:-0.694405 22:0.798387 23:0.310345 
8 1:0.784135 2:0.556147 3:-0.655171 4:0.291742 5:0.552749 6:-0.0838955 7:0.535811 8:-0.00371164 9:-0.18686 10:-0.0456501 11:0.0302838 12:0.791872 13:0.200311 14:-0.174897 15:0.467959 16:-0.180168 17:-0.235416 18:0.704335 19:0.501773 20:-0.846339 21:-0.646447 22:0.395161 23:0.310345 
8 1:-0.395918 2:-0.172285 3:0.748607 4:0.0903596 5:-0.0912835 6:0.198532 7:-0.778905 8:0.319684 9:-0.688658 10:-0.556947 11:-0.830685 12:0.918979 13:0.236008 14:-0.162627 15:0.563682 16:-0.339149 17:-0.347864 18:0.79227 19:-0.27957 20:0.0967758 21:-0.575683 22:1 23:0.310345 
3.648263630203874 1:0.90683 2:-0.887202 3:0.581502 4:-0.0394636 5:0.151161 6:-0.98125 7:0.543013 8:-0.233294 9:-0.950941 10:0.864236 11:0.136832 12:0.812679 13:0.243142 14:-0.0660898 15:0.468623 16:0.456518 17:0.0280378 18:0.826583 19:0.907548 20:0.796401 21:-0.528908 22:0.193548 23:0.310345 
7.261430486820289 1:-0.0198352 2:-0.929516 3:-0.513285 4:0.010056 5:0.249786 6:-2.10942e-15 7:0.511 8:-0.407432 9:0.808822 10:-0.721114 11:0.495899 12:0.945616 13:-0.226604 14:0.115265 15:-0.679005 16:-0.382169 17:0.163059 18:0.840156 19:0.190967 20:0.486289 21:-0.450171 22:-0.41129 23:0.310345 
8 1:0.975358 2:0.38917 3:0.43316 4:-0.0651695 5:-0.305646 6:-0.8875 7:0.170066 8:0.309449 9:-0.321243 10:0.350065 11:-0.555068 12:0.88449 13:-0.13249 14:0.234643 15:-0.753965 16:0.205937 17:-0.09383 18:0.883786 19:0.72184 20:-0.910352 21:-0.344258 22:-0.612903 23:0.310345 
8 1:-0.219026 2:0.0762816 3:0.734217 4:0.251523 5:-0.278204 6:0.0457732 7:-0.565573 8:0.580959 9:0.202206 10:-0.251694 11:-0.185362 12:0.88468 13:0.225054 14:-0.170563 15:-0.531831 16:-0.265235 17:0.0836143 18:0.77729 19:-0.603863 20:-0.0814175 21:-0.597637 22:0.798387 23:0.310345 
8 1:-0.317991 2:0.209075 3:0.858225 4:3.50942e-05 5:-1.78247e-05 6:0.505776 7:-0.668062 8:0.440638 9:0.389963 10:0.0635797 11:0.176403 12:0.902655 13:0.167746 14:-0.176464 15:-0.468165 16:0.025519 17:0.126936 18:0.741712 19:-0.385479 20:-0.145681 21:-0.710614 22:0.596774 23:0.310345 
0.635298608764296 1:-0.00126319 2:-0.795969 3:0.674707 4:0.130325 5:-0.21339 6:-0.0290026 7:-0.281544 8:-0.171715 9:0.206398 10:0.199226 11:0.150974 12:0.875643 13:0.236586 14:-0.177202 15:-0.468169 16:0.0282636 17:0.224381 18:0.77729 19:0.0184589 20:0.49403 21:-0.574924 22:-0.612903 23:0.310345 
8 1:-0.0110893 2:0.161954 3:-0.0705586 4:0.975785 5:-0.219118 6:-0.0750968 7:0.721055 8:-0.0768353 9:-0.621264 10:-0.0925935 11:-0.232252 12:0.963744 13:0.349423 14:-0.17718 15:-0.550325 16:-0.55518 17:0.0286696 18:0.865885 19:-0.792986 20:-0.453177 21:-0.352526 22:1 23:0.310345 
8 1:-0.431468 2:-0.314268 3:-0.0749985 4:-0.707979 5:0.169363 6:0.476956 7:0.146544 8:0.265755 9:-0.134946 10:-0.342029 11:0.154069 12:0.867864 13:0.199528 14:0.12926 15:-0.0599835 16:0.18067 17:0.0275367 18:0.712101 19:-0.151837 20:0.155229 21:-0.397554 22:-0.41129 23:0.310345 
8 1:-0.415189 2:-0.136517 3:0.342962 4:-0.118372 5:-0.220206 6:-0.7 7:-0.0330855 8:0.672063 9:-0.029403 10:-0.995959 11:0.0918852 12:0.900107 13:0.320929 14:-0.201981 15:-0.372231 16:-0.457277 17:0.197281 18:0.877125 19:-0.260288 20:0.0736774 21:-0.406966 22:1 23:0.310345 
8 1:0.170176 2:-0.294296 3:0.154263 4:0.884766 5:0.466173 6:0.4 7:-0.676372 8:0.575804 9:0.439564 10:-0.18968 11:-0.98192 12:0.904345 13:-0.244945 14:0.354303 15:0.284919 16:-0.558291 17:-0.715301 18:0.755401 19:-0.536112 20:0.700726 21:-0.0684254 22:1 23:0.310345 
8 1:0.748308 2:0.0408051 3:-0.998757 4:-0.783056 5:-0.00510412 6:-0.0766298 7:0.105512 8:0.0458697 9:-0.657788 10:0.266465 11:0.495415 12:0.828681 13:0.275735 14:-0.180106 15:0.340804 16:0.531343 17:0.294963 18:0.738318 19:0.260886 20:-0.990893 21:-0.497695 22:0.395161 23:0.310345 
8 1:0.922201 2:0.180554 3:-0.15291 4:-0.443613 5:0.230628 6:-0.775 7:0.599391 8:-0.422051 9:-0.235199 10:0.739826 11:-0.672807 12:0.917492 13:-0.0523003 14:-0.462489 15:-0.0822887 16:0.600034 17:-0.432918 18:0.902141 19:0.574033 20:-0.957067 21:-0.583931 22:-0.209677 23:0.310345 
8 1:0.975512 2:-0.160808 3:-0.100771 4:-0.118791 5:0.0387983 6:1 7:0.612703 8:-0.489387 9:-0.344133 10:0.353513 11:-0.661457 12:0.902111 13:-0.142704 14:-0.35564 15:-0.243236 16:0.235215 17:-0.327574 18:0.684708 19:0.660659 20:0.960592 21:-0.701859 22:-0.41129 23:0.310345 
2.873806457641477 1:-0.361582 2:0.418692 3:-0.170938 4:-0.859743 5:0.51073 6:0.331057 7:0.0199249 8:0.132731 9:0.297698 10:0.464024 11:0.628563 12:0.902193 13:0.185811 14:-0.165031 15:0.468173 16:0.672032 17:0.0965445 18:0.761246 19:-0.17412 20:-0.227343 21:-0.674713 22:0.798387 23:0.310345 
7.887419769349748 1:-0.219435 2:0.420088 3:0.302276 4:-0.163645 5:-0.228742 6:0.684303 7:-0.0587569 8:0.771159 9:0.860219 10:-0.904452 11:0.427014 12:0.884503 13:0.125015 14:-0.162582 15:0.557296 16:-0.387108 17:0.375452 18:0.704139 19:-0.338427 20:-0.304227 21:-0.794153 22:0.395161 23:0.310345 
8 1:0.498954 2:0.871384 3:-0.705047 4:-0.44918 5:-0.600632 6:-2.10942e-15 7:0.152126 8:0.390463 9:-0.158091 10:0.879527 11:-0.475855 12:0.830807 13:0.206135 14:-0.202738 15:0.546548 16:0.674556 17:0.100182 18:0.73157 19:0.395177 20:-0.708011 21:-0.632232 22:-0.612903 23:0.310345 
