svm_type c_svc
kernel_type rbf
gamma 0.0078125
nr_class 2
total_sv 1678
rho -7.80144
label -1 1
probA -0.914991
probB 0.0152472
nr_sv 834 844
SV
8192 1:0.349236 2:-0.623891 3:0.421699 4:-0.232591 5:-0.926794 6:-0.00371782 7:0.453169 8:0.0348213 9:-0.583329 10:-0.258969 11:-0.965886 12:0.00199211 13:0.311606 14:-0.103273 15:0.994894 16:-0.0177585 17:-0.070121 18:-0.00441722 19:-0.0383207 20:0.706033 21:-0.526876 22:0.783784 23:0.493458 24:-0.9 
8192 1:-0.839204 2:-0.520005 3:0.102165 4:-0.948864 5:-0.31565 6:-0.0177204 7:-0.476916 8:-0.362464 9:0.112056 10:-0.939188 11:-0.343411 12:-0.00161494 13:0.199696 14:-0.103891 15:0.00934541 16:0.000484403 17:-0.0631089 18:0.000849026 19:0.538347 20:0.140626 21:-0.711411 22:0.855856 23:0.296171 24:-0.7 
1830.81320133807 1:0.328491 2:-0.877832 3:-0.709759 4:-0.382376 5:-0.494334 6:-0.768024 7:-0.190586 8:-0.495991 9:0.804334 10:0.815324 11:-0.579003 12:-0.328871 13:0.0287423 14:-0.468614 15:-0.486991 16:0.602086 17:-0.0982129 18:0.212294 19:0.226078 20:0.649015 21:-0.427213 22:0.783784 23:0.478462 24:0.5 
8192 1:0.640189 2:-0.100824 3:0.668711 4:0.295622 5:-0.504449 6:0.15725 7:0.205321 8:0.789886 9:0.148364 10:-0.850741 11:-0.426322 12:-6.66134e-16 13:0.516773 14:-0.0905659 15:-0.520831 16:-0.584886 17:0.00218838 18:-0.0878999 19:0.0637235 20:0.965406 21:-0.188252 22:-0.693694 23:0.861538 24:0.2 
8192 1:-0.218902 2:-0.295214 3:0.760221 4:0.31785 5:-0.298021 6:-0.126864 7:-0.650923 8:0.311863 9:0.196171 10:0.654303 11:0.461845 12:-6.66134e-16 13:0.412961 14:-0.114169 15:-0.56455 16:0.165982 17:0.422647 18:0.0575934 19:-0.517914 20:0.255292 21:-0.359484 22:-0.117117 23:0.692308 24:0.2 
8192 1:-0.140821 2:-0.30966 3:0.774864 4:0.508888 5:-0.434996 6:0.159739 7:-0.67486 8:0.294119 9:-0.78475 10:-0.779806 11:-0.626025 12:-6.66134e-16 13:0.465081 14:-0.0901163 15:0.440481 16:-0.656955 17:-0.163806 18:-0.0891746 19:-0.585067 20:0.330966 21:-0.273434 22:-0.279279 23:0.646154 24:-0.6 
5286.936238552571 1:0.0489973 2:0.157285 3:0.485634 4:0.00863721 5:0.190778 6:-0.181566 7:0.0866308 8:0.949118 9:-0.852133 10:0.526264 11:0.263949 12:-6.66134e-16 13:0.383198 14:-0.110485 15:0.662327 16:0.257719 17:-0.000840538 18:0.0856061 19:-0.821762 20:-0.628205 21:-0.408703 22:0.189189 23:0.646154 24:-0.1 
515.7302445639142 1:0.79882 2:0.609354 3:-0.596858 4:-0.204935 5:-0.653894 6:-0.157718 7:0.517145 8:-0.372737 9:0.0375505 10:-0.993211 11:-0.116357 12:-6.66134e-16 13:0.50835 14:-0.115918 15:0.633805 16:-0.403568 17:0.285515 18:0.0733938 19:0.544316 20:-0.832641 21:-0.202161 22:-0.369369 23:0.723077 24:0.6 
8192 1:-0.793947 2:-0.0305065 3:0.419639 4:0.0810125 5:0.314091 6:-0.00765813 7:-0.623448 8:0.645815 9:-0.899175 10:-1.81436e-06 11:2.25414e-06 12:-6.66134e-16 13:0.32969 14:-0.103491 15:0.681298 16:-0.0454195 17:-0.239671 18:-0.00345118 19:0.31072 20:0.00920255 21:-0.497055 22:0.783784 23:0.461538 24:0.3 
8192 1:0.073181 2:0.614304 3:-0.0198314 4:0.493485 5:-0.0305775 6:-0.133628 7:0.64185 8:0.548363 9:-0.363597 10:0.117568 11:-0.257751 12:-6.66134e-16 13:0.372194 14:-0.106894 15:-0.344041 16:-0.194745 17:-0.186081 18:0.0610577 19:-0.23301 20:-0.550971 21:-0.426939 22:0.477477 23:0.507692 24:0.5 
4686.01645163228 1:0.473313 2:0.00147352 3:0.40345 4:-0.188614 5:-0.602893 6:0.155889 7:0.648187 8:0.941375 9:-0.993292 10:-0.999769 11:-0.0216844 12:-6.43929e-15 13:0.479823 14:-0.0905913 15:0.603425 16:-0.415153 17:0.312451 18:-0.0872032 19:-0.230508 20:-0.997632 21:-0.249161 22:-0.369369 23:0.723077 24:0.2 
1483.435491759099 1:0.336389 2:-0.462899 3:-0.0840319 4:-0.0915367 5:0.0247871 6:0.00187036 7:0.993233 8:-0.688564 9:0.63986 10:-0.105784 11:0.22652 12:0.9625 13:0.461811 14:-0.10089 15:0.722999 16:-0.0116132 17:0.078441 18:0.499843 19:-0.212787 20:0.747329 21:-0.279178 22:-0.135135 23:0.738462 24:-0.5 
8192 1:0.257833 2:-0.792097 3:-0.0463634 4:0.0952274 5:-0.0138704 6:0.0210247 7:0.92198 8:-0.894141 9:-0.664587 10:0.185376 11:0.325979 12:0.8875 13:0.45201 14:-0.0987352 15:-0.618321 16:0.0412539 17:0.16362 18:0.450436 19:0.0732088 20:0.632355 21:-0.295306 22:-0.0810811 23:0.676923 24:-0.3 
1544.851843070966 1:-0.514586 2:-0.00108179 3:0.617928 4:0.129292 5:-0.332731 6:-0.177357 7:-0.711859 8:0.863561 9:-0.992955 10:0.999742 11:0.022747 12:2.22045e-15 13:0.44785 14:-0.116288 15:0.389315 16:0.436383 17:0.173246 18:0.0834506 19:-0.170134 20:-0.000172533 21:-0.301868 22:-0.135135 23:0.646154 24:-0.1 
7596.532290595576 1:-0.140699 2:0.219482 3:0.916583 4:-0.965824 5:0.259296 6:-0.125108 7:-0.725824 8:0.450739 9:-0.275958 10:-0.646588 11:0.762846 12:6.66134e-16 13:0.407591 14:-0.111239 15:0.807267 16:0.157239 17:0.26459 18:0.0566946 19:-0.674788 20:-0.281955 21:-0.368461 22:0.711712 23:-0.0461538 24:0.4 
1550.325965642517 1:-0.506147 2:-0.468946 3:0.727576 4:-0.655528 5:0.755279 6:-0.11943 7:-0.945933 8:0.303287 9:0.505404 10:-0.0147436 11:0.999896 12:-6.66134e-16 13:0.487904 14:-0.112262 15:-0.222865 16:0.32007 17:0.104917 18:0.0537865 19:0.00744237 20:0.196013 21:-0.236015 22:-0.423423 23:0.830769 24:0.7 
8192 1:-0.614156 2:-0.0390074 3:-0.620481 4:-0.207541 5:-0.522771 6:0.148892 7:-0.82805 8:-0.951463 9:-0.229064 10:0.751499 11:-0.659734 12:0.4 13:0.481228 14:-0.0906698 15:0.390971 16:0.481236 17:-0.130465 18:0.127569 19:0.00211407 20:0.015002 21:-0.246849 22:-0.135135 23:0.738462 24:-0.4 
8192 1:0.492801 2:-0.469314 3:-0.204558 4:-0.402091 5:0.300894 6:0.0511921 7:0.926862 8:-0.900301 9:-0.475533 10:-0.0477644 11:0.623176 12:-0.7375 13:0.36557 14:-0.0970881 15:-0.27121 16:0.175019 17:0.152798 18:-0.422968 19:-0.00237548 20:0.804495 21:-0.437786 22:0.225225 23:0.584615 24:0.3 
8192 1:-0.419639 2:-0.0374732 3:0.794357 4:-0.657124 5:0.495659 6:-0.00903731 7:-0.927119 8:0.514263 9:0.746625 10:-0.622477 11:0.639257 12:-0.577147 13:0.442833 14:-0.105337 15:-0.0485611 16:0.0131351 17:0.0426053 18:-0.307463 19:-0.33203 20:0.0206833 21:-0.310479 22:0.189189 23:0.692308 24:-0.1 
229.7489543116608 1:0.620315 2:-0.867392 3:-0.437698 4:0.0343276 5:-0.172474 6:-0.977082 7:-0.963699 8:0.176405 9:-0.508035 10:-0.0255492 11:-0.999674 12:-6.66134e-16 13:-0.804893 14:-1 15:-0.0705865 16:-0.0347168 17:-0.556142 18:0.492986 19:0.506178 20:0.743576 21:0.966429 22:0.225225 23:0.446154 24:0.8 
8192 1:-0.389024 2:-0.278463 3:-0.701642 4:-0.591458 5:-0.806315 6:-0.191655 7:-0.745795 8:-0.922626 9:-0.113912 10:-0.93628 11:0.351269 12:-0.4 13:0.403301 14:-0.116595 15:0.587203 16:-0.179019 17:0.667912 18:-0.120416 19:-0.295158 20:0.158911 21:-0.375275 22:0.531532 23:0.492308 24:0.6 
758.1457178639932 1:0.639502 2:-0.0325243 3:-0.481647 4:-0.0186972 5:0.321819 6:-0.206085 7:0.626104 8:-0.877919 9:0.00128844 10:-1 11:-0.00276914 12:-2.10942e-15 13:0.413126 14:-0.117082 15:0.482371 16:-0.501309 17:-0.246146 18:0.0981625 19:0.0559072 20:0.990915 21:-0.359052 22:-0.0810811 23:0.630769 24:-0.1 
7445.846948315215 1:0.282152 2:0.292033 3:-0.00655264 4:-0.249924 5:0.00514225 6:-0.201126 7:0.918893 8:0.242353 9:-0.50924 10:-0.029331 11:-0.99957 12:-6.66134e-16 13:0.428842 14:-0.117103 15:-0.502873 16:0.107302 17:-0.665613 18:0.0956229 19:-0.425879 20:-0.787832 21:-0.333149 22:0.171171 23:0.646154 24:0.1 
5516.92828465629 1:-0.00256068 2:-0.484225 3:-0.124508 4:0.924668 5:-0.380907 6:0.0201639 7:0.763891 8:-0.893919 9:0.0696307 10:0.105358 11:0.0232693 12:0.710261 13:0.557776 14:-0.102652 15:0.193585 16:-0.419261 17:0.203278 18:0.3573 19:-0.422136 20:0.501846 21:-0.120948 22:0.477477 23:0.553846 24:0.6 
661.4931363378637 1:-0.469953 2:-0.310586 3:0.0741077 4:0.973038 5:0.231034 6:0.0811009 7:0.842991 8:0.141648 9:-0.512828 10:0.0405848 11:0.999181 12:-6.66134e-16 13:0.924107 14:-0.0903856 15:-0.587107 16:-0.476553 17:0.427774 18:-0.0489043 19:-0.152326 20:0.14849 21:0.483304 22:0.783784 23:0.461538 
1028.558594228463 1:0.514933 2:0.844841 3:0.525361 4:-0.023605 5:0.296017 6:0.955687 7:-0.610055 8:-0.629593 9:-0.857002 10:-0.900626 11:-0.434601 12:-6.66134e-16 13:-0.763341 14:0.66637 15:0.617739 16:-0.448503 17:-0.496559 18:-0.496776 19:0.371171 20:-0.715483 21:0.74008 22:0.783784 23:0.461538 24:0.3 
1329.504000797626 1:-0.938828 2:0.0855891 3:-0.55964 4:-0.116062 5:-0.614099 6:0.752708 7:0.797601 8:0.751798 9:-0.479056 10:0.00154992 11:-0.0236779 12:-0.109235 13:-0.624945 14:0.914479 15:0.0802993 16:0.0551571 17:0.318132 18:-0.450505 19:0.563581 20:-0.0220439 21:1 22:0.747748 23:0.230769 24:-0.2 
4170.84886120368 1:0.324983 2:0.253185 3:-0.188903 4:0.400003 5:-0.269538 6:-0.147059 7:0.93303 8:-0.345445 9:-0.506105 10:-0.0194916 11:-0.99981 12:-6.66134e-16 13:0.511089 14:-0.114924 15:-0.317417 16:-0.216813 17:-0.496368 18:0.0679356 19:-0.393725 20:-0.829417 21:-0.197689 22:-0.675676 23:0.861538 24:0.3 
8192 1:-0.0606013 2:-0.860844 3:0.471919 4:0.0360336 5:0.407358 6:-0.236371 7:-0.345028 8:-0.0396884 9:-0.871171 10:-1.81436e-06 11:2.25414e-06 12:-0.257462 13:0.365186 14:0.11822 15:0.657013 16:-0.022644 17:-0.297189 18:-0.0222613 19:0.0737726 20:0.473305 21:-0.323566 22:-0.369369 23:0.430769 24:-0.1 
8192 1:-0.154591 2:-0.690768 3:0.88832 4:-0.0211985 5:0.00783993 6:-0.00765813 7:-0.616833 8:-0.436965 9:-0.599692 10:-1.81436e-06 11:2.25414e-06 12:-0.0103685 13:0.323125 14:-0.103491 15:0.511988 16:0.00633606 17:-0.0508088 18:-0.00892545 19:-0.1155 20:0.411341 21:-0.507881 22:0.765766 23:0.369231 24:-0.1 
8192 1:-0.0361637 2:-0.33616 3:-0.667704 4:-0.0332346 5:-0.0572049 6:-0.00765813 7:-0.319389 8:-0.996551 9:-0.167429 10:-1.81436e-06 11:2.25414e-06 12:-0.0172278 13:0.373968 14:-0.103491 15:0.499786 16:0.0124306 17:-0.0106961 18:-0.012547 19:-0.611674 20:0.459895 21:-0.424043 22:0.477477 23:0.507692 24:-0.8 
8192 1:0.315689 2:-0.53768 3:0.796299 4:-0.0991286 5:0.0739041 6:-0.00765813 7:-0.198986 8:-0.0157607 9:-0.712491 10:-1.81436e-06 11:2.25414e-06 12:8.61639e-05 13:0.412247 14:-0.103491 15:0.491265 16:0.0457967 17:-0.0915501 18:-0.00340569 19:-0.162722 20:0.713651 21:-0.360921 22:0.171171 23:0.553846 24:-0.2 
8192 1:0.285826 2:-0.356092 3:0.0659561 4:-0.203773 5:-0.0428332 6:-0.0483699 7:0.838536 8:-0.194626 9:0.56771 10:0.0783043 11:-0.366732 12:-0.0395668 13:0.37506 14:-0.108596 15:0.500927 16:0.138437 17:-0.245735 18:-0.00349309 19:-0.372427 20:0.763762 21:-0.422177 22:0.171171 23:0.6 24:-0.2 
8192 1:-0.0564902 2:0.00731612 3:0.71127 4:-0.0753015 5:0.0964045 6:-0.00765813 7:-0.420095 8:0.650211 9:-0.793193 10:-1.81436e-06 11:2.25414e-06 12:0.000170268 13:0.393178 14:-0.103491 15:0.495628 16:0.0337317 17:-0.105426 18:-0.00336129 19:-0.956844 20:-0.047047 21:-0.392366 22:0.261261 23:0.476923 24:-0.1 
8192 1:-0.368863 2:0.446549 3:0.841517 4:-0.00329224 5:0.00187415 6:-0.00765813 7:-0.847426 8:0.811695 9:-0.659416 10:0.0600187 11:0.10965 12:-0.0120246 13:0.371897 14:-0.105193 15:0.499096 16:0.0276622 17:0.0204935 18:-0.00979984 19:-0.189245 20:-0.238392 21:-0.42745 22:0.225225 23:0.584615 24:-0.4 
8192 1:-0.0984091 2:0.0731486 3:0.374889 4:-0.0771567 5:-0.186167 6:0.0327979 7:0.123542 8:0.802277 9:0.875523 10:-0.346271 11:0.143957 12:0.0386655 13:0.377541 14:-0.0983866 15:0.499666 16:-0.140673 17:0.157615 18:-0.00375424 19:-0.857795 20:-0.173405 21:-0.418087 22:0.189189 23:0.646154 24:-0.5 
8192 1:0.885436 2:0.217846 3:-0.697637 4:-0.581267 5:-0.813693 6:-0.42006 7:0.142094 8:-0.208162 9:-0.326632 10:-1.81436e-06 11:2.25414e-06 12:-0.137272 13:0.439442 14:-0.356507 15:0.370608 16:0.289933 17:0.455824 18:0.135262 19:0.505203 20:-0.94058 21:-0.188724 22:0.765766 23:0.415385 24:0.3 
8192 1:0.790075 2:0.227137 3:-0.605971 4:0.203613 5:0.589874 6:0.0694069 7:0.531857 8:-0.699321 9:-0.0838598 10:0.603253 11:-0.163431 12:0.100686 13:0.479216 14:-0.0950031 15:0.52158 16:0.197976 17:-0.510539 18:0.0102435 19:0.346963 20:-0.930915 21:-0.250349 22:-0.423423 23:0.784615 24:-0.4 
8192 1:-0.410218 2:-0.80367 3:-0.956498 4:-0.123849 5:-0.0170619 6:-0.00765813 7:-0.902876 8:-0.878432 9:-0.447404 10:-1.81436e-06 11:2.25414e-06 12:-1.77622e-06 13:0.335798 14:-0.103491 15:0.508732 16:0.0583142 17:-0.035452 18:-0.00345212 19:0.207726 20:0.313247 21:-0.486983 22:0.783784 23:0.461538 24:0.1 
8192 1:-0.930874 2:0.180927 3:-0.349123 4:0.132538 5:-0.257957 6:-0.0463208 7:-0.471693 8:-0.00984273 9:0.423547 10:-0.119953 11:-0.485397 12:0.030375 13:0.183259 14:0.0918609 15:0.77187 16:-0.132251 17:-0.186255 18:0.032385 19:0.563749 20:-0.0467711 21:-0.592622 22:-0.0990991 23:0.738462 24:0.2 
8192 1:-0.257926 2:0.361771 3:-0.546235 4:-0.0533015 5:-0.365903 6:-0.00765813 7:-0.310157 8:-0.275483 9:-0.02957 10:-1.81436e-06 11:2.25414e-06 12:0.0114642 13:0.299794 14:-0.103491 15:0.516109 16:0.0225917 17:0.179676 18:0.00260161 19:-0.402324 20:-0.262676 21:-0.546353 22:0.855856 23:0.246154 24:-0.6 
8192 1:-0.627542 2:0.831516 3:-0.567633 4:0.0455398 5:0.211555 6:-0.00765813 7:-0.693872 8:0.182601 9:-0.0842089 10:-1.81436e-06 11:2.25414e-06 12:0.00343583 13:0.304426 14:-0.103491 15:0.482899 16:-0.0274575 17:-0.176439 18:-0.00163716 19:0.480109 20:-0.251669 21:-0.538715 22:0.855856 23:0.292308 24:0.7 
8192 1:0.146226 2:-0.702451 3:0.944443 4:0.752254 5:-0.132701 6:0.0955345 7:-0.545287 8:-0.540206 9:-0.538193 10:-0.0899638 11:-0.744584 12:0.13744 13:0.462815 14:-0.0932972 15:0.517334 16:-0.430864 17:-0.423349 18:0.0162689 19:-0.101884 20:0.588792 21:-0.277323 22:-0.405405 23:0.538462 24:0.2 
8192 1:0.23441 2:0.842106 3:0.42541 4:-0.133256 5:-0.558507 6:-0.799437 7:-0.642617 8:0.72179 9:-0.419133 10:0.0627144 11:-0.242004 12:-0.0478614 13:-0.245976 14:0.43385 15:-0.84472 16:0.0948357 17:0.1492 18:0.376746 19:0.126859 20:-0.612532 21:-0.0649558 22:0.459459 23:0.415385 24:-0.2 
8192 1:0.802693 2:0.498911 3:-0.946637 4:0.985936 5:0.167637 6:-0.0293515 7:0.0681447 8:0.326908 9:0.713581 10:0.0774602 11:-0.0981033 12:0.380753 13:0.472191 14:-0.101998 15:-0.340845 16:-0.464411 17:-0.209859 18:0.208685 19:0.483122 20:-0.859285 21:-0.262072 22:-0.54955 23:0.630769 24:0.4 
6384.694058178322 1:0.801589 2:-0.615674 3:0.596217 4:0.297741 5:-0.954659 6:0.404744 7:0.44715 8:0.176121 9:0.314004 10:-0.553197 11:-0.833052 12:0.117459 13:0.422793 14:-0.0171406 15:-0.282809 16:-0.435289 17:0.0289861 18:-0.152625 19:0.548183 20:0.835009 21:-0.327117 22:-0.747748 23:0.907692 24:0.6 
8192 1:-0.630265 2:-0.275663 3:-0.0248592 4:-0.724881 5:0.0565873 6:-0.184886 7:0.0221013 8:-0.35625 9:-0.683934 10:-0.546202 11:-0.837655 12:-0.171897 13:0.409056 14:-0.115437 15:-0.659158 16:0.0860684 17:-0.597481 18:-0.00345043 19:0.085834 20:0.102326 21:-0.365856 22:0.117117 23:0.6 24:0.1 
8192 1:0.963379 2:0.306453 3:0.428206 4:3.43891e-05 5:6.53788e-05 6:-0.806687 7:0.618894 8:-0.287258 9:-0.254735 10:0.173985 11:-0.179522 12:-0.075 13:-0.402937 14:0.0228931 15:-0.683217 16:0.0836877 17:-0.156733 18:0.36613 19:0.660681 20:-0.92404 21:-0.477941 22:0.441441 23:0.476923 24:0.1 
8192 1:0.40658 2:0.690784 3:-0.297481 4:-0.343282 5:0.464434 6:0.00867328 7:0.754437 8:0.00165796 9:0.136659 10:-0.142171 11:-0.0648205 12:-0.934375 13:0.407089 14:-0.105572 15:0.433521 16:0.0974348 17:-0.372365 18:-0.505139 19:0.0978696 20:-0.710176 21:-0.369417 22:0.0810811 23:0.446154 
8192 1:0.18584 2:-0.842604 3:0.112189 4:0.934783 5:0.344121 6:0.404744 7:0.553859 8:-0.229186 9:0.620213 10:0.366464 11:-0.930432 12:-0.0544995 13:0.321922 14:0.0784221 15:0.507172 16:-0.292164 17:-0.832019 18:-0.243415 19:0.0927636 20:0.593261 21:-0.422313 22:0.441441 23:0.476923 24:0.2 
1804.822257351832 1:-0.222563 2:-0.842175 3:-0.357769 4:0.0270671 5:-0.0562903 6:0.868696 7:0.727211 8:0.601696 9:0.769844 10:0.0467465 11:-0.041481 12:-0.85 13:-0.43927 14:0.739811 15:-0.873398 16:0.00556867 17:-0.0368442 18:-0.901005 19:0.108279 20:0.395613 21:0.577766 22:0.783784 23:0.476923 24:-1 
8192 1:-0.0558167 2:0.828878 3:0.685743 4:0.516561 5:-0.782372 6:-0.574711 7:-0.622085 8:0.455128 9:0.801789 10:0.50667 11:-0.365936 12:-0.0241971 13:0.0247253 14:0.301363 15:0.115168 16:-0.00939598 17:0.210823 18:0.274158 19:0.0402265 20:-0.473048 21:-0.355712 22:-0.405405 23:0.6 24:0.5 
8192 1:-0.784497 2:-0.118084 3:-0.359315 4:0.152268 5:-0.32129 6:0.134799 7:-0.515752 8:-0.745488 9:-0.0050846 10:0.249962 11:-0.00430704 12:-0.625 13:0.334848 14:-0.100441 15:0.353688 16:0.0450759 17:0.149506 18:-0.406386 19:0.302325 20:0.0362616 21:-0.488524 22:0.783784 23:0.476923 24:0.5 
2245.849146540509 1:-0.939417 2:0.0149274 3:-0.464866 4:0.0203051 5:-0.18203 6:-0.979341 7:-0.431295 8:-0.294883 9:0.305385 10:0.575533 11:0.817782 12:0.229804 13:0.160096 14:0.176001 15:0.769505 16:0.276759 17:0.570634 18:0.615474 19:0.560588 20:-0.00381918 21:-0.496269 22:0.0630631 23:0.661538 24:-0.3 
8192 1:0.476029 2:0.431018 3:-0.9078 4:0.321734 5:0.0961889 6:0.134119 7:-0.202344 8:0.143973 9:0.684342 10:0.272568 11:-0.419172 12:-0.475 13:0.45865 14:-0.0969619 15:-0.408898 16:-0.0292876 17:-0.363811 18:-0.326842 19:-0.0496516 20:-0.808048 21:-0.284316 22:-0.189189 23:0.661538 24:-0.6 
3270.084731634168 1:0.520315 2:0.759897 3:-0.132102 4:0.915318 5:-0.402853 6:-0.42006 7:0.69296 8:-0.597507 9:0.914883 10:-0.963663 11:0.267136 12:-0.196462 13:0.377836 14:-0.642083 15:-0.954081 16:-0.955857 17:0.367213 18:0.104011 19:0.292793 20:-0.733699 21:0.102261 22:0.783784 23:0.476923 24:-0.5 
8192 1:-0.704856 2:0.309744 3:-0.331596 4:-0.234903 5:0.401525 6:-0.200254 7:-0.398036 8:-0.365522 9:0.00979265 10:-0.99957 11:-0.0294655 12:-0.186804 13:0.366856 14:-0.115437 15:0.340841 16:-0.391613 17:-0.311765 18:-0.00345118 19:0.224364 20:-0.103128 21:-0.435408 22:0.441441 23:0.507692 24:0.2 
8192 1:-0.552064 2:-0.65391 3:0.145321 4:-1.60049e-06 5:4.7693e-05 6:0.00246729 7:0.0599389 8:-0.253783 9:-0.38787 10:0.0592134 11:-0.16135 12:-0.939062 13:0.42722 14:-0.105818 15:-0.533427 16:0.0255881 17:-0.145515 18:-0.504436 19:0.219965 20:0.234287 21:-0.33622 22:-0.027027 23:0.507692 24:-0.1 
8192 1:-0.0953323 2:-0.816308 3:0.0894813 4:-0.960686 5:-0.277604 6:0.404744 7:0.277027 8:-0.381227 9:0.69948 10:-0.438267 11:0.608629 12:0.272871 13:0.273067 14:0.0210304 15:0.609096 16:0.260127 17:0.500581 18:-0.0705721 19:0.0230768 20:0.454105 21:-0.541906 22:0.715315 23:0.28 24:0.8 
8192 1:-0.565628 2:-0.879043 3:0.393658 4:0.0767512 5:0.221165 6:-0.995056 7:-0.72353 8:-0.243956 9:-0.794709 10:0.0436932 11:0.0328882 12:0.3314 13:0.221627 14:0.10876 15:0.811678 16:-0.0211355 17:-0.162083 18:0.677161 19:0.447605 20:0.27759 21:-0.524967 22:-0.563964 23:0.587692 24:-0.4 
8192 1:0.264715 2:-0.00753625 3:0.380368 4:-0.190453 5:-0.482832 6:0.146067 7:0.439486 8:0.650582 9:-0.0874039 10:-0.240561 11:0.0680564 12:0.417548 13:0.33327 14:-0.100105 15:-0.468156 16:-0.0297748 17:0.293756 18:0.138281 19:-0.589211 20:0.998113 21:-0.49112 22:0.783784 23:0.476923 
8192 1:-0.0791466 2:0.210045 3:0.0351404 4:0.175417 5:0.0195526 6:0.0401844 7:0.636568 8:0.317824 9:-0.477023 10:-0.00672906 11:0.0935108 12:0.421486 13:0.476262 14:-0.102216 15:-0.512362 16:-0.0966288 17:-0.000362219 18:0.194582 19:-0.742036 20:-0.359686 21:-0.255358 22:-0.261261 23:0.723077 24:-0.3 
4464.441552647027 1:-0.402557 2:-0.143795 3:0.267811 4:0.288652 5:0.323042 6:0.620438 7:-0.205469 8:0.529563 9:0.789165 10:-0.786839 11:0.617166 12:0.262224 13:0.308127 14:0.0253118 15:0.520423 16:-0.548998 17:0.135433 18:-0.186649 19:-0.338754 20:0.0839827 21:-0.485598 22:0.765766 23:0.446154 24:0.1 
8192 1:0.437207 2:-0.522087 3:0.0778801 4:-0.503572 5:-0.125801 6:-0.057712 7:0.951748 8:-0.337922 9:0.538184 10:0.0476884 11:-0.40344 12:-0.0125463 13:0.355335 14:-0.108976 15:0.459497 16:0.27474 17:-0.217209 18:0.0155571 19:-0.034069 20:0.769419 21:-0.45469 22:0.585586 23:0.538462 24:0.1 
8192 1:0.565588 2:0.0962833 3:-0.379711 4:-0.0225034 5:0.0567657 6:-0.0186105 7:0.796679 8:-0.795515 9:0.118969 10:-0.23288 11:-0.0909268 12:-0.00452414 13:0.47172 14:-0.106894 15:0.49806 16:-0.110928 17:-0.13706 18:-0.000231159 19:-0.0632437 20:-0.957959 21:-0.262829 22:-0.189189 23:0.753846 24:0.3 
8192 1:-0.17978 2:0.12987 3:0.557992 4:-0.0542928 5:0.294927 6:0.0688497 7:-0.273823 8:0.908932 9:0.052797 10:-1.81436e-06 11:2.25414e-06 12:0.714584 13:0.38225 14:-0.103491 15:-0.505639 16:0.0230937 17:-0.227853 18:0.33465 19:-0.69965 20:-0.164702 21:-0.410386 22:0.423423 23:0.476923 24:-0.5 
211.2503394841031 1:0.0668482 2:-0.025267 3:-0.625889 4:-0.01411 5:-0.0338688 6:0.0125036 7:-0.224055 8:-0.956335 9:0.922511 10:-0.121225 11:0.0304998 12:-0.161457 13:0.502093 14:-0.105174 15:-0.452743 16:-0.058638 17:-0.00627851 18:-0.0990207 19:-0.926147 20:0.927491 21:-0.212763 22:-0.405405 23:0.815385 24:-0.1 
5400.844409815484 1:-0.380698 2:0.380456 3:-0.934958 4:-0.208977 5:-0.0434025 6:-0.2428 7:-0.875155 8:0.258232 9:0.604341 10:-0.319665 11:0.947536 12:-0.0571509 13:0.337363 14:-0.117005 15:-0.461697 16:-0.0604514 17:0.565166 18:0.0867896 19:-0.229616 20:-0.208455 21:-0.483907 22:0.783784 23:0.476923 24:0.7 
8192 1:-0.22369 2:0.662101 3:-0.82101 4:0.329505 5:0.207996 6:-0.166381 7:-0.806222 8:0.169335 9:-0.338048 10:-0.425749 11:0.764442 12:-0.134343 13:0.462038 14:-0.115384 15:0.482553 16:-0.386836 17:0.297211 18:0.00690053 19:-0.101983 20:-0.368373 21:-0.278527 22:-0.117117 23:0.723077 
8192 1:0.139708 2:0.131446 3:-0.379088 4:0.18804 5:-0.470236 6:0.0828651 7:0.420797 8:-0.805861 9:0.106472 10:0.354397 11:0.122588 12:0.344835 13:0.50186 14:-0.0983923 15:0.484947 16:0.0798464 17:0.319619 18:0.132256 19:-0.747683 20:-0.801982 21:-0.213102 22:-0.459459 23:0.753846 24:0.1 
8192 1:0.319274 2:0.129079 3:0.233294 4:-0.00681929 5:-0.00610641 6:-0.0127688 7:0.819127 8:0.762098 9:-0.257057 10:-0.129507 11:0.135593 12:0.94375 13:0.461843 14:-0.10094 15:-0.490654 16:-0.0665236 17:0.0414151 18:0.49744 19:-0.469099 20:-0.903775 21:-0.279125 22:-0.423423 23:0.723077 24:0.7 
8192 1:0.295737 2:0.0145392 3:-0.590317 4:-0.00881665 5:-0.0303497 6:-0.127242 7:0.101882 8:-0.80448 9:-0.0778946 10:-0.242486 11:0.0608449 12:-0.625 13:0.417924 14:-0.106892 15:0.51189 16:-0.122722 17:0.0102661 18:-0.272196 19:-0.535367 20:-0.985611 21:-0.351533 22:0.207207 23:0.630769 24:0.2 
8192 1:0.251195 2:-0.2605 3:-0.0188811 4:0.998332 5:-0.0589371 6:-0.402198 7:0.946332 8:-0.335657 9:0.533776 10:0.103633 11:-0.994615 12:-0.111678 13:0.471711 14:-0.116923 15:0.551838 16:-0.457435 17:-0.62304 18:0.139628 19:-0.498541 20:0.793304 21:-0.262504 22:0.783784 23:0.476923 24:-0.6 
8192 1:-0.281359 2:0.704048 3:-0.433713 4:0.00239076 5:-0.0110601 6:-0.0130736 7:-0.123037 8:-0.225733 9:-0.87515 10:-0.0866186 11:-0.0358673 12:-0.0040153 13:0.460174 14:-0.104746 15:-0.441464 16:-0.0494696 17:-0.0612752 18:-0.00279793 19:-0.00982696 20:-0.347228 21:-0.281887 22:-0.117117 23:0.723077 24:-0.2 
2686.130561279801 1:-0.43999 2:-0.637265 3:0.40508 4:0.00263266 5:0.00852165 6:-0.176739 7:-0.21697 8:0.16041 9:0.980606 10:0.997949 11:-0.0640206 12:-0.204437 13:0.399598 14:-0.116732 15:0.574499 16:0.49961 17:-0.0907141 18:-0.0248031 19:0.0678416 20:0.26648 21:-0.381368 22:0.387387 23:0.569231 24:-0.5 
8192 1:-0.426198 2:-0.60001 3:0.393237 4:0.0153501 5:0.0440181 6:-0.0189435 7:-0.176037 8:0.274498 9:0.955967 10:0.247503 11:-0.0352363 12:0.142632 13:0.44605 14:-0.10683 15:0.561716 16:0.11316 17:-0.0948523 18:0.0776341 19:0.0160082 20:0.261956 21:-0.305157 22:0.00900901 23:0.692308 24:0.3 
5375.317825625174 1:0.0303954 2:-0.224405 3:0.900976 4:-0.387353 5:0.124686 6:-0.0658932 7:-0.576157 8:0.0635694 9:0.467772 10:0.051611 11:0.497332 12:-0.0455928 13:0.424095 14:-0.110151 15:-0.433848 16:0.217878 17:0.183853 18:0.00229897 19:-0.755556 20:0.56414 21:-0.341285 22:0.00900901 23:0.507692 24:-0.7 
8192 1:0.239394 2:0.193047 3:0.891853 4:-0.942796 5:0.333468 6:-0.183858 7:-0.391212 8:0.519584 9:0.419537 10:0.252102 11:0.967705 12:-0.4 13:0.442158 14:-0.117054 15:-0.472933 16:0.600656 17:0.345192 18:-0.124409 19:-0.560294 20:-0.824455 21:-0.311205 22:0.783784 23:0.476923 24:0.8 
6772.35409963829 1:0.345714 2:-0.0312198 3:0.953714 4:-0.419623 5:0.0615938 6:-0.232855 7:-0.185291 8:0.102965 9:-0.457592 10:-0.132436 11:0.991196 12:-0.21732 13:0.338883 14:-0.116579 15:0.588617 16:0.14102 17:0.527342 18:-0.00286782 19:-0.448853 20:0.982592 21:-0.481431 22:0.783784 23:0.476923 24:0.3 
8192 1:-0.144792 2:-0.37853 3:0.0746474 4:-0.152711 5:-0.0364666 6:0.0192845 7:0.462149 8:-0.163994 9:-0.498426 10:-0.00149036 11:0.322265 12:-0.501616 13:0.404584 14:-0.09922 15:-0.573254 16:0.0721751 17:0.175264 18:-0.282088 19:-0.502794 20:0.354256 21:-0.373515 22:0.243243 23:0.569231 24:-0.4 
8192 1:-0.317393 2:0.0194533 3:-0.846734 4:0.0660934 5:0.0346393 6:0.00299311 7:-0.932001 8:-0.434631 9:0.600607 10:0.0771312 11:-0.237802 12:0.0428312 13:0.479275 14:-0.100136 15:-0.55364 16:0.0011935 17:-0.213997 18:0.0137081 19:-0.508419 20:-0.0166283 21:-0.250371 22:-0.279279 23:0.692308 24:-0.2 
8192 1:0.184851 2:0.385345 3:0.643208 4:0.0956074 5:-0.197851 6:-0.251632 7:-0.00287642 8:0.949665 9:0.0284734 10:0.99612 11:0.088012 12:-0.0386372 13:0.289713 14:-0.116222 15:-0.615151 16:0.451606 17:0.130318 18:0.101087 19:-0.448244 20:-0.680311 21:-0.562472 22:0.63964 23:0.476923 24:0.1 
8192 1:0.322788 2:0.85067 3:0.98507 4:0.124901 5:-0.005818 6:-0.0431511 7:-0.383586 8:0.88504 9:0.128137 10:0.489098 11:0.207388 12:-0.79375 13:0.462233 14:-0.106624 15:-0.85736 16:0.180027 17:0.0855154 18:-0.404354 19:0.197819 20:-0.648016 21:-0.278476 22:-0.711712 23:0.630769 24:-0.7 
8192 1:0.350231 2:-0.617168 3:0.173977 4:0.0210004 5:0.0128268 6:0.068545 7:0.971782 8:-0.0535994 9:0.627983 10:-0.255317 11:0.604552 12:0.0593755 13:0.505085 14:-0.0946547 15:0.453158 16:-0.144318 17:0.318961 18:-0.0111259 19:-0.0443004 20:0.708133 21:-0.207687 22:-0.801802 23:0.738462 
8192 1:0.345303 2:0.223096 3:0.307433 4:-0.0380616 5:-0.0550474 6:0.00343917 7:0.68186 8:0.919932 9:0.954342 10:-0.247323 11:0.036503 12:0.206793 13:0.410863 14:-0.100439 15:0.645883 16:-0.110364 17:0.0104845 18:0.100047 19:-0.381724 20:-0.854056 21:-0.363182 22:0.153153 23:0.569231 24:0.6 
8192 1:-0.833809 2:0.0374712 3:0.428189 4:-0.055581 5:-0.242354 6:-0.0423371 7:-0.633601 8:0.912687 9:0.993925 10:0.374906 11:-0.00834055 12:-0.0406546 13:0.439338 14:-0.10849 15:0.564704 16:0.213592 17:0.0983385 18:-0.00715679 19:0.3798 20:-0.0109768 21:-0.316195 22:-0.135135 23:0.723077 24:0.6 
8192 1:-0.872846 2:0.51227 3:-0.459141 4:0.0136043 5:-0.104671 6:-0.162851 7:-0.749834 8:-0.405285 9:0.981699 10:-0.499084 11:0.0303014 12:-0.139468 13:0.448441 14:-0.110175 15:-0.560315 16:-0.264012 17:0.037262 18:0.00238722 19:0.590361 20:-0.133814 21:-0.301144 22:-0.243243 23:0.538462 24:-0.1 
8192 1:0.293012 2:0.199169 3:0.385401 4:-0.00808624 5:-0.0215144 6:0.0667524 7:0.478941 8:0.907963 9:-0.0314333 10:0.0155452 11:-0.0015571 12:0.209316 13:0.364475 14:-0.103697 15:-0.417252 16:0.00756922 17:-0.0336679 18:0.0689567 19:-0.47606 20:-0.847513 21:-0.439695 22:0.585586 23:0.538462 24:0.4 
7351.105640076078 1:0.21929 2:0.0952362 3:0.0769297 4:0.260987 5:0.0644584 6:0.131551 7:0.895356 8:0.353762 9:-0.477144 10:-0.0713803 11:0.997454 12:0.136169 13:0.473534 14:-0.0900764 15:-0.554266 16:-0.172696 17:0.529435 18:-0.00284638 19:-0.646288 20:-0.896656 21:-0.2595 22:-0.315315 23:0.630769 24:0.1 
8192 1:0.0577533 2:0.313222 3:0.230662 4:0.00587886 5:0.00524151 6:0.0737431 7:0.449644 8:0.779339 9:0.821121 10:-1.81436e-06 11:2.25414e-06 12:-0.42561 13:0.33761 14:-0.103491 15:0.589503 16:-0.00737484 17:-0.0492063 18:-0.269847 19:-0.623528 20:-0.578596 21:-0.483995 22:0.783784 23:0.476923 24:-0.6 
8192 1:-0.0146012 2:0.0841114 3:-0.276563 4:-0.274405 5:0.32435 6:0.0550515 7:0.473053 8:-0.689254 9:-0.81673 10:-1.81436e-06 11:2.25414e-06 12:0.0868197 13:0.50238 14:-0.103491 15:-0.540206 16:0.13455 17:-0.245998 18:0.0102739 19:-0.933881 20:-0.444823 21:-0.212294 22:-0.369369 23:0.846154 24:0.2 
8192 1:0.182995 2:-0.866514 3:0.841663 4:0.509457 5:-0.276616 6:0.273707 7:-0.177479 8:-0.582541 9:0.0476017 10:-1.81436e-06 11:2.25414e-06 12:0.921887 13:0.249843 14:-0.103491 15:-0.794461 16:-0.262367 17:0.124613 18:0.339194 19:0.121369 20:0.589571 21:-0.628721 22:0.513514 23:0.538462 24:0.8 
8192 1:0.665306 2:-0.242428 3:0.86231 4:0.907913 5:-0.419274 6:-0.209815 7:0.266956 8:0.0185552 9:0.108295 10:0.943174 11:0.332301 12:-6.66134e-16 13:0.256456 14:-0.112981 15:-0.754447 16:0.0134761 17:0.417529 18:0.100072 19:0.141226 20:0.917425 21:-0.617505 22:0.765766 23:0.507692 24:0.5 
8192 1:-0.934684 2:-0.210331 3:0.053094 4:0.322827 5:0.0544967 6:-0.778844 7:-0.565963 8:0.295637 9:-0.733711 10:-0.167482 11:-0.185606 12:-6.66134e-16 13:0.229928 14:0.0975537 15:-0.786846 16:-0.252674 17:-0.194052 18:0.39147 19:0.574889 20:0.0541285 21:-0.528101 22:0.459459 23:0.446154 24:0.5 
8192 1:0.930924 2:0.101451 3:0.521871 4:-0.0455833 5:0.662602 6:-0.74386 7:0.505618 8:0.0700926 9:-0.0138612 10:0.104391 11:-0.00467705 12:-6.66134e-16 13:-0.042568 14:0.145158 15:-0.536141 16:0.0715461 17:-0.457482 18:0.373555 19:0.562204 20:-0.973013 21:-0.653499 22:0.225225 23:0.430769 24:0.3 
8192 1:-0.897955 2:0.47908 3:-0.584681 4:3.4924e-05 5:6.73461e-05 6:-0.00765813 7:-1 8:-0.274695 9:0.738033 10:-1.81436e-06 11:2.25414e-06 12:-1 13:0.372095 14:-0.103491 15:-0.678312 16:-0.00441571 17:-0.0460155 18:-0.531424 19:0.612948 20:-0.122846 21:-0.42713 22:-0.711712 23:-0.492308 24:-0.6 
2212.745450203749 1:-0.0953748 2:-0.192013 3:0.758403 4:-0.725468 5:0.68836 6:-0.0070878 7:-0.734934 8:0.647299 9:-0.242809 10:0.722338 11:-0.691539 12:-6.66134e-16 13:0.606625 14:-0.103429 15:0.998553 16:0.728728 17:-0.896976 18:-0.00374325 19:-0.756797 20:0.31896 21:-0.0403971 22:0.783784 23:0.507692 24:-0.7 
8192 1:-0.315332 2:0.402114 3:-0.892186 4:-0.519516 5:-0.183368 6:-0.0835993 7:-0.759826 8:0.189304 9:0.675559 10:-0.260909 11:0.426533 12:-6.66134e-16 13:0.311423 14:-0.110148 15:-0.433288 16:0.126546 17:0.330163 18:0.035438 19:-0.295834 20:-0.247024 21:-0.527047 22:0.585586 23:0.107692 
2748.330164033204 1:0.516692 2:0.85931 3:-0.61679 4:0.029492 5:0.0768463 6:0.893109 7:0.355925 8:0.279683 9:0.479503 10:-1.81436e-06 11:2.25414e-06 12:-1 13:0.274877 14:-0.0904234 15:-0.90458 16:-0.0193316 17:-0.0933645 18:-0.992703 19:0.387812 20:-0.713381 21:-0.586884 22:0.567568 23:0.323077 24:-0.8 
5480.979520589621 1:0.263014 2:0.749413 3:0.963684 4:-0.620915 5:0.0713252 6:-0.00765813 7:-0.425121 8:0.840733 9:0.532984 10:-1.81436e-06 11:2.25414e-06 12:-1 13:0.453619 14:-0.103491 15:-0.431375 16:0.310009 17:-0.0899596 18:-0.531424 19:0.0340626 20:-0.638467 21:-0.2927 22:-0.243243 23:0.323077 24:-0.8 
2730.025761090761 1:0.101386 2:-0.883001 3:0.549398 4:-0.0244228 5:0.156377 6:-0.00765813 7:0.0647018 8:-0.295715 9:0.0966389 10:0.358012 11:0.11159 12:-6.66134e-16 13:0.259496 14:-0.123105 15:-0.45323 16:0.189259 17:-0.0735909 18:-0.00345118 19:0.112296 20:0.550849 21:-0.611489 22:-0.405405 23:0.723077 24:-0.7 
341.2462527673908 1:0.699875 2:-0.385461 3:0.797856 4:-0.202644 5:0.149448 6:-0.00765813 7:0.264701 8:0.0292898 9:0.178902 10:-1.81436e-06 11:2.25414e-06 12:1 13:0.321163 14:-0.103491 15:-0.619439 16:0.0982128 17:-0.138138 18:0.524522 19:0.257903 20:0.877215 21:-0.511117 22:0.585586 23:0.215385 24:-0.7 
8192 1:-0.77802 2:0.15761 3:-0.392896 4:-0.101867 5:0.290979 6:-0.0100119 7:-0.576438 8:-0.46218 9:0.615056 10:-0.219598 11:0.585155 12:-6.66134e-16 13:0.30914 14:-0.103679 15:-0.992971 16:-0.0640155 17:0.135464 18:-0.00224585 19:0.299328 20:-0.0489182 21:-0.530942 22:0.765766 23:0.415385 24:-0.8 
5793.901357156845 1:0.942573 2:0.47988 3:0.268143 4:-0.457558 5:-0.513079 6:-0.729361 7:0.452793 8:0.841023 9:0.362292 10:0.210516 11:0.453526 12:-6.66134e-16 13:-0.112482 14:0.230556 15:0.0934756 16:0.333893 17:0.55014 18:0.36613 19:0.694443 20:-0.882198 21:-0.485287 22:-0.603604 23:0.103212 24:-0.4 
8192 1:0.807511 2:-0.903037 3:0.458435 4:-0.0964229 5:-0.734803 6:-0.216605 7:0.810273 8:0.00389713 9:-0.518935 10:-0.0597388 11:-0.998214 12:-6.66134e-16 13:0.43096 14:-0.0742064 15:-0.977482 16:0.0141771 17:-0.208458 18:0.103549 19:0.772831 20:0.778832 21:-0.328192 22:-0.927928 23:0.0416733 24:0.6 
8192 1:-0.167709 2:0.814983 3:-0.905851 4:0.00177343 5:0.00059662 6:-0.00765813 7:-0.720998 8:0.565781 9:0.0948322 10:-1.81436e-06 11:2.25414e-06 12:-0.704539 13:0.386432 14:-0.103491 15:-1 16:-0.00529601 17:-0.0463419 18:-0.375429 19:0.0551963 20:-0.417033 21:-0.403489 22:-0.387387 23:-0.1 24:0.4 
8192 1:0.0208374 2:0.864844 3:-0.956691 4:0.153211 5:0.021148 6:-0.00765813 7:-0.444901 8:0.760923 9:0.0439685 10:-1.81436e-06 11:2.25414e-06 12:-6.66134e-16 13:0.300107 14:-0.103491 15:-1 16:-0.0819778 17:-0.0590158 18:-0.00345118 19:0.0841342 20:-0.511149 21:-0.545837 22:0.243243 23:0.107692 24:0.3 
8192 1:-0.546752 2:-0.750767 3:0.0341848 4:-0.980129 5:-0.105866 6:-0.00765813 7:0.125908 8:-0.636058 9:-0.965912 10:-0.994215 11:-0.107444 12:-6.66134e-16 13:0.427219 14:-0.103491 15:-1 16:-0.0115485 17:-0.0469531 18:-0.00345118 19:0.30142 20:0.257914 21:-0.336233 22:-0.405405 23:0.415385 24:0.5 
5070.091350193075 1:-0.322897 2:0.773542 3:-0.772012 4:0.094271 5:0.0821998 6:-0.00765813 7:-0.813441 8:0.157316 9:0.673709 10:-1.81436e-06 11:2.25414e-06 12:-1 13:0.448907 14:-0.103491 15:-0.555293 16:-0.0521331 17:-0.0966659 18:-0.531424 19:0.103773 20:-0.341239 21:-0.30047 22:-0.54955 23:0.307692 24:-0.8 
8192 1:0.752723 2:-0.421215 3:0.475432 4:3.58697e-05 5:8.45396e-05 6:-0.00765813 7:0.7633 8:0.383776 9:-0.0916888 10:-1.81436e-06 11:2.25414e-06 12:-1 13:0.383557 14:-0.103491 15:-0.567489 16:-0.00441619 17:-0.0460261 18:-0.531424 19:0.359736 20:0.875299 21:-0.40823 22:-0.315315 23:-0.0615385 24:0.5 
1073.374967906141 1:-0.019008 2:-0.772535 3:-0.0905429 4:-0.0093273 5:0.00279938 6:-0.00765813 7:0.484984 8:-0.949222 9:-0.48339 10:-1.81436e-06 11:2.25414e-06 12:-6.66134e-16 13:0.335849 14:-0.103491 15:-0.39306 16:0.00032495 17:-0.0477003 18:-0.00345118 19:-0.045474 20:0.492702 21:-0.486899 22:0.495495 23:0.246154 24:0.8 
5139.321713826065 1:0.940802 2:0.158852 3:-0.752967 4:0.373492 5:0.36709 6:0.150148 7:0.579134 8:-0.264465 9:0.611715 10:-1.81436e-06 11:2.25414e-06 12:1 13:0.280687 14:-0.103491 15:-0.636292 16:-0.19352 17:-0.272356 18:0.44371 19:0.587123 20:-0.958758 21:-0.57786 22:0.54955 23:0.276923 24:0.9 
1270.465073352923 1:0.944915 2:-0.158514 3:0.298721 4:-0.184636 5:-0.252054 6:-0.961337 7:0.499968 8:0.574702 9:0.428575 10:-1.81436e-06 11:2.25414e-06 12:-1 13:0.0984615 14:0.312574 15:0.129145 16:0.0890941 17:0.109466 18:-0.0430491 19:0.592979 20:0.962509 21:-0.308368 22:-0.441441 23:0.0307692 24:-0.5 
8192 1:-0.494192 2:-0.861504 3:0.0536866 4:-0.985773 5:-0.168056 6:-0.00765813 7:0.0467944 8:-0.719681 9:-0.946401 10:-0.677268 11:-0.115497 12:-6.66134e-16 13:0.335723 14:-0.103491 15:-1 16:0.151804 17:-0.0135672 18:-0.00345118 19:0.352993 20:0.295538 21:-0.487108 22:0.225225 23:0.476923 24:0.5 
5011.448477900606 1:0.935045 2:0.589619 3:0.985571 4:0.370051 5:-0.016785 6:0.910213 7:0.526876 8:0.367195 9:0.487311 10:-1.81436e-06 11:2.25414e-06 12:1 13:0.216147 14:0.00892981 15:-0.498905 16:-0.191777 17:-0.0356228 18:0.0544839 19:0.739511 20:-0.857561 21:-0.636519 22:0.243243 23:0.523077 24:-0.2 
4932.641979972041 1:0.878023 2:0.0387526 3:0.567345 4:-0.0987722 5:0.460067 6:-0.192684 7:0.737116 8:0.737716 9:0.144396 10:0.449768 11:0.218424 12:-6.66134e-16 13:0.337867 14:-0.110101 15:-0.423447 16:0.27337 17:-0.194986 18:0.0912998 19:0.466415 20:-0.988531 21:-0.483453 22:-0.54955 23:-0.676923 24:-0.7 
8192 1:0.466624 2:-0.644704 3:-0.136954 4:-0.0477828 5:0.0219909 6:-0.095359 7:0.842808 8:-0.888341 9:-0.610177 10:-0.169687 11:-0.470325 12:-6.66134e-16 13:0.277465 14:-0.110273 15:-0.473368 16:-0.0661276 17:-0.349602 18:0.0414601 19:0.113466 20:0.745957 21:-0.583024 22:0.261261 23:-0.430769 24:-0.4 
8192 1:0.145241 2:0.806305 3:-0.927429 4:0.48676 5:0.113359 6:-0.00765813 7:-0.509238 8:0.585925 9:0.0732441 10:0.608727 11:0.141691 12:-6.66134e-16 13:0.442779 14:-0.103491 15:-1 16:0.0573738 17:-0.0284979 18:-0.00345118 19:0.0373288 20:-0.57505 21:-0.310575 22:-0.405405 23:0.415385 24:0.5 
8192 1:0.788777 2:0.253229 3:0.988361 4:0.999399 5:-0.0366715 6:-0.00765813 7:0.241609 8:0.27608 9:-0.0112969 10:0.405907 11:-0.0149187 12:-6.66134e-16 13:0.328625 14:-0.103491 15:-1 16:-0.30491 17:-0.0325611 18:-0.00345118 19:0.352523 20:-0.923249 21:-0.498811 22:0.477477 23:0.553846 24:0.5 
8192 1:-0.114156 2:-0.852822 3:0.48607 4:0.0100411 5:0.228864 6:-0.0318954 7:-0.418152 8:-0.371125 9:0.184872 10:0.104613 11:0.0684182 12:-0.0243815 13:0.192538 14:0.10912 15:-0.301733 16:0.0434925 17:-0.144918 18:-0.00391212 19:0.0752739 20:0.447033 21:-0.559294 22:-0.333333 23:0.646154 24:-0.6 
8192 1:0.256267 2:-0.847929 3:-0.237234 4:-0.643248 5:0.59327 6:-0.613373 7:0.480821 8:-0.592313 9:0.0454068 10:-1.81436e-06 11:2.25414e-06 12:-0.5 13:-0.00358819 14:0.0818815 15:0.282085 16:0.321317 17:-0.411839 18:0.0427464 19:0.139354 20:0.623891 21:-0.764134 22:0.765766 23:0.461538 24:-0.6 
8192 1:-0.761877 2:-0.807956 3:-0.0190579 4:3.34507e-05 5:6.54348e-05 6:-0.00765813 7:0.010713 8:-0.84511 9:0.982032 10:-1.81436e-06 11:2.25414e-06 12:-0.786804 13:0.490535 14:-0.103491 15:-1 16:-0.00441496 17:-0.0460143 18:-0.418862 19:0.625192 20:0.216818 21:-0.231826 22:-0.675676 23:0.492308 24:-0.6 
8192 1:0.273531 2:-0.908692 3:0.0498203 4:-0.740798 5:-0.117037 6:-0.690699 7:0.746997 8:-0.332649 9:-0.404253 10:-1.81436e-06 11:2.25414e-06 12:1 13:0.351044 14:0.108865 15:-0.454314 16:0.370713 17:0.0262018 18:0.874304 19:0.224005 20:0.623335 21:-0.352485 22:-0.855856 23:0.0769231 24:-0.4 
3627.991429900406 1:-0.2368 2:0.78888 3:0.936611 4:6.2052e-05 5:5.97913e-05 6:-0.00765813 7:-0.755795 8:0.91993 9:0.378663 10:-1.81436e-06 11:2.25414e-06 12:-1 13:0.352992 14:-0.103491 15:-0.558533 16:-0.00442944 17:-0.0460108 18:-0.531424 19:0.05961 20:-0.381467 21:-0.45863 22:-0.614414 23:-0.563077 24:0.5 
8192 1:0.926858 2:-0.202554 3:0.426334 4:-0.0286194 5:-0.121576 6:-0.00776514 7:0.998253 8:0.464659 9:-0.571355 10:-0.0556216 11:-0.243733 12:-6.66134e-16 13:0.320516 14:-0.103515 15:-0.997774 16:-0.018071 17:-0.121318 18:-0.00339638 19:0.570393 20:0.950536 21:-0.512183 22:-0.441441 23:-0.646154 24:-0.5 
8192 1:0.741699 2:-0.92498 3:0.489527 4:-0.0246017 5:-0.749579 6:-0.213859 7:0.686954 8:-0.102182 9:-0.488125 10:0.0200651 11:-0.542681 12:-6.66134e-16 13:0.38487 14:-0.0774716 15:-0.977778 16:0.0182208 17:0.081596 18:0.102143 19:0.707288 20:0.761629 21:-0.404429 22:-0.153153 23:0.584615 24:-0.5 
3490.023764874846 1:0.940715 2:-0.862011 3:0.191402 4:0.0992796 5:0.0681825 6:-0.848215 7:0.616412 8:-0.461386 9:0.0662206 10:-1.81436e-06 11:2.25414e-06 12:1 13:-0.0979701 14:0.148916 15:-0.125687 16:-0.0546692 17:-0.0880216 18:0.954967 19:0.92255 20:0.809335 21:-0.638262 22:-0.657658 23:0.907692 24:-0.7 
8192 1:0.316403 2:0.895582 3:0.891105 4:-0.353232 5:0.125923 6:-0.922675 7:-0.260222 8:0.386471 9:0.332811 10:-1.81436e-06 11:2.25414e-06 12:-6.66134e-16 13:0.254308 14:0.241714 15:-0.558858 16:0.174464 17:-0.123629 18:0.465125 19:0.245764 20:-0.639127 21:-0.307009 22:-0.675676 23:0.553846 24:-0.4 
8192 1:-0.929188 2:-0.82982 3:0.334979 4:-0.0825173 5:-0.144685 6:0.958896 7:-0.804193 8:-0.248811 9:-0.575523 10:-1.81436e-06 11:2.25414e-06 12:-6.66134e-16 13:0.244395 14:-0.0134905 15:-0.910598 16:0.0373854 17:0.0432524 18:-0.498419 19:0.873737 20:0.19059 21:-0.609392 22:0.459459 23:0.4 24:-0.4 
8192 1:-0.437719 2:0.044976 3:0.0784114 4:-0.737538 5:-0.185585 6:-0.00765813 7:0.049614 8:0.204933 9:-0.921665 10:-0.683642 11:-0.172068 12:-6.66134e-16 13:0.303744 14:-0.103491 15:-1 16:0.0228806 17:-0.0376467 18:-0.00345118 19:-0.299665 20:-0.0259247 21:-0.53984 22:0.783784 23:0.353846 24:0.5 
8192 1:0.397394 2:0.508347 3:0.783223 4:0.259387 5:-0.210145 6:-0.035772 7:0.0323803 8:0.882515 9:-0.0625343 10:0.0257752 11:-0.00515897 12:0.759227 13:0.282801 14:-0.103657 15:-0.846098 16:-0.122688 17:0.0804375 18:0.411797 19:-0.0904343 20:-0.754724 21:-0.574374 22:0.90991 23:0.169231 24:1 
8192 1:0.85106 2:-0.036065 3:0.488167 4:-0.0370818 5:-0.999311 6:0.404744 7:0.557932 8:0.521087 9:-0.179156 10:-1.81436e-06 11:2.25414e-06 12:-6.66134e-16 13:0.2465 14:0.0710914 15:-0.667637 16:0.0143787 17:0.570294 18:-0.21464 19:0.419674 20:0.99263 21:-0.535491 22:0.171171 23:0.538462 24:0.7 
8192 1:0.515538 2:-0.744812 3:0.194701 4:0.224261 5:0.157406 6:-0.00765813 7:1 8:-0.24216 9:-0.63872 10:-1.81436e-06 11:2.25414e-06 12:1 13:0.407835 14:-0.103491 15:-0.833499 16:-0.117955 17:-0.143045 18:0.524522 19:0.266242 20:0.738646 21:-0.368196 22:-0.54955 23:-0.127024 24:0.6 
3321.051116400296 1:0.921728 2:0.564526 3:-0.901064 4:0.357001 5:0.115007 6:-0.922675 7:0.507418 8:0.685571 9:0.0872326 10:-1.81436e-06 11:2.25414e-06 12:-6.66134e-16 13:0.191943 14:-0.237209 15:0.987619 16:-0.185169 17:-0.116898 18:0.465125 19:0.704808 20:-0.861124 21:-0.652204 22:0.783784 23:0.507692 24:-0.9 
8192 1:-0.414503 2:-0.600573 3:-0.0203683 4:-0.997637 5:0.0637093 6:-0.00765813 7:0.134135 8:-0.628766 9:0.980721 10:-0.997975 11:0.0636638 12:-6.66134e-16 13:0.339575 14:-0.103491 15:-1 16:-0.00458741 17:-0.0460009 18:-0.00345118 19:0.0029254 20:0.266556 21:-0.480755 22:0.189189 23:0.523077 24:0.6 
8192 1:-0.953872 2:-0.605042 3:-0.43015 4:0.0818414 5:-0.365928 6:-0.690699 7:-0.393498 8:-0.583173 9:0.980721 10:-1.81436e-06 11:2.25414e-06 12:-6.66134e-16 13:0.0344021 14:0.220425 15:-0.590278 16:-0.0458392 17:0.179691 18:0.346331 19:0.764079 20:0.14357 21:-0.500262 22:-0.423423 23:0.661538 24:0.5 
8192 1:-0.766908 2:-0.482638 3:0.22814 4:-0.0249051 5:-0.0216722 6:-0.00765813 7:-0.3522 8:-0.0316223 9:-0.372897 10:0.0485306 11:-0.115192 12:0.396497 13:0.315668 14:-0.105107 15:-0.601271 16:0.0327887 17:-0.103653 18:0.205889 19:0.405106 20:0.142516 21:-0.52017 22:0.837838 23:0.384615 24:-0.2 
6158.665093755493 1:0.322666 2:0.117005 3:-0.886067 4:-0.936387 5:-0.350934 6:-0.00469813 7:-0.266478 8:-0.175385 9:0.109222 10:0.942204 11:0.335044 12:-6.66134e-16 13:0.404615 14:-0.10326 15:0.9946 16:0.946865 17:0.377075 18:-0.00496698 19:-0.467979 20:-0.912967 21:-0.373505 22:0.783784 23:0.507692 24:-0.9 
8192 1:-0.188764 2:-0.712456 3:-0.0462514 4:3.43825e-05 5:6.53798e-05 6:-0.00765813 7:0.424527 8:-0.811569 9:0.954826 10:-1.81436e-06 11:2.25414e-06 12:-0.516768 13:0.39884 14:-0.103491 15:-1 16:-0.00441543 17:-0.0460143 18:-0.276291 19:-0.0707235 20:0.395538 21:-0.383029 22:-0.117117 23:0.230769 24:0.4 
8192 1:0.320488 2:-0.914517 3:0.139915 4:-0.173283 5:-0.081482 6:-0.688202 7:0.750816 8:-0.358275 9:-0.695854 10:-0.577161 11:-0.816632 12:0.4 13:0.37038 14:0.00471024 15:-0.83582 16:-0.208915 17:-0.499369 18:0.556242 19:0.263192 20:0.640833 21:-0.401224 22:-0.441441 23:0.153846 24:-0.2 
8192 1:0.194873 2:0.788788 3:0.907718 4:-0.145565 5:0.0435236 6:-0.00765813 7:-0.371361 8:1 9:0.390135 10:-1.81436e-06 11:2.25414e-06 12:-6.66134e-16 13:0.381691 14:-0.103491 15:-0.518179 16:0.0693101 17:-0.0728146 18:-0.00345118 19:0.0387205 20:-0.600935 21:-0.411307 22:-0.387387 23:-0.115385 24:0.6 
8192 1:-0.225627 2:-0.604535 3:0.0016986 4:0.488131 5:0.00280405 6:-0.00765813 7:0.28592 8:-0.583486 9:-0.214752 10:-1.81436e-06 11:2.25414e-06 12:-6.66134e-16 13:0.318606 14:-0.103491 15:-0.216813 16:-0.251568 17:-0.0477032 18:-0.00345118 19:-0.176757 20:0.356804 21:-0.515332 22:0.801802 23:0.4 24:0.4 
8192 1:-0.695386 2:-0.789987 3:0.000112245 4:0.0361548 5:8.80545e-05 6:-0.00765813 7:0.0336537 8:-0.767839 9:-1 10:-1.81436e-06 11:2.25414e-06 12:-6.66134e-16 13:0.460225 14:-0.103491 15:-1 16:-0.0227054 17:-0.0460282 18:-0.00345118 19:0.52232 20:0.227647 21:-0.281808 22:-0.387387 23:0.446154 24:0.5 
8192 1:-0.81898 2:0.56202 3:-0.452083 4:0.056454 5:-0.370691 6:-0.00765813 7:-0.667317 8:-0.40826 9:0.658861 10:-1.81436e-06 11:2.25414e-06 12:-6.66134e-16 13:0.479062 14:-0.103491 15:-0.890015 16:-0.0329841 17:0.182628 18:-0.00345118 19:0.535516 20:-0.153367 21:-0.250746 22:-0.81982 23:0.276923 24:0.3 
47.974428099124 1:0.107045 2:0.848592 3:-0.968415 4:-0.248728 5:-0.0248815 6:-0.00765813 7:-0.479147 8:0.752929 9:0.334854 10:-1.81436e-06 11:2.25414e-06 12:1 13:0.38379 14:-0.103491 15:-0.697568 16:0.121548 17:-0.0306297 18:0.524522 19:0.0781868 20:-0.553339 21:-0.407846 22:0.225225 23:0.323077 24:0.8 
6550.727090042466 1:0.122697 2:-0.259871 3:-0.0891359 4:-0.58998 5:0.169547 6:-0.0426086 7:0.469522 8:-0.39325 9:0.982398 10:-0.998297 11:0.058409 12:0.4 13:0.222361 14:-0.106479 15:-0.929567 16:-0.211172 17:-0.114511 18:0.225636 19:-0.651167 20:0.68415 21:-0.674002 22:0.81982 23:0.446154 24:-0.8 
8192 1:0.192625 2:-0.739217 3:0.902076 4:0.0502938 5:-0.0159114 6:-0.00765813 7:-0.309427 8:-0.505525 9:0.193235 10:-1.81436e-06 11:2.25414e-06 12:1 13:0.334964 14:-0.103491 15:-0.70932 16:-0.0298648 17:-0.0361615 18:0.524522 19:-0.0320776 20:0.608783 21:-0.488359 22:0.81982 23:0.446154 24:-0.4 
8192 1:0.292653 2:-0.870116 3:0.691755 4:0.0743265 5:-0.107979 6:0.525913 7:0.0258845 8:-0.344157 9:0.080216 10:-1.81436e-06 11:2.25414e-06 12:1 13:0.284199 14:-0.103491 15:-0.61198 16:-0.042034 17:0.0206157 18:0.251283 19:0.19056 20:0.636005 21:-0.572069 22:0.63964 23:0.2 24:-0.4 
8192 1:-0.374614 2:-0.482759 3:-0.137535 4:-0.908241 5:0.418545 6:0.404744 7:0.0775043 8:-0.470461 9:-0.705076 10:-1.81436e-06 11:2.25414e-06 12:-6.66134e-16 13:0.24147 14:0.0126646 15:-0.567627 16:0.455499 17:-0.304087 18:-0.21464 19:-0.155488 20:0.24782 21:-0.595787 22:0.477477 23:0.553846 24:-0.5 
3021.369955970721 1:0.93886 2:0.379048 3:0.538356 4:0.120273 5:-0.992746 6:0.0307424 7:0.366209 8:0.779372 9:-0.0434996 10:0.990514 11:-0.137411 12:0.4 13:0.219072 14:0.214288 15:-0.582243 16:0.436277 17:0.481498 18:0.188073 19:0.645184 20:-0.904848 21:-0.382539 22:-0.765766 23:0.246154 24:1 
8192 1:-0.337987 2:0.853372 3:-0.798834 4:-0.438659 5:-0.321567 6:-0.818168 7:-0.224831 8:0.330696 9:0.558485 10:-0.0676548 11:0.36885 12:-6.66134e-16 13:0.0619238 14:0.128281 15:-0.643629 16:0.183464 17:0.379814 18:0.411607 19:0.208019 20:-0.348045 21:-0.650346 22:0.495495 23:0.4 24:-0.5 
8192 1:0.460914 2:-0.820084 3:0.190366 4:0.375534 5:0.255996 6:-0.0641197 7:1 8:-0.281603 9:-0.0720902 10:-1.81436e-06 11:2.25414e-06 12:-6.66134e-16 13:0.449432 14:-0.103491 15:-0.262878 16:-0.194553 17:-0.203845 18:0.0254626 19:0.281755 20:0.706128 21:-0.299605 22:-0.783784 23:-0.292308 24:-0.4 
8192 1:-0.00607573 2:-0.842146 3:-0.042788 4:3.41359e-05 5:6.5413e-05 6:-0.00765813 7:0.552328 8:-0.920858 9:-0.757402 10:-1.81436e-06 11:2.25414e-06 12:-1 13:0.364454 14:-0.103491 15:-0.714655 16:-0.00441531 17:-0.0460143 18:-0.531424 19:0.0450173 20:0.499894 21:-0.43973 22:-0.72973 23:-0.569231 24:0.6 
8192 1:0.831089 2:0.855924 3:-0.78252 4:0.109042 5:0.0889176 6:-0.00765813 7:0.31032 8:0.306925 9:0.689273 10:-1.81436e-06 11:2.25414e-06 12:1 13:0.409663 14:-0.103491 15:-0.529232 16:-0.0596126 17:-0.100809 18:0.524522 19:0.77108 20:-0.788658 21:-0.365183 22:0.00900901 23:0.492308 24:0.1 
8192 1:0.877537 2:-0.795905 3:0.542243 4:-0.00270803 5:0.0206051 6:-0.00765813 7:0.755312 8:0.0516014 9:-0.45762 10:-1.81436e-06 11:2.25414e-06 12:-6.66134e-16 13:0.404465 14:-0.103491 15:-1 16:-0.00302678 17:-0.0586809 18:-0.00345118 19:0.78415 20:0.810944 21:-0.373753 22:-0.171171 23:0.230769 24:-0.4 
6924.582367155958 1:0.895936 2:-0.254348 3:0.612226 4:3.4385e-05 5:6.53898e-05 6:-0.00765813 7:0.593858 8:0.713275 9:-0.201155 10:-1.81436e-06 11:2.25414e-06 12:-1 13:0.505818 14:-0.103491 15:-0.813663 16:-0.00441543 17:-0.0460143 18:-0.531424 19:0.530548 20:0.935357 21:-0.206626 22:-0.90991 23:0.415385 24:-0.8 
848.5260447226362 1:0.901543 2:-0.538695 3:0.592312 4:0.260251 5:-0.871928 6:-0.029897 7:0.655631 8:0.431835 9:-0.297901 10:0.518469 11:-0.704849 12:0.5875 13:0.491067 14:-0.10751 15:-0.890439 16:0.126364 17:0.0570334 18:0.318121 19:0.655571 20:0.867382 21:-0.230919 22:-0.72973 23:0.615385 24:0.8 
8192 1:0.429764 2:0.469399 3:0.736388 4:0.000737428 5:-0.000700631 6:-0.00765813 7:0.0466118 8:1 9:-0.0614015 10:-1.81436e-06 11:2.25414e-06 12:-1 13:0.349177 14:-0.103491 15:-0.798138 16:-0.00477143 17:-0.0455419 18:-0.531424 19:-0.0829314 20:-0.779547 21:-0.464922 22:-0.171171 23:-0.215385 24:0.5 
8192 1:0.75581 2:-0.419963 3:0.346855 4:-0.176914 5:-0.338998 6:-0.00765813 7:0.952161 8:0.192899 9:-0.653098 10:-1.81436e-06 11:2.25414e-06 12:-6.66134e-16 13:0.32016 14:-0.103491 15:-1 16:0.0851842 17:0.163084 18:-0.00345118 19:0.364003 20:0.876101 21:-0.512769 22:0.135135 23:-0.192308 24:0.6 
8192 1:0.718513 2:-0.514124 3:0.346855 4:-0.330429 5:-0.633157 6:-0.00765813 7:0.907866 8:0.0779264 9:-0.653098 10:-0.190046 11:-0.364145 12:-6.66134e-16 13:0.30619 14:-0.103491 15:-1 16:0.0666833 17:0.119908 18:-0.00345118 19:0.358853 20:0.844811 21:-0.535807 22:0.117117 23:-0.238462 24:0.6 
8192 1:-0.19478 2:0.0811908 3:0.211909 4:-0.196415 5:-0.154273 6:-0.00765813 7:0.278955 8:0.573296 9:-0.252772 10:-1.81436e-06 11:2.25414e-06 12:0.0142595 13:0.38355 14:-0.103491 15:-0.46499 16:0.0950586 17:0.0491649 18:0.00407747 19:-0.70211 20:-0.102015 21:-0.408242 22:0.261261 23:0.6 24:0.6 
8192 1:-0.269117 2:-0.0170471 3:0.275949 4:-0.26535 5:-0.312645 6:-0.00765813 7:0.178562 8:0.6751 9:-0.141937 10:-1.81436e-06 11:2.25414e-06 12:0.0510206 13:0.442098 14:-0.103491 15:-0.418252 16:0.129965 17:0.146832 18:0.0234863 19:-0.591906 20:0.0133416 21:-0.311698 22:-0.117117 23:0.723077 
8192 1:0.217142 2:0.368621 3:-0.565221 4:-0.0668273 5:-0.322547 6:-0.00765813 7:0.0543513 8:-0.648967 9:0.785937 10:-1.81436e-06 11:2.25414e-06 12:0.0345152 13:0.51259 14:-0.103491 15:-0.649893 16:0.0294406 17:0.152938 18:0.0147719 19:-0.43403 20:-0.710661 21:-0.195458 22:-0.513514 23:0.815385 24:-0.6 
8192 1:-0.219285 2:0.220413 3:-0.993453 4:0.374066 5:0.00803308 6:-0.00765813 7:-0.788998 8:0.201751 9:0.539312 10:-1.81436e-06 11:2.25414e-06 12:0.0427659 13:0.381597 14:-0.103491 15:-0.4682 16:-0.19381 17:-0.0509279 18:0.0191281 19:-0.576957 20:-0.211251 21:-0.411463 22:0.225225 23:0.507692 24:0.5 
8192 1:0.353038 2:-0.458153 3:0.89697 4:-0.948032 5:0.318271 6:-0.00765813 7:-0.373426 8:-0.120662 9:0.246589 10:-1.81436e-06 11:2.25414e-06 12:0.229183 13:0.503542 14:-0.103491 15:-0.650892 16:0.475648 17:-0.242249 18:0.117551 19:-0.196895 20:0.756609 21:-0.210379 22:0.783784 23:0.476923 24:-0.1 
2434.360751596765 1:-0.928024 2:0.1423 3:-0.827746 4:0.379282 5:0.228336 6:-0.880841 7:-0.298089 8:0.0442187 9:-0.494346 10:-1.81436e-06 11:2.25414e-06 12:-0.0769689 13:-0.380209 14:0.131479 15:0.333085 16:-0.196451 17:-0.186787 18:0.403064 19:0.55214 20:-0.0369994 21:-0.409611 22:-0.747748 23:0.753846 24:1 
8192 1:-0.23052 2:0.0923334 3:0.877474 4:0.115833 5:-0.0468672 6:-0.00765813 7:-0.696473 8:0.357199 9:0.382846 10:-1.81436e-06 11:2.25414e-06 12:-1.32719e-05 13:0.333888 14:-0.103491 15:-0.495225 16:-0.063051 17:-0.0170713 18:-0.00345819 19:-0.639173 20:-0.0975775 21:-0.490134 22:0.585586 23:0.538462 
599.9107524485629 1:-0.471097 2:0.62179 3:-0.0322732 4:0.994968 5:-0.100869 6:-0.125974 7:0.354684 8:0.500829 9:-0.349075 10:-1.81436e-06 11:2.25414e-06 12:-0.231867 13:0.541974 14:-0.103491 15:-0.317088 16:-0.50821 17:0.0162309 18:-0.0652814 19:0.0963123 20:-0.251524 21:-0.147005 22:0.783784 23:0.476923 24:-0.8 
8192 1:0.736085 2:-0.0354225 3:0.432141 4:0.0722989 5:0.334024 6:-0.00765813 7:0.827261 8:0.750858 9:-0.11272 10:-1.81436e-06 11:2.25414e-06 12:0.0353322 13:0.386769 14:-0.103491 15:-0.545223 16:-0.0410073 17:-0.251964 18:0.0152032 19:0.222027 20:0.9914 21:-0.402934 22:0.0630631 23:0.476923 24:0.2 
8192 1:0.609357 2:-0.0891653 3:0.549487 4:0.0102114 5:-0.0648589 6:-0.00765813 7:0.495478 8:0.662997 9:0.0297855 10:-1.81436e-06 11:2.25414e-06 12:0.0204953 13:0.362879 14:-0.103491 15:-0.520132 16:-0.00956867 17:-0.00597597 18:0.00736978 19:0.00935135 20:0.968132 21:-0.442328 22:0.585586 23:0.538462 24:-0.5 
8192 1:-0.571353 2:0.614476 3:-0.364655 4:0.0278659 5:-0.0613259 6:-0.00765813 7:-0.226736 8:-0.332319 9:-0.720821 10:-1.81436e-06 11:2.25414e-06 12:-0.0584191 13:0.509189 14:-0.103491 15:-0.356277 16:-0.0185082 17:-0.00815468 18:-0.0342949 19:0.217216 20:-0.218914 21:-0.201067 22:-0.513514 23:0.784615 24:0.5 
8192 1:0.00880244 2:-0.0943908 3:0.263596 4:0.222858 5:0.242867 6:-0.00765813 7:0.430661 8:0.530078 9:-0.173084 10:-1.81436e-06 11:2.25414e-06 12:-0.0325514 13:0.408257 14:-0.103491 15:-0.437029 16:-0.117245 17:-0.195748 18:-0.0206374 19:-0.929187 20:0.555645 21:-0.367501 22:-0.027027 23:0.569231 24:0.3 
8192 1:0.255294 2:0.293972 3:-0.855302 4:-0.0715136 5:-0.0349615 6:-0.00765813 7:-0.408346 8:-0.143141 9:0.520335 10:-1.81436e-06 11:2.25414e-06 12:-0.049431 13:0.486883 14:-0.103491 15:-0.625295 16:0.0318136 17:-0.0244134 18:-0.0295494 19:-0.459836 20:-0.771335 21:-0.237848 22:-0.333333 23:0.723077 24:0.1 
8192 1:0.178723 2:0.770544 3:-0.0610415 4:0.122811 5:-0.0237341 6:-0.00765813 7:0.684157 8:0.621701 9:-0.560879 10:-1.81436e-06 11:2.25414e-06 12:-6.51605e-06 13:0.335798 14:-0.103491 15:-0.5 16:-0.0665846 17:-0.0313373 18:-0.00345462 19:0.00758674 20:-0.59523 21:-0.486983 22:0.783784 23:0.476923 24:0.1 
8192 1:0.158316 2:-0.406263 3:0.972851 4:-0.747258 5:0.0640886 6:-0.00765813 7:-0.366775 8:-0.333222 9:0.482111 10:-1.81436e-06 11:2.25414e-06 12:-0.229183 13:0.336591 14:-0.103491 15:-0.491383 16:0.373984 17:-0.0854969 18:-0.124454 19:-0.455144 20:0.656126 21:-0.485676 22:0.783784 23:0.476923 24:-0.3 
8192 1:-0.181635 2:0.469817 3:0.047883 4:0.123623 5:0.0188307 6:-0.00765813 7:0.34579 8:0.568235 9:-0.452154 10:-1.81436e-06 11:2.25414e-06 12:-0.0286479 13:0.336099 14:-0.103491 15:-0.50025 16:-0.0669957 17:-0.0575867 18:-0.0185765 19:-0.360061 20:-0.352575 21:-0.486487 22:0.783784 23:0.476923 24:0.1 
8192 1:-0.402346 2:-0.186559 3:0.172139 4:-0.0123584 5:-0.00738005 6:-0.00765813 7:0.273722 8:0.352523 9:-0.182796 10:-1.81436e-06 11:2.25414e-06 12:0.000846978 13:0.511623 14:-0.103491 15:-0.355292 16:0.00185979 17:-0.0414227 18:-0.003004 19:-0.322707 20:0.107679 21:-0.197054 22:-0.495495 23:0.815385 24:0.2 
8192 1:0.145218 2:-0.231119 3:0.827833 4:0.429914 5:-0.2582 6:-0.00765813 7:-0.368457 8:0.192027 9:0.291813 10:-1.81436e-06 11:2.25414e-06 12:-0.100123 13:0.389266 14:-0.103491 15:-0.536568 16:-0.222089 17:0.113256 18:-0.0563135 19:-0.658085 20:0.727311 21:-0.398816 22:0.405405 23:0.6 24:0.1 
4952.157396168249 1:0.445095 2:-0.519466 3:-0.988789 4:-0.135014 5:-0.00479196 6:-0.00765813 7:-0.0944951 8:-0.529517 9:0.512116 10:-1.81436e-06 11:2.25414e-06 12:0.00116089 13:0.335593 14:-0.103491 15:-0.500043 16:0.0639678 17:-0.0430188 18:-0.00283827 19:-0.0261713 20:0.773027 21:-0.487322 22:0.783784 23:0.476923 24:0.7 
8192 1:0.168541 2:0.753675 3:-0.356948 4:-0.163352 5:0.338439 6:-0.00765813 7:0.403265 8:0.06566 9:-0.869683 10:-1.81436e-06 11:2.25414e-06 12:-0.0431397 13:0.358761 14:-0.103491 15:-0.512754 16:0.078317 17:-0.254687 18:-0.0262278 19:-0.0185718 20:-0.592073 21:-0.449119 22:0.441441 23:0.507692 
8192 1:0.33231 2:0.103488 3:0.919061 4:-0.000570975 5:0.000222813 6:-0.00765813 7:-0.253908 8:0.306076 9:0.461085 10:-1.81436e-06 11:2.25414e-06 12:-0.000143348 13:0.387375 14:-0.103491 15:-0.458614 16:-0.0041089 17:-0.0461113 18:-0.00352687 19:-0.456387 20:-0.924496 21:-0.401935 22:0.387387 23:0.569231 24:0.1 
8192 1:0.0604694 2:-0.334374 3:-0.889873 4:-0.116222 5:-0.0419327 6:-0.00765813 7:-0.429621 8:-0.563137 9:0.611132 10:-1.81436e-06 11:2.25414e-06 12:-0.000319833 13:0.335835 14:-0.103491 15:-0.499988 16:0.0544521 17:-0.0201143 18:-0.00362005 19:-0.60411 20:0.580331 21:-0.486923 22:0.783784 23:0.476923 24:-0.3 
8192 1:-0.908164 2:0.339362 3:-0.0420733 4:-0.0670704 5:0.00896723 6:0.100731 7:-0.538766 8:0.277069 9:0.954582 10:-1.81436e-06 11:2.25414e-06 12:-6.66134e-16 13:0.19209 14:-0.103491 15:0.995578 16:0.0295637 17:-0.051504 18:-0.0589567 19:0.569668 20:-0.088264 21:-0.723953 22:0.801802 23:0.446154 24:0.9 
8192 1:0.00665458 2:-0.864489 3:0.108724 4:-0.942158 5:-0.335133 6:-0.00765813 7:0.4772 8:-0.615693 9:-0.891338 10:-0.439684 11:-0.156417 12:-6.66134e-16 13:0.318097 14:-0.103491 15:-1 16:0.250028 17:0.0642316 18:-0.00345118 19:0.074291 20:0.506139 21:-0.516172 22:0.135135 23:0.0153846 24:0.9 
8192 1:-0.934574 2:-0.245416 3:-0.712843 4:0.257096 5:0.325836 6:-0.897958 7:-0.559046 8:-0.31665 9:0.916196 10:-0.0447164 11:0.0121991 12:-6.66134e-16 13:-0.157816 14:0.0866894 15:-0.372112 16:-0.157224 17:-0.239393 18:0.452467 19:0.582941 20:0.0629476 21:-0.715132 22:0.63964 23:0.184615 24:-0.9 
8192 1:-0.528808 2:-0.687249 3:-0.016074 4:-0.896762 5:0.0451375 6:-0.00765813 7:0.0357192 8:-0.704505 9:0.985018 10:-0.537876 11:0.0270346 12:-6.66134e-16 13:0.346726 14:-0.103491 15:-1 16:0.177318 17:-0.0571382 18:-0.00345118 19:0.220703 20:0.249113 21:-0.468964 22:-0.153153 23:-0.0923077 24:-0.4 
8192 1:-0.882578 2:-0.12464 3:-0.439993 4:0.0803952 5:-0.420069 6:0.58175 7:-0.477508 8:-0.634046 9:0.369392 10:-1.81436e-06 11:2.25414e-06 12:-6.66134e-16 13:0.277543 14:0.0786727 15:0.808604 16:-0.0451069 17:0.21308 18:-0.305284 19:0.470932 20:0.0341298 21:-0.484969 22:0.783784 23:0.507692 24:-1 
8192 1:0.873654 2:0.578709 3:0.939674 4:0.959787 5:-0.184196 6:-0.00765813 7:0.351541 8:0.693809 9:-0.0600064 10:0.753442 11:-0.144647 12:-6.66134e-16 13:0.313419 14:-0.103491 15:-1 16:-0.108867 17:-0.0215911 18:-0.00345118 19:0.638489 20:-0.851365 21:-0.523886 22:0.0990991 23:-0.0461538 24:-0.6 
8192 1:0.275197 2:0.488155 3:-0.974017 4:0.195721 5:0.0162174 6:-0.00765813 7:-0.275392 8:0.419783 9:0.0266349 10:-1.81436e-06 11:2.25414e-06 12:1.33227e-15 13:0.350894 14:-0.103491 15:-1 16:-0.103503 17:-0.0559751 18:-0.00345118 19:-0.24943 20:-0.703798 21:-0.462091 22:0.72973 23:0.507692 24:0.6 
804.3762393873074 1:0.849174 2:-0.826886 3:0.505228 4:0.0143399 5:-0.868589 6:-0.00765813 7:0.802119 8:-0.175866 9:-0.494652 10:0.00856461 11:-0.520151 12:-6.66134e-16 13:0.294328 14:-0.103491 15:1 16:-0.00732132 17:0.168883 18:-0.00345118 19:0.767703 20:0.800266 21:-0.555366 22:-0.54955 23:-0.830769 24:0.8 
8192 1:-0.683923 2:0.470704 3:-0.391792 4:-0.187772 5:0.530325 6:-0.00765813 7:-0.481281 8:-0.17034 9:0.609127 10:-0.250401 11:0.70697 12:-6.66134e-16 13:0.317651 14:-0.103491 15:-1 16:-0.0361147 17:0.0629881 18:-0.00345118 19:0.274488 20:-0.153998 21:-0.516907 22:0.783784 23:0.446154 24:0.6 
8192 1:-0.921042 2:0.0316177 3:-0.706881 4:0.0342955 5:0.045197 6:0.756321 7:-0.582481 8:-0.629757 9:0.715831 10:-1.81436e-06 11:2.25414e-06 12:-1 13:0.11268 14:0.239117 15:-0.578317 16:-0.0217639 17:-0.0738466 18:-0.922654 19:0.529474 20:-0.00830834 21:-0.428737 22:-0.441441 23:-0.4 24:-0.3 
8192 1:0.210416 2:0.812743 3:-0.9518 4:0.493566 5:0.0757371 6:-0.00765813 7:-0.26543 8:0.699952 9:0.0488622 10:0.61778 11:0.0947225 12:-6.66134e-16 13:0.301362 14:-0.103491 15:-1 16:0.058512 17:-0.0342634 18:-0.00345118 19:0.076883 20:-0.60535 21:-0.543767 22:0.81982 23:0.323077 24:0.6 
6585.736726417098 1:-0.418555 2:-0.778156 3:-0.00701827 4:-0.494443 5:0.0108322 6:-0.0103341 7:0.0175528 8:-0.769194 9:0.998791 10:-0.390998 11:0.00272841 12:-6.66134e-16 13:0.256604 14:-0.10357 15:-0.99529 16:0.0479761 17:-0.0509728 18:-0.00208081 19:0.188422 20:0.305411 21:-0.617572 22:-0.261261 23:-0.876923 24:0.7 
8192 1:0.0320106 2:0.861701 3:0.751361 4:0.314218 5:-0.311494 6:-0.880951 7:-0.413219 8:0.633448 9:0.120542 10:0.581064 11:0.230196 12:-6.66134e-16 13:0.106779 14:0.172972 15:-0.631276 16:0.130734 17:0.28809 18:0.443758 19:0.080897 20:-0.516602 21:-0.544567 22:0.495495 23:0.138462 24:0.5 
8192 1:-0.178425 2:-0.750083 3:0.000201364 4:-0.779227 5:-0.000641974 6:0.54958 7:0.352306 8:-0.687308 9:-0.893234 10:-0.492276 11:-0.171833 12:-6.66134e-16 13:0.334338 14:-0.0835786 15:-0.893387 16:0.140894 17:-0.151554 18:-0.28881 19:-0.029571 20:0.405791 21:-0.488303 22:-0.531532 23:-0.538462 24:-0.3 
8192 1:0.193221 2:0.841732 3:0.896636 4:0.633924 5:-0.213433 6:0.725582 7:-0.236788 8:0.732827 9:0.0723845 10:0.243642 11:0.0560204 12:-6.66134e-16 13:0.232447 14:0.02648 15:-0.824657 16:-0.202016 17:0.120197 18:-0.37894 19:0.103721 20:-0.59422 21:-0.597865 22:0.81982 23:0.261538 24:0.6 
8192 1:-0.730878 2:-0.655852 3:-0.0394667 4:-0.0799085 5:0.0100049 6:-0.00765813 7:-0.257434 8:-0.710503 9:0.961614 10:-1.81436e-06 11:2.25414e-06 12:-6.66134e-16 13:0.274853 14:-0.103491 15:-1 16:0.0360645 17:-0.0521439 18:-0.00345118 19:0.464061 20:0.191274 21:-0.58748 22:0.459459 23:-0.292308 24:0.6 
8192 1:0.314323 2:-0.840203 3:0.824236 4:-0.00825624 5:0.00517462 6:-0.00765813 7:-0.107457 8:-0.476029 9:-0.175498 10:-1.81436e-06 11:2.25414e-06 12:2.22045e-15 13:0.30626 14:-0.103491 15:-1 16:-0.000217393 17:-0.0491651 18:-0.00345118 19:0.171254 20:0.649054 21:-0.535691 22:0.873874 23:0.323077 24:-0.6 
8192 1:0.790093 2:0.145649 3:0.418688 4:-0.252576 5:-0.967569 6:0.404744 7:0.566919 8:0.531157 9:-0.0818496 10:-1.81436e-06 11:2.25414e-06 12:-6.66134e-16 13:0.12222 14:0.0606646 15:-0.50092 16:0.123497 17:0.550719 18:-0.21464 19:0.328006 20:-0.954958 21:-0.7042 22:-0.171171 23:-0.261538 24:-0.5 
5283.621789761461 1:-0.0718636 2:0.16472 3:0.0531643 4:0.986116 5:0.166569 6:-0.00765813 7:0.800313 8:0.362186 9:-0.946924 10:-0.61628 11:-0.104056 12:-6.66134e-16 13:0.596304 14:-0.103491 15:-1 16:-0.815798 17:-0.212871 18:-0.00345118 19:-0.800521 20:-0.342019 21:-0.0574168 22:0.783784 23:0.507692 24:0.6 
5042.551113264212 1:0.416696 2:0.795288 3:-0.989202 4:0.130756 5:0.00459711 6:-0.00765813 7:-0.093168 8:0.757056 9:0.0114426 10:0.374774 11:0.0129943 12:-6.66134e-16 13:0.314904 14:-0.103491 15:1 16:0.119171 17:-0.0407963 18:-0.00345118 19:0.218155 20:-0.692578 21:-0.521437 22:-0.693694 23:-0.876923 24:0.8 
5057.188620702532 1:0.804221 2:-0.46333 3:0.53733 4:0.0682127 5:-0.578488 6:-0.00765813 7:0.709121 8:0.216539 9:-0.462535 10:0.102405 11:-0.868986 12:-6.66134e-16 13:0.316838 14:-0.103491 15:-1 16:0.0129184 17:-0.225158 18:-0.00345118 19:0.462752 20:0.87184 21:-0.518248 22:-0.855856 23:-0.846154 24:-0.8 
8192 1:0.784692 2:-0.581622 3:0.536379 4:0.0888114 5:-0.773157 6:-0.00765813 7:0.692751 8:0.0927743 9:-0.463487 10:0.114066 11:-0.993473 12:-6.66134e-16 13:0.31226 14:-0.103491 15:-1 16:0.00839313 17:-0.181881 18:-0.00345118 19:0.500978 20:0.839931 21:-0.525796 22:0.531532 23:0.307692 24:-0.6 
8192 1:-0.948724 2:0.649957 3:-0.645098 4:-0.157449 5:-0.321619 6:-0.933103 7:-0.773587 8:0.113515 9:0.593208 10:-1.81436e-06 11:2.25414e-06 12:-0.00602899 13:0.169423 14:0.0801267 15:-0.76264 16:0.0753276 17:0.152366 18:0.467282 19:0.786407 20:-0.152972 21:-0.624125 22:-0.0990991 23:-0.507692 24:-0.6 
8192 1:-0.854778 2:0.32334 3:-0.432006 4:0.0354497 5:-0.162832 6:-0.00765813 7:-0.702148 8:-0.348098 9:0.680412 10:-1.81436e-06 11:2.25414e-06 12:-6.66134e-16 13:0.323488 14:-0.103491 15:-0.88855 16:-0.0223483 17:0.0544433 18:-0.00345118 19:0.475669 20:-0.0893628 21:-0.507282 22:0.72973 23:0.353846 24:0.5 
8192 1:-0.907341 2:-0.152172 3:-0.342091 4:-0.476351 5:0.87937 6:0.404744 7:-0.559792 8:-0.686073 9:0.959537 10:-1.81436e-06 11:2.25414e-06 12:-6.66134e-16 13:0.315829 14:-0.0559826 15:-0.699496 16:0.236807 17:-0.588275 18:-0.21464 19:0.517338 20:0.0404952 21:-0.513435 22:-0.477477 23:0.0769231 24:0.8 
8192 1:0.858474 2:-0.160507 3:0.602247 4:0.207083 5:-0.622203 6:-0.00765813 7:0.680322 8:0.409414 9:-0.397589 10:0.254579 11:-0.7651 12:-6.66134e-16 13:0.275248 14:-0.103491 15:-1 16:0.0196578 17:-0.134129 18:-0.00345118 19:0.445932 20:0.958056 21:-0.586828 22:0.54955 23:-0.0769231 24:0.6 
7944.983509169066 1:0.854545 2:0.00268296 3:0.617505 4:0.104396 5:-0.269695 6:-0.00765813 7:0.654544 8:0.567241 9:-0.382324 10:0.315714 11:-0.816056 12:-6.66134e-16 13:0.279888 14:-0.103491 15:-1 16:0.102612 17:-0.382944 18:-0.00345118 19:0.425067 20:-0.998381 21:-0.579177 22:-0.477477 23:-0.815385 24:0.8 
8192 1:0.453828 2:-0.931564 3:-0.0308882 4:-0.435437 5:0.0423298 6:-0.884012 7:0.519754 8:-0.335078 9:-0.329896 10:-1.81436e-06 11:2.25414e-06 12:-1 13:-0.0119083 14:0.174893 15:-0.299306 16:0.21609 17:-0.0720784 18:-0.0826471 19:0.394193 20:0.68472 21:-0.59569 22:0.297297 23:0.446154 24:-0.4 
8192 1:-0.0436756 2:0.755084 3:-0.22325 4:-0.190501 5:0.160876 6:-0.00765813 7:0.323731 8:0.32668 9:0.777747 10:-1.81436e-06 11:2.25414e-06 12:-6.66134e-16 13:0.301611 14:-0.103491 15:-1 16:0.0920642 17:-0.145185 18:-0.00345118 19:-0.0574072 20:-0.477155 21:-0.543357 22:0.891892 23:0.261538 24:0.7 
8192 1:0.216944 2:-0.876455 3:0.106076 4:-0.166056 5:-0.0574716 6:-0.391665 7:0.563906 8:-0.613407 9:-0.84975 10:-1.81436e-06 11:2.25414e-06 12:-6.66134e-16 13:0.242562 14:-0.0704072 15:-0.955789 16:0.0796859 17:-0.0105316 18:0.193197 19:0.150953 20:0.603537 21:-0.636778 22:0.441441 23:-0.507692 24:-0.6 
8192 1:-0.944524 2:-0.6062 3:-0.183766 4:0.146622 5:-0.0953405 6:-0.976769 7:-0.533794 8:-0.623703 9:0.96541 10:-1.81436e-06 11:2.25414e-06 12:-6.66134e-16 13:0.186495 14:0.0104003 15:-0.851929 16:-0.0786416 17:0.0128218 18:0.492826 19:0.750263 20:0.145043 21:-0.678684 22:0.675676 23:-0.292308 24:-0.5 
8192 1:0.359079 2:0.788134 3:-0.993578 4:0.289723 5:0.00612243 6:-0.00765813 7:-0.0957603 8:0.760714 9:0.00706412 10:0.49989 11:0.0104541 12:-6.66134e-16 13:0.276701 14:-0.103491 15:1 16:0.102033 17:-0.0433036 18:-0.00345118 19:0.156475 20:-0.672452 21:-0.584433 22:0.153153 23:-0.430769 24:-0.5 
8192 1:0.96398 2:-0.195001 3:0.952531 4:-0.12358 5:0.0186586 6:-0.00765813 7:0.400043 8:-0.125321 9:-0.026426 10:0.373669 11:-0.0315517 12:-6.66134e-16 13:0.334984 14:-0.0827018 15:-0.979295 16:0.247397 17:-0.0769409 18:-0.00345118 19:0.63194 20:0.954321 21:-0.487142 22:0.603604 23:0.353846 24:-0.5 
3075.753514567916 1:0.776483 2:-0.288164 3:0.536471 4:0.000118809 5:-0.000668021 6:-0.00765813 7:0.670943 8:0.54261 9:-0.463395 10:0.0142926 11:-0.124178 12:-0.272734 13:0.400754 14:-0.103491 15:-1 16:0.00278022 17:-0.122148 18:-0.147447 19:0.341391 20:0.915703 21:-0.379873 22:0.117117 23:0.461538 24:0.7 
8192 1:0.406999 2:0.749799 3:-0.989067 4:0.854816 5:0.0300623 6:-0.0447402 7:-0.239326 8:0.709707 9:0.0773165 10:0.647966 11:0.159585 12:-6.66134e-16 13:0.414831 14:-0.105353 15:-0.934301 16:-0.109125 17:0.0339065 18:0.0155384 19:0.160018 20:-0.69787 21:-0.356652 22:-0.261261 23:0.369231 24:0.5 
8192 1:-0.200764 2:0.727555 3:0.860179 4:0.905085 5:-0.425343 6:0.404744 7:-0.70246 8:0.494848 9:0.382696 10:0.0980792 11:0.252486 12:-6.66134e-16 13:0.245302 14:0.13396 15:-0.478082 16:-0.413031 17:0.372046 18:-0.21464 19:-0.0370334 20:-0.390516 21:-0.464701 22:-0.891892 23:-0.2 24:0.9 
8192 1:0.390081 2:0.752235 3:-0.984888 4:0.172698 5:0.00839477 6:-0.00765813 7:-0.198314 8:0.700734 9:0.0157582 10:0.749129 11:0.0361399 12:-6.66134e-16 13:0.373449 14:-0.103491 15:1 16:0.287499 17:-0.0288637 18:-0.00345118 19:0.145916 20:-0.691076 21:-0.424898 22:-0.0630631 23:0.323077 24:-0.4 
8192 1:-0.479643 2:-0.820412 3:0.500621 4:0.000408892 5:-0.187447 6:0.965352 7:-0.476405 8:-0.296368 9:-0.963817 10:-1.81436e-06 11:2.25414e-06 12:-6.66134e-16 13:0.225993 14:-0.0886342 15:0.535726 16:-0.00460507 17:0.069623 18:-0.501726 19:0.295165 20:0.292621 21:-0.667201 22:0.765766 23:0.507692 24:-0.5 
989.5217633808893 1:0.236724 2:0.845899 3:-0.955132 4:0.282523 5:0.0403567 6:-0.00765813 7:-0.154472 8:0.755735 9:0.0455282 10:-1.81436e-06 11:2.25414e-06 12:-6.66134e-16 13:0.237462 14:-0.103491 15:-1 16:-0.147456 17:-0.0708616 18:-0.00345118 19:0.132885 20:-0.613075 21:-0.649137 22:0.171171 23:-0.846154 24:-0.7 
8192 1:0.412261 2:0.786515 3:0.933652 4:0.244625 5:-0.0517085 6:-0.00765813 7:-0.112458 8:0.916988 9:-0.0660312 10:0.36687 11:-0.0776537 12:-6.66134e-16 13:0.333889 14:-0.103491 15:1 16:0.05751 17:-0.0619786 18:-0.00345118 19:0.204399 20:-0.692641 21:-0.490131 22:0.765766 23:0.507692 24:0.8 
8192 1:0.872865 2:-0.886697 3:0.104724 4:-0.165729 5:-0.0565711 6:-0.976853 7:0.794084 8:-0.341611 9:-0.475102 10:0.0455902 11:-0.584466 12:-6.66134e-16 13:0.020068 14:0.141226 15:-0.580016 16:0.102607 17:-0.371547 18:0.492869 19:0.84712 20:0.793739 21:-0.6485 22:0.765766 23:0.230769 24:0.9 
8192 1:0.00831206 2:-0.861642 3:0.0773215 4:-0.303109 5:-0.0751345 6:-0.00804443 7:0.460964 8:-0.687233 9:-0.92123 10:-0.484713 11:-0.122702 12:-6.66134e-16 13:0.294081 14:-0.103524 15:-0.998476 16:-0.0963632 17:-0.0753148 18:-0.00325336 19:0.0706214 20:0.506965 21:-0.555774 22:-0.657658 23:-0.984615 24:0.6 
8192 1:0.303787 2:-0.878639 3:-0.11258 4:-0.93822 5:0.346135 6:-0.42006 7:0.758009 8:-0.421775 9:-0.686636 10:-1.81436e-06 11:2.25414e-06 12:-6.66134e-16 13:0.194233 14:0.196463 15:-0.57415 16:0.470679 17:-0.259433 18:0.207738 19:0.208622 20:0.639271 21:-0.433285 22:-0.513514 23:-0.630769 24:-0.2 
8192 1:-0.0718398 2:0.830058 3:0.974936 4:0.57484 5:-0.0453905 6:0.647757 7:-0.528546 8:0.599002 9:0.158738 10:0.549351 11:0.29806 12:-6.66134e-16 13:0.283483 14:0.0231433 15:-0.816644 16:-0.0172931 17:0.16584 18:-0.339086 19:0.0443955 20:-0.465088 21:-0.524602 22:-0.747748 23:-0.907692 24:-0.3 
8192 1:0.9477 2:-0.479018 3:0.233895 4:-0.0817821 5:-0.0738912 6:-0.943129 7:0.702011 8:-0.0171601 9:-0.343798 10:-1.81436e-06 11:2.25414e-06 12:-6.66134e-16 13:0.00828748 14:0.143562 15:-0.577943 16:0.0370132 17:-0.00040579 18:0.475599 19:0.699134 20:0.886263 21:-0.648299 22:0.513514 23:0.430769 24:0.9 
8192 1:0.697608 2:-0.841385 3:0.475562 4:-0.0094775 5:-0.123682 6:-0.00765813 7:0.70708 8:-0.090329 9:-0.524331 10:-0.0191621 11:-0.249263 12:-6.66134e-16 13:0.349149 14:-0.103491 15:-1 16:-0.00930139 17:-0.12343 18:-0.00345118 19:0.577563 20:0.767038 21:-0.464968 22:0.495495 23:0.384615 24:-0.6 
7328.490870181308 1:0.0129488 2:-0.849517 3:-0.132033 4:-0.543361 5:0.239133 6:0.731481 7:0.452138 8:-0.658824 9:-0.886989 10:-0.703122 11:-0.261005 12:-6.66134e-16 13:0.211092 14:0.0845437 15:-0.754932 16:-0.0853072 17:-0.354417 18:-0.381961 19:0.0549686 20:0.509344 21:-0.567387 22:0.315315 23:-0.169231 24:-0.6 
8192 1:0.382946 2:0.856326 3:-0.949337 4:0.873091 5:0.140849 6:-0.00765813 7:-0.0936844 8:0.739207 9:0.0513257 10:0.498684 11:0.080415 12:-6.66134e-16 13:0.296004 14:-0.103491 15:1 16:-0.193972 17:-0.0832412 18:-0.00345118 19:0.253931 20:-0.669812 21:-0.552602 22:-0.225225 23:-0.569231 24:-0.7 
8192 1:-0.867906 2:-0.578519 3:-0.698548 4:0.583662 5:0.812157 6:0.404744 7:-0.559773 8:-0.715779 9:-0.982457 10:-1.81436e-06 11:2.25414e-06 12:-6.66134e-16 13:-0.088574 14:0.0778652 15:-0.28391 16:-0.299941 17:-0.546825 18:-0.21464 19:0.616158 20:0.149843 21:-0.770264 22:0.387387 23:0.0307692 24:-0.4 
8192 1:-0.936784 2:-0.616866 3:-0.263718 4:0.210777 5:-0.229495 6:-0.961889 7:-0.403159 8:-0.616996 9:0.977208 10:-0.997212 11:0.0746695 12:-6.66134e-16 13:0.201521 14:0.122509 15:-0.760198 16:-0.616094 17:0.141603 18:0.485206 19:0.74447 20:0.148299 21:-0.531226 22:-0.513514 23:0.384615 24:0.6 
8192 1:0.859468 2:-0.313822 3:0.571937 4:0.126078 5:-0.548112 6:-0.00765813 7:0.695471 8:0.427646 9:-0.427913 10:0.168066 11:-0.730926 12:-6.66134e-16 13:0.359679 14:-0.103491 15:1 16:0.0168673 17:-0.158744 18:-0.00345118 19:0.487864 20:0.916917 21:-0.447604 22:-0.927928 23:-0.676923 24:0.5 
8192 1:-0.832264 2:0.453839 3:-0.462778 4:0.0129644 5:-0.109544 6:-0.00765813 7:-0.729646 8:-0.221712 9:0.538109 10:-0.0146462 11:0.124142 12:-9.21485e-15 13:0.318176 14:-0.103491 15:1 16:-0.0183783 17:0.0981418 18:-0.00345118 19:0.495971 20:-0.12538 21:-0.516042 22:0.765766 23:0.338462 24:0.6 
8192 1:0.255315 2:0.309566 3:-0.722846 4:-0.11991 5:-0.14249 6:-0.00765813 7:-0.0789347 8:-0.216656 9:0.277921 10:0.0804761 11:0.0956494 12:0.0240278 13:0.323388 14:-0.103491 15:-1 16:0.0970718 17:0.100888 18:0.00923485 19:-0.446226 20:-0.763253 21:-0.507446 22:0.81982 23:0.446154 24:-0.5 
8192 1:0.0632932 2:0.849729 3:-0.914084 4:0.118914 5:0.033045 6:-0.00765813 7:-0.328696 8:0.686124 9:0.0865952 10:0.602255 11:0.167076 12:-6.66134e-16 13:0.252324 14:-0.103491 15:-1 16:0.240359 17:0.0366872 18:-0.00345118 19:0.0694953 20:-0.532138 21:-0.62463 22:-0.027027 23:-0.692308 24:-0.6 
8192 1:-0.939681 2:-0.863886 3:-0.687135 4:0.381011 5:0.572401 6:-0.729361 7:-0.380635 8:-0.749312 9:-0.956847 10:-0.990755 11:-0.135692 12:-6.66134e-16 13:-0.291234 14:0.147781 15:-0.269726 16:-0.699023 17:-0.482656 18:0.36613 19:0.913792 20:0.194922 21:-0.495678 22:-0.873874 23:0.569231 24:-0.5 
8192 1:-0.885802 2:0.0302942 3:-0.461159 4:0.0153103 5:-0.124006 6:-0.00765813 7:-0.777616 8:-0.639358 9:0.539728 10:-0.0305524 11:0.248129 12:-6.66134e-16 13:0.320517 14:-0.103491 15:-1 16:-0.0276207 17:0.183527 18:-0.00345118 19:0.46885 20:-0.00831356 21:-0.512182 22:0.81982 23:0.446154 24:0.6 
8192 1:-0.769141 2:0.838268 3:-0.572789 4:3.43891e-05 5:6.53788e-05 6:0.386147 7:-0.84701 8:0.127047 9:0.538853 10:-1.81436e-06 11:2.25414e-06 12:-6.66134e-16 13:0.340062 14:-0.103491 15:-0.889261 16:-0.00441544 17:-0.0460143 18:-0.205117 19:0.665478 20:-0.220552 21:-0.479952 22:0.765766 23:0.446154 24:-0.4 
8192 1:0.258065 2:0.766597 3:-0.991603 4:-0.0872519 5:-0.00230166 6:-0.00765813 7:-0.235646 8:0.734363 9:0.0783082 10:-1.81436e-06 11:2.25414e-06 12:-6.66134e-16 13:0.308802 14:-0.103491 15:-0.930774 16:0.0397829 17:-0.0445545 18:-0.00345118 19:0.0509354 20:-0.633493 21:-0.531499 22:-0.369369 23:-0.692308 24:0.7 
8192 1:-0.482198 2:-0.384734 3:-0.02895 4:-0.355686 5:0.0324047 6:-0.00765813 7:0.0032317 8:-0.429011 9:0.972136 10:-0.948672 11:0.0862456 12:-6.66134e-16 13:0.291588 14:-0.103491 15:-1 16:-0.30468 17:-0.0127686 18:-0.00345118 19:-0.0871486 20:0.174061 21:-0.559885 22:0.783784 23:0.446154 24:0.5 
8192 1:-0.689791 2:0.431871 3:-0.499868 4:-0.000470952 5:0.549142 6:-0.00765813 7:-0.652021 8:-0.247678 9:0.76502 10:-1.81436e-06 11:2.25414e-06 12:-6.66134e-16 13:0.318107 14:-0.103491 15:-0.736141 16:-0.00415955 17:-0.384625 18:-0.00345118 19:0.260665 20:-0.141953 21:-0.516156 22:0.855856 23:0.384615 24:-0.6 
5297.114356821847 1:0.608761 2:0.751376 3:-0.595466 4:0.294961 5:0.955652 6:-0.00765813 7:0.449013 8:0.156515 9:0.370028 10:-1.81436e-06 11:2.25414e-06 12:-6.66134e-16 13:0.283064 14:-0.103491 15:0.96469 16:-0.153754 17:-0.635317 18:-0.00345118 19:0.391535 20:-0.760327 21:-0.573941 22:0.783784 23:0.461538 24:-0.7 
8192 1:-0.857001 2:-0.756391 3:0.00568334 4:-0.298182 5:-0.00534121 6:-0.00765813 7:-0.227937 8:-0.72128 9:-0.994426 10:-0.74988 11:-0.0135925 12:-6.66134e-16 13:0.381457 14:-0.103491 15:-1 16:-0.233134 17:-0.0510644 18:-0.00345118 19:0.717241 20:0.188835 21:-0.411692 22:-0.63964 23:-0.184615 24:0.6 
8192 1:0.426952 2:0.722366 3:-0.960637 4:0.969793 5:0.121311 6:-0.00765813 7:-0.12385 8:0.618753 9:0.0400204 10:0.743484 11:0.0929552 12:-6.66134e-16 13:0.347215 14:-0.103491 15:1 16:-0.118977 17:-0.0634583 18:-0.00345118 19:0.151916 20:-0.7108 21:-0.468158 22:0.459459 23:0.476923 24:-0.4 
8192 1:-0.769667 2:0.648733 3:-0.513185 4:0.0143336 5:0.349394 6:-0.00765813 7:-0.749079 8:-0.0482484 9:0.487678 10:0.0204483 11:0.499585 12:-6.66134e-16 13:0.325104 14:-0.103491 15:1 16:-0.00130045 17:0.0466659 18:-0.00345118 19:0.519367 20:-0.181759 21:-0.504618 22:0.351351 23:0.0923077 24:-0.4 
8192 1:0.529101 2:-0.793842 3:0.0022638 4:-0.999978 5:-0.00732111 6:0.404744 7:0.767798 8:-0.366448 9:-0.470558 10:-1.81436e-06 11:2.25414e-06 12:-6.66134e-16 13:0.148558 14:0.0899307 15:-0.47303 16:0.501951 17:-0.0414591 18:-0.21464 19:0.329354 20:0.732588 21:-0.634864 22:-0.585586 23:-0.692308 24:-0.4 
8192 1:0.282812 2:0.779695 3:-0.993801 4:0.116571 5:0.00242051 6:-0.00765813 7:-0.158056 8:0.753165 9:0.00684143 10:0.249948 11:0.00505343 12:-6.66134e-16 13:0.269274 14:-0.103491 15:-1 16:0.0631441 17:-0.0443514 18:-0.00345118 19:0.0843526 20:-0.64245 21:-0.59668 22:0.873874 23:0.0769231 24:-0.7 
8192 1:0.819171 2:-0.442416 3:0.520636 4:-0.0071212 5:0.110229 6:-0.00765813 7:0.749491 8:0.233502 9:-0.479238 10:0.016203 11:-0.249473 12:-6.66134e-16 13:0.313239 14:-0.103491 15:1 16:0.00741366 17:-0.26781 18:-0.00345118 19:0.475922 20:0.879204 21:-0.524182 22:0.333333 23:-0.0307692 24:-0.6 
8192 1:-0.9511 2:-0.601333 3:-0.0354538 4:-0.678896 5:0.0758015 6:-0.00765813 7:-0.445228 8:-0.652972 9:0.965629 10:-0.580203 11:0.0647232 12:-6.66134e-16 13:0.290127 14:-0.103491 15:-1 16:0.0455661 17:-0.0528047 18:-0.00345118 19:0.757688 20:0.143164 21:-0.562293 22:0.747748 23:0.384615 24:-0.5 
3866.8515867285 1:-0.0275166 2:-0.150519 3:-0.507037 4:0.0108247 5:0.499538 6:-0.00765813 7:-0.0349812 8:-0.881116 9:0.766921 10:-1.81436e-06 11:2.25414e-06 12:-6.66134e-16 13:0.352961 14:-0.103491 15:-0.727073 16:-0.00987922 17:-0.354035 18:-0.00345118 19:-0.85313 20:0.432758 21:-0.458683 22:0.477477 23:0.553846 24:0.8 
8192 1:0.000199808 2:0.232382 3:0.146905 4:-0.0572342 5:-0.028432 6:-0.00765813 7:0.517064 8:0.57671 9:0.251307 10:-1.81436e-06 11:2.25414e-06 12:-6.66134e-16 13:0.374564 14:-0.103491 15:0.103779 16:0.0245831 17:-0.0284401 18:-0.00345118 19:-0.742021 20:-0.505425 21:-0.423059 22:0.171171 23:0.626793 24:-0.4 
8192 1:0.31722 2:-0.304423 3:-0.852794 4:-0.184266 5:-0.0919672 6:-0.00765813 7:-0.156791 8:-0.606012 9:-0.506789 10:-1.81436e-06 11:2.25414e-06 12:-6.66134e-16 13:0.331764 14:-0.103491 15:0.345694 16:0.0889068 17:0.0107416 18:-0.00345118 19:-0.373156 20:0.804447 21:-0.493635 22:0.536663 23:0.490847 24:0.4 
8192 1:-0.518761 2:0.171223 3:-0.390725 4:-0.024363 5:0.0682233 6:-0.00765813 7:-0.257772 8:-0.70817 9:-0.0473638 10:-1.81436e-06 11:2.25414e-06 12:-6.66134e-16 13:0.458429 14:-0.103491 15:0.34284 16:0.00793842 17:-0.0880468 18:-0.00345118 19:-0.134156 20:-0.0792316 21:-0.284769 22:-0.423423 23:0.830769 24:0.6 
8192 1:0.356035 2:0.219992 3:-0.355779 4:0.0827624 5:-0.169671 6:-0.00765813 7:0.559697 8:-0.389053 9:-0.00231251 10:-1.81436e-06 11:2.25414e-06 12:-6.66134e-16 13:0.319555 14:-0.103491 15:0.352923 16:-0.0463056 17:0.0586608 18:-0.00345118 19:-0.366864 20:-0.85956 21:-0.513768 22:0.81982 23:0.4 24:0.6 
5067.660202728031 1:-0.30236 2:0.430335 3:0.877459 4:0.0539597 5:-0.0217932 6:-0.00765813 7:-0.802022 8:0.707888 9:-0.627558 10:-1.81436e-06 11:2.25414e-06 12:-6.66134e-16 13:0.363257 14:-0.103491 15:0.494998 16:-0.031721 17:-0.0325342 18:-0.00345118 19:-0.284721 20:-0.26448 21:-0.441704 22:0.225225 23:0.584615 24:-0.9 
8192 1:0.778218 2:0.243223 3:0.827952 4:0.0802995 5:-0.0481157 6:-0.00765813 7:0.210574 8:0.673263 9:0.614577 10:-1.81436e-06 11:2.25414e-06 12:-6.66134e-16 13:0.408243 14:-0.103491 15:-0.214118 16:-0.0450585 17:-0.0163013 18:-0.00345118 19:0.331798 20:-0.925173 21:-0.367524 22:0.261181 23:0.625664 24:0.5 
474.6205083744454 1:0.428967 2:0.864387 3:0.576532 4:-0.0502572 5:0.205185 6:0.972677 7:-0.53543 8:0.0539045 9:-0.466934 10:-1.81436e-06 11:2.25414e-06 12:-6.66134e-16 13:-0.295277 14:0.58435 15:0.956407 16:0.0210502 17:-0.17251 18:-0.505477 19:0.304736 20:-0.68458 21:0.22512 22:0.593853 23:0.340101 24:-0.2 
8192 1:0.160577 2:0.271207 3:-0.0696227 4:-0.137217 5:0.0305305 6:-0.00765813 7:0.863147 8:0.0554385 9:0.314781 10:-1.81436e-06 11:2.25414e-06 12:-6.66134e-16 13:0.484617 14:-0.103491 15:0.38371 16:0.0650832 17:-0.0648019 18:-0.00345118 19:-0.594102 20:-0.71171 21:-0.241585 22:-0.663583 23:0.821645 24:-0.4 
8192 1:-0.0804804 2:-0.488687 3:0.289313 4:2.9854e-05 5:5.95565e-05 6:-0.00765813 7:0.248183 8:0.0854169 9:-0.305902 10:-1.81436e-06 11:2.25414e-06 12:-6.66134e-16 13:0.33771 14:-0.103491 15:-0.595481 16:-0.00441314 17:-0.0460107 18:-0.00345118 19:-0.40248 20:0.435402 21:-0.483831 22:0.783784 23:0.461538 24:-0.6 
8192 1:0.223046 2:-0.255888 3:0.911327 4:0.600612 5:-0.171805 6:-0.00765813 7:-0.426849 8:0.00206274 9:0.852695 10:-1.81436e-06 11:2.25414e-06 12:-6.66134e-16 13:0.442717 14:-0.103491 15:-0.0595082 16:-0.308524 17:0.0599767 18:-0.00345118 19:-0.540006 20:0.777861 21:-0.310678 22:-0.117117 23:0.738462 24:-0.6 
8192 1:-0.302643 2:-0.487778 3:-0.0135779 4:-0.512302 5:0.0217892 6:-0.00765813 7:0.512426 8:-0.518991 9:-0.405885 10:-1.81436e-06 11:2.25414e-06 12:-6.66134e-16 13:0.537815 14:-0.103491 15:-0.392556 16:0.255011 17:-0.0594112 18:-0.00345118 19:-0.234205 20:0.283555 21:-0.153863 22:-0.675676 23:0.861538 24:-0.5 
6756.54828501009 1:0.457543 2:-0.0720866 3:-0.384123 4:-0.15619 5:0.409535 6:-0.00765813 7:0.650459 8:-0.822679 9:-0.567709 10:-1.81436e-06 11:2.25414e-06 12:-6.66134e-16 13:0.391281 14:-0.103491 15:-0.183792 16:0.0746902 17:-0.298531 18:-0.00345118 19:-0.252587 20:0.965957 21:-0.395494 22:0.171171 23:0.646154 24:-0.5 
8192 1:0.107789 2:-0.883786 3:-0.718154 4:-0.169209 5:-0.207209 6:-0.0463208 7:-0.711423 8:-0.459431 9:-0.927803 10:-1.81436e-06 11:2.25414e-06 12:-6.66134e-16 13:0.165448 14:-0.636275 15:-0.209685 16:0.0812828 17:0.0818102 18:0.0163478 19:0.11506 20:0.553781 21:-0.0685671 22:0.81982 23:0.362865 24:-0.3 
8192 1:0.101126 2:-0.656865 3:0.984133 4:0.998823 5:-0.049941 6:-0.0139114 7:-0.294572 8:-0.612608 9:-0.0257947 10:0.996619 11:-0.0821664 12:-0.203875 13:0.243192 14:-0.103052 15:0.989739 16:-0.00549433 17:-0.0658517 18:-0.10789 19:-0.178195 20:0.567375 21:-0.639686 22:0.783784 23:0.461538 24:0.1 
5301.097028134392 1:0.416208 2:-0.411272 3:-0.888662 4:0.939286 5:0.343419 6:-0.00985009 7:0.0596319 8:-0.565728 9:0.117186 10:0.933532 11:0.358498 12:0.0350917 13:0.218754 14:-0.103711 15:-0.994845 16:-0.00729302 17:-0.0366624 18:0.0161988 19:-0.153473 20:0.799233 21:-0.679986 22:0.855856 23:0.292308 24:0.9 
8192 1:0.370021 2:0.686989 3:-0.72254 4:0.643147 5:0.765909 6:0.00377895 7:0.128629 8:0.308357 9:0.266183 10:0.671579 11:0.740936 12:-0.0069276 13:0.212637 14:-0.102976 15:0.987963 16:0.0100126 17:-0.0613467 18:-0.0129656 19:0.0563496 20:-0.696751 21:-0.690072 22:0.855856 23:0.294576 24:-0.8 
8192 1:-0.562405 2:-0.40525 3:0.459615 4:-0.126441 5:-0.99197 6:-0.00594641 7:-0.487693 8:0.0736863 9:0.458259 10:-0.132887 11:-0.991131 12:-0.00304422 13:0.208856 14:-0.103403 15:-0.0020593 16:-0.00766379 17:-0.0454968 18:-0.00593501 19:0.0458207 20:0.159979 21:-0.696308 22:0.783784 23:0.4674 24:-0.6 
6861.56884459607 1:0.82161 2:-0.327585 3:0.179866 4:-0.84445 5:-0.535603 6:0.5014 7:0.829556 8:0.233848 9:0.500672 10:-0.000116635 11:-1 12:0.0180007 13:0.142851 14:0.103585 15:0.320036 16:0.42314 17:-0.332405 18:-0.254634 19:0.4302 20:0.909492 21:-0.621639 22:0.783784 23:0.461538 24:-0.5 
8192 1:0.785226 2:0.878052 3:-0.936746 4:0.7352 5:0.148653 6:-0.2143 7:0.387003 8:0.727407 9:-0.913537 10:0.96321 11:0.268753 12:3.20448e-07 13:0.228833 14:-0.087268 15:0.0231324 16:0.111077 17:0.0281001 18:0.102369 19:0.728167 20:-0.775871 21:-0.662365 22:0.783784 23:0.484431 24:0.7 
8192 1:-0.265498 2:-0.627287 3:-0.0527283 4:-0.986366 5:0.164675 6:-0.00765813 7:0.0788356 8:-0.683612 9:0.947638 10:-0.985996 11:0.166795 12:-0.00637132 13:0.198434 14:-0.103461 15:0.999292 16:-0.00422883 17:-0.0446616 18:-0.00681507 19:-0.118741 20:0.340161 21:-0.713493 22:0.596396 23:0.52 24:-0.7 
8192 1:-0.53838 2:-0.0790978 3:-0.227946 4:0.00024018 5:-0.000113572 6:0.0204947 7:0.000827377 8:-0.661301 9:0.304094 10:0.19746 11:0.278174 12:-6.66134e-16 13:0.443788 14:-0.0988701 15:0.53133 16:0.095471 17:0.125654 18:-0.0178681 19:-0.12393 20:0.0349889 21:-0.308865 22:-0.0810811 23:0.630769 24:-0.5 
8192 1:0.438226 2:0.483079 3:0.989569 4:-0.18868 5:0.00628558 6:0.153058 7:-0.232027 8:0.490556 9:-0.490177 10:0.0147571 11:-0.483455 12:-6.66134e-16 13:0.430963 14:-0.0969204 15:0.520202 16:0.0986157 17:-0.348014 18:-0.0857531 19:-0.0603232 20:-0.778111 21:-0.329965 22:-0.027027 23:0.569231 24:-0.2 
8192 1:0.143167 2:0.0246368 3:0.628573 4:-0.0237024 5:0.0556029 6:-0.00765813 7:-0.0620381 8:0.66435 9:0.507841 10:-1.81436e-06 11:2.25414e-06 12:-6.66134e-16 13:0.328838 14:-0.103491 15:-0.121441 16:0.00760394 17:-0.0802638 18:-0.00345118 19:-0.795621 20:-0.954117 21:-0.498461 22:0.783784 23:0.461538 24:-0.1 
8192 1:0.372286 2:0.599234 3:-0.732229 4:-0.354683 5:-0.397145 6:-0.242321 7:0.0042596 8:0.0950268 9:-0.141823 10:-0.901944 11:0.431864 12:-6.66134e-16 13:0.325272 14:-0.116564 15:0.589892 16:-0.281526 17:0.465285 18:0.116719 19:-0.0323036 20:-0.718567 21:-0.50386 22:0.531532 23:0.538462 24:0.5 
8192 1:-0.574791 2:0.371237 3:-0.345325 4:-0.390709 5:0.739119 6:-0.20563 7:-0.2648 8:-0.389754 9:-0.88802 10:-0.661275 11:-0.243038 12:-6.66134e-16 13:0.410493 14:-0.112995 15:-0.542701 16:-0.141414 17:-0.651674 18:0.0979296 19:0.0482435 20:-0.146135 21:-0.363606 22:0.189189 23:0.646154 24:-0.1 
640.1261517505261 1:-0.486155 2:0.155837 3:0.163931 4:0.353274 5:0.200078 6:0.069277 7:0.155097 8:0.647301 9:0.743399 10:-0.453988 11:0.475774 12:-6.66134e-16 13:0.476139 14:-0.0948107 15:0.578549 16:-0.413171 17:0.124063 18:-0.0428493 19:-0.193442 20:-0.0771869 21:-0.255414 22:-0.405405 23:0.630769 24:-0.8 
6915.062686803422 1:-0.405558 2:-0.238088 3:-0.652686 4:0.0323868 5:0.0623465 6:0.105621 7:-0.659726 8:-0.963654 9:-0.187091 10:0.152528 11:-0.101834 12:-6.66134e-16 13:0.399995 14:-0.10101 15:0.46512 16:0.0564405 17:-0.147228 18:-0.061461 19:-0.292854 20:0.133679 21:-0.38111 22:-0.027027 23:0.615385 24:-0.9 
8192 1:-0.644437 2:0.759563 3:-0.118421 4:-0.56018 5:0.218454 6:0.057809 7:0.0188814 8:0.429554 9:-0.526789 10:0.046357 11:0.547755 12:0.0770295 13:0.444581 14:-0.096315 15:-0.40856 16:0.30273 17:0.157123 18:0.00369289 19:0.436141 20:-0.233086 21:-0.307495 22:-0.0630631 23:0.676923 24:0.8 
8192 1:0.143596 2:0.256184 3:-0.19961 4:0.17747 5:-0.128421 6:0.154905 7:0.656857 8:-0.232525 9:0.0900529 10:0.749634 11:0.216752 12:-6.66134e-16 13:0.415086 14:-0.0951168 15:0.289086 16:0.285338 17:0.166899 18:-0.0866989 19:-0.627418 20:-0.70352 21:-0.35608 22:0.477477 23:0.553846 
8192 1:-0.363025 2:-0.575034 3:-0.938104 4:0.0845242 5:0.0167673 6:-0.117061 7:-0.969118 8:-0.72056 9:0.493802 10:0.00446093 11:0.205766 12:-6.66134e-16 13:0.421526 14:-0.106227 15:-0.569024 16:-0.0449379 17:0.0705871 18:0.0525735 19:-0.080291 20:0.280741 21:-0.345604 22:0.153153 23:0.6 24:-0.1 
8192 1:-0.539484 2:-0.171026 3:-0.341173 4:-0.284267 5:0.521229 6:-0.139859 7:-0.248931 8:-0.857462 9:0.168254 10:-0.674922 11:-0.392723 12:-6.66134e-16 13:0.374814 14:-0.114116 15:0.508782 16:-0.202222 17:-0.609618 18:0.0642485 19:-0.101721 20:0.0751207 21:-0.422367 22:0.477477 23:0.553846 24:-0.1 
8192 1:-0.829775 2:0.00682575 3:0.598987 4:0.0765349 5:-0.237959 6:-0.126651 7:-0.934091 8:0.701644 9:0.181627 10:0.61433 11:0.392886 12:-0.674969 13:0.343581 14:-0.113089 15:-0.417875 16:0.267933 17:0.343078 18:-0.298881 19:0.371932 20:-0.00207577 21:-0.473903 22:0.459459 23:0.553846 24:0.5 
59.49118525640047 1:-0.506319 2:-0.471817 3:-0.0298112 4:0.995719 5:-0.093171 6:-0.00765813 7:0.811972 8:-0.621263 9:0.647711 10:-1.81436e-06 11:2.25414e-06 12:-6.66134e-16 13:0.901223 14:-0.103491 15:0.676633 16:-0.50859 17:0.0114839 18:-0.00345118 19:0.00984194 20:0.196884 21:0.445385 22:0.783784 23:0.461538 24:1 
8192 1:0.402248 2:0.299229 3:0.153813 4:0.0277144 5:0.0145969 6:-0.00766939 7:0.969591 8:0.708576 9:-0.39295 10:0.0274583 11:-0.0786807 12:-1.09228e-05 13:0.4367 14:-0.104613 15:-0.546996 16:-0.00452626 17:-0.103502 18:-0.00345118 19:-0.248634 20:-0.835835 21:-0.320597 22:-0.117117 23:0.492308 24:0.5 
8192 1:-0.213917 2:0.325922 3:0.104929 4:-0.369265 5:-0.126379 6:-0.0656353 7:0.316977 8:0.548463 9:-0.347343 10:0.203866 11:-0.392575 12:-0.463576 13:0.35237 14:-0.109446 15:-0.45254 16:0.285817 17:-0.210151 18:-0.218517 19:-0.487477 20:-0.276299 21:-0.459563 22:0.477477 23:0.553846 24:0.3 
8192 1:-0.441558 2:0.147852 3:-0.692083 4:-0.0708577 5:-0.102928 6:-0.00765813 7:-0.711992 8:-0.433569 9:0.476871 10:-1.81436e-06 11:2.25414e-06 12:-6.66134e-16 13:0.335799 14:-0.103491 15:-0.831929 16:0.0314815 17:0.0175009 18:-0.00345118 19:-0.270323 20:-0.0806607 21:-0.486982 22:0.783784 23:0.461538 24:-0.4 
8192 1:-0.314966 2:0.150382 3:0.800991 4:0.206749 5:-0.149174 6:0.171046 7:-0.861986 8:0.669248 9:-0.627161 10:-0.389023 11:-0.921229 12:0.4 13:0.453996 14:-0.0902244 15:0.571852 16:-0.30608 17:-0.522132 18:0.116224 19:-0.477107 20:-0.113163 21:-0.291711 22:-0.423423 23:0.830769 
8192 1:0.239608 2:-0.207077 3:-0.717867 4:-0.236822 5:-0.29055 6:-0.130115 7:-0.225093 8:-0.935821 9:0.0282586 10:-0.635326 11:-0.0556984 12:6.66134e-16 13:0.473409 14:-0.109716 15:0.74551 16:-0.206196 17:0.0988536 18:0.0592585 19:-0.554913 20:0.821143 21:-0.259989 22:-0.135135 23:0.646154 24:-0.1 
8192 1:0.529533 2:-0.335097 3:0.247861 4:0.456255 5:0.450352 6:0.138425 7:0.959859 8:0.312385 9:-0.483955 10:-0.0500328 11:0.998752 12:-2.10942e-15 13:0.432186 14:-0.0933367 15:-0.73198 16:-0.260762 17:0.292258 18:-0.0782595 19:-0.0366696 20:0.861184 21:-0.327818 22:-0.117117 23:0.738462 
286.2422744284118 1:0.569351 2:0.155201 3:0.496508 4:-0.00169172 5:-0.157946 6:0.208694 7:0.529226 8:0.933745 9:0.995786 10:-0.999869 11:0.0164091 12:-3.55271e-15 13:0.375083 14:-0.0898793 15:0.498254 16:-0.509854 17:0.061549 18:-0.114244 19:-0.0438659 20:-0.934061 21:-0.421745 22:0.171171 23:0.646154 24:0.2 
8192 1:0.477333 2:-0.196777 3:-0.681675 4:-0.404807 5:-0.631337 6:-0.0568983 7:0.112108 8:-0.906908 9:0.241991 10:-0.548661 11:-0.519911 12:6.66134e-16 13:0.416874 14:-0.105958 15:0.922926 16:-0.0772498 17:0.0227203 18:0.0217645 19:-0.185909 20:0.907395 21:-0.353277 22:0.189189 23:0.692308 
8192 1:0.263707 2:0.186831 3:-0.0164075 4:0.998761 5:-0.0511784 6:0.168673 7:0.925051 8:0.16724 9:0.43998 10:0.189513 11:0.981882 12:-6.66134e-16 13:0.445585 14:-0.0900111 15:0.455626 16:-0.414164 17:0.591144 18:-0.0937498 19:-0.528129 20:-0.84206 21:-0.305562 22:0.783784 23:0.461538 24:-0.1 
5163.51301401479 1:0.433923 2:0.390007 3:-0.260704 4:0.492926 5:-0.52674 6:-0.0976222 7:0.951342 8:-0.417985 9:0.450126 10:-0.12557 11:-0.783998 12:-0.299303 13:0.538527 14:-0.11203 15:0.710026 16:-0.317581 17:-0.204655 18:-0.115405 19:-0.139638 20:-0.809115 21:-0.152559 22:-0.441441 23:0.784615 24:0.2 
8192 1:-0.350274 2:-0.448715 3:0.914745 4:-0.964311 5:0.264869 6:-0.42006 7:-0.910241 8:0.273094 9:-0.477199 10:0.0712016 11:-0.997462 12:-6.66134e-16 13:0.46505 14:-0.331267 15:0.607985 16:0.519947 17:-0.824485 18:0.207738 19:-0.216478 20:0.24688 21:-0.173943 22:0.783784 23:0.461538 24:-0.3 
8192 1:0.72641 2:0.36887 3:0.331414 4:0.0965069 5:0.164909 6:0.0962725 7:0.919451 8:0.92018 9:-0.0297987 10:-0.639133 11:0.0607951 12:-6.66134e-16 13:0.297842 14:-0.0955646 15:-0.36164 16:-0.376908 17:-0.110179 18:-0.0566736 19:0.295487 20:-0.882357 21:-0.549382 22:0.81982 23:0.353846 24:0.2 
8192 1:-0.233423 2:-0.60353 3:-0.895512 4:-0.546922 5:-0.186642 6:-0.0223769 7:-0.930001 8:-0.91511 9:0.879801 10:-1.81436e-06 11:2.25414e-06 12:-0.869758 13:0.503994 14:-0.103491 15:-0.225844 16:0.272542 17:0.0691268 18:-0.455122 19:-0.171969 20:0.352221 21:-0.209633 22:-0.423423 23:0.830769 24:0.2 
4841.500698892197 1:0.616874 2:0.146522 3:-0.484655 4:-0.0336889 5:0.691928 6:-0.161803 7:0.607156 8:-0.923859 9:0.942229 10:-0.983021 11:0.183516 12:-6.66134e-16 13:0.532169 14:-0.116734 15:-0.57425 16:-0.48512 17:-0.359502 18:0.0754855 19:0.0341374 20:-0.942263 21:-0.162857 22:-0.693694 23:0.861538 24:0.6 
8192 1:-0.134061 2:-0.57343 3:-0.140396 4:0.678393 5:-0.319903 6:0.0686903 7:0.516674 8:-0.953543 9:0.996433 10:0.999897 11:-0.0143737 12:-6.66134e-16 13:0.469954 14:-0.0978618 15:-0.864289 16:0.158419 17:0.142442 18:-0.0425489 19:-0.272364 20:0.407732 21:-0.2657 22:0.153153 23:0.6 24:-0.1 
8192 1:-0.30828 2:0.0759375 3:0.055388 4:0.984929 5:0.173453 6:0.088765 7:0.770409 8:0.354519 9:0.373439 10:0.389036 11:0.921226 12:4.44089e-16 13:0.743621 14:-0.0920594 15:0.31734 16:-0.306126 17:0.415207 18:-0.052829 19:-0.514803 20:-0.0611293 21:0.185676 22:0.783784 23:0.461538 24:0.3 
1688.206017913835 1:0.910088 2:0.00588285 3:0.839778 4:0.00673971 5:-0.00362805 6:1 7:0.237301 8:0.337777 9:-0.600356 10:-1.81436e-06 11:2.25414e-06 12:-0.000791045 13:0.443999 14:-0.0439954 15:0.559859 16:-0.00781074 17:-0.0437365 18:-0.519886 19:0.520606 20:-0.997637 21:-0.301065 22:-0.477477 23:0.323077 24:0.4 
2332.426619562767 1:-0.0256781 2:-0.137474 3:0.813298 4:-0.142745 5:0.0949737 6:-0.192753 7:-0.499524 8:0.316459 9:-0.685305 10:0.274899 11:0.417651 12:-0.174961 13:0.379614 14:-0.110297 15:0.501438 16:0.207086 17:0.153034 18:-0.00103951 19:-0.870438 20:0.431779 21:-0.414618 22:0.477477 23:0.553846 24:-0.6 
8192 1:-0.0866833 2:-0.0160604 3:-0.255659 4:0.204417 5:-0.211556 6:-0.00765813 7:0.266917 8:-0.498191 9:0.256901 10:-1.81436e-06 11:2.25414e-06 12:0.0176509 13:0.319468 14:-0.103491 15:0.511874 16:-0.107907 17:0.084491 18:0.00586801 19:-0.90502 20:0.0374894 21:-0.513911 22:0.531532 23:0.538462 24:-0.5 
8192 1:0.106698 2:0.260578 3:0.743132 4:0.453509 5:-0.473487 6:-0.0673712 7:-0.348531 8:0.918873 9:-0.744329 10:0.347147 11:0.359848 12:-0.0285556 13:0.4414 14:-0.110292 15:0.512605 16:-0.058248 17:0.46795 18:0.012051 19:-0.656939 20:-0.659319 21:-0.31275 22:-0.135135 23:0.692308 24:0.2 
2968.539858750801 1:0.583323 2:-0.843208 3:0.305405 4:-0.368188 5:-0.525447 6:0.0678211 7:0.966683 8:0.00207234 9:0.83036 10:-0.537418 11:0.31908 12:0.100057 13:0.490004 14:-0.0950077 15:0.524004 16:-0.0900989 17:0.47485 18:0.0107235 19:0.439673 20:0.738364 21:-0.232563 22:-0.585586 23:0.615385 24:0.9 
8192 1:0.230862 2:-0.613444 3:-0.00700959 4:0.393285 5:-0.0084866 6:-0.00765813 7:0.723679 8:-0.610739 9:0.482743 10:-1.81436e-06 11:2.25414e-06 12:-0.012923 13:0.321627 14:-0.103491 15:0.488966 16:-0.203542 17:-0.0407403 18:-0.0102742 19:-0.157634 20:0.650452 21:-0.51035 22:0.531532 23:0.538462 24:0.4 
8192 1:0.307929 2:0.232032 3:0.0664635 4:-0.611914 5:-0.12976 6:-0.108692 7:0.839749 8:0.36822 9:0.573248 10:0.141115 11:-0.60886 12:-0.126486 13:0.35962 14:-0.111997 15:0.505954 16:0.376909 17:-0.341456 18:-0.0184935 19:-0.432974 20:-0.83395 21:-0.447515 22:0.459459 23:0.507692 24:-0.1 
8192 1:-0.0172509 2:0.852399 3:-0.302894 4:-0.140244 5:0.196714 6:0.982067 7:0.448567 8:0.342434 9:0.294705 10:-0.376644 11:-0.498764 12:-0.0976671 13:0.367887 14:0.00346793 15:0.596884 16:-0.124108 17:-0.474891 18:-0.561851 19:0.0674112 20:-0.492638 21:-0.405815 22:-0.369369 23:0.723077 
8192 1:-0.568093 2:0.849877 3:0.688976 4:0.141424 5:-0.209454 6:-0.0324749 7:0.212742 8:0.574753 9:0.453494 10:-1.81436e-06 11:2.25414e-06 12:0.0361806 13:-0.465877 14:-0.437901 15:-0.236148 16:-0.0760095 17:0.0831949 18:0.0283598 19:0.42814 20:-0.271005 21:-0.183023 22:-0.441441 23:0.6 24:0.6 
7719.710773101798 1:-0.946167 2:0.816263 3:-0.607211 4:-0.177822 5:-0.508784 6:-0.821222 7:-0.417045 8:0.338393 9:0.300306 10:-1.81436e-06 11:2.25414e-06 12:0.051368 13:0.0753781 14:0.263612 15:0.906753 16:0.0856438 17:0.267789 18:0.440292 19:0.893046 20:-0.184887 21:-0.406113 22:-0.333333 23:0.615385 24:-0.2 
8192 1:-0.0395868 2:-0.377648 3:-0.695933 4:-0.246869 5:-0.349514 6:-0.00765813 7:-0.351109 8:-0.972484 9:-0.192372 10:-1.81436e-06 11:2.25414e-06 12:0.0151156 13:0.355886 14:-0.103491 15:0.503083 16:0.120607 17:0.169569 18:0.00452945 19:-0.557218 20:0.460669 21:-0.453859 22:0.567568 23:0.430769 24:-0.1 
8192 1:0.32858 2:-0.115554 3:0.370312 4:0.0489074 5:0.113345 6:-0.00765813 7:0.511766 8:0.516741 9:0.883092 10:-0.116533 11:0.0452312 12:0.0195702 13:0.322305 14:-0.101791 15:0.511806 16:-0.0881715 17:-0.0879787 18:0.00688134 19:-0.460919 20:0.921808 21:-0.509225 22:0.531532 23:0.492308 24:-0.1 
5854.743086036821 1:0.94085 2:-0.0195981 3:0.467493 4:0.0483277 5:0.471609 6:-0.861446 7:0.4295 8:0.759872 9:-0.813643 10:-1.81436e-06 11:2.25414e-06 12:-0.017387 13:0.336621 14:0.236628 15:0.718932 16:-0.0288692 17:-0.336811 18:0.42459 19:0.573597 20:0.997727 21:-0.224378 22:-0.657658 23:0.615385 24:-0.7 
8192 1:0.0743672 2:0.598212 3:0.0784217 4:0.190099 5:0.047912 6:-0.00765813 7:0.611395 8:0.771039 9:0.582128 10:-1.81436e-06 11:2.25414e-06 12:-0.00116803 13:0.360354 14:-0.103491 15:0.502872 16:-0.100657 17:-0.0755209 18:-0.00406787 19:-0.253393 20:-0.553126 21:-0.446491 22:0.513514 23:0.446154 
8192 1:0.389686 2:-0.872417 3:-0.370728 4:-0.115519 5:0.268455 6:0.958585 7:-0.272272 8:-0.108719 9:-0.77078 10:-1.81436e-06 11:2.25414e-06 12:0.013908 13:-0.596884 14:-0.348363 15:-0.400132 16:0.0540959 17:-0.211528 18:-0.490917 19:0.270375 20:0.67252 21:-0.0961847 22:0.72973 23:0.138462 24:-0.2 
8192 1:0.30207 2:0.775993 3:0.996392 4:-0.0855468 5:0.00105106 6:-0.00765813 7:-0.337699 8:0.771103 9:-0.512502 10:-1.81436e-06 11:2.25414e-06 12:0.0104425 13:0.413687 14:-0.103491 15:0.491068 16:0.0389195 17:-0.0466221 18:0.00206217 19:0.0948003 20:-0.651342 21:-0.358548 22:0.171171 23:0.6 24:-0.3 
596.8735961061474 1:0.285228 2:-0.456904 3:0.765283 4:-0.740174 5:0.67252 6:-0.42006 7:-0.112573 8:0.64117 9:-0.909627 10:-1.81436e-06 11:2.25414e-06 12:-0.984463 13:0.557155 14:-0.319636 15:0.325259 16:0.370396 17:-0.460712 18:-0.312032 19:-0.277605 20:0.723543 21:-0.0442941 22:0.783784 23:0.461538 24:-0.8 
8192 1:0.189163 2:-0.223799 3:0.62081 4:0.239273 5:-0.599751 6:-0.0862989 7:-0.0662148 8:0.677634 9:-0.898655 10:0.593503 11:0.195906 12:-0.103796 13:0.469753 14:-0.111983 15:0.480676 16:0.174983 17:0.444708 18:-0.0179812 19:-0.611496 20:0.773697 21:-0.265951 22:-0.333333 23:0.661538 24:-0.4 
8192 1:-0.387336 2:-0.450408 3:0.371228 4:0.0141991 5:0.0331581 6:-0.0876532 7:-0.138738 8:0.279658 9:0.872208 10:-1.81436e-06 11:2.25414e-06 12:-0.0913751 13:0.375426 14:-0.103491 15:0.500014 16:-0.0115879 17:-0.0664223 18:-0.0107296 19:-0.168227 20:0.231377 21:-0.421638 22:0.477477 23:0.553846 24:-0.6 
8192 1:-0.401028 2:-0.66577 3:0.646087 4:0.000111458 5:-9.06013e-05 6:-0.00765813 7:-0.67962 8:0.179504 9:-0.836551 10:-1.81436e-06 11:2.25414e-06 12:1.09032e-05 13:0.45233 14:-0.103491 15:0.51747 16:-0.00445446 17:-0.0459181 18:-0.00344543 19:0.0528691 20:0.288057 21:-0.294826 22:-0.261261 23:0.538462 24:-0.4 
1466.904703667436 1:0.540342 2:0.0371622 3:0.928872 4:-0.975109 5:0.221828 6:-0.42006 7:-0.442088 8:0.561579 9:-0.701303 10:-1.81436e-06 11:2.25414e-06 12:0.0342285 13:0.699986 14:-0.209587 15:0.369892 16:0.489358 17:-0.182773 18:0.22581 19:-0.113772 20:-0.982072 21:0.129169 22:0.783784 23:0.461538 24:-0.9 
3991.636183580279 1:0.522937 2:0.880041 3:0.61965 4:-0.160575 5:0.407048 6:0.0310045 7:-0.909154 8:0.657931 9:-0.458495 10:-1.81436e-06 11:2.25414e-06 12:-6.66134e-16 13:0.230341 14:0.784461 15:0.921731 16:0.0769106 17:-0.296997 18:-0.0232502 19:0.415704 20:-0.711552 21:0.591325 22:0.783784 23:0.461538 24:-0.2 
4549.129120709422 1:0.640202 2:-0.0868413 3:0.373059 4:0.152366 5:0.361691 6:-0.00765813 7:0.805931 8:0.544613 9:0.862994 10:-1.81436e-06 11:2.25414e-06 12:-0.0128631 13:0.321676 14:-0.103491 15:0.488974 16:-0.08155 17:-0.269026 18:-0.0102426 19:0.0618086 20:0.970604 21:-0.51027 22:0.531532 23:0.538462 24:0.8 
3120.342459490259 1:-0.137042 2:-0.759361 3:-0.331272 4:-0.505951 5:0.862676 6:0.424075 7:-0.147794 8:-0.150304 9:0.0650984 10:0.734582 11:0.151293 12:-0.213916 13:-0.325247 14:0.0278124 15:0.39579 16:0.623773 17:-0.484674 18:-0.337482 19:-0.0365056 20:0.428314 21:-0.590748 22:-0.711712 23:0.692308 24:0.5 
8192 1:-0.837755 2:-0.580692 3:0.0277409 4:-0.199684 5:-0.0174377 6:0.0540359 7:-0.247227 8:-0.486681 9:-0.312804 10:-0.277107 11:0.416192 12:0.0598406 13:0.356081 14:-0.0975182 15:-0.340845 16:-0.0436067 17:0.221457 18:-0.00345022 19:0.571357 20:0.154933 21:-0.453445 22:0.585586 23:0.476923 24:0.5 
4543.100723572829 1:-0.950958 2:-0.310841 3:-0.00335021 4:0.00923036 5:-2.88699e-05 6:-0.565979 7:-0.383042 8:-0.125668 9:0.603626 10:-0.218307 11:0.651923 12:0.7 13:0.332363 14:-0.0162225 15:0.606117 16:-0.119617 17:0.356104 18:0.652044 19:0.628935 20:0.0778193 21:-0.471982 22:-0.855856 23:0.969231 24:1 
4941.071265384778 1:-0.572053 2:0.209247 3:0.055545 4:-0.585672 5:-0.103344 6:-0.134458 7:0.22516 8:0.377024 9:0.463597 10:-0.0581295 11:-0.496609 12:0.475 13:0.521811 14:-0.11001 15:0.407286 16:0.262728 17:-0.288518 18:0.312269 19:-0.0327324 20:-0.0871464 21:-0.180176 22:-0.927928 23:0.753846 24:-0.3 
6465.275257300375 1:0.262811 2:-0.721536 3:0.595612 4:0.0276207 5:-0.0889969 6:-0.060765 7:0.0975625 8:0.0133929 9:-0.0634171 10:0.428745 11:-0.0870804 12:-0.822284 13:0.357035 14:-0.108715 15:-0.659397 16:0.198724 17:-0.0447969 18:-0.410399 19:-0.00683756 20:0.645998 21:-0.451894 22:0.585586 23:0.507692 24:-0.7 
8192 1:-0.411727 2:-0.578357 3:0.121212 4:0.179309 5:0.0718836 6:0.0494646 7:0.0942367 8:-0.301533 9:-0.538083 10:-0.00747721 11:-0.0620492 12:-0.789771 13:0.334622 14:-0.104237 15:-0.659445 16:-0.0989782 17:-0.128573 18:-0.449681 19:-0.0216297 20:0.261612 21:-0.488921 22:0.783784 23:0.476923 24:-0.5 
8192 1:-0.0754452 2:0.355066 3:-0.836706 4:-0.0888655 5:-0.0500914 6:0.0808773 7:-0.522738 8:0.00317746 9:0.696162 10:-1.81436e-06 11:2.25414e-06 12:0.316942 13:0.33602 14:-0.103491 15:-0.468169 16:0.0405999 17:-0.0150829 18:0.118547 19:-0.56568 20:-0.416746 21:-0.486618 22:0.783784 23:0.476923 24:-0.6 
4495.951062839998 1:-0.878531 2:-0.381872 3:0.32784 4:-0.143085 5:-0.238306 6:-0.186927 7:-0.506444 8:0.31593 9:-0.331073 10:0.505581 11:-0.862778 12:-0.173878 13:0.394554 14:-0.115437 15:-0.659158 16:0.324071 17:-0.431117 18:-0.0034512 19:0.534698 20:0.101932 21:-0.389759 22:0.225225 23:0.538462 24:-0.3 
